~o
<STREAMINFO> 1 39
<VECSIZE> 39<NULLD><MFCC_D_A_0><DIAGC>
~s "silst"
<MEAN> 39
 -1.294350e+01 -3.645597e+00 4.956397e-01 -2.679985e+00 3.026951e+00 -2.726419e+00 2.837299e+00 -1.707227e+00 3.168988e+00 -5.952294e-01 2.807458e+00 -1.575022e-01 5.553732e+01 -2.220525e-01 -2.636192e-01 2.712972e-01 -2.053597e-01 -1.527676e-02 2.843922e-01 1.359190e-01 -3.311605e-01 6.699366e-02 1.493819e-01 -4.712552e-02 5.506653e-02 3.324276e-01 -1.247947e-01 -1.610313e-01 1.211929e-01 -4.663083e-02 -3.216395e-02 1.428238e-01 2.979293e-02 -1.297306e-01 8.117709e-02 2.802580e-02 -3.284618e-02 -4.169015e-02 2.060256e-01
<VARIANCE> 39
 2.690088e+00 4.819111e+00 6.441110e+00 8.338216e+00 8.050689e+00 1.447458e+01 1.256173e+01 1.247936e+01 1.456318e+01 1.461480e+01 1.196634e+01 1.120966e+01 1.465346e+00 5.180642e-01 5.745347e-01 1.093755e+00 9.587389e-01 9.550841e-01 1.449242e+00 1.394194e+00 1.675017e+00 1.665383e+00 1.617871e+00 1.491991e+00 1.301881e+00 2.866673e-01 1.377089e-01 1.409846e-01 1.991009e-01 2.141096e-01 2.034286e-01 2.990251e-01 2.904494e-01 3.439109e-01 3.176360e-01 3.382239e-01 3.149490e-01 2.876849e-01 9.075908e-02
<GCONST> 7.985982e+01
~h "@"
<BEGINHMM>
<NUMSTATES> 5
<STATE> 2
<MEAN> 39
 -3.624355e+00 -1.036916e+01 9.313088e+00 -2.770757e+00 -1.138394e+01 -1.387387e+01 -7.775633e+00 -6.591907e+00 7.507712e+00 -1.159472e+01 5.098569e+00 -4.037050e+00 7.325584e+01 3.539089e-01 1.641507e-01 1.344473e-01 2.229774e-01 -4.850687e-01 8.290529e-02 2.808368e-02 1.446819e-01 -3.104099e-02 -4.341916e-01 8.815538e-02 1.542295e-02 -2.034904e-01 -3.543936e-01 3.201976e-01 -1.397263e-01 1.724693e-01 5.617275e-01 2.774026e-01 3.183499e-01 1.525844e-01 -1.532619e-01 3.518861e-01 -2.533467e-01 7.512844e-02 -4.314478e-01
<VARIANCE> 39
 3.356456e+00 2.161604e+01 9.458661e+00 1.405325e+01 2.846280e+01 1.483361e+01 2.965665e+01 3.531035e+01 2.771457e+01 2.195677e+01 2.056395e+01 1.296597e+01 1.682665e+01 1.399057e+00 2.510280e+00 9.890222e-01 1.366909e+00 4.744643e+00 1.989317e+00 2.603198e+00 2.236586e+00 2.010205e+00 2.243207e+00 2.361483e+00 1.148940e+00 2.768697e+00 2.784649e-01 2.137494e-01 2.004441e-01 1.849742e-01 2.308073e-01 2.332381e-01 3.397627e-01 2.793883e-01 2.769912e-01 3.449279e-01 2.429978e-01 2.498288e-01 1.413528e-01
<GCONST> 9.925830e+01
<STATE> 3
<MEAN> 39
 -5.408232e+00 -1.757872e+00 8.984626e+00 2.878493e+00 -2.452083e+00 -9.239912e+00 -6.101223e-01 -4.756980e+00 2.087485e+00 -7.287875e+00 6.858501e-01 -4.006872e+00 6.356269e+01 -7.893897e-01 8.022488e-01 -4.374827e-01 9.065761e-01 2.234488e+00 1.342339e+00 7.670959e-01 4.944308e-01 3.922955e-02 1.361954e+00 -4.664560e-01 5.775719e-01 -1.853884e+00 -2.129658e-01 -3.979755e-01 -2.698173e-01 -3.983043e-01 -1.884075e-01 1.172398e-03 -4.458621e-03 6.905829e-02 2.287094e-01 1.121749e-01 3.354735e-01 2.263470e-01 1.364937e-01
<VARIANCE> 39
 3.675080e+00 1.206706e+01 8.504016e+00 1.531681e+01 3.279818e+01 2.319360e+01 2.435909e+01 4.840045e+01 1.994299e+01 1.800855e+01 3.380183e+01 1.087729e+01 1.215834e+01 5.519079e-01 1.933240e+00 1.049257e+00 1.503071e+00 3.016705e+00 1.639773e+00 2.363219e+00 2.074391e+00 2.332341e+00 2.066184e+00 1.988330e+00 1.465608e+00 1.434191e+00 6.696320e-02 2.997604e-01 1.756277e-01 2.897719e-01 5.776742e-01 3.936722e-01 3.634537e-01 3.006540e-01 4.054420e-01 2.849427e-01 4.265170e-01 2.152159e-01 1.692014e-01
<GCONST> 9.814146e+01
<STATE> 4
<MEAN> 39
 -1.115962e+01 -2.658175e+00 2.733574e+00 -7.293496e-01 1.488250e+00 -5.011899e+00 2.171271e+00 -1.574200e+00 3.975346e+00 -1.203124e+00 2.952362e+00 3.840227e-01 5.712482e+01 -4.664536e-01 -2.592591e-01 -3.794457e-01 -4.067785e-01 6.407421e-02 2.444365e-01 1.740661e-02 -1.287255e-01 1.087215e-01 3.532980e-01 2.527283e-01 1.756860e-01 -2.039539e-01 3.980938e-02 -2.903898e-02 1.259000e-01 -1.300213e-02 -8.547060e-02 -4.921898e-02 -6.327803e-02 -7.031935e-02 -2.640829e-02 -1.444897e-01 -7.322939e-02 -1.169914e-01 1.920019e-01
<VARIANCE> 39
 6.989223e+00 4.895588e+00 1.237562e+01 1.261550e+01 1.337956e+01 1.585365e+01 1.421429e+01 2.550410e+01 1.430138e+01 1.459405e+01 1.702831e+01 1.331264e+01 7.898489e+00 4.914131e-01 6.077290e-01 1.123750e+00 1.119202e+00 1.184365e+00 1.302881e+00 1.583531e+00 1.636457e+00 1.844068e+00 1.645515e+00 1.707019e+00 1.426189e+00 4.546587e-01 1.062823e-01 1.324616e-01 1.981148e-01 2.431022e-01 3.384353e-01 3.000903e-01 3.503700e-01 3.717809e-01 3.640507e-01 3.030417e-01 3.237568e-01 2.681941e-01 1.034071e-01
<GCONST> 8.742150e+01
<TRANSP> 5
 0.000000e+00 1.000000e+00 0.000000e+00 0.000000e+00 0.000000e+00
 0.000000e+00 7.987353e-01 2.012647e-01 0.000000e+00 0.000000e+00
 0.000000e+00 0.000000e+00 6.543468e-01 3.456532e-01 0.000000e+00
 0.000000e+00 0.000000e+00 0.000000e+00 8.507547e-01 1.492452e-01
 0.000000e+00 0.000000e+00 0.000000e+00 0.000000e+00 0.000000e+00
<ENDHMM>
~h "I"
<BEGINHMM>
<NUMSTATES> 5
<STATE> 2
<MEAN> 39
 -1.552576e+01 -2.436813e+00 1.536322e+01 -1.620890e+00 -6.004807e-02 -4.922484e+00 1.779846e+00 -7.900157e+00 3.883511e+00 -6.745084e+00 2.172378e+00 3.791222e-01 6.697114e+01 3.158125e+00 1.114027e+00 5.104858e+00 7.029141e-01 -2.623187e+00 -2.667762e-01 -3.126720e+00 -1.832455e+00 -7.696909e-01 -4.174154e+00 4.312758e-01 2.999725e-01 8.303586e-01 -2.109951e-01 1.542067e-01 -2.375794e-01 1.990653e-03 -6.397942e-01 8.304332e-02 -2.541347e-01 1.900178e-01 2.467780e-01 -7.061576e-01 4.189382e-01 1.757178e-01 1.937115e-01
<VARIANCE> 39
 2.839396e+01 2.831384e+01 5.241896e+01 2.775935e+01 3.489094e+01 2.517767e+01 3.941438e+01 2.488404e+01 1.884439e+01 4.196224e+01 1.664622e+01 1.344546e+01 1.150861e+01 1.342642e+00 1.596886e+00 2.737424e+00 2.215611e+00 3.916911e+00 1.901560e+00 2.369890e+00 2.174097e+00 1.970752e+00 4.012014e+00 2.255191e+00 1.891708e+00 8.774167e-01 5.153044e-01 3.433658e-01 9.744394e-01 4.061542e-01 6.751083e-01 4.884626e-01 8.173951e-01 4.988612e-01 3.459613e-01 1.033303e+00 3.298616e-01 2.672465e-01 2.258149e-01
<GCONST> 1.138327e+02
<STATE> 3
<MEAN> 39
 -9.464037e+00 2.810624e-01 2.521911e+01 -4.393356e-01 -1.135660e+01 -5.209391e+00 -5.581990e+00 -1.183343e+01 4.029723e+00 -2.023940e+01 6.011201e+00 2.135422e+00 6.970303e+01 5.775891e-01 9.603909e-02 2.082533e-01 -3.584176e-02 -1.110727e+00 -2.759081e-01 -4.642049e-01 -4.854487e-01 -1.396423e-01 -6.665635e-01 3.151859e-01 1.865065e-01 1.323200e-01 -2.363347e-01 -2.717315e-01 -7.837486e-01 -7.391295e-02 4.546111e-01 -1.241440e-01 3.651101e-01 1.891232e-01 -8.435618e-03 8.772793e-01 -1.998416e-01 -3.587728e-02 -1.402814e-01
<VARIANCE> 39
 4.332308e+00 6.720169e+00 1.193931e+01 8.304474e+00 1.338238e+01 1.158488e+01 1.319757e+01 1.668081e+01 1.596381e+01 1.671234e+01 1.703085e+01 1.645664e+01 3.745940e+00 4.487414e-01 7.919605e-01 2.632591e+00 9.681808e-01 2.958391e+00 1.822049e+00 1.406294e+00 1.447213e+00 1.370511e+00 4.221759e+00 1.458995e+00 9.183273e-01 7.266052e-01 2.116105e-01 9.550916e-02 3.686448e-01 2.032287e-01 4.728425e-01 2.352023e-01 3.810464e-01 3.158432e-01 3.336859e-01 5.237326e-01 2.842618e-01 2.006303e-01 1.165919e-01
<GCONST> 8.908668e+01
<STATE> 4
<MEAN> 39
 -4.802688e+00 -5.443576e+00 1.328635e+01 -3.271967e+00 -1.365657e+01 -1.115005e+01 -8.417131e+00 -1.138289e+01 1.076723e+01 -1.245018e+01 3.770931e+00 1.041777e+00 7.274722e+01 5.313799e-01 -9.285626e-01 -1.744112e+00 -6.946180e-01 8.004611e-01 4.463081e-01 -3.913693e-01 7.682686e-01 1.224905e+00 1.478325e+00 -7.403445e-01 -9.611972e-01 2.208178e-02 -3.912239e-02 1.156415e-01 -3.805034e-02 8.714152e-02 3.354280e-01 3.901210e-01 9.891421e-02 8.028462e-02 -1.422572e-01 4.554405e-02 -1.704822e-01 -1.649151e-01 -2.496734e-01
<VARIANCE> 39
 8.283515e+00 2.510550e+01 6.700060e+01 1.669916e+01 2.318670e+01 2.634920e+01 1.494207e+01 2.190466e+01 6.637370e+01 3.690264e+01 2.151646e+01 2.578858e+01 1.048576e+01 4.526235e-01 1.379366e+00 1.835670e+00 1.228261e+00 2.325873e+00 3.412423e+00 1.277395e+00 1.529463e+00 3.919106e+00 1.734119e+00 1.453830e+00 1.670968e+00 1.068196e+00 5.444671e-02 2.361075e-01 3.703625e-01 2.855959e-01 3.006033e-01 3.724965e-01 2.191449e-01 3.596598e-01 5.980987e-01 3.852913e-01 2.353517e-01 2.886341e-01 6.499402e-02
<GCONST> 1.004450e+02
<TRANSP> 5
 0.000000e+00 1.000000e+00 0.000000e+00 0.000000e+00 0.000000e+00
 0.000000e+00 6.329995e-01 3.670005e-01 0.000000e+00 0.000000e+00
 0.000000e+00 0.000000e+00 8.139749e-01 1.860252e-01 0.000000e+00
 0.000000e+00 0.000000e+00 0.000000e+00 7.522293e-01 2.477707e-01
 0.000000e+00 0.000000e+00 0.000000e+00 0.000000e+00 0.000000e+00
<ENDHMM>
~h "U"
<BEGINHMM>
<NUMSTATES> 5
<STATE> 2
<MEAN> 39
 -5.743803e+00 -1.854289e+00 -1.024794e+00 -1.427516e+01 -3.851651e+00 2.443851e+00 6.229907e+00 -5.559046e+00 4.554699e+00 -1.845852e+00 -3.370077e+00 3.033152e+00 6.389193e+01 2.050247e+00 1.818130e+00 1.652799e+00 -5.245283e-01 -2.833011e+00 -1.031297e+00 -5.143592e-01 -1.295105e+00 -6.832600e-01 -1.707270e+00 -6.331756e-01 -5.846431e-01 1.032328e+00 2.616592e-01 -1.441780e-01 3.992507e-01 -2.118943e-03 -5.866488e-01 1.355291e-01 -1.696240e-01 -4.925237e-01 -2.660576e-01 -8.832604e-02 4.292673e-02 -3.169203e-01 1.084442e-01
<VARIANCE> 39
 2.089078e+01 3.112242e+01 2.929431e+01 1.591174e+01 3.461117e+01 2.561821e+01 1.906568e+01 2.781739e+01 2.799983e+01 2.508746e+01 2.186476e+01 2.242814e+01 1.047204e+01 2.013642e+00 1.792008e+00 3.453663e+00 2.216947e+00 4.998953e+00 1.743915e+00 1.867258e+00 3.596092e+00 2.845423e+00 1.827181e+00 2.924063e+00 1.986335e+00 1.038558e+00 3.821855e-01 6.423258e-01 5.570697e-01 5.672281e-01 7.889099e-01 5.695024e-01 4.059135e-01 5.535157e-01 5.082683e-01 4.439262e-01 7.062762e-01 3.375584e-01 2.184601e-01
<GCONST> 1.139990e+02
<STATE> 3
<MEAN> 39
 3.354546e+00 9.069084e-01 7.756642e+00 -1.793872e+01 -1.987815e+01 3.165019e+00 3.689530e+00 -1.520459e+01 3.278306e-01 -9.382174e+00 -7.186092e+00 -2.763242e+00 6.930847e+01 -2.725032e-01 -4.195959e-01 -1.410361e-01 2.518216e-01 3.502632e-01 -4.143875e-02 -3.475271e-01 -1.767764e-01 -9.101824e-02 -4.629766e-01 9.800974e-02 -3.466385e-01 4.521724e-01 -8.269297e-01 -2.205045e-01 -4.977760e-01 5.683861e-01 1.256066e+00 -2.876898e-01 -2.247305e-03 6.346655e-01 1.865326e-01 3.530160e-01 3.943228e-01 2.135452e-01 -1.927510e-01
<VARIANCE> 39
 2.759030e+00 4.240136e+00 7.549243e+00 6.638442e+00 1.349454e+01 1.367428e+01 1.131193e+01 1.278412e+01 1.402537e+01 1.452355e+01 1.120631e+01 1.023736e+01 2.397149e+00 2.819231e+00 5.790519e-01 2.033550e+00 2.510521e+00 1.027013e+01 2.976750e+00 1.007330e+00 4.107380e+00 1.165921e+00 1.606961e+00 2.221478e+00 1.366078e+00 4.511687e-01 1.571793e-01 1.800134e-01 1.850581e-01 2.171652e-01 3.013762e-01 4.902817e-01 2.200050e-01 2.950437e-01 2.342865e-01 2.941343e-01 3.049733e-01 2.015696e-01 7.487364e-02
<GCONST> 8.759668e+01
<STATE> 4
<MEAN> 39
 -1.052002e+01 -3.956072e+00 1.954022e+00 -6.334220e+00 -8.295323e-01 -3.144261e+00 1.134555e+00 -7.655860e+00 1.224710e+00 -6.471579e+00 -2.734077e-01 -1.715378e+00 6.957552e+01 -4.555295e+00 -1.736711e+00 -9.081526e-01 3.107325e+00 4.011866e+00 -1.331885e+00 -6.822015e-01 1.434528e+00 6.562861e-01 1.985501e+00 1.898645e+00 2.153749e-01 -6.077881e-01 3.084895e-01 8.106483e-02 3.323004e-01 -5.457782e-01 -1.142068e+00 2.740000e-01 -3.998968e-02 -4.724664e-01 1.687089e-01 5.758352e-02 -3.143488e-01 -1.100019e-01 -1.997473e-01
<VARIANCE> 39
 3.900244e+01 1.339204e+01 4.886778e+00 2.678259e+01 3.989754e+01 9.587401e+00 9.174810e+00 1.185362e+01 1.069597e+01 1.723552e+01 1.709258e+01 9.494752e+00 3.825806e+00 1.000099e+00 8.373657e-01 8.588951e-01 1.766932e+00 4.525763e+00 1.421260e+00 1.164332e+00 1.732727e+00 1.391784e+00 1.412235e+00 1.509970e+00 1.124378e+00 3.871251e-01 7.162533e-01 2.811941e-01 1.135750e-01 4.955616e-01 6.611699e-01 2.360152e-01 2.271789e-01 2.585019e-01 2.592626e-01 4.139460e-01 3.791377e-01 2.337657e-01 7.030749e-02
<GCONST> 9.167026e+01
<TRANSP> 5
 0.000000e+00 1.000000e+00 0.000000e+00 0.000000e+00 0.000000e+00
 0.000000e+00 7.994145e-01 2.005855e-01 0.000000e+00 0.000000e+00
 0.000000e+00 0.000000e+00 8.662797e-01 1.337204e-01 0.000000e+00
 0.000000e+00 0.000000e+00 0.000000e+00 7.172975e-01 2.827025e-01
 0.000000e+00 0.000000e+00 0.000000e+00 0.000000e+00 0.000000e+00
<ENDHMM>
~h "a"
<BEGINHMM>
<NUMSTATES> 5
<STATE> 2
<MEAN> 39
 -9.875566e+00 -7.287126e+00 -3.466764e+00 -5.063685e+00 4.130697e+00 1.503587e+00 3.213638e+00 -2.164680e+00 2.417754e+00 3.732892e-01 1.168374e+00 -6.745117e+00 6.067134e+01 1.628438e+00 -2.075907e+00 -1.664211e+00 -1.614527e+00 1.878606e-01 1.716717e+00 -3.336934e-01 -4.961616e-02 -6.807365e-01 -5.045565e-02 -1.133896e-01 -2.984833e+00 3.095992e+00 3.105940e-01 -3.045204e-01 -5.370373e-02 -3.057706e-01 -2.471578e-01 2.178452e-01 -2.244075e-01 5.911755e-02 -3.476831e-02 -1.148142e-01 1.234386e-01 -4.247838e-01 6.547806e-01
<VARIANCE> 39
 1.333289e+01 2.711376e+01 2.370354e+01 1.864381e+01 1.270463e+01 2.443354e+01 1.187980e+01 1.810168e+01 2.130720e+01 1.669080e+01 1.961574e+01 4.809846e+01 3.780357e+01 1.640310e+00 2.191232e+00 1.792142e+00 1.935583e+00 2.199503e+00 1.978033e+00 1.689855e+00 2.157754e+00 2.115057e+00 2.404535e+00 2.409068e+00 4.275688e+00 3.479864e+00 3.069074e-01 4.958089e-01 5.395458e-01 3.967526e-01 3.826392e-01 4.305455e-01 3.378563e-01 3.742553e-01 3.788794e-01 3.897427e-01 3.931815e-01 9.857859e-01 5.420350e-01
<GCONST> 1.108475e+02
<STATE> 3
<MEAN> 39
 -1.884512e+00 -1.635263e+01 -7.998464e+00 -1.287759e+01 3.502638e-02 8.689479e+00 -1.056504e+00 -2.350322e+00 1.383564e+00 -1.836683e+00 2.792543e+00 -1.893560e+01 7.737116e+01 4.527045e-01 -6.342742e-01 -1.751171e-01 -2.843710e-01 -6.205125e-01 4.358772e-01 -6.238179e-01 -7.515553e-02 -3.240622e-02 6.353848e-02 -1.604722e-01 -3.471976e-01 1.342870e+00 -3.373603e-01 3.384873e-01 2.124681e-01 4.541012e-01 1.930785e-01 -2.671888e-01 1.400195e-01 -4.732290e-02 4.142065e-02 2.290815e-01 -2.142424e-01 6.287540e-01 -5.705255e-01
<VARIANCE> 39
 3.321260e+00 9.435170e+00 7.039263e+00 1.203459e+01 1.543696e+01 1.870635e+01 1.267622e+01 1.757511e+01 3.511531e+01 1.816155e+01 2.070992e+01 1.545089e+01 1.169569e+01 9.161741e-01 1.390275e+00 7.744865e-01 1.908556e+00 1.087736e+00 1.119944e+00 9.089836e-01 8.965063e-01 9.156658e-01 1.355735e+00 1.554880e+00 2.440266e+00 2.044828e+00 1.150927e-01 2.448951e-01 1.638401e-01 1.851227e-01 2.145313e-01 1.886874e-01 1.710855e-01 1.784886e-01 2.103035e-01 2.242660e-01 2.010886e-01 3.030347e-01 2.224254e-01
<GCONST> 8.709354e+01
<STATE> 4
<MEAN> 39
 -2.466166e+00 -1.676136e+01 -7.219337e+00 -8.839606e+00 1.927658e-01 8.851058e+00 -2.272185e+00 -3.245512e+00 5.995142e-01 2.167828e+00 -2.409705e+00 -1.394818e+01 7.911189e+01 -7.414870e-01 1.011552e+00 1.227202e+00 1.616587e+00 1.184648e+00 -1.022618e-01 6.002685e-01 -6.556411e-01 9.858868e-01 7.056334e-01 -9.499835e-01 2.064112e+00 -1.312394e+00 -5.767225e-01 2.129701e-01 3.930136e-01 4.950775e-02 6.105523e-01 7.125366e-02 9.391482e-02 7.384822e-02 6.481443e-01 -2.042601e-01 2.507067e-01 2.996112e-01 -5.792672e-01
<VARIANCE> 39
 3.044737e+00 1.454861e+01 8.750093e+00 1.285983e+01 1.457616e+01 2.248229e+01 1.596657e+01 1.922126e+01 2.810760e+01 1.649614e+01 3.684321e+01 1.791293e+01 8.084490e+00 1.093429e+00 1.576205e+00 1.133071e+00 1.060048e+00 1.882803e+00 1.098111e+00 1.049427e+00 1.148576e+00 2.451960e+00 1.231800e+00 1.358295e+00 1.668432e+00 1.575132e+00 2.596105e-01 2.918021e-01 1.508124e-01 2.378342e-01 2.895881e-01 1.838247e-01 2.926150e-01 3.008193e-01 2.570177e-01 2.112217e-01 3.466257e-01 3.147959e-01 1.356787e-01
<GCONST> 9.205211e+01
<TRANSP> 5
 0.000000e+00 1.000000e+00 0.000000e+00 0.000000e+00 0.000000e+00
 0.000000e+00 7.726776e-01 2.273224e-01 0.000000e+00 0.000000e+00
 0.000000e+00 0.000000e+00 8.565167e-01 1.434834e-01 0.000000e+00
 0.000000e+00 0.000000e+00 0.000000e+00 7.278135e-01 2.721864e-01
 0.000000e+00 0.000000e+00 0.000000e+00 0.000000e+00 0.000000e+00
<ENDHMM>
~h "b"
<BEGINHMM>
<NUMSTATES> 5
<STATE> 2
<MEAN> 39
 -7.051530e+00 -3.244688e+00 2.556257e+01 -1.274397e+00 -1.227927e+01 -4.556916e+00 -6.953156e+00 -1.104709e+01 1.763335e+00 -1.660580e+01 5.692521e+00 4.609216e-01 6.960810e+01 1.068599e+00 -3.910638e-01 -1.993513e+00 1.633730e+00 6.872048e-01 -3.021033e-01 2.720843e-01 3.421669e-01 -8.545771e-01 1.616394e+00 -1.093455e+00 -1.049608e-01 -1.624833e+00 -1.827267e-01 6.942683e-01 -1.418068e+00 1.680898e-01 1.352853e+00 -9.446841e-02 6.267932e-01 5.061224e-01 8.469319e-02 7.087415e-01 -3.062231e-01 -2.899818e-01 -6.959064e-01
<VARIANCE> 39
 6.342242e+00 2.047353e+01 2.370359e+01 1.013710e+01 1.931553e+01 1.617818e+01 1.631078e+01 2.033776e+01 2.787720e+01 2.219716e+01 1.460877e+01 1.480283e+01 5.637113e+00 3.235050e-01 2.169135e+00 2.254845e+00 9.150161e-01 4.225578e+00 1.151251e+00 1.133580e+00 1.997791e+00 1.587046e+00 1.582167e+00 1.682183e+00 1.181956e+00 1.138124e+00 5.593926e-02 1.244232e-01 1.659707e-01 2.168585e-01 4.236427e-01 2.666356e-01 2.169956e-01 2.944121e-01 2.717653e-01 2.348639e-01 2.858320e-01 2.265096e-01 3.425469e-02
<GCONST> 8.952843e+01
<STATE> 3
<MEAN> 39
 -4.732174e+00 -3.164048e+00 1.790870e+01 3.429702e+00 -9.276362e+00 -6.767969e+00 -5.736683e+00 -8.525290e+00 5.206912e-01 -1.239680e+01 3.703547e+00 9.087026e-01 6.508134e+01 9.710431e-02 1.852451e+00 -4.565991e+00 8.309618e-01 4.482623e+00 -4.646046e-02 1.657113e+00 1.263258e+00 -6.722111e-01 3.127024e+00 -1.749949e+00 -1.059517e+00 -2.998940e+00 -5.384931e-01 3.867767e-01 -1.844924e-01 -6.315342e-01 8.102964e-01 -1.108600e-01 4.817642e-01 -1.102030e-02 1.659781e-01 2.626891e-01 1.736624e-01 -1.916223e-01 1.507248e-01
<VARIANCE> 39
 2.664078e+00 1.789589e+01 3.756583e+01 1.050193e+01 3.478619e+01 1.406993e+01 1.608895e+01 2.049080e+01 2.510695e+01 3.188073e+01 1.089999e+01 1.652112e+01 1.139565e+01 5.158774e-01 1.319742e+00 1.676278e+00 1.257124e+00 1.964510e+00 1.618805e+00 1.673888e+00 2.042653e+00 1.675485e+00 1.265698e+00 1.914532e+00 1.523585e+00 3.671721e-01 5.731283e-02 2.975774e-01 5.553018e-01 2.033648e-01 8.701362e-01 2.711803e-01 2.790301e-01 4.688413e-01 3.187678e-01 3.248844e-01 2.499009e-01 2.536449e-01 2.343846e-01
<GCONST> 9.518290e+01
<STATE> 4
<MEAN> 39
 -7.267966e+00 1.417672e+00 8.880726e+00 1.040236e+00 3.482780e+00 -7.700428e+00 1.016547e-01 -7.072039e+00 -5.391845e-02 -3.828471e+00 1.083066e+00 -2.559207e+00 6.067899e+01 -3.816531e-03 -2.834985e-01 -8.274435e-01 -8.872302e-02 8.258407e-01 -1.296007e+00 4.791069e-01 -7.198551e-01 6.353147e-02 1.183930e+00 6.700311e-01 -3.823017e-01 4.360208e-01 2.694325e-01 -6.835214e-01 8.672270e-01 7.490461e-02 -1.296458e+00 -1.338276e-01 -6.814787e-01 -4.779901e-01 3.250244e-01 -7.104711e-01 5.528147e-01 6.570943e-02 8.477235e-01
<VARIANCE> 39
 6.913708e+00 1.080730e+01 9.591121e+00 1.180470e+01 1.905853e+01 2.425973e+01 1.844176e+01 2.263835e+01 2.624640e+01 1.551915e+01 1.584884e+01 1.381412e+01 5.510595e+00 1.270751e+00 2.498801e+00 3.750975e+00 1.896970e+00 8.646227e+00 2.388244e+00 4.041286e+00 3.358918e+00 1.879977e+00 3.038009e+00 2.604432e+00 1.669633e+00 2.860554e+00 1.817785e-01 2.689940e-01 4.567607e-01 4.624529e-01 5.790779e-01 5.821880e-01 4.629508e-01 5.955414e-01 3.595303e-01 2.964861e-01 5.039922e-01 3.548888e-01 3.476269e-01
<GCONST> 1.070478e+02
<TRANSP> 5
 0.000000e+00 1.000000e+00 0.000000e+00 0.000000e+00 0.000000e+00
 0.000000e+00 3.762411e-01 6.237590e-01 0.000000e+00 0.000000e+00
 0.000000e+00 0.000000e+00 3.857075e-01 6.142926e-01 0.000000e+00
 0.000000e+00 0.000000e+00 0.000000e+00 7.715607e-01 2.284393e-01
 0.000000e+00 0.000000e+00 0.000000e+00 0.000000e+00 0.000000e+00
<ENDHMM>
~h "d"
<BEGINHMM>
<NUMSTATES> 5
<STATE> 2
<MEAN> 39
 -1.231647e+01 -3.999850e+00 4.434611e-01 -2.062889e+00 2.276693e+00 -5.102984e+00 2.256328e+00 -3.918379e+00 5.495805e+00 -1.423671e+00 2.400991e+00 -2.009708e+00 6.426372e+01 7.678966e-01 -9.843431e-01 -1.016459e-01 -8.069299e-01 -6.120027e-01 -9.474255e-01 -1.056443e+00 -1.581342e+00 1.634679e+00 1.404015e-01 6.803886e-01 -1.422454e+00 3.699007e+00 5.352207e-01 -8.314247e-02 2.128797e-01 -2.682695e-01 -1.625353e-01 2.235682e-01 -3.741021e-01 -3.708347e-01 3.343046e-01 2.006422e-01 2.048469e-01 -5.078053e-01 1.002286e-01
<VARIANCE> 39
 1.301263e+01 2.557548e+01 2.027062e+01 1.562752e+01 1.864927e+01 2.213065e+01 2.004605e+01 1.766117e+01 2.643279e+01 1.586430e+01 1.519092e+01 1.576282e+01 7.097995e+01 3.612749e+00 1.700146e+00 2.375030e+00 1.689936e+00 2.243195e+00 2.536010e+00 3.160120e+00 3.346743e+00 3.157393e+00 1.668643e+00 2.094547e+00 3.460330e+00 4.308178e+00 5.084690e-01 3.166324e-01 4.897537e-01 2.650321e-01 4.214434e-01 7.141148e-01 5.385941e-01 5.367880e-01 5.275592e-01 3.202080e-01 4.262704e-01 5.231466e-01 1.446428e+00
<GCONST> 1.140999e+02
<STATE> 3
<MEAN> 39
 -4.254960e+00 -1.092535e+01 4.161002e-01 -8.364185e+00 -5.314300e-01 -2.534307e+00 -2.644390e+00 -1.007691e+01 1.092886e+01 3.454571e+00 4.172460e+00 -1.195223e+01 7.508207e+01 8.953629e-01 -1.042275e+00 -2.625529e-01 -6.989859e-01 -3.348192e-01 9.612622e-01 6.892221e-02 2.681969e-01 -4.917770e-01 3.751397e-01 -7.924149e-02 -1.102125e+00 4.117630e-01 -3.647945e-01 2.512261e-02 -2.199264e-01 1.870972e-01 1.577490e-01 1.024982e-01 3.381899e-01 4.399297e-01 -4.320967e-01 -1.256884e-01 -2.202226e-01 3.246583e-01 -3.386073e-01
<VARIANCE> 39
 1.482141e+01 1.727900e+01 1.242490e+01 1.708368e+01 3.532605e+01 2.216095e+01 2.468246e+01 2.943392e+01 4.032168e+01 2.538103e+01 2.856776e+01 2.471873e+01 1.926083e+01 3.024599e+00 1.393268e+00 1.339280e+00 2.002329e+00 3.891609e+00 1.994670e+00 3.306222e+00 3.677603e+00 3.998894e+00 3.617994e+00 3.786429e+00 4.008458e+00 2.138319e+00 6.986638e-01 2.930996e-01 2.321857e-01 4.395116e-01 8.171051e-01 4.675436e-01 6.201420e-01 7.527768e-01 8.877162e-01 5.789180e-01 8.732454e-01 8.807320e-01 8.148565e-01
<GCONST> 1.186795e+02
<STATE> 4
<MEAN> 39
 -3.856598e+00 -1.297798e+01 5.718678e+00 -8.835991e+00 -1.018213e+01 -5.486224e+00 -1.612567e+00 5.050189e-01 4.462999e+00 -4.408111e+00 6.556937e+00 -1.219157e+01 7.619141e+01 -2.736658e-01 6.494603e-01 7.070102e-01 4.207527e-01 -2.960948e-01 -4.807191e-01 1.638643e-01 2.013298e-01 -3.718691e-01 -2.239078e-01 -6.924481e-02 5.551987e-01 -6.304876e-01 -3.142067e-02 1.315343e-01 -4.875135e-02 1.058287e-01 1.573382e-01 -3.167226e-02 7.274424e-02 -2.964767e-03 3.792082e-02 1.206249e-01 -9.203653e-02 1.384724e-01 -1.586733e-01
<VARIANCE> 39
 6.008916e+00 2.929711e+01 7.317709e+01 1.159115e+01 3.766183e+01 6.031269e+01 1.614288e+01 3.752961e+01 3.934961e+01 2.448226e+01 4.412361e+01 3.901321e+01 1.716711e+01 2.608824e-01 1.002290e+00 2.239161e+00 6.764518e-01 2.160743e+00 2.948997e+00 1.443158e+00 3.050432e+00 2.293504e+00 1.336406e+00 3.962798e+00 1.927124e+00 7.372264e-01 4.990075e-02 1.570847e-01 2.492950e-01 1.140827e-01 2.230406e-01 3.936045e-01 2.075948e-01 4.559255e-01 3.426741e-01 1.619499e-01 5.809352e-01 3.079314e-01 6.421237e-02
<GCONST> 9.958918e+01
<TRANSP> 5
 0.000000e+00 1.000000e+00 0.000000e+00 0.000000e+00 0.000000e+00
 0.000000e+00 7.849908e-01 2.150092e-01 0.000000e+00 0.000000e+00
 0.000000e+00 0.000000e+00 8.442835e-01 1.557166e-01 0.000000e+00
 0.000000e+00 0.000000e+00 0.000000e+00 9.040304e-01 9.596958e-02
 0.000000e+00 0.000000e+00 0.000000e+00 0.000000e+00 0.000000e+00
<ENDHMM>
~h "e"
<BEGINHMM>
<NUMSTATES> 5
<STATE> 2
<MEAN> 39
 -7.452713e+00 -5.774455e+00 6.560003e+00 -2.313051e+00 -5.631475e+00 -1.168788e+01 -3.840380e+00 -5.295215e+00 1.040060e+01 -3.874186e+00 4.203990e+00 -4.309867e+00 7.257833e+01 3.138232e+00 -2.392735e+00 1.117714e+00 -1.554295e+00 -3.999182e+00 -2.486363e+00 -2.784459e+00 5.254362e-01 1.984762e+00 -6.695421e-01 9.702461e-01 -1.422094e+00 3.222140e+00 -7.184675e-01 1.225621e-02 -1.958469e-01 -2.660827e-01 -3.168299e-02 4.450220e-01 5.017269e-01 5.738901e-01 -1.513689e-01 -8.204229e-02 1.963720e-01 8.470531e-02 -8.354855e-02
<VARIANCE> 39
 2.856647e+01 3.152361e+01 1.484418e+01 1.586778e+01 3.449960e+01 2.913713e+01 3.921289e+01 2.156099e+01 3.057003e+01 1.511293e+01 1.757451e+01 3.121744e+01 2.983758e+01 4.662274e+00 1.713634e+00 1.404727e+00 1.831257e+00 2.860149e+00 1.967122e+00 2.514017e+00 3.279159e+00 2.376708e+00 1.870567e+00 1.903275e+00 4.447436e+00 1.981815e+00 5.809966e-01 3.165412e-01 2.247054e-01 3.594134e-01 6.151259e-01 5.124108e-01 7.036490e-01 3.604116e-01 6.166657e-01 2.964449e-01 3.110371e-01 5.649843e-01 7.026187e-01
<GCONST> 1.140783e+02
<STATE> 3
<MEAN> 39
 -3.646213e+00 -1.339080e+01 1.015134e+01 -7.624860e+00 -1.717773e+01 -1.320430e+01 -5.328393e+00 2.067721e+00 1.208689e+01 -6.225160e+00 7.618591e+00 -4.535435e+00 7.992239e+01 5.442602e-03 -2.118918e-01 2.841134e-01 -1.622418e-01 -1.061242e+00 -8.349657e-02 3.890028e-01 7.325366e-01 -7.408537e-01 -5.449933e-01 8.885664e-01 -4.151773e-02 2.735498e-01 -2.812161e-01 4.992980e-01 -3.052507e-02 4.271798e-01 6.120212e-01 9.229643e-02 2.568235e-01 -3.533849e-01 -6.569318e-01 7.384054e-02 -6.722382e-02 8.822990e-02 -5.632103e-01
<VARIANCE> 39
 2.085617e+00 9.998128e+00 1.665097e+01 8.365791e+00 1.838422e+01 1.445779e+01 1.455935e+01 2.054602e+01 2.870137e+01 1.792550e+01 1.687328e+01 2.773606e+01 4.970723e+00 2.907947e-01 1.398323e+00 8.951863e-01 1.298082e+00 1.562860e+00 9.535846e-01 1.395938e+00 2.051092e+00 3.565103e+00 1.127373e+00 1.326977e+00 9.644907e-01 1.045875e+00 1.692884e-01 1.427184e-01 1.919033e-01 1.986713e-01 3.289120e-01 3.034779e-01 5.027744e-01 3.004505e-01 5.278902e-01 2.613525e-01 2.765661e-01 3.047639e-01 1.593404e-01
<GCONST> 8.983862e+01
<STATE> 4
<MEAN> 39
 -4.681408e+00 -1.032975e+01 1.108179e+01 -3.726994e+00 -1.693597e+01 -1.513284e+01 -2.788758e+00 8.674972e-01 1.531699e+00 -7.757706e+00 1.309505e+01 -7.672810e+00 7.685433e+01 -8.991387e-01 1.629712e+00 5.052654e-01 1.532212e+00 1.764034e+00 -5.201529e-01 1.116945e+00 -5.797034e-01 -3.120876e+00 1.142928e+00 -6.657712e-01 6.283910e-01 -2.555641e+00 -3.122874e-01 3.875884e-01 -4.917679e-01 -2.082555e-01 8.742288e-01 3.626376e-01 5.551255e-02 -1.491506e-01 9.918138e-01 6.187833e-01 -8.745862e-01 5.256706e-01 -8.458045e-01
<VARIANCE> 39
 3.509556e+00 9.121505e+00 1.196230e+01 1.566121e+01 2.779856e+01 2.443680e+01 2.407227e+01 1.381029e+01 8.748766e+01 1.897261e+01 3.130414e+01 2.747359e+01 1.269628e+01 5.206380e-01 1.588220e+00 1.806125e+00 1.699599e+00 3.629645e+00 1.391126e+00 3.122876e+00 3.276728e+00 6.680141e+00 3.237690e+00 3.442945e+00 2.870226e+00 2.196360e+00 7.631959e-02 1.972411e-01 6.811920e-01 3.561012e-01 3.415155e-01 2.934333e-01 3.995603e-01 3.504915e-01 2.159631e+00 4.008274e-01 3.343277e-01 6.092737e-01 1.994404e-01
<GCONST> 1.072179e+02
<TRANSP> 5
 0.000000e+00 1.000000e+00 0.000000e+00 0.000000e+00 0.000000e+00
 0.000000e+00 6.096228e-01 3.903772e-01 0.000000e+00 0.000000e+00
 0.000000e+00 0.000000e+00 8.218277e-01 1.781722e-01 0.000000e+00
 0.000000e+00 0.000000e+00 0.000000e+00 6.300438e-01 3.699561e-01
 0.000000e+00 0.000000e+00 0.000000e+00 0.000000e+00 0.000000e+00
<ENDHMM>
~h "f"
<BEGINHMM>
<NUMSTATES> 5
<STATE> 2
<MEAN> 39
 -1.976973e+01 -7.301956e+00 1.925367e+00 -3.120813e+00 3.158610e+00 -4.547920e+00 2.187609e+00 -2.122150e+00 5.765347e+00 -2.251591e+00 2.431221e+00 -1.018947e+00 6.374010e+01 -6.504070e-02 -3.546006e-01 2.440930e-01 -7.446565e-03 -1.324047e-01 -3.468291e-01 -2.063755e-01 1.073686e-01 3.136142e-01 9.933022e-02 -1.152485e-01 -1.347749e-01 4.725148e-01 4.855445e-01 6.824109e-02 2.017677e-01 -1.977387e-02 -1.970232e-01 -1.904893e-02 -1.754632e-01 -1.875147e-01 -1.743005e-02 -9.417535e-02 -2.023796e-02 -4.481305e-02 7.370983e-02
<VARIANCE> 39
 7.929350e+00 8.999296e+00 6.371112e+00 7.939334e+00 9.625518e+00 1.251511e+01 1.461944e+01 1.563483e+01 1.407887e+01 1.386471e+01 1.258350e+01 1.130684e+01 1.300955e+01 2.075555e+00 8.221213e-01 9.234495e-01 9.742086e-01 1.196610e+00 1.287304e+00 1.591999e+00 1.671761e+00 1.468540e+00 1.537962e+00 1.432820e+00 1.242501e+00 6.482877e-01 3.626615e-01 1.608247e-01 1.969027e-01 2.356984e-01 3.160017e-01 2.734646e-01 4.221038e-01 4.646882e-01 2.912211e-01 3.959259e-01 3.280546e-01 2.554006e-01 1.402859e-01
<GCONST> 8.909359e+01
<STATE> 3
<MEAN> 39
 -6.597931e+00 -8.556715e+00 7.509526e+00 -1.594647e+00 -4.314736e+00 -8.378757e+00 -8.639528e+00 -1.168023e+01 9.147266e+00 -4.108315e+00 2.753359e+00 -1.799141e+00 6.879931e+01 1.500338e+00 4.571294e-02 8.218296e-01 3.415640e-01 -1.187588e+00 -7.441391e-01 -1.007735e+00 -1.580617e+00 2.249969e-01 -3.591488e-01 -3.387065e-01 4.461949e-02 6.152175e-01 -3.093979e-01 1.522122e-01 -9.282712e-02 4.753061e-03 1.963630e-01 3.911643e-02 5.078706e-01 1.403000e-01 -2.268102e-01 4.651238e-02 -1.573335e-01 -1.406086e-02 -1.797765e-01
<VARIANCE> 39
 7.364616e+01 9.993252e+00 1.602830e+01 9.189137e+00 4.062762e+01 1.448571e+01 6.987164e+01 7.780266e+01 1.849790e+01 1.766682e+01 1.214392e+01 1.278862e+01 2.601601e+01 5.801664e+00 1.169929e+00 1.589963e+00 1.360125e+00 3.010282e+00 1.162186e+00 7.380688e+00 5.990713e+00 1.519357e+00 2.219776e+00 2.034302e+00 1.427207e+00 2.115879e+00 7.100413e-01 2.733555e-01 2.978157e-01 2.645758e-01 7.117738e-01 2.291157e-01 9.532996e-01 1.052613e+00 3.837265e-01 5.500693e-01 3.184719e-01 3.073521e-01 4.237217e-01
<GCONST> 1.123729e+02
<STATE> 4
<MEAN> 39
 -1.274789e+01 -6.970073e+00 6.237970e+00 -1.208083e+00 -3.459583e-01 -7.751232e+00 -5.076151e-01 -6.008428e+00 6.283917e+00 -2.207459e+00 1.179622e-01 -1.022305e+00 6.536105e+01 9.777275e-01 4.343041e-01 1.047500e+00 1.156043e-01 -1.938664e-01 -1.227550e-01 4.033141e-01 -7.447834e-01 -7.371974e-01 -2.580793e-01 -3.405692e-01 -6.562864e-01 6.661513e-02 2.285485e-01 1.939959e-01 2.085633e-01 -7.918472e-02 -2.371126e-01 1.419305e-01 -3.251306e-01 -3.654108e-01 -1.398063e-01 -2.923442e-01 3.536526e-01 -8.655778e-02 1.224144e-01
<VARIANCE> 39
 6.637611e+01 1.479673e+01 1.825170e+01 2.324052e+01 3.359251e+01 3.242267e+01 4.140350e+01 7.820033e+01 2.066866e+01 1.665527e+01 2.416130e+01 1.884753e+01 2.014197e+01 6.876750e+00 2.782769e+00 2.973726e+00 2.351985e+00 5.086947e+00 2.425118e+00 6.980284e+00 2.725548e+00 2.895837e+00 5.659919e+00 2.048822e+00 1.789057e+00 3.390717e+00 4.152110e-01 4.586183e-01 5.310287e-01 3.965519e-01 5.193721e-01 4.078853e-01 4.423781e-01 5.285237e-01 3.821792e-01 6.325715e-01 4.522322e-01 4.806584e-01 2.282198e-01
<GCONST> 1.196849e+02
<TRANSP> 5
 0.000000e+00 1.000000e+00 0.000000e+00 0.000000e+00 0.000000e+00
 0.000000e+00 8.244354e-01 1.755646e-01 0.000000e+00 0.000000e+00
 0.000000e+00 0.000000e+00 6.482956e-01 3.517044e-01 0.000000e+00
 0.000000e+00 0.000000e+00 0.000000e+00 2.957856e-01 7.042145e-01
 0.000000e+00 0.000000e+00 0.000000e+00 0.000000e+00 0.000000e+00
<ENDHMM>
~h "k"
<BEGINHMM>
<NUMSTATES> 5
<STATE> 2
<MEAN> 39
 -9.516884e+00 -4.563865e+00 5.944417e+00 -1.167907e+00 -7.004885e+00 -1.156126e+01 3.368825e+00 1.219427e+00 1.089216e+00 1.821707e+00 8.902470e+00 -4.436557e-01 6.120964e+01 -9.721347e-01 3.786660e-01 -2.533148e+00 -1.565064e-01 2.238486e+00 1.372126e+00 2.925004e-02 2.389352e-01 2.240735e+00 1.669767e+00 -1.209533e+00 1.576241e+00 -2.159604e+00 1.177100e-02 -4.973093e-01 -2.938881e-01 -2.055790e-01 -8.996981e-02 1.334550e-01 -5.704462e-01 -3.001784e-01 2.304843e-01 -4.894663e-01 1.070573e-01 -4.463837e-01 1.060744e+00
<VARIANCE> 39
 7.816865e+00 7.902475e+00 3.918882e+01 1.544878e+01 2.610817e+01 3.879319e+01 1.759479e+01 3.706908e+01 6.207335e+01 3.112240e+01 2.474911e+01 2.914683e+01 2.199494e+01 8.168527e-01 1.731903e+00 2.831547e+00 1.576159e+00 1.876031e+00 2.719197e+00 2.587348e+00 2.824308e+00 7.664432e+00 3.545233e+00 2.709771e+00 4.341079e+00 5.436423e+00 2.182757e-01 2.152259e-01 8.410308e-01 4.667242e-01 4.053902e-01 4.891832e-01 3.517636e-01 5.026302e-01 2.499613e+00 6.241083e-01 5.768781e-01 8.566633e-01 6.948742e-01
<GCONST> 1.177991e+02
<STATE> 3
<MEAN> 39
 -1.291229e+01 -7.707131e+00 -3.361009e+00 -2.367927e+00 6.028765e-01 -6.377332e+00 -4.778125e-01 -1.335440e+00 5.195998e+00 3.172190e+00 5.124648e+00 -6.212935e-02 6.373699e+01 -1.875466e+00 -7.618818e-01 -7.590159e-01 7.675509e-02 1.240744e+00 -1.170800e-01 -4.004449e-01 -6.437197e-01 4.704542e-01 -3.059719e-01 -7.202233e-01 -5.649812e-01 2.421250e+00 -3.859102e-01 3.637951e-01 7.733095e-01 4.707503e-02 -2.758442e-01 -3.399384e-01 4.342616e-01 1.220562e-01 -4.641818e-02 -3.019844e-01 -1.055458e-02 -4.816078e-03 1.027514e-01
<VARIANCE> 39
 1.659554e+01 2.614935e+01 7.384893e+01 2.610427e+01 2.315452e+01 3.750096e+01 2.671702e+01 3.169605e+01 3.369266e+01 1.724372e+01 2.087546e+01 1.833206e+01 3.424623e+01 3.243297e+00 2.492237e+00 7.180861e+00 2.482258e+00 2.853739e+00 4.357321e+00 3.005408e+00 3.707066e+00 4.269106e+00 2.385327e+00 2.289734e+00 2.457268e+00 3.003097e+00 5.431954e-01 5.484349e-01 1.114426e+00 4.306285e-01 5.029491e-01 9.446151e-01 5.692098e-01 6.137908e-01 8.968079e-01 4.054553e-01 4.688126e-01 5.127972e-01 1.142107e+00
<GCONST> 1.236720e+02
<STATE> 4
<MEAN> 39
 -1.754933e+01 -6.884903e+00 1.201707e+00 -2.140600e+00 2.219095e+00 -7.752487e+00 2.662915e+00 -6.548501e-01 5.828602e+00 -3.889917e-02 2.381292e+00 2.734321e-01 6.537886e+01 -7.646803e-01 7.353153e-01 1.172374e-01 6.344700e-02 1.826017e-02 3.911292e-01 4.994179e-01 -1.055072e-01 2.456093e-01 -5.134538e-01 -5.075745e-01 -5.681643e-03 -3.462768e-02 3.667785e-01 1.900245e-01 -2.004516e-02 -5.138861e-02 -2.580683e-01 2.206611e-01 1.184900e-02 2.201686e-02 -1.711356e-01 6.293097e-02 1.532899e-01 2.274079e-02 -3.348407e-01
<VARIANCE> 39
 3.369213e+01 9.811316e+00 3.005336e+01 2.668654e+01 1.509943e+01 2.278408e+01 2.164956e+01 2.587540e+01 3.118414e+01 2.080706e+01 1.839875e+01 1.821975e+01 4.011510e+01 3.739535e+00 1.330046e+00 3.211921e+00 1.586688e+00 1.586638e+00 2.671244e+00 2.642679e+00 2.259583e+00 2.489495e+00 2.611342e+00 2.188356e+00 1.801258e+00 3.308648e+00 3.775814e-01 2.475241e-01 5.579673e-01 3.768257e-01 3.834487e-01 4.639820e-01 4.438494e-01 5.024453e-01 5.642365e-01 5.169844e-01 4.440845e-01 4.146090e-01 5.629808e-01
<GCONST> 1.125645e+02
<TRANSP> 5
 0.000000e+00 1.000000e+00 0.000000e+00 0.000000e+00 0.000000e+00
 0.000000e+00 7.227358e-01 2.772643e-01 0.000000e+00 0.000000e+00
 0.000000e+00 0.000000e+00 7.060086e-01 2.939914e-01 0.000000e+00
 0.000000e+00 0.000000e+00 0.000000e+00 7.390547e-01 2.609453e-01
 0.000000e+00 0.000000e+00 0.000000e+00 0.000000e+00 0.000000e+00
<ENDHMM>
~h "l"
<BEGINHMM>
<NUMSTATES> 5
<STATE> 2
<MEAN> 39
 -6.845514e+00 -4.044716e+00 1.142208e+01 -5.109221e+00 -8.003925e+00 -1.319339e+01 -8.949502e+00 -8.274345e+00 6.111279e+00 -9.716731e+00 2.819945e+00 -2.440412e+00 7.214631e+01 1.095256e-01 -1.591483e-01 -4.211397e-01 1.326883e-01 -3.380541e-01 -2.731994e-01 4.550928e-01 -3.351776e-01 -3.856405e-01 -8.674792e-02 3.592978e-01 -3.058411e-01 1.638615e-01 1.415015e-01 -3.507678e-01 -1.803798e-01 3.612999e-02 -4.932182e-01 -3.904682e-02 3.696684e-01 2.895482e-01 3.392651e-02 1.601198e-01 3.003396e-01 -3.388980e-02 2.429493e-01
<VARIANCE> 39
 1.523831e+01 3.118449e+01 2.232591e+01 2.112228e+01 4.167176e+01 3.371798e+01 4.156061e+01 3.570879e+01 2.279353e+01 3.012513e+01 3.082652e+01 1.827114e+01 1.687374e+01 1.906300e+00 5.679276e+00 2.906248e+00 1.424595e+00 9.060909e+00 2.991302e+00 5.661272e+00 4.987802e+00 1.833511e+00 2.175593e+00 4.563955e+00 1.715980e+00 3.129579e+00 3.022914e-01 9.448094e-01 6.501257e-01 3.228570e-01 1.313766e+00 6.766430e-01 8.221779e-01 7.855955e-01 3.966450e-01 4.195222e-01 8.060266e-01 3.742501e-01 5.582166e-01
<GCONST> 1.223204e+02
<STATE> 3
<MEAN> 39
 -4.561309e+00 -8.213620e+00 8.232556e+00 -2.332977e+00 -1.290827e+01 -1.540127e+01 -2.746660e+00 -7.964517e+00 4.371717e+00 -9.083840e+00 4.198201e+00 -3.634275e+00 7.291576e+01 -1.155246e-01 8.757284e-01 -1.145386e-01 1.714462e-01 7.394845e-01 2.674434e-01 8.517367e-01 4.641543e-01 -7.986800e-01 3.397115e-01 -6.216942e-01 -2.014069e-01 -9.987532e-01 -6.082189e-02 2.558285e-01 1.668537e-03 4.473544e-02 4.176031e-01 2.301279e-01 -8.190686e-02 9.481616e-02 -3.253131e-02 8.364604e-02 -6.791013e-02 1.572057e-02 -3.036135e-01
<VARIANCE> 39
 9.720125e+00 1.297103e+01 8.467860e+00 1.788587e+01 2.641923e+01 2.387196e+01 4.173389e+01 1.705729e+01 3.050011e+01 1.754605e+01 3.704456e+01 1.319527e+01 2.457163e+01 3.923028e-01 1.724219e+00 8.755524e-01 7.697293e-01 1.613472e+00 1.212436e+00 1.145768e+00 1.580546e+00 1.147170e+00 1.242460e+00 9.400907e-01 8.621784e-01 8.141222e-01 9.109909e-02 2.280626e-01 1.771010e-01 1.928382e-01 2.346906e-01 2.331732e-01 2.684573e-01 2.380116e-01 2.186549e-01 2.167111e-01 2.492868e-01 1.716793e-01 6.753613e-02
<GCONST> 8.884058e+01
<STATE> 4
<MEAN> 39
 -1.025970e+01 -2.151516e+00 2.919423e+00 -1.088224e+00 8.539214e-01 -5.368592e+00 5.561996e-01 -3.558614e+00 3.456112e+00 -1.740822e+00 1.668790e+00 -3.270385e-01 5.795889e+01 -3.952165e-01 6.991082e-02 -3.147717e-01 -1.579739e-01 4.834021e-01 5.609001e-01 4.837521e-01 3.437339e-01 -1.725770e-01 3.769446e-01 2.817826e-01 1.108558e-01 -5.500478e-01 6.070527e-02 -1.280546e-01 -1.626065e-02 -3.265797e-02 -1.174496e-01 -3.153859e-02 -9.352191e-02 -8.028470e-02 9.907350e-02 -5.985473e-02 1.335061e-02 -1.516001e-03 1.222906e-01
<VARIANCE> 39
 1.280269e+01 8.388585e+00 1.509356e+01 1.199757e+01 2.264630e+01 2.241403e+01 2.081650e+01 2.006280e+01 1.624306e+01 2.082607e+01 1.972303e+01 1.483931e+01 2.238720e+01 7.374416e-01 9.368950e-01 1.082721e+00 1.296144e+00 2.073803e+00 1.581568e+00 1.818207e+00 1.724692e+00 1.720922e+00 1.821970e+00 1.925522e+00 1.452160e+00 8.184102e-01 1.058485e-01 2.090005e-01 2.067013e-01 2.548701e-01 3.185753e-01 2.966659e-01 3.376574e-01 3.218991e-01 3.320176e-01 3.430133e-01 3.824179e-01 3.355638e-01 9.346961e-02
<GCONST> 9.477011e+01
<TRANSP> 5
 0.000000e+00 1.000000e+00 0.000000e+00 0.000000e+00 0.000000e+00
 0.000000e+00 7.278964e-01 2.721036e-01 0.000000e+00 0.000000e+00
 0.000000e+00 0.000000e+00 7.831218e-01 2.168783e-01 0.000000e+00
 0.000000e+00 0.000000e+00 0.000000e+00 8.500564e-01 1.499437e-01
 0.000000e+00 0.000000e+00 0.000000e+00 0.000000e+00 0.000000e+00
<ENDHMM>
~h "m"
<BEGINHMM>
<NUMSTATES> 5
<STATE> 2
<MEAN> 39
 -1.307501e+01 -1.815033e+00 5.809704e+00 -9.797868e-01 3.530004e+00 -3.272067e+00 4.391741e+00 -4.069239e+00 3.540526e+00 -1.059142e+00 3.863137e+00 2.851282e-01 5.883801e+01 2.108968e+00 7.810459e-01 6.392642e-01 1.719952e+00 1.099072e+00 -8.157731e-01 -7.149445e-01 -2.088473e+00 -7.118351e-01 -5.474690e-01 1.996759e-01 -2.679069e-01 7.729224e-01 2.843330e-01 -4.496438e-01 2.211365e-01 3.568258e-02 -5.537653e-01 -3.385559e-01 -5.870011e-01 -1.018590e+00 1.210213e-01 -3.047608e-01 6.417160e-02 -7.629937e-02 9.312926e-01
<VARIANCE> 39
 1.826880e+01 1.061816e+01 1.301280e+01 1.821986e+01 1.319824e+01 1.555531e+01 2.076064e+01 2.339517e+01 1.601202e+01 1.271352e+01 1.247094e+01 1.449272e+01 8.313169e+00 1.568331e+00 1.259401e+00 2.499072e+00 1.564794e+00 2.909727e+00 2.302772e+00 3.217857e+00 6.190601e+00 2.918161e+00 1.500650e+00 3.301952e+00 1.575929e+00 3.822330e+00 2.804216e-01 3.558022e-01 3.859641e-01 4.869171e-01 5.867036e-01 4.548533e-01 4.671028e-01 5.930977e-01 6.066061e-01 2.772190e-01 5.948985e-01 2.841175e-01 3.135383e-01
<GCONST> 1.066582e+02
<STATE> 3
<MEAN> 39
 -4.145712e+00 -2.896543e+00 7.631042e+00 4.245759e+00 2.545895e+00 -9.363914e+00 -1.456846e+00 -1.733858e+01 9.627057e-01 -4.257158e+00 6.201393e+00 -9.451559e-02 6.621554e+01 1.558041e+00 -1.684810e+00 -6.059546e-01 -1.316565e+00 -1.752066e+00 -1.350411e-01 -1.194767e+00 -1.396077e+00 1.360879e+00 -8.791630e-01 -1.561814e-01 9.375829e-02 2.353171e+00 -3.776559e-01 -5.853277e-01 -4.674500e-01 -1.027385e+00 -5.224150e-01 7.362449e-01 1.542455e-01 1.267918e+00 9.610960e-01 1.263360e-01 -3.856074e-01 -3.072371e-01 8.123814e-02
<VARIANCE> 39
 4.956243e+00 1.862838e+01 8.677215e+00 1.684895e+01 2.362596e+01 2.589362e+01 1.592636e+01 2.656302e+01 5.499213e+01 1.518090e+01 4.971277e+01 1.904389e+01 1.805063e+01 1.510391e+00 2.432729e+00 2.571462e+00 5.554392e+00 2.925979e+00 4.103963e+00 2.530142e+00 7.109698e+00 5.935536e+00 1.377445e+00 3.686879e+00 1.779129e+00 1.912175e+00 1.903659e-01 5.770172e-01 4.088839e-01 4.802948e-01 4.061457e-01 3.600658e-01 3.612950e-01 6.798956e-01 1.039304e+00 2.822293e-01 6.778351e-01 6.256451e-01 3.785839e-01
<GCONST> 1.138725e+02
<STATE> 4
<MEAN> 39
 -5.228875e-01 -1.417270e+01 1.593459e+00 -9.363851e+00 -5.390345e+00 -1.190943e+00 -3.154260e+00 -1.106781e+01 1.560688e+01 -3.660450e+00 2.614631e+00 -8.956076e+00 7.664984e+01 -9.847635e-03 -8.346154e-01 1.526710e-01 -6.561612e-01 -6.578838e-01 3.285118e-01 -4.931023e-01 1.108928e+00 1.316607e+00 1.791108e-01 -4.602657e-01 -8.935548e-01 6.337255e-01 -2.733828e-01 4.611146e-01 3.713535e-01 4.683395e-01 3.917291e-01 -2.957722e-01 7.010863e-02 6.722094e-02 -5.179261e-01 6.503054e-03 1.136731e-01 1.457238e-01 -4.757952e-01
<VARIANCE> 39
 7.797449e+00 1.624517e+01 2.078165e+01 2.331609e+01 1.803807e+01 3.779240e+01 2.038898e+01 1.999597e+01 2.602353e+01 1.777957e+01 2.668625e+01 6.481386e+01 2.046431e+01 6.041871e-01 4.048797e+00 2.239016e+00 2.585305e+00 1.927068e+00 1.715933e+00 2.028729e+00 1.944778e+00 5.326367e+00 1.080822e+00 2.231368e+00 3.765962e+00 3.189963e+00 1.050853e-01 2.722045e-01 1.622624e-01 2.908479e-01 3.835500e-01 2.447307e-01 3.716641e-01 3.818155e-01 6.029700e-01 2.484469e-01 3.957034e-01 4.256266e-01 2.471071e-01
<GCONST> 1.061027e+02
<TRANSP> 5
 0.000000e+00 1.000000e+00 0.000000e+00 0.000000e+00 0.000000e+00
 0.000000e+00 6.484236e-01 3.515764e-01 0.000000e+00 0.000000e+00
 0.000000e+00 0.000000e+00 7.127296e-01 2.872703e-01 0.000000e+00
 0.000000e+00 0.000000e+00 0.000000e+00 8.303561e-01 1.696439e-01
 0.000000e+00 0.000000e+00 0.000000e+00 0.000000e+00 0.000000e+00
<ENDHMM>
~h "n"
<BEGINHMM>
<NUMSTATES> 5
<STATE> 2
<MEAN> 39
 -6.105449e+00 -2.610380e+00 8.434490e+00 3.377854e+00 -1.227505e+00 -9.087457e+00 -8.670635e-01 -1.103568e+01 5.881161e-01 -2.677082e+00 2.475840e+00 -4.571991e+00 6.292378e+01 -1.186954e-01 6.433551e-01 -1.424582e-01 2.487394e-01 6.047174e-01 6.300126e-01 3.622393e-01 -1.856264e-02 -3.970802e-01 6.623889e-01 -4.744997e-01 -9.574731e-02 -8.976754e-01 -1.345564e-01 -2.218795e-02 -1.232859e-01 -3.242867e-01 -2.473926e-02 1.432690e-01 1.138380e-01 4.394277e-01 1.084383e-01 -9.009292e-02 1.375827e-01 1.189186e-01 4.468070e-02
<VARIANCE> 39
 1.393013e+01 1.319586e+01 1.472958e+01 1.374574e+01 1.965363e+01 2.509048e+01 2.597463e+01 4.630343e+01 2.257449e+01 1.601106e+01 1.511473e+01 1.419097e+01 1.099638e+01 6.230919e-01 1.284475e+00 1.192617e+00 1.226939e+00 1.851702e+00 1.579275e+00 2.090597e+00 4.021966e+00 2.115081e+00 2.300702e+00 1.183463e+00 1.347882e+00 1.067338e+00 8.105001e-02 3.276668e-01 2.065649e-01 2.464311e-01 3.336207e-01 2.331205e-01 4.220290e-01 3.478583e-01 3.629559e-01 3.520902e-01 2.513430e-01 2.222548e-01 1.927717e-01
<GCONST> 9.695817e+01
<STATE> 3
<MEAN> 39
 -9.115122e+00 -6.154258e-01 5.995923e+00 1.633391e+00 2.388938e+00 -4.379248e+00 2.155384e+00 -4.761763e+00 1.422833e+00 -1.538233e+00 1.275082e+00 -3.246970e+00 5.873469e+01 -6.751297e-01 -1.327427e-01 -9.005314e-01 -7.113031e-01 4.578666e-01 8.956114e-01 6.790333e-01 1.058570e+00 6.634053e-01 3.284964e-01 2.418024e-01 6.610492e-01 -7.150307e-01 -5.326232e-02 -2.844234e-01 -1.522004e-01 -2.287845e-01 -2.450517e-01 -1.716169e-01 -1.647406e-01 -5.602830e-02 1.779717e-01 -2.887658e-02 1.729166e-01 1.235942e-01 2.057598e-01
<VARIANCE> 39
 1.542738e+01 1.344936e+01 1.334771e+01 1.250438e+01 2.252322e+01 2.798547e+01 1.859924e+01 2.690356e+01 2.523536e+01 1.402547e+01 1.384402e+01 1.610895e+01 8.372146e+00 1.006433e+00 1.641393e+00 1.222678e+00 1.252600e+00 1.642102e+00 1.779943e+00 2.346453e+00 2.411768e+00 2.171268e+00 1.410910e+00 1.491714e+00 1.266608e+00 6.179380e-01 1.824416e-01 3.643119e-01 2.350224e-01 2.532821e-01 4.068096e-01 3.952420e-01 4.371407e-01 4.805475e-01 5.141155e-01 3.800287e-01 3.425719e-01 2.853058e-01 1.225538e-01
<GCONST> 9.822321e+01
<STATE> 4
<MEAN> 39
 -1.225041e+01 -2.551727e+00 1.221263e+00 -1.879578e+00 2.696657e+00 -2.438588e+00 3.232433e+00 -1.536672e+00 3.727393e+00 -3.822169e-01 2.960462e+00 -1.319993e-01 5.572869e+01 -3.384753e-02 1.597640e-02 1.538301e-03 -1.262470e-02 -6.246248e-03 -2.213794e-02 2.594439e-02 -6.933811e-02 -1.753105e-02 2.846803e-03 9.981173e-03 1.819487e-02 2.316405e-02 3.243833e-02 1.186151e-03 1.085510e-01 6.377191e-02 -2.344939e-02 -6.791534e-02 -4.094457e-02 -1.173685e-01 -2.517839e-02 -3.194169e-02 -4.234901e-02 -6.816998e-02 1.319179e-01
<VARIANCE> 39
 4.116799e+00 3.550979e+00 6.021649e+00 6.642596e+00 9.104547e+00 1.184593e+01 1.195535e+01 1.440739e+01 1.347316e+01 1.207097e+01 1.167038e+01 1.185082e+01 3.060730e+00 4.562297e-01 5.744864e-01 9.707329e-01 9.746912e-01 9.941733e-01 1.285265e+00 1.365905e+00 1.694357e+00 1.532278e+00 1.386562e+00 1.379666e+00 1.355392e+00 2.928361e-01 9.520169e-02 1.076385e-01 1.638213e-01 1.698145e-01 2.180285e-01 2.875593e-01 2.895586e-01 3.691947e-01 3.266834e-01 2.900229e-01 2.783100e-01 2.741187e-01 5.994243e-02
<GCONST> 7.794672e+01
<TRANSP> 5
 0.000000e+00 1.000000e+00 0.000000e+00 0.000000e+00 0.000000e+00
 0.000000e+00 6.278284e-01 3.721716e-01 0.000000e+00 0.000000e+00
 0.000000e+00 0.000000e+00 5.086339e-01 4.913661e-01 0.000000e+00
 0.000000e+00 0.000000e+00 0.000000e+00 9.078120e-01 9.218805e-02
 0.000000e+00 0.000000e+00 0.000000e+00 0.000000e+00 0.000000e+00
<ENDHMM>
~h "o"
<BEGINHMM>
<NUMSTATES> 5
<STATE> 2
<MEAN> 39
 -3.938486e-01 -1.276052e+00 3.281652e+00 -1.602190e+01 -1.481917e+01 2.313204e+00 1.302942e+00 -1.281405e+01 3.935380e+00 -6.899752e+00 9.647466e-01 1.287791e+00 6.732527e+01 1.760689e-01 2.560161e-01 -1.725372e-01 -7.135110e-01 -4.475992e-01 2.709246e-01 2.406719e-01 1.970969e-02 7.260256e-02 -3.525620e-01 -2.343059e-01 4.055251e-01 -6.034312e-02 -2.195742e-01 3.437170e-02 4.432751e-03 3.568148e-01 4.245358e-01 -1.103176e-01 9.899512e-03 2.065875e-01 -4.727458e-02 1.188817e-01 2.494846e-02 -4.058121e-02 -1.591797e-01
<VARIANCE> 39
 3.863514e+01 2.918388e+01 1.575631e+01 5.763843e+01 1.012799e+02 2.153392e+01 1.234348e+01 5.504454e+01 2.736491e+01 2.159869e+01 3.150922e+01 2.699592e+01 3.400019e+01 1.322302e+00 1.234627e+00 9.735611e-01 3.026146e+00 5.091674e+00 1.681956e+00 1.094447e+00 2.423617e+00 2.221056e+00 1.610066e+00 1.970788e+00 2.132953e+00 9.931312e-01 1.652510e-01 1.793723e-01 1.987944e-01 3.003625e-01 3.670231e-01 3.175606e-01 1.962421e-01 4.017509e-01 3.996239e-01 3.242607e-01 3.549575e-01 3.558494e-01 1.583423e-01
<GCONST> 1.067944e+02
<STATE> 3
<MEAN> 39
 -6.197964e+00 -9.546805e-01 2.455482e+00 -6.434542e+00 -8.414877e-01 -2.231644e-01 2.070772e+00 -9.037265e+00 2.233167e+00 -5.438607e+00 2.869033e+00 2.089181e+00 6.172426e+01 -9.738532e-01 1.421329e-01 2.117213e-01 1.697201e+00 1.570026e+00 -6.923081e-01 -2.106884e-01 9.592690e-01 -1.439259e-01 9.544495e-01 4.061625e-01 -4.175838e-01 -9.027498e-01 -5.054855e-02 -1.257465e-01 -6.829577e-02 -1.152322e-01 -2.545469e-01 -6.649560e-02 2.026804e-02 1.272750e-01 1.928719e-01 1.748906e-01 8.506008e-04 -1.013930e-01 6.160975e-02
<VARIANCE> 39
 3.199804e+01 1.106224e+01 1.461517e+01 4.594706e+01 3.446888e+01 3.239327e+01 2.458206e+01 5.007162e+01 1.675925e+01 2.834278e+01 1.801797e+01 1.874296e+01 2.191220e+01 1.067356e+00 1.090977e+00 1.526684e+00 3.578367e+00 4.080481e+00 2.419582e+00 2.030711e+00 2.866901e+00 2.303962e+00 2.219707e+00 1.762776e+00 1.600407e+00 1.103697e+00 1.702585e-01 2.701909e-01 3.120260e-01 5.247535e-01 5.515323e-01 4.009972e-01 4.073609e-01 3.869011e-01 4.819082e-01 3.654708e-01 3.462045e-01 3.688538e-01 1.814472e-01
<GCONST> 1.081850e+02
<STATE> 4
<MEAN> 39
 -1.200000e+01 -2.175243e+00 3.818441e-01 -2.948817e+00 1.433160e+00 -3.107883e+00 1.808241e+00 -1.998781e+00 3.333502e+00 -6.359614e-02 3.519494e+00 6.533862e-01 5.608630e+01 -2.882455e-01 -2.476779e-01 -9.280559e-02 7.283475e-02 7.190654e-02 -9.972896e-02 4.519102e-02 1.250758e-01 1.325781e-01 8.667964e-02 -3.708610e-02 -1.199918e-01 5.015611e-03 4.692455e-03 -1.011138e-01 5.147323e-02 -7.867157e-02 -1.822852e-02 7.047287e-02 3.430170e-02 -8.473881e-02 1.268751e-02 -1.215334e-01 -7.090822e-02 -4.377643e-02 2.207419e-01
<VARIANCE> 39
 6.930474e+00 4.625967e+00 6.045844e+00 8.212711e+00 1.001437e+01 1.172379e+01 1.362526e+01 1.452524e+01 1.333198e+01 1.347333e+01 1.269394e+01 1.149719e+01 3.048733e+00 4.528046e-01 5.960919e-01 7.599055e-01 8.496341e-01 1.125409e+00 1.463316e+00 1.751686e+00 1.616550e+00 1.387017e+00 1.639222e+00 1.486126e+00 1.317106e+00 3.370784e-01 1.106766e-01 1.365874e-01 1.789114e-01 2.251629e-01 2.463732e-01 3.124167e-01 3.526985e-01 3.751460e-01 2.815952e-01 3.494304e-01 3.246866e-01 3.329796e-01 1.238313e-01
<GCONST> 8.196748e+01
<TRANSP> 5
 0.000000e+00 1.000000e+00 0.000000e+00 0.000000e+00 0.000000e+00
 0.000000e+00 7.561938e-01 2.438062e-01 0.000000e+00 0.000000e+00
 0.000000e+00 0.000000e+00 5.743305e-01 4.256695e-01 0.000000e+00
 0.000000e+00 0.000000e+00 0.000000e+00 8.294741e-01 1.705259e-01
 0.000000e+00 0.000000e+00 0.000000e+00 0.000000e+00 0.000000e+00
<ENDHMM>
~h "r"
<BEGINHMM>
<NUMSTATES> 5
<STATE> 2
<MEAN> 39
 -3.977484e+00 -5.481510e+00 2.466720e+00 -3.989506e+00 -3.828540e-01 -2.102772e+00 -4.631900e+00 -5.821235e+00 1.007976e+01 -1.874165e+00 -1.181024e+00 -5.153036e+00 6.570013e+01 -5.888556e-01 6.732914e-01 -6.050016e-01 4.316126e-01 1.334435e+00 6.639065e-01 1.001928e+00 5.196146e-01 -5.578017e-01 7.249208e-01 -6.353693e-02 4.994382e-01 -1.377928e+00 -1.464612e-01 -5.739828e-02 3.101526e-02 -5.576289e-02 -1.963039e-01 -1.963567e-01 1.211610e-01 6.445239e-02 -4.556566e-02 -5.495388e-02 2.053748e-01 1.117469e-01 -1.700523e-03
<VARIANCE> 39
 1.526342e+01 2.603137e+01 1.902974e+01 2.066918e+01 3.014337e+01 2.313382e+01 5.599143e+01 2.623843e+01 4.395939e+01 2.399963e+01 2.203313e+01 2.151248e+01 3.451047e+01 9.550437e-01 1.748449e+00 1.672265e+00 1.937480e+00 2.125550e+00 2.049274e+00 2.382078e+00 1.920439e+00 2.846034e+00 1.576790e+00 2.055322e+00 1.707314e+00 1.507833e+00 1.189324e-01 3.415674e-01 2.258074e-01 4.032850e-01 3.674324e-01 3.224507e-01 4.514412e-01 3.658254e-01 3.778990e-01 3.029346e-01 3.407486e-01 3.056917e-01 1.863730e-01
<GCONST> 1.063450e+02
<STATE> 3
<MEAN> 39
 -1.177919e+01 -3.045642e+00 5.946310e-01 -2.562382e+00 2.383710e+00 -2.644398e+00 2.543605e+00 -1.756065e+00 4.334840e+00 3.379861e-01 2.765807e+00 -3.495313e-01 5.644521e+01 -2.755423e-01 -1.288071e-01 -1.668648e-01 -1.866502e-01 -7.889953e-03 1.050245e-01 1.850913e-01 1.994249e-02 -1.281508e-01 1.023568e-02 4.488188e-02 1.282545e-01 -8.860590e-02 6.277891e-02 -1.698301e-02 6.356490e-02 -2.296997e-02 -5.227511e-02 -1.512362e-02 -4.212369e-02 -3.164911e-02 3.448337e-02 -7.631477e-02 -5.776808e-02 -7.869607e-02 1.281374e-01
<VARIANCE> 39
 5.531214e+00 5.639077e+00 5.619786e+00 7.942128e+00 1.048251e+01 1.371867e+01 1.285449e+01 1.438418e+01 1.424851e+01 1.377630e+01 1.271306e+01 1.357047e+01 8.116498e+00 3.566105e-01 4.369372e-01 7.380359e-01 8.690518e-01 1.080426e+00 1.266845e+00 1.425321e+00 1.453039e+00 1.574894e+00 1.465200e+00 1.502644e+00 1.368252e+00 3.225161e-01 7.036585e-02 1.013544e-01 1.269676e-01 1.649714e-01 2.393098e-01 2.561599e-01 2.911351e-01 3.135756e-01 3.112700e-01 3.265215e-01 3.416496e-01 2.855414e-01 6.084522e-02
<GCONST> 7.938451e+01
<STATE> 4
<MEAN> 39
 -1.092951e+01 -6.215248e+00 -1.043451e+00 -6.468385e+00 2.742224e+00 1.460217e+00 4.240480e+00 -2.718695e+00 5.165393e+00 2.099100e+00 1.175505e+00 -5.782535e-01 6.017334e+01 -1.636364e-02 -2.797459e-01 -2.927922e-01 -8.198652e-01 -4.936596e-01 -5.628427e-02 4.857225e-01 3.253344e-01 8.523876e-03 -1.909853e-01 -5.178794e-01 1.071552e-01 5.969409e-01 1.975946e-01 6.515488e-02 9.929812e-02 4.252609e-02 -2.035367e-01 -3.262893e-01 -2.028503e-01 -3.560237e-02 -4.050644e-02 -3.063127e-01 8.170936e-02 -1.257572e-01 3.191398e-01
<VARIANCE> 39
 1.230995e+01 1.611237e+01 1.378468e+01 3.141022e+01 1.980957e+01 3.260986e+01 1.863078e+01 2.475020e+01 1.821491e+01 2.171758e+01 2.067546e+01 2.777246e+01 2.590254e+01 1.127683e+00 1.556439e+00 1.435966e+00 2.360596e+00 1.836314e+00 2.534525e+00 1.810500e+00 2.158277e+00 2.230778e+00 2.029300e+00 3.021204e+00 2.112226e+00 1.683282e+00 2.003081e-01 4.156645e-01 3.301130e-01 3.990658e-01 4.048654e-01 4.662719e-01 3.216862e-01 4.771422e-01 4.326526e-01 4.602931e-01 5.050663e-01 4.989311e-01 3.858344e-01
<GCONST> 1.077997e+02
<TRANSP> 5
 0.000000e+00 1.000000e+00 0.000000e+00 0.000000e+00 0.000000e+00
 0.000000e+00 7.814732e-01 2.185268e-01 0.000000e+00 0.000000e+00
 0.000000e+00 0.000000e+00 8.609895e-01 1.390106e-01 0.000000e+00
 0.000000e+00 0.000000e+00 0.000000e+00 4.811169e-01 5.188830e-01
 0.000000e+00 0.000000e+00 0.000000e+00 0.000000e+00 0.000000e+00
<ENDHMM>
~h "s"
<BEGINHMM>
<NUMSTATES> 5
<STATE> 2
<MEAN> 39
 -1.846420e+01 5.658945e-01 3.358589e-01 -1.620754e+00 9.056597e-01 -7.304899e+00 2.875739e+00 -4.973394e+00 4.057075e+00 -2.128134e+00 2.170914e+00 -1.718443e+00 6.669421e+01 -3.462714e+00 7.398027e-01 -1.208019e+00 -7.354765e-01 7.437952e-01 1.219038e+00 5.186554e-01 1.143000e+00 1.100328e+00 -2.427716e-01 -1.391546e-02 1.081886e+00 5.728749e-01 1.699311e-01 -4.603573e-02 -4.523416e-02 1.360715e-01 -1.929693e-01 -1.451051e-02 8.491859e-02 -1.436807e-01 -1.449959e-01 1.217281e-01 1.778024e-01 -1.149843e-01 -2.094676e-02
<VARIANCE> 39
 8.208832e+01 1.511705e+01 3.630911e+01 1.735537e+01 1.825984e+01 2.234003e+01 1.531518e+01 2.124121e+01 2.899902e+01 1.319100e+01 1.254875e+01 1.509470e+01 1.597744e+01 4.285511e+00 1.854979e+00 3.244155e+00 1.640215e+00 2.445646e+00 2.136098e+00 2.064465e+00 2.007605e+00 2.652235e+00 1.568045e+00 1.805761e+00 1.637479e+00 9.143017e-01 1.198767e+00 3.446013e-01 6.861249e-01 3.771830e-01 4.019731e-01 5.351201e-01 3.742405e-01 4.107935e-01 4.816113e-01 2.954417e-01 3.512373e-01 3.155686e-01 2.537625e-01
<GCONST> 1.090784e+02
<STATE> 3
<MEAN> 39
 -2.806189e+01 2.164085e+00 -2.054654e+00 -2.635517e+00 3.180314e+00 -4.643660e+00 6.104781e+00 -3.098486e+00 7.756330e+00 -2.292277e+00 3.440454e+00 8.843614e-01 6.777685e+01 5.211370e-01 -1.224320e-01 5.018349e-01 -6.193404e-02 1.984971e-01 7.034290e-03 3.304363e-01 -5.966335e-02 1.149382e-01 -5.753034e-02 1.674873e-01 8.560579e-02 -6.176979e-01 4.143590e-01 -1.894443e-01 2.933543e-02 6.698821e-02 -3.582806e-03 -2.847219e-02 -1.073559e-01 1.310816e-04 -3.489928e-02 6.001422e-02 -5.742318e-04 -5.522116e-02 -1.922770e-01
<VARIANCE> 39
 7.027860e+00 7.275970e+00 1.259591e+01 1.075015e+01 1.261462e+01 1.347078e+01 1.521777e+01 1.457883e+01 1.655787e+01 1.505303e+01 1.394941e+01 1.189612e+01 5.484908e+00 1.702003e+00 1.318876e+00 9.734701e-01 1.079063e+00 1.063771e+00 1.460396e+00 1.384827e+00 1.466174e+00 1.519812e+00 1.518944e+00 1.454648e+00 1.178339e+00 5.733595e-01 1.363858e-01 1.448070e-01 2.150327e-01 2.158869e-01 2.197757e-01 3.102105e-01 2.950958e-01 3.195702e-01 3.197913e-01 3.083261e-01 2.982637e-01 2.472627e-01 4.831535e-02
<GCONST> 8.622003e+01
<STATE> 4
<MEAN> 39
 -1.386117e+01 -2.618970e+00 8.859165e-01 -1.612420e+00 3.246339e+00 -2.558147e+00 4.554141e+00 -1.329073e+00 5.160368e+00 -5.299781e-01 3.774459e+00 3.629303e-01 5.650237e+01 5.316453e-01 -1.600380e-01 -6.559747e-02 5.376549e-02 -8.134478e-02 2.194017e-01 -2.629668e-01 1.001754e-01 -3.244816e-01 7.235233e-02 -1.154434e-01 -1.156098e-01 -4.003555e-01 -2.226761e-01 5.941864e-02 -1.919161e-02 -5.899690e-02 5.156773e-03 -2.437005e-02 2.503726e-02 -4.921918e-02 3.003334e-02 -4.245735e-02 -1.472054e-02 -1.809296e-02 2.060616e-01
<VARIANCE> 39
 7.117929e+00 4.349810e+00 6.424349e+00 7.010169e+00 9.651927e+00 1.282865e+01 1.375880e+01 1.413832e+01 1.746139e+01 1.397538e+01 1.332740e+01 1.155440e+01 5.532384e+00 1.625271e+00 5.944960e-01 7.662835e-01 8.888299e-01 1.019789e+00 1.393593e+00 1.468372e+00 1.585884e+00 1.727116e+00 1.599973e+00 1.481427e+00 1.301684e+00 9.712142e-01 1.624922e-01 1.459252e-01 1.702934e-01 1.791914e-01 2.101211e-01 2.813846e-01 2.893766e-01 3.216852e-01 3.532623e-01 3.213182e-01 3.059541e-01 2.692430e-01 8.860188e-02
<GCONST> 8.414431e+01
<TRANSP> 5
 0.000000e+00 1.000000e+00 0.000000e+00 0.000000e+00 0.000000e+00
 0.000000e+00 6.899506e-01 3.100493e-01 0.000000e+00 0.000000e+00
 0.000000e+00 0.000000e+00 9.100066e-01 8.999347e-02 0.000000e+00
 0.000000e+00 0.000000e+00 0.000000e+00 9.247636e-01 7.523634e-02
 0.000000e+00 0.000000e+00 0.000000e+00 0.000000e+00 0.000000e+00
<ENDHMM>
~h "t"
<BEGINHMM>
<NUMSTATES> 5
<STATE> 2
<MEAN> 39
 -1.488126e+01 -4.169851e+00 -7.838770e-01 -4.680593e+00 5.286661e+00 -4.560967e+00 4.612084e+00 -2.438997e+00 6.913122e+00 -4.691451e-01 2.916523e+00 5.051964e-01 6.221971e+01 -6.168089e-01 -2.727933e-01 6.658792e-02 -4.327015e-01 1.787122e-01 -6.533404e-01 -6.626821e-02 5.329857e-03 1.773821e-01 -2.445807e-01 -3.176298e-02 2.114639e-01 5.210586e-01 1.330045e-01 -1.108949e-01 1.408692e-01 1.359074e-01 8.238137e-02 5.644296e-02 -1.115794e-01 -1.657011e-02 5.561358e-02 7.596168e-03 -2.127906e-02 -8.370210e-02 5.840747e-02
<VARIANCE> 39
 2.480464e+01 1.271041e+01 1.834681e+01 2.115688e+01 1.537845e+01 3.685966e+01 1.938526e+01 1.812507e+01 1.603547e+01 1.552203e+01 1.396771e+01 1.358766e+01 3.680879e+01 2.776263e+00 1.498153e+00 2.063239e+00 2.470105e+00 1.837422e+00 4.332410e+00 1.889035e+00 2.477448e+00 1.879700e+00 1.986362e+00 1.649210e+00 1.663450e+00 6.041260e+00 7.576384e-01 3.533442e-01 3.264311e-01 5.422300e-01 3.767451e-01 1.044834e+00 3.443931e-01 5.781233e-01 4.266590e-01 4.112929e-01 3.446589e-01 3.518737e-01 1.751908e+00
<GCONST> 1.118746e+02
<STATE> 3
<MEAN> 39
 -1.372287e+01 -6.107338e+00 9.837064e-01 -3.426056e+00 6.723777e+00 -4.897312e+00 3.267503e+00 -1.067080e+00 7.217958e+00 -1.079265e+00 2.332506e+00 6.713933e-01 6.034081e+01 1.445606e+00 4.482040e-01 -2.258396e-01 8.242065e-01 -5.667821e-01 1.460467e+00 -9.302600e-02 5.174089e-01 -6.492734e-01 3.793521e-01 1.036123e-01 -1.359004e-01 -1.852839e+00 -1.958366e-01 2.756622e-01 -1.700831e-01 -1.642885e-01 -2.934769e-01 -3.207510e-02 1.791201e-01 -1.879137e-01 -1.357228e-01 1.832886e-02 1.308571e-01 4.750255e-02 1.570994e-01
<VARIANCE> 39
 8.954642e+00 7.459341e+00 8.419060e+00 1.071793e+01 1.340102e+01 1.909233e+01 1.881739e+01 1.751120e+01 1.969604e+01 1.560273e+01 1.321676e+01 1.392360e+01 1.061715e+01 1.215955e+00 1.182730e+00 8.916779e-01 1.451385e+00 1.391165e+00 1.630270e+00 1.618845e+00 1.670161e+00 1.854861e+00 1.634453e+00 1.699177e+00 1.561241e+00 6.147560e-01 2.960961e-01 2.031417e-01 2.188719e-01 2.781290e-01 3.025484e-01 4.222177e-01 3.099101e-01 3.338287e-01 3.484496e-01 3.763933e-01 3.591655e-01 3.340376e-01 1.749761e-01
<GCONST> 9.323069e+01
<STATE> 4
<MEAN> 39
 -1.256199e+01 -2.958101e+00 4.044349e-01 -2.213756e+00 3.347615e+00 -1.611880e+00 3.747140e+00 -1.202397e+00 3.893554e+00 -4.781157e-01 2.955788e+00 1.267731e-02 5.546532e+01 -5.378874e-02 6.112808e-02 9.497213e-02 7.439312e-02 -1.099070e-01 -7.246811e-03 -1.874486e-02 -1.088000e-01 -1.325799e-01 -6.935894e-02 -1.890309e-02 -9.107180e-02 -3.162069e-02 -4.160077e-02 -6.637074e-02 3.558470e-02 -2.256665e-02 5.353470e-02 -8.296110e-02 -9.141832e-03 -4.181799e-02 5.652151e-02 -3.485089e-02 -1.754895e-02 -3.055177e-02 1.519289e-01
<VARIANCE> 39
 2.353996e+00 2.977253e+00 4.237888e+00 6.278980e+00 7.569849e+00 9.288090e+00 1.124681e+01 1.078514e+01 1.251153e+01 1.190649e+01 1.177603e+01 1.068379e+01 1.937475e+00 3.459176e-01 4.032114e-01 5.434738e-01 7.507951e-01 9.068858e-01 1.163521e+00 1.287754e+00 1.411451e+00 1.486477e+00 1.301880e+00 1.424144e+00 1.178366e+00 2.265136e-01 7.187621e-02 8.598731e-02 1.149494e-01 1.605133e-01 1.924475e-01 2.591303e-01 2.700275e-01 2.839337e-01 2.984982e-01 2.656290e-01 2.947680e-01 2.563696e-01 6.295966e-02
<GCONST> 7.140639e+01
<TRANSP> 5
 0.000000e+00 1.000000e+00 0.000000e+00 0.000000e+00 0.000000e+00
 0.000000e+00 8.793306e-01 1.206693e-01 0.000000e+00 0.000000e+00
 0.000000e+00 0.000000e+00 7.157419e-01 2.842581e-01 0.000000e+00
 0.000000e+00 0.000000e+00 0.000000e+00 9.145262e-01 8.547381e-02
 0.000000e+00 0.000000e+00 0.000000e+00 0.000000e+00 0.000000e+00
<ENDHMM>
~h "u"
<BEGINHMM>
<NUMSTATES> 5
<STATE> 2
<MEAN> 39
 -4.222147e+00 1.364486e-01 9.849446e+00 4.834548e+00 -1.923726e+00 -9.991789e+00 1.297682e+00 -1.492171e+01 -6.977084e-01 2.910947e-01 1.461284e+00 -4.494527e+00 6.388228e+01 1.067539e+00 -5.896322e-01 -2.502685e-01 -3.066257e-01 -8.843799e-01 -3.636635e-01 -1.060748e+00 -1.855838e+00 1.600395e-01 -1.550330e-01 3.671968e-01 -4.398232e-02 1.340685e+00 -4.981953e-02 -1.203651e-01 -4.274835e-01 -4.953175e-01 -1.841966e-02 4.359368e-01 -1.491212e-01 1.460248e-01 1.881563e-01 -1.207571e-01 3.190103e-01 2.955724e-01 -7.203081e-02
<VARIANCE> 39
 6.654486e+00 1.925215e+01 1.680525e+01 1.453900e+01 1.826787e+01 2.777447e+01 2.960537e+01 3.629087e+01 2.017241e+01 1.247614e+01 1.350257e+01 1.084473e+01 1.401713e+01 6.952960e-01 2.057968e+00 4.135541e+00 3.469011e+00 2.318942e+00 4.425251e+00 3.191266e+00 4.282930e+00 3.050642e+00 1.552607e+00 2.459611e+00 2.159254e+00 1.004451e+00 1.247075e-01 4.545968e-01 3.863563e-01 3.354084e-01 4.714174e-01 4.682212e-01 5.493906e-01 7.963096e-01 5.104932e-01 3.023624e-01 4.118008e-01 2.805721e-01 2.189760e-01
<GCONST> 1.067907e+02
<STATE> 3
<MEAN> 39
 1.929043e+00 -4.417850e+00 2.784117e+00 -6.535243e+00 -8.266834e+00 -3.314761e+00 -9.259518e+00 -2.428679e+01 3.206644e+00 -2.179884e+00 1.157931e+01 -7.461294e-01 7.069940e+01 2.588113e-02 -2.986634e-01 2.717912e-01 -3.109637e-01 -5.533011e-01 -2.317256e-01 -8.138296e-01 2.546815e-02 7.204416e-01 -6.502945e-02 1.966474e-01 -2.429021e-01 1.775742e-01 -2.082581e-01 -3.461586e-02 2.820459e-01 4.216426e-01 1.330407e-01 -3.854846e-01 1.601344e-01 3.676429e-01 5.928389e-02 -6.505150e-02 -5.469087e-01 -1.686998e-01 -1.286672e-01
<VARIANCE> 39
 1.957285e+00 1.071504e+01 7.174224e+00 1.141594e+01 9.366793e+00 1.693638e+01 2.098883e+01 2.017077e+01 3.285546e+01 1.934230e+01 2.062470e+01 2.455508e+01 4.074016e+00 3.996058e-01 1.206839e+00 1.164641e+00 3.178856e+00 9.232588e-01 3.893506e+00 2.050370e+00 2.275630e+00 4.791354e+00 2.855618e+00 5.333463e+00 2.820606e+00 2.178159e-01 4.167545e-02 2.346770e-01 1.230145e-01 2.239808e-01 2.181684e-01 3.505451e-01 4.977110e-01 3.646060e-01 8.941647e-01 6.911448e-01 4.141709e-01 5.047138e-01 1.011103e-01
<GCONST> 9.469505e+01
<STATE> 4
<MEAN> 39
 -1.131353e+00 -9.021809e+00 8.266483e+00 -4.046889e-01 -1.048701e+01 -1.234307e+01 -1.281341e+01 -1.732085e+01 1.183903e+01 -7.429558e+00 1.472535e+00 -2.139700e+00 7.108405e+01 -3.852380e-01 -1.770048e-01 3.249966e-01 5.983542e-01 -5.190789e-03 -4.519046e-01 4.001459e-01 1.254984e+00 -2.960034e-02 -1.336215e+00 -1.015817e+00 5.952904e-01 -2.259647e-01 2.878010e-02 1.598671e-01 -1.803278e-01 -1.375672e-01 1.026193e-01 2.288759e-01 1.614508e-01 -3.915506e-02 -2.737541e-01 2.230541e-01 2.631275e-01 -2.473299e-03 -1.060610e-01
<VARIANCE> 39
 2.785090e+00 1.202673e+01 1.086415e+01 1.349924e+01 9.220881e+00 1.719866e+01 1.564548e+01 2.355255e+01 2.224409e+01 2.427145e+01 1.984864e+01 1.457760e+01 4.551589e+00 1.828536e-01 1.066886e+00 1.064346e+00 1.072109e+00 1.023852e+00 1.304319e+00 1.068638e+00 1.153303e+00 1.448353e+00 1.768762e+00 1.648593e+00 7.005411e-01 2.995308e-01 4.608359e-02 1.802583e-01 1.863343e-01 1.947633e-01 1.910784e-01 2.224250e-01 2.349841e-01 2.194229e-01 3.283194e-01 3.261811e-01 3.221456e-01 1.762435e-01 4.256881e-02
<GCONST> 8.101263e+01
<TRANSP> 5
 0.000000e+00 1.000000e+00 0.000000e+00 0.000000e+00 0.000000e+00
 0.000000e+00 8.883976e-01 1.116024e-01 0.000000e+00 0.000000e+00
 0.000000e+00 0.000000e+00 8.882915e-01 1.117085e-01 0.000000e+00
 0.000000e+00 0.000000e+00 0.000000e+00 8.311996e-01 1.688004e-01
 0.000000e+00 0.000000e+00 0.000000e+00 0.000000e+00 0.000000e+00
<ENDHMM>
~h "v"
<BEGINHMM>
<NUMSTATES> 5
<STATE> 2
<MEAN> 39
 -1.127512e+01 -1.708885e+00 6.693248e-01 -2.935475e+00 1.374289e+00 -3.114999e+00 2.380754e+00 -1.722719e+00 3.287490e+00 -4.025570e-01 3.164853e+00 6.989011e-01 5.580108e+01 -3.202375e-01 -1.936775e-01 -2.105342e-02 1.934436e-01 2.112949e-01 -8.030606e-02 -4.523144e-02 6.625339e-02 6.418139e-02 1.673448e-01 1.028603e-01 -8.072661e-02 -1.434126e-01 1.121273e-01 2.273990e-02 4.791036e-02 -1.126705e-01 -1.057834e-01 4.142239e-02 -1.914061e-02 -1.133099e-01 -3.047678e-02 -1.285521e-01 -8.082057e-02 -2.061278e-03 1.404405e-01
<VARIANCE> 39
 4.301503e+00 5.010117e+00 4.684412e+00 6.699672e+00 9.174959e+00 1.003884e+01 1.175250e+01 1.099888e+01 1.131356e+01 1.199197e+01 1.115546e+01 1.212744e+01 1.475348e+00 6.001672e-01 6.242904e-01 6.759444e-01 9.311275e-01 1.096115e+00 1.338223e+00 1.322391e+00 1.293660e+00 1.335176e+00 1.645069e+00 1.336480e+00 1.347924e+00 2.606028e-01 6.718944e-02 8.835581e-02 1.255496e-01 2.823350e-01 3.135372e-01 2.674304e-01 2.754208e-01 2.862078e-01 2.662251e-01 3.197004e-01 2.615903e-01 2.936235e-01 5.289175e-02
<GCONST> 7.583603e+01
<STATE> 3
<MEAN> 39
 -9.453405e+00 5.568815e-01 4.948913e+00 1.340440e+00 4.569032e+00 -3.241632e+00 1.655829e+00 -3.543111e+00 1.719907e+00 -2.410113e+00 1.334878e+00 -2.173617e+00 5.792015e+01 4.198222e-01 -2.528419e-01 7.490771e-01 3.063457e-01 -2.310016e-02 -5.334939e-01 -7.879456e-01 -6.361370e-01 -3.765997e-02 -5.371921e-01 -3.801446e-01 -3.221225e-01 1.431281e+00 -1.032896e-01 -5.937971e-01 -1.597610e-01 -4.968895e-01 -6.427581e-01 -2.852269e-01 -1.807218e-01 1.201459e-01 3.197586e-01 2.522195e-02 1.204516e-01 2.379028e-01 5.158298e-01
<VARIANCE> 39
 1.860250e+01 1.275785e+01 1.740231e+01 1.606222e+01 1.423676e+01 2.197166e+01 2.316269e+01 1.638947e+01 1.287390e+01 1.310714e+01 1.222515e+01 1.185093e+01 8.232857e+00 2.368345e+00 2.598932e+00 1.852444e+00 2.098188e+00 2.253254e+00 2.909777e+00 2.497328e+00 1.849465e+00 1.624976e+00 1.508897e+00 1.247957e+00 1.585484e+00 1.718669e+00 3.034806e-01 4.445194e-01 2.735283e-01 3.796260e-01 5.536983e-01 7.033430e-01 4.913814e-01 3.921110e-01 3.368488e-01 3.057148e-01 2.874921e-01 3.026698e-01 2.669968e-01
<GCONST> 1.024898e+02
<STATE> 4
<MEAN> 39
 -1.471962e+01 -3.000535e+00 2.044658e+00 -1.696079e+00 3.231762e+00 -2.800308e+00 2.900462e+00 -2.566036e+00 4.633913e+00 -2.084678e+00 2.194509e+00 -1.543298e-01 6.365091e+01 5.832182e-01 -8.627242e-01 4.768715e-01 -6.496009e-01 -1.380595e+00 -6.138892e-01 -7.211993e-01 -1.685050e-01 3.570507e-01 -2.680658e-01 1.309516e-01 2.110069e-01 1.404519e+00 3.078378e-01 -7.774777e-02 1.328443e-01 -2.360607e-01 -6.104257e-01 -1.043131e-01 -2.007157e-01 8.104994e-02 9.332995e-02 1.966608e-02 1.753231e-01 8.690511e-02 9.146226e-02
<VARIANCE> 39
 5.618081e+01 1.852868e+01 2.924317e+01 1.923471e+01 3.267657e+01 2.480899e+01 2.376939e+01 2.023674e+01 2.097083e+01 1.748675e+01 1.248389e+01 1.446501e+01 3.368856e+01 4.098049e+00 3.765836e+00 2.164452e+00 3.472092e+00 6.248915e+00 3.983174e+00 2.936544e+00 2.898462e+00 2.909433e+00 2.017969e+00 1.538573e+00 1.567100e+00 4.977404e+00 3.377778e-01 4.800130e-01 3.779954e-01 6.382877e-01 8.447569e-01 6.251348e-01 4.797129e-01 5.344945e-01 5.409864e-01 3.991201e-01 3.510388e-01 3.357607e-01 4.163052e-01
<GCONST> 1.170254e+02
<TRANSP> 5
 0.000000e+00 1.000000e+00 0.000000e+00 0.000000e+00 0.000000e+00
 0.000000e+00 8.776891e-01 1.223110e-01 0.000000e+00 0.000000e+00
 0.000000e+00 0.000000e+00 5.434358e-01 4.565642e-01 0.000000e+00
 0.000000e+00 0.000000e+00 0.000000e+00 5.046350e-01 4.953649e-01
 0.000000e+00 0.000000e+00 0.000000e+00 0.000000e+00 0.000000e+00
<ENDHMM>
~h "x"
<BEGINHMM>
<NUMSTATES> 5
<STATE> 2
<MEAN> 39
 -9.272505e+00 -1.385632e+01 1.975137e-01 -3.547829e+00 1.005391e+01 1.056484e+01 -8.261390e-01 -4.030820e+00 8.837204e+00 2.385824e+00 -3.528315e+00 -5.903387e+00 7.117484e+01 -3.285451e+00 -6.802225e-02 1.192543e+00 6.449384e-01 3.151450e+00 -7.132861e-02 -4.901392e-01 6.838408e-01 2.968512e+00 -1.710041e-01 7.748803e-01 1.748398e+00 -1.789396e+00 -3.554245e-02 -3.286974e-01 -6.631266e-01 -3.627790e-01 -4.074123e-01 -3.583707e-01 -2.235350e-01 2.872646e-01 -2.545431e-01 4.897735e-02 2.681574e-01 -3.879573e-01 4.746987e-01
<VARIANCE> 39
 2.594526e+01 5.266802e+00 7.997763e+00 1.038512e+01 3.538439e+01 1.466161e+01 1.762279e+01 1.429078e+01 2.654333e+01 1.800841e+01 1.581558e+01 1.376361e+01 4.973990e+00 8.127027e-01 1.004836e+00 1.798361e+00 1.495579e+00 1.882622e+00 1.548140e+00 1.779448e+00 1.579711e+00 1.987085e+00 2.094442e+00 1.804689e+00 1.699401e+00 6.854853e-01 5.683386e-01 1.937053e-01 1.856326e-01 2.580906e-01 6.597236e-01 2.995467e-01 3.026986e-01 3.091090e-01 4.877624e-01 3.919893e-01 3.001710e-01 2.957198e-01 7.796026e-02
<GCONST> 9.514728e+01
<STATE> 3
<MEAN> 39
 -1.633607e+01 -1.371213e+01 -1.291698e+00 -2.779270e+00 1.444748e+01 5.799223e+00 -2.441250e+00 -1.393126e+00 1.412831e+01 3.570512e+00 3.818690e-01 -3.369533e+00 6.827972e+01 -8.715393e-02 8.260553e-01 -3.942777e-02 9.485108e-02 -1.748814e-01 -1.251148e+00 4.319189e-01 -2.864801e-02 -3.760172e-01 9.635099e-03 7.290964e-01 -4.635565e-02 -3.626060e-01 4.321854e-01 3.557955e-01 7.645653e-02 -2.101473e-02 -4.642805e-01 -8.673717e-02 4.041004e-01 -1.683493e-01 -5.306821e-01 -1.321587e-01 -2.229244e-02 -9.493869e-02 -5.520056e-02
<VARIANCE> 39
 2.760838e+00 6.716216e+00 8.047850e+00 1.072239e+01 1.062402e+01 1.695401e+01 1.553730e+01 1.699124e+01 1.829457e+01 1.939090e+01 1.711055e+01 1.848578e+01 3.600408e+00 9.303482e-01 1.109281e+00 9.610727e-01 1.002453e+00 1.662140e+00 1.717489e+00 2.362995e+00 1.827271e+00 2.759397e+00 2.064662e+00 1.549250e+00 1.820844e+00 2.160213e-01 1.935825e-01 1.548522e-01 1.897261e-01 2.062740e-01 3.221362e-01 3.381716e-01 4.048969e-01 3.255432e-01 3.737346e-01 4.301041e-01 3.240778e-01 4.634810e-01 1.390194e-01
<GCONST> 8.979611e+01
<STATE> 4
<MEAN> 39
 -1.402160e+01 -4.725889e+00 5.819184e-01 -1.917319e+00 9.318074e+00 -1.308963e+00 6.077207e+00 -3.112562e+00 7.412344e+00 1.455535e+00 4.128715e+00 -2.513126e+00 6.437193e+01 7.896253e-01 1.844504e+00 -2.695982e-01 1.699748e-01 -1.788690e+00 -3.830522e-01 1.896456e+00 2.850875e-01 -1.342655e+00 -4.179464e-01 6.147265e-02 1.024074e+00 -2.458155e+00 -1.459628e-02 -5.799258e-01 -3.667210e-01 -1.244150e-01 1.659310e-01 6.029384e-01 -6.757447e-01 3.253452e-01 3.662108e-01 1.455215e-01 -3.175834e-01 4.118954e-02 -2.761584e-01
<VARIANCE> 39
 5.710198e+00 1.173680e+01 1.176317e+01 1.157502e+01 1.447348e+01 2.159648e+01 3.133939e+01 1.868203e+01 1.749351e+01 1.456274e+01 1.418991e+01 1.751840e+01 1.848934e+01 5.062146e-01 1.568964e+00 1.421605e+00 1.215575e+00 1.250345e+00 3.010365e+00 3.594864e+00 2.141009e+00 2.052648e+00 2.024540e+00 1.598500e+00 1.633702e+00 9.533994e-01 1.234407e-01 2.243974e-01 1.962460e-01 2.353016e-01 3.028897e-01 5.215681e-01 6.315029e-01 4.286954e-01 3.851890e-01 3.837171e-01 2.908427e-01 4.011134e-01 4.168513e-01
<GCONST> 9.815719e+01
<TRANSP> 5
 0.000000e+00 1.000000e+00 0.000000e+00 0.000000e+00 0.000000e+00
 0.000000e+00 6.730644e-01 3.269356e-01 0.000000e+00 0.000000e+00
 0.000000e+00 0.000000e+00 8.520456e-01 1.479544e-01 0.000000e+00
 0.000000e+00 0.000000e+00 0.000000e+00 6.773185e-01 3.226816e-01
 0.000000e+00 0.000000e+00 0.000000e+00 0.000000e+00 0.000000e+00
<ENDHMM>
~h "y"
<BEGINHMM>
<NUMSTATES> 5
<STATE> 2
<MEAN> 39
 -4.668903e+00 -2.218057e-01 9.795077e+00 3.741722e+00 -2.301840e+00 -1.126801e+01 1.881343e-01 -1.993156e+01 2.503504e+00 1.530371e+00 -2.638655e+00 -4.442678e+00 6.366854e+01 -3.261549e-01 5.981815e-01 -3.177676e-02 3.696247e-02 6.147048e-01 4.811743e-01 8.378471e-01 -1.722089e-02 -9.014705e-01 4.992692e-01 1.467459e-01 -6.010036e-01 -5.258454e-01 1.087811e-01 -4.487261e-01 -1.551577e-01 -1.967480e-01 -1.345989e-01 4.789234e-02 -4.973810e-01 3.623576e-01 2.695394e-01 -3.957196e-01 1.679218e-01 1.966629e-01 3.155175e-01
<VARIANCE> 39
 1.779746e+00 8.934337e+00 6.944683e+00 7.011833e+00 9.829088e+00 1.446257e+01 1.550783e+01 1.887140e+01 1.602851e+01 1.257217e+01 1.439279e+01 1.063537e+01 3.137814e+00 3.627615e-01 1.624771e+00 8.490650e-01 7.409004e-01 1.404446e+00 9.770884e-01 2.270560e+00 1.790080e+00 1.965586e+00 1.446204e+00 1.100606e+00 1.135072e+00 7.009025e-01 7.951712e-02 2.388061e-01 1.683362e-01 1.863138e-01 2.957695e-01 2.249315e-01 3.650743e-01 4.566836e-01 3.545924e-01 2.241062e-01 2.377595e-01 2.117909e-01 8.389481e-02
<GCONST> 8.215703e+01
<STATE> 3
<MEAN> 39
 -6.407692e+00 -3.720456e+00 6.689723e+00 2.206539e+00 8.819088e-01 -9.032158e+00 2.187056e-01 -1.257812e+01 7.424210e-01 -1.546068e+00 -9.448176e-01 -4.142639e+00 6.469038e+01 -1.934291e+00 -2.107001e+00 -9.105650e-01 -1.179143e+00 9.405030e-01 1.059289e+00 6.564060e-02 3.342976e+00 7.007581e-01 -1.395083e+00 6.533390e-01 7.634308e-01 7.083651e-01 -7.086257e-01 -1.078185e-01 9.991140e-02 -2.841222e-01 -1.133647e-01 2.603470e-01 1.225304e-01 7.420949e-02 4.719927e-01 1.450377e-01 3.348177e-02 1.035445e-01 -3.451620e-02
<VARIANCE> 39
 1.077553e+01 3.571771e+01 1.521092e+01 1.093887e+01 1.835500e+01 1.555898e+01 1.900450e+01 4.733450e+01 1.522676e+01 2.427868e+01 1.157066e+01 1.505228e+01 9.102795e+00 2.580614e+00 3.265983e+00 1.342127e+00 1.299268e+00 1.475739e+00 2.369181e+00 2.050504e+00 2.478198e+00 2.615272e+00 2.194268e+00 1.548592e+00 1.441846e+00 8.159685e-01 2.317188e-01 8.893033e-01 2.560226e-01 2.270138e-01 3.372359e-01 3.549162e-01 3.383989e-01 8.488785e-01 3.610472e-01 5.662677e-01 2.793919e-01 2.977562e-01 2.266769e-01
<GCONST> 1.030410e+02
<STATE> 4
<MEAN> 39
 -1.847986e+01 -8.061014e+00 3.472977e+00 -4.077696e+00 3.293553e+00 -3.949841e+00 1.586426e+00 -2.224167e+00 6.145334e+00 -2.554711e+00 2.047603e+00 -6.928624e-01 6.364282e+01 -2.859460e-01 1.655493e-01 -2.033418e-01 -2.280050e-01 4.871821e-02 1.862679e-01 1.856435e-02 3.894412e-01 1.636592e-01 2.088937e-01 1.594596e-01 1.409224e-01 -5.540972e-01 3.682993e-01 1.954815e-01 9.392295e-03 1.852056e-01 -3.980253e-02 -9.596192e-02 -2.159846e-02 -2.288456e-01 -1.804982e-01 5.474516e-02 -5.871087e-02 -7.222972e-02 -1.163302e-01
<VARIANCE> 39
 7.668600e+00 8.631900e+00 8.293644e+00 8.810526e+00 1.033047e+01 1.202415e+01 1.402060e+01 1.446111e+01 1.386064e+01 1.387095e+01 1.357286e+01 1.135509e+01 6.715357e+00 2.442712e+00 9.333829e-01 8.767550e-01 1.148460e+00 1.155734e+00 1.485552e+00 1.572646e+00 1.741396e+00 1.747653e+00 1.513317e+00 1.508758e+00 1.238765e+00 4.773078e-01 1.961140e-01 2.832007e-01 1.757057e-01 2.114908e-01 2.246453e-01 3.341790e-01 3.317330e-01 4.000875e-01 3.440619e-01 3.330286e-01 3.262393e-01 2.441837e-01 1.040626e-01
<GCONST> 8.798248e+01
<TRANSP> 5
 0.000000e+00 1.000000e+00 0.000000e+00 0.000000e+00 0.000000e+00
 0.000000e+00 8.454927e-01 1.545074e-01 0.000000e+00 0.000000e+00
 0.000000e+00 0.000000e+00 7.433755e-01 2.566245e-01 0.000000e+00
 0.000000e+00 0.000000e+00 0.000000e+00 9.053187e-01 9.468130e-02
 0.000000e+00 0.000000e+00 0.000000e+00 0.000000e+00 0.000000e+00
<ENDHMM>
~h "z"
<BEGINHMM>
<NUMSTATES> 5
<STATE> 2
<MEAN> 39
 -1.527387e+01 -2.988804e+00 1.942991e+00 -2.370511e+00 2.944788e+00 -4.410090e+00 4.508287e+00 -2.212823e+00 5.287071e+00 -1.707929e+00 3.099048e+00 7.701353e-01 5.850845e+01 -1.917325e+00 4.770991e-01 -1.405186e-01 -4.511240e-01 2.412806e-01 -2.864411e-01 3.972798e-01 -3.299037e-01 5.527753e-01 -3.250043e-01 6.802540e-02 2.141524e-01 1.140265e+00 -2.391518e-01 2.788672e-01 -1.569559e-01 -9.945447e-03 -5.801795e-02 8.371285e-02 -5.225079e-02 9.514941e-04 -6.934778e-02 2.265932e-02 2.109315e-02 -8.771278e-02 1.781633e-01
<VARIANCE> 39
 2.424343e+01 7.523877e+00 8.643924e+00 1.018645e+01 1.108255e+01 1.477533e+01 1.749783e+01 1.494952e+01 1.786739e+01 1.462598e+01 1.261227e+01 1.293690e+01 1.132254e+01 2.471696e+00 1.454136e+00 1.247681e+00 1.060545e+00 1.319904e+00 1.713554e+00 1.735461e+00 1.549368e+00 1.914709e+00 1.600024e+00 1.466858e+00 1.399604e+00 1.508449e+00 3.267512e-01 2.222520e-01 2.404229e-01 2.608522e-01 2.688560e-01 3.737773e-01 3.629407e-01 3.103532e-01 3.818823e-01 3.269692e-01 2.987398e-01 2.748210e-01 1.337389e-01
<GCONST> 9.426328e+01
<STATE> 3
<MEAN> 39
 -2.893106e+01 3.287484e+00 -1.898937e+00 -2.744070e+00 3.655438e+00 -4.023388e+00 5.952976e+00 -3.549732e+00 6.671445e+00 -2.702073e+00 3.573413e+00 8.757366e-01 6.704826e+01 -6.547429e-01 3.893817e-01 -4.690875e-01 4.174111e-01 -5.219851e-02 2.700470e-01 5.243652e-02 7.117103e-02 -3.849046e-02 5.460652e-02 4.099757e-02 -2.798691e-02 5.520530e-01 4.917525e-01 -3.079849e-01 2.278790e-01 9.466738e-02 -1.267580e-02 -3.780113e-02 6.376410e-02 3.298092e-02 -6.998554e-04 3.908426e-02 2.717297e-03 3.827723e-02 -2.290949e-01
<VARIANCE> 39
 5.635424e+00 6.733029e+00 7.626778e+00 9.271654e+00 1.023491e+01 1.122032e+01 1.212943e+01 1.316676e+01 1.393756e+01 1.346521e+01 1.347166e+01 1.156393e+01 3.091446e+00 1.088880e+00 1.233761e+00 9.868737e-01 9.684538e-01 1.062087e+00 1.332636e+00 1.389211e+00 1.412166e+00 1.401738e+00 1.450312e+00 1.451589e+00 1.212291e+00 3.433250e-01 1.202202e-01 1.265099e-01 1.744257e-01 2.230531e-01 2.175276e-01 2.623478e-01 2.891253e-01 2.946403e-01 3.062164e-01 2.999202e-01 3.021091e-01 2.425194e-01 5.128395e-02
<GCONST> 8.154681e+01
<STATE> 4
<MEAN> 39
 -2.679451e+01 1.376786e+00 -2.544526e-01 -2.770701e-01 3.635648e+00 -3.327583e+00 8.616145e+00 -2.576082e+00 7.902584e+00 -1.777927e+00 4.619655e+00 1.588420e+00 6.800223e+01 2.432919e+00 -8.856870e-01 1.751109e+00 3.662044e-01 -4.321495e-01 -8.306875e-01 -1.259768e-01 -5.749027e-01 8.269102e-02 -1.192423e-01 6.463194e-02 -2.609600e-01 -1.546256e-01 9.300137e-01 -6.327403e-02 6.492813e-01 -1.095755e-01 -5.559492e-01 -4.587621e-01 -8.195755e-01 -3.739774e-01 -3.036007e-02 -4.716575e-01 -1.361278e-02 -3.517571e-01 2.402252e-01
<VARIANCE> 39
 1.074969e+01 1.551851e+01 1.349133e+01 1.273887e+01 1.776465e+01 1.575208e+01 1.860342e+01 1.769877e+01 1.677315e+01 1.543720e+01 1.533138e+01 1.435899e+01 4.720962e+00 3.476962e+00 1.441859e+00 2.932711e+00 1.311175e+00 2.024868e+00 1.973522e+00 3.028383e+00 2.205589e+00 1.924499e+00 1.815308e+00 1.741369e+00 1.734878e+00 7.132241e-01 2.657811e-01 2.984893e-01 6.683267e-01 2.992076e-01 4.694604e-01 3.731197e-01 5.274878e-01 3.495889e-01 4.857815e-01 5.229980e-01 3.727227e-01 4.087332e-01 2.887282e-01
<GCONST> 1.020661e+02
<TRANSP> 5
 0.000000e+00 1.000000e+00 0.000000e+00 0.000000e+00 0.000000e+00
 0.000000e+00 8.303065e-01 1.696934e-01 0.000000e+00 0.000000e+00
 0.000000e+00 0.000000e+00 8.626688e-01 1.373312e-01 0.000000e+00
 0.000000e+00 0.000000e+00 0.000000e+00 7.214808e-01 2.785192e-01
 0.000000e+00 0.000000e+00 0.000000e+00 0.000000e+00 0.000000e+00
<ENDHMM>
~h "OY"
<BEGINHMM>
<NUMSTATES> 5
<STATE> 2
<MEAN> 39
 -8.431281e-01 -7.923438e+00 4.227906e+00 -7.220856e+00 -5.290277e+00 -7.999004e-01 -3.513786e+00 -1.568986e+01 6.497231e+00 5.034887e-01 5.294559e+00 -4.530483e+00 7.021800e+01 6.617527e-01 -1.182861e+00 -4.571464e-01 -1.187232e+00 -7.065078e-01 5.982494e-01 -6.427836e-01 8.474968e-03 8.119472e-01 1.244247e-01 3.667543e-01 -5.030338e-01 1.123783e+00 -1.504510e-01 -2.443570e-02 4.676405e-03 6.913868e-02 3.840796e-02 -1.132473e-01 -2.057013e-02 3.892161e-01 1.244219e-01 -5.881222e-02 -1.046816e-01 -2.469600e-02 -1.278509e-01
<VARIANCE> 39
 1.129585e+01 3.948708e+01 3.148616e+01 9.184520e+01 2.018674e+01 6.380945e+01 2.456437e+01 2.585768e+01 3.837835e+01 1.907929e+01 2.595445e+01 1.932006e+01 2.796927e+01 7.041597e-01 1.225019e+00 2.903695e+00 5.571518e+00 1.546183e+00 5.836765e+00 2.710796e+00 4.853569e+00 3.530487e+00 2.201615e+00 2.264065e+00 2.437188e+00 1.333828e+00 7.735505e-02 2.673435e-01 5.255235e-01 9.359375e-01 2.949202e-01 9.380139e-01 5.392538e-01 4.149006e-01 7.711630e-01 4.900002e-01 3.799328e-01 4.090430e-01 1.758389e-01
<GCONST> 1.150227e+02
<STATE> 3
<MEAN> 39
 -1.487121e+00 -1.394692e+01 1.019193e+01 -6.728058e+00 -1.424121e+01 -7.743607e+00 -7.466380e+00 -1.524384e+00 1.045343e+01 -6.799950e+00 5.258100e+00 -5.485156e+00 7.423395e+01 -4.958405e-01 8.273988e-01 1.076538e+00 1.238153e+00 -3.659904e-01 -1.350951e+00 2.491116e-01 4.134995e-01 -1.005484e+00 -1.269159e+00 -5.359721e-02 8.530000e-01 -5.812827e-01 2.672620e-02 2.955407e-01 -2.876404e-01 -7.595858e-03 4.231500e-01 1.853232e-01 2.712619e-01 -4.542466e-01 -4.215550e-01 2.778749e-01 1.151828e-01 -1.204737e-02 -2.434530e-01
<VARIANCE> 39
 4.201341e+00 1.100166e+01 2.613600e+01 1.589722e+01 2.492621e+01 2.357377e+01 1.030136e+01 2.440948e+01 3.193705e+01 4.913577e+01 1.853736e+01 3.238174e+01 4.450723e+00 1.684331e-01 1.156430e+00 2.141369e+00 9.296665e-01 4.677500e+00 2.586878e+00 1.523466e+00 4.817190e+00 3.131071e+00 3.769094e+00 2.518983e+00 2.339572e+00 7.560853e-01 3.160109e-02 1.160355e-01 2.896892e-01 1.899993e-01 6.971452e-01 4.025898e-01 2.476486e-01 3.841368e-01 4.349584e-01 9.256909e-01 5.533547e-01 7.665179e-01 5.807658e-02
<GCONST> 9.944910e+01
<STATE> 4
<MEAN> 39
 -3.958971e+00 -3.032041e+00 8.691367e+00 1.761698e+00 -4.321357e+00 -1.298287e+01 -3.169104e-01 -9.453776e+00 -4.349307e+00 -2.087794e+00 5.065545e+00 -7.179479e+00 6.462882e+01 -2.181164e-01 1.057828e+00 -6.487761e-01 6.635770e-01 1.585136e+00 5.883832e-02 8.008465e-01 -7.533438e-01 -9.977090e-01 1.511506e+00 -4.868782e-01 -7.724991e-01 -1.118410e+00 -5.098956e-02 -2.556295e-01 1.904438e-01 -2.362551e-01 -4.055756e-01 3.294996e-01 -2.474930e-01 4.142793e-01 6.012437e-01 -3.968497e-01 -6.341249e-02 2.957291e-01 1.992627e-01
<VARIANCE> 39
 1.863717e+00 1.013674e+01 8.638395e+00 1.072946e+01 1.395463e+01 1.070134e+01 1.907439e+01 1.738995e+01 2.192968e+01 2.305009e+01 1.402588e+01 2.071016e+01 4.877477e+00 1.676627e-01 1.761040e+00 1.164042e+00 1.249532e+00 3.140448e+00 1.342631e+00 2.146019e+00 2.301569e+00 4.524803e+00 3.240679e+00 1.390364e+00 2.548351e+00 8.416621e-01 3.402798e-02 3.011189e-01 1.914535e-01 1.879721e-01 4.695958e-01 1.598659e-01 3.017439e-01 2.402956e-01 4.383117e-01 4.622146e-01 2.428937e-01 3.758959e-01 1.482162e-01
<GCONST> 9.038826e+01
<TRANSP> 5
 0.000000e+00 1.000000e+00 0.000000e+00 0.000000e+00 0.000000e+00
 0.000000e+00 9.243667e-01 7.563328e-02 0.000000e+00 0.000000e+00
 0.000000e+00 0.000000e+00 8.949135e-01 1.050865e-01 0.000000e+00
 0.000000e+00 0.000000e+00 0.000000e+00 8.314660e-01 1.685340e-01
 0.000000e+00 0.000000e+00 0.000000e+00 0.000000e+00 0.000000e+00
<ENDHMM>
~h "aI"
<BEGINHMM>
<NUMSTATES> 5
<STATE> 2
<MEAN> 39
 -5.451337e+00 -1.255315e+01 -3.312295e+00 -7.810623e+00 5.690070e-01 7.596641e-01 1.593832e+00 -2.240039e+00 4.709628e+00 -1.674417e-01 1.816658e+00 -1.264815e+01 7.094627e+01 1.174245e+00 -1.768486e+00 -5.573835e-01 -6.638609e-01 -6.906894e-01 4.104329e-01 -4.889861e-01 7.509503e-01 5.331956e-01 -9.679653e-01 -1.424364e-01 -1.916849e+00 2.329820e+00 -2.242813e-01 1.456705e-01 3.539003e-01 1.455387e-01 -1.978118e-01 -2.627310e-01 -5.019521e-02 1.776960e-01 1.729466e-01 -2.048005e-01 -7.742869e-02 3.426172e-01 -9.704516e-02
<VARIANCE> 39
 3.069113e+01 4.093603e+01 2.329334e+01 1.780276e+01 2.343943e+01 2.143062e+01 2.140090e+01 3.064507e+01 3.511854e+01 2.666795e+01 2.750585e+01 5.603536e+01 7.637929e+01 2.206299e+00 2.035851e+00 2.407291e+00 1.519508e+00 1.938403e+00 1.984156e+00 2.144394e+00 2.216213e+00 2.988919e+00 2.374914e+00 2.460884e+00 3.648177e+00 3.246417e+00 4.828576e-01 4.712210e-01 4.357883e-01 3.059499e-01 3.078118e-01 3.877150e-01 4.206514e-01 3.678638e-01 4.319593e-01 3.711920e-01 4.909737e-01 8.193539e-01 6.799426e-01
<GCONST> 1.164872e+02
<STATE> 3
<MEAN> 39
 -3.168711e+00 -1.717435e+01 1.283098e+00 -8.656592e+00 -7.374021e+00 -3.808853e+00 -9.465569e-01 4.923798e+00 9.588337e+00 -6.896079e+00 1.148581e-02 -1.317987e+01 7.867142e+01 -3.236937e-01 5.457748e-01 1.954797e+00 1.757772e-01 -1.697140e+00 -1.859009e+00 -1.714041e-01 1.066365e+00 6.932700e-02 -5.215048e-01 4.668821e-01 1.526764e+00 -1.009604e-01 -7.156073e-02 3.265567e-01 2.249469e-01 3.542224e-02 7.610504e-03 -8.553421e-02 1.829204e-03 -3.524120e-01 -4.398010e-01 2.465466e-01 4.617332e-01 2.559894e-01 -2.844182e-01
<VARIANCE> 39
 8.078518e+00 1.421710e+01 2.119337e+01 8.081995e+00 2.924247e+01 2.737474e+01 1.723261e+01 2.962037e+01 4.625176e+01 2.224136e+01 2.012595e+01 3.122565e+01 1.987967e+01 1.900635e-01 8.238504e-01 8.939346e-01 6.236535e-01 8.616709e-01 1.101005e+00 1.081077e+00 1.551862e+00 1.820572e+00 1.283752e+00 2.772239e+00 1.393216e+00 4.947047e-01 6.304422e-02 1.331359e-01 1.473740e-01 1.198780e-01 1.753936e-01 2.676681e-01 2.218022e-01 3.221566e-01 2.690685e-01 2.093489e-01 3.079391e-01 3.357261e-01 1.073425e-01
<GCONST> 8.848505e+01
<STATE> 4
<MEAN> 39
 -4.970904e+00 -9.450024e+00 1.191281e+01 -5.817689e+00 -1.360941e+01 -1.157063e+01 -1.378908e+00 1.616739e+00 2.866070e+00 -7.823180e+00 8.039486e+00 -5.759563e+00 7.384916e+01 -6.438929e-02 1.285727e+00 2.250284e-01 1.119627e+00 6.173598e-01 -2.225470e-01 8.006372e-02 -1.393023e+00 -8.562005e-01 3.737334e-02 1.574699e-01 4.055732e-01 -1.314442e+00 2.970222e-02 2.747953e-02 -4.359680e-01 1.746272e-01 5.258885e-01 2.421779e-01 1.663712e-01 -1.456032e-01 7.396672e-02 2.174849e-01 -4.398417e-01 -2.303744e-01 -2.162848e-01
<VARIANCE> 39
 6.665032e+00 2.115718e+01 1.583208e+01 1.795796e+01 2.498514e+01 1.868428e+01 2.335260e+01 2.772856e+01 4.172627e+01 2.224154e+01 2.338033e+01 1.298890e+01 2.354953e+01 3.185107e-01 1.091082e+00 2.550651e+00 1.332549e+00 3.145351e+00 1.523171e+00 1.818297e+00 1.964929e+00 2.273291e+00 2.006546e+00 3.185025e+00 1.293567e+00 9.914902e-01 5.508579e-02 1.898904e-01 2.562169e-01 2.163576e-01 3.532403e-01 2.453671e-01 3.508592e-01 3.516081e-01 3.659511e-01 4.866986e-01 3.341437e-01 2.764164e-01 1.165529e-01
<GCONST> 9.828726e+01
<TRANSP> 5
 0.000000e+00 1.000000e+00 0.000000e+00 0.000000e+00 0.000000e+00
 0.000000e+00 7.890345e-01 2.109655e-01 0.000000e+00 0.000000e+00
 0.000000e+00 0.000000e+00 7.936072e-01 2.063928e-01 0.000000e+00
 0.000000e+00 0.000000e+00 0.000000e+00 8.357307e-01 1.642692e-01
 0.000000e+00 0.000000e+00 0.000000e+00 0.000000e+00 0.000000e+00
<ENDHMM>
~h "sh"
<BEGINHMM>
<NUMSTATES> 5
<STATE> 2
<MEAN> 39
 -1.752704e+01 -9.764684e+00 9.811449e+00 -5.422622e+00 1.391393e+00 -1.551026e+00 -4.480361e-01 -2.759314e+00 7.924972e+00 -3.025813e+00 3.609175e+00 -7.135363e-01 6.184908e+01 -2.995160e+00 -1.367397e+00 3.119586e+00 -1.722788e+00 -7.073740e-01 7.210899e-01 1.983026e-01 -7.950038e-01 8.670664e-01 -8.399673e-01 5.204020e-01 -4.095571e-01 2.103536e+00 -1.998064e-01 5.456949e-01 -7.509531e-02 -1.090912e-01 -1.078843e-01 7.655746e-02 2.360722e-01 -2.337179e-01 -2.407600e-01 8.894557e-03 -1.485770e-02 1.296179e-02 1.070612e-01
<VARIANCE> 39
 2.051795e+01 1.192861e+01 3.277380e+01 1.712811e+01 1.212380e+01 1.769845e+01 1.975500e+01 1.877336e+01 2.259045e+01 1.947147e+01 1.456687e+01 1.540350e+01 1.354348e+01 8.681166e-01 1.862203e+00 1.549768e+00 1.286641e+00 1.410173e+00 1.489454e+00 2.412982e+00 1.474687e+00 2.428340e+00 1.692884e+00 1.524604e+00 1.724380e+00 3.358450e-01 3.241511e-01 2.759744e-01 7.079359e-01 2.846800e-01 2.542717e-01 2.878583e-01 4.470128e-01 2.617231e-01 4.681115e-01 3.847792e-01 2.849317e-01 3.734679e-01 1.718926e-01
<GCONST> 9.887756e+01
<STATE> 3
<MEAN> 39
 -2.910036e+01 -7.955623e+00 1.669950e+01 -1.162301e+01 -3.659133e-01 2.694089e+00 1.066821e+00 -6.408100e+00 8.103860e+00 -4.407065e+00 4.469224e+00 -2.343832e+00 6.968928e+01 -6.127955e-01 2.467491e-01 -1.337183e-01 -1.365556e-01 -4.397535e-02 3.893367e-01 -9.917240e-02 -7.169215e-02 -1.658546e-01 1.079254e-01 -1.224277e-01 -1.781964e-01 6.152080e-01 6.483842e-01 -1.188204e-01 -4.298135e-01 3.349399e-01 2.333982e-02 -2.443831e-01 -8.316460e-02 1.748200e-01 -3.977627e-02 1.019883e-01 -4.383049e-02 2.898292e-02 -2.683504e-01
<VARIANCE> 39
 5.316484e+00 8.199481e+00 4.974339e+00 9.804540e+00 1.471344e+01 1.669304e+01 1.964039e+01 1.548536e+01 2.005214e+01 1.661395e+01 1.538102e+01 1.178285e+01 4.249712e+00 1.432621e+00 8.852772e-01 8.817708e-01 1.213821e+00 1.208934e+00 1.628128e+00 1.494228e+00 1.345344e+00 1.404174e+00 1.322139e+00 1.312163e+00 1.341751e+00 3.646947e-01 2.203970e-01 1.604005e-01 2.002950e-01 1.489718e-01 2.392695e-01 3.815187e-01 3.307691e-01 2.438516e-01 2.976553e-01 2.791145e-01 2.596472e-01 2.988820e-01 6.939347e-02
<GCONST> 8.539465e+01
<STATE> 4
<MEAN> 39
 -1.909986e+01 -1.082689e+01 9.139193e+00 -8.493845e+00 -1.846119e+00 8.535348e-01 -5.793266e-01 -4.993136e+00 7.831619e+00 -2.763734e+00 3.712644e+00 -4.685291e+00 7.081689e+01 4.952749e+00 -9.507163e-01 -2.717599e+00 5.027757e-01 -9.275635e-01 -1.307177e+00 -4.430160e-01 1.923982e-01 3.040076e-01 7.903230e-01 9.726375e-02 -8.385307e-01 1.421661e-01 1.836337e-01 3.005177e-03 -5.265900e-02 -3.256772e-01 -2.560579e-02 6.223035e-02 -9.080562e-02 1.326744e-01 2.688961e-01 2.931605e-03 -1.764647e-02 -1.977295e-01 1.978480e-01
<VARIANCE> 39
 1.039348e+02 1.440819e+01 3.946524e+01 1.471221e+01 3.486255e+01 2.690642e+01 2.070989e+01 1.596673e+01 1.980970e+01 1.603579e+01 1.755405e+01 2.340255e+01 1.452236e+01 3.341813e+00 2.287016e+00 1.185214e+00 2.249111e+00 4.348669e+00 2.841255e+00 2.448492e+00 1.871414e+00 2.850039e+00 1.567026e+00 1.935550e+00 4.104757e+00 5.402163e+00 1.767573e+00 2.905907e-01 5.417902e-01 2.139463e-01 1.078929e+00 4.482168e-01 3.730092e-01 4.368038e-01 3.068324e-01 3.537380e-01 3.685191e-01 4.045347e-01 7.537901e-01
<GCONST> 1.149903e+02
<TRANSP> 5
 0.000000e+00 1.000000e+00 0.000000e+00 0.000000e+00 0.000000e+00
 0.000000e+00 7.419837e-01 2.580163e-01 0.000000e+00 0.000000e+00
 0.000000e+00 0.000000e+00 8.739464e-01 1.260536e-01 0.000000e+00
 0.000000e+00 0.000000e+00 0.000000e+00 7.333754e-01 2.666246e-01
 0.000000e+00 0.000000e+00 0.000000e+00 0.000000e+00 0.000000e+00
<ENDHMM>
~h "sp"
<BEGINHMM>
<NUMSTATES> 3
<STATE> 2
~s "silst"
<TRANSP> 3
 0.000000e+00 7.000000e-01 3.000000e-01
 0.000000e+00 9.000000e-01 9.999999e-02
 0.000000e+00 0.000000e+00 0.000000e+00
<ENDHMM>
~h "ts"
<BEGINHMM>
<NUMSTATES> 5
<STATE> 2
<MEAN> 39
 -2.357045e+01 -1.520673e+00 -3.540239e+00 -3.310409e+00 3.387115e+00 -4.100675e+00 4.805942e+00 -3.257573e+00 6.056023e+00 -1.279920e+00 3.003112e+00 9.096439e-01 6.672499e+01 -8.960466e-01 5.504571e-02 3.710087e-02 -6.377834e-02 6.014813e-01 -1.256390e-01 3.331430e-01 1.356692e-01 4.315216e-01 3.563251e-02 1.466613e-01 9.288755e-02 1.162290e+00 3.633098e-01 -6.082097e-02 3.103922e-01 6.577612e-02 9.735323e-02 1.087039e-01 -6.116191e-02 1.545967e-01 -3.609281e-02 3.226160e-02 4.137773e-02 -5.239615e-02 -2.737737e-01
<VARIANCE> 39
 3.761104e+01 1.483657e+01 1.581332e+01 1.252530e+01 1.499358e+01 1.247037e+01 1.528281e+01 1.189396e+01 1.344562e+01 1.208323e+01 1.107117e+01 1.101705e+01 3.105609e+01 3.763690e+00 2.363147e+00 2.963822e+00 1.715434e+00 2.105496e+00 1.636288e+00 1.933639e+00 1.859965e+00 1.541412e+00 1.431480e+00 1.386185e+00 1.263363e+00 2.543796e+00 4.848260e-01 5.003117e-01 3.930152e-01 3.769649e-01 3.986791e-01 3.874394e-01 4.623645e-01 3.371946e-01 3.164151e-01 2.797949e-01 2.643439e-01 2.550424e-01 3.724473e-01
<GCONST> 1.025067e+02
<STATE> 3
<MEAN> 39
 -1.390142e+01 -1.955935e+00 4.347786e+00 -1.515101e+00 5.976266e+00 -1.631949e-01 3.467668e+00 -2.495677e+00 5.264850e+00 -2.236139e+00 4.324795e+00 1.591412e-01 6.481986e+01 2.884060e+00 2.108219e-01 4.521957e-01 -7.067224e-01 -1.801420e+00 8.849348e-01 -9.226485e-01 -1.423975e+00 -1.084036e+00 -1.139281e+00 -5.147979e-01 5.609547e-02 -4.376004e-01 8.254963e-02 1.070026e-01 -2.767594e-01 -4.727437e-01 -7.373769e-01 -5.929220e-02 -5.906136e-04 -3.787760e-01 -5.329587e-02 -2.604280e-01 -2.232397e-01 3.682332e-02 3.252601e-01
<VARIANCE> 39
 5.351368e+01 2.169811e+01 1.372958e+01 2.674454e+01 3.831798e+01 1.942543e+01 2.523252e+01 4.743451e+01 3.193416e+01 2.643664e+01 1.572289e+01 1.330398e+01 2.526437e+01 2.319087e+00 2.642624e+00 3.095728e+00 6.175810e+00 5.857260e+00 2.078496e+00 2.447904e+00 5.563006e+00 3.008415e+00 3.367414e+00 1.992025e+00 1.478613e+00 4.726053e+00 4.590626e-01 5.864508e-01 4.886279e-01 8.535081e-01 5.638511e-01 4.311824e-01 5.925729e-01 1.026658e+00 7.745182e-01 5.674689e-01 3.452872e-01 3.163353e-01 7.370173e-01
<GCONST> 1.210349e+02
<STATE> 4
<MEAN> 39
 1.460944e+00 2.763219e+00 5.268031e+00 -1.748958e+01 -1.815117e+01 9.519909e-01 9.200415e-01 -1.092932e+01 5.127898e+00 -8.336258e+00 -2.927251e+00 -6.694444e-01 6.634803e+01 -1.813635e-01 1.678406e-01 -6.068425e-02 1.744491e-01 2.301823e-01 -1.617868e-01 1.852603e-01 4.207539e-01 6.945577e-02 2.721370e-01 9.317927e-03 -2.589197e-02 -4.071751e-01 -2.378307e-01 -3.467209e-02 -7.742499e-03 2.935412e-01 3.349138e-01 -7.803915e-02 2.245674e-02 1.533809e-01 2.506547e-02 1.676924e-01 1.099539e-01 -1.920161e-02 -1.431034e-01
<VARIANCE> 39
 5.974248e+00 9.937855e+00 1.072873e+01 2.884267e+01 6.892512e+01 2.129215e+01 1.228637e+01 1.745475e+01 2.575991e+01 1.522964e+01 1.374480e+01 1.452328e+01 7.979992e+00 1.109427e+00 8.661960e-01 9.413024e-01 4.454676e+00 8.104487e+00 1.929685e+00 1.033273e+00 1.577235e+00 2.144741e+00 1.754962e+00 1.335765e+00 1.388891e+00 7.595710e-01 1.162739e-01 1.587791e-01 1.595249e-01 3.311366e-01 4.813912e-01 3.448163e-01 2.125190e-01 3.004596e-01 3.505389e-01 3.520005e-01 1.830195e-01 2.472353e-01 1.015663e-01
<GCONST> 9.484615e+01
<TRANSP> 5
 0.000000e+00 1.000000e+00 0.000000e+00 0.000000e+00 0.000000e+00
 0.000000e+00 8.933846e-01 1.066154e-01 0.000000e+00 0.000000e+00
 0.000000e+00 0.000000e+00 8.544660e-01 1.455340e-01 0.000000e+00
 0.000000e+00 0.000000e+00 0.000000e+00 9.427294e-01 5.727064e-02
 0.000000e+00 0.000000e+00 0.000000e+00 0.000000e+00 0.000000e+00
<ENDHMM>
~h "sil"
<BEGINHMM>
<NUMSTATES> 5
<STATE> 2
<MEAN> 39
 -1.242111e+01 -3.112381e+00 2.879615e-01 -2.213171e+00 2.715748e+00 -2.288684e+00 2.793666e+00 -1.546030e+00 3.489940e+00 -5.437646e-01 2.698535e+00 -3.362697e-01 5.515325e+01 -1.986890e-02 4.604363e-02 1.344505e-04 -2.205114e-02 -1.368070e-03 3.270106e-02 2.307331e-02 -4.440920e-02 -7.506576e-02 -3.737254e-02 1.877827e-02 1.321551e-02 -3.744756e-02 -2.115244e-03 -1.849916e-02 1.384687e-02 -2.371002e-03 8.971026e-03 1.473211e-04 4.398014e-03 4.688719e-03 1.657167e-02 1.004052e-02 -3.596193e-04 9.533740e-03 2.631758e-02
<VARIANCE> 39
 1.106598e+00 2.900137e+00 3.653932e+00 5.309230e+00 6.980864e+00 9.644776e+00 1.066719e+01 1.148624e+01 1.264510e+01 1.239005e+01 1.150097e+01 1.049803e+01 6.346930e-01 1.030984e-01 2.423624e-01 4.149318e-01 6.081721e-01 7.918140e-01 1.039205e+00 1.171398e+00 1.301393e+00 1.418929e+00 1.418512e+00 1.355003e+00 1.180820e+00 4.545756e-02 2.205724e-02 4.523334e-02 8.757072e-02 1.252791e-01 1.602414e-01 2.060337e-01 2.348401e-01 2.629618e-01 2.904169e-01 2.861127e-01 2.738492e-01 2.354160e-01 9.512050e-03
<GCONST> 5.995592e+01
<STATE> 3
~s "silst"
<STATE> 4
<MEAN> 39
 -1.488244e+01 -6.085914e+00 2.057686e+00 -2.901382e+00 2.355674e+00 -1.585827e+00 3.431084e+00 -2.929805e+00 4.717916e+00 -4.266229e-02 2.569629e+00 -1.984558e-01 5.847738e+01 -5.453764e-01 -7.937652e-01 2.176187e-01 -9.445528e-02 -2.321243e-01 2.912840e-01 7.099508e-02 -3.913007e-01 3.905777e-01 1.790607e-01 1.905229e-02 -9.429961e-02 9.233109e-01 8.865315e-02 -2.894858e-02 -1.076355e-01 4.181184e-02 -4.773548e-02 -5.661232e-02 -4.099186e-02 7.038663e-02 1.902762e-02 -3.381157e-03 -2.733885e-03 -3.231469e-02 6.626759e-02
<VARIANCE> 39
 1.516993e+01 1.725505e+01 1.423469e+01 1.159307e+01 1.462046e+01 1.918344e+01 1.801917e+01 1.799480e+01 1.894161e+01 1.617860e+01 1.482337e+01 1.299299e+01 1.725204e+01 1.895942e+00 2.237968e+00 1.507213e+00 1.544477e+00 1.761610e+00 1.713746e+00 1.776425e+00 1.948694e+00 2.028900e+00 1.883969e+00 1.523793e+00 1.568933e+00 2.491844e+00 2.038966e-01 2.772675e-01 2.694747e-01 2.641352e-01 2.574670e-01 2.739283e-01 3.292237e-01 3.537615e-01 3.530015e-01 3.199674e-01 2.694595e-01 2.589081e-01 2.615933e-01
<GCONST> 9.886291e+01
<TRANSP> 5
 0.000000e+00 1.000000e+00 0.000000e+00 0.000000e+00 0.000000e+00
 0.000000e+00 9.371601e-01 3.954859e-02 2.329134e-02 0.000000e+00
 0.000000e+00 0.000000e+00 6.657353e-01 3.342647e-01 0.000000e+00
 0.000000e+00 8.207212e-02 0.000000e+00 5.317132e-01 3.862146e-01
 0.000000e+00 0.000000e+00 0.000000e+00 0.000000e+00 0.000000e+00
<ENDHMM>
