~o
<STREAMINFO> 1 39
<VECSIZE> 39<NULLD><MFCC_D_A_0><DIAGC>
~s "silst"
<MEAN> 39
 -1.233757e+01 -2.782576e+00 6.032649e-01 -2.117358e+00 2.431090e+00 -2.747347e+00 2.915761e+00 -1.362950e+00 3.644423e+00 -5.110322e-01 2.821979e+00 1.100881e-02 5.543814e+01 -2.120223e-01 -1.535824e-01 2.038470e-02 -1.247920e-01 5.824867e-02 1.008418e-01 4.813875e-02 -1.109379e-01 2.903348e-02 -8.590027e-03 -2.322142e-02 -1.881658e-02 1.032194e-01 -8.683692e-02 -8.299629e-02 7.095171e-02 -2.778228e-02 -1.421057e-02 -1.277387e-02 2.903077e-02 -5.518194e-02 4.660344e-02 -2.386425e-02 7.183165e-03 -4.403419e-02 2.172760e-01
<VARIANCE> 39
 1.929224e+00 2.976248e+00 4.620638e+00 6.071969e+00 7.955657e+00 1.028784e+01 1.125388e+01 1.189377e+01 1.241496e+01 1.266647e+01 1.156357e+01 1.070719e+01 8.290370e-01 3.560316e-01 4.462826e-01 7.951226e-01 7.810491e-01 9.610754e-01 1.191138e+00 1.291613e+00 1.442162e+00 1.516882e+00 1.522344e+00 1.349187e+00 1.255820e+00 2.967522e-01 1.128220e-01 1.115522e-01 1.680768e-01 1.751595e-01 2.116187e-01 2.546625e-01 2.651807e-01 2.894927e-01 3.136968e-01 3.210511e-01 2.863298e-01 2.869138e-01 9.746377e-02
<GCONST> 7.382929e+01
~h "@"
<BEGINHMM>
<NUMSTATES> 5
<STATE> 2
<MEAN> 39
 -3.635246e+00 -1.046843e+01 9.435641e+00 -2.812621e+00 -1.164737e+01 -1.391859e+01 -7.726043e+00 -6.254100e+00 7.513869e+00 -1.161458e+01 5.378555e+00 -4.046407e+00 7.334111e+01 2.619821e-01 2.435265e-01 1.277822e-01 2.567326e-01 -3.842765e-01 9.697092e-02 1.099315e-01 1.819339e-01 -1.249514e-01 -3.464039e-01 7.689305e-02 2.570340e-02 -2.934259e-01 -3.397688e-01 3.293920e-01 -1.447382e-01 1.752954e-01 5.798420e-01 2.820868e-01 3.167033e-01 1.456333e-01 -1.515799e-01 3.617496e-01 -2.706419e-01 6.821167e-02 -4.466405e-01
<VARIANCE> 39
 3.313997e+00 2.111619e+01 1.018673e+01 1.406662e+01 2.688315e+01 1.499589e+01 2.969027e+01 3.896714e+01 2.811894e+01 2.173998e+01 2.379996e+01 1.310369e+01 1.631826e+01 1.108093e+00 2.508297e+00 9.384502e-01 1.352187e+00 4.521103e+00 1.898929e+00 2.459953e+00 2.150648e+00 2.355503e+00 2.027859e+00 2.383576e+00 1.139312e+00 2.707640e+00 2.676434e-01 2.125096e-01 2.164710e-01 1.823751e-01 2.200400e-01 2.334370e-01 3.421766e-01 2.873119e-01 3.038055e-01 3.459280e-01 2.520761e-01 2.478382e-01 1.412801e-01
<GCONST> 9.915865e+01
<STATE> 3
<MEAN> 39
 -5.637310e+00 -1.512312e+00 8.993293e+00 2.697121e+00 -2.486897e+00 -9.347438e+00 6.258404e-02 -3.657890e+00 1.834907e+00 -7.290327e+00 7.184657e-01 -3.845523e+00 6.322900e+01 -8.537185e-01 7.420149e-01 -5.968271e-01 9.152802e-01 2.351957e+00 1.406810e+00 8.149135e-01 4.148103e-01 1.553934e-01 1.540997e+00 -4.146588e-01 6.934579e-01 -1.963416e+00 -2.017128e-01 -4.699601e-01 -3.145703e-01 -4.450617e-01 -2.647531e-01 -1.548550e-02 -7.395757e-02 4.108183e-02 3.067616e-01 1.057248e-01 3.336045e-01 2.288389e-01 1.925613e-01
<VARIANCE> 39
 4.341187e+00 9.693306e+00 1.034052e+01 1.424159e+01 3.379618e+01 2.439030e+01 2.283584e+01 4.194101e+01 2.284904e+01 1.836930e+01 3.881656e+01 1.149925e+01 1.098615e+01 5.888887e-01 2.002724e+00 1.369511e+00 1.550530e+00 2.914776e+00 1.599580e+00 2.479734e+00 2.110838e+00 2.389492e+00 2.102995e+00 2.244898e+00 1.555220e+00 1.532920e+00 7.981160e-02 2.307057e-01 2.107090e-01 2.935189e-01 6.123164e-01 4.412832e-01 3.716430e-01 3.135404e-01 4.951518e-01 3.039580e-01 4.692161e-01 2.252725e-01 1.578537e-01
<GCONST> 9.970724e+01
<STATE> 4
<MEAN> 39
 -1.017556e+01 -2.450061e+00 3.786724e+00 2.665382e-01 1.004962e+00 -6.160348e+00 1.825066e+00 -1.754293e+00 4.034664e+00 -1.454937e+00 3.103279e+00 3.953241e-01 5.797127e+01 -6.156121e-01 -3.505310e-01 -7.578502e-01 -6.731808e-01 1.447824e-02 1.982484e-01 -7.710101e-02 -1.445273e-01 2.574517e-01 5.816089e-01 3.969434e-01 3.903619e-01 -4.419062e-01 8.613001e-02 1.868612e-02 1.581314e-01 -2.860650e-02 -1.288019e-01 -5.398333e-02 -6.313445e-02 -9.274034e-02 -1.074313e-01 -2.418682e-01 -1.324192e-01 -1.708642e-01 1.995811e-01
<VARIANCE> 39
 7.298329e+00 4.883974e+00 1.377362e+01 1.460362e+01 1.461724e+01 1.735188e+01 1.621774e+01 3.787291e+01 1.515619e+01 1.495458e+01 1.867848e+01 1.471621e+01 9.039021e+00 4.633922e-01 5.854759e-01 1.312876e+00 1.229412e+00 1.289724e+00 1.406380e+00 1.640092e+00 1.668755e+00 1.965215e+00 1.745571e+00 1.900484e+00 1.480940e+00 4.562452e-01 9.250071e-02 1.386845e-01 1.857522e-01 2.735323e-01 4.013512e-01 3.278518e-01 3.830795e-01 3.941440e-01 3.510925e-01 3.063464e-01 3.215415e-01 2.675846e-01 1.047856e-01
<GCONST> 8.981868e+01
<TRANSP> 5
 0.000000e+00 1.000000e+00 0.000000e+00 0.000000e+00 0.000000e+00
 0.000000e+00 7.979667e-01 2.020333e-01 0.000000e+00 0.000000e+00
 0.000000e+00 0.000000e+00 6.382665e-01 3.617335e-01 0.000000e+00
 0.000000e+00 0.000000e+00 0.000000e+00 7.232332e-01 2.767668e-01
 0.000000e+00 0.000000e+00 0.000000e+00 0.000000e+00 0.000000e+00
<ENDHMM>
~h "I"
<BEGINHMM>
<NUMSTATES> 5
<STATE> 2
<MEAN> 39
 -1.449214e+01 -1.835613e+00 1.664703e+01 -1.112746e+00 -7.256976e-01 -5.259296e+00 9.157121e-01 -8.745125e+00 3.686520e+00 -7.942050e+00 2.032849e+00 5.837170e-01 6.733734e+01 3.191277e+00 1.078104e+00 5.178931e+00 7.328462e-01 -3.021017e+00 -3.596649e-01 -3.297591e+00 -1.813433e+00 -6.971837e-01 -4.562139e+00 5.896090e-01 3.630552e-01 9.771388e-01 -3.766467e-01 6.855822e-02 -4.405053e-01 -7.543866e-02 -5.544905e-01 1.294172e-01 -9.850004e-02 2.945283e-01 2.881581e-01 -5.194879e-01 4.386334e-01 1.386010e-01 1.525911e-01
<VARIANCE> 39
 2.584330e+01 2.148521e+01 5.146965e+01 2.293134e+01 3.746032e+01 2.551031e+01 3.867677e+01 2.376579e+01 1.883812e+01 4.421728e+01 1.722205e+01 1.400584e+01 1.205830e+01 1.222311e+00 1.508986e+00 2.480730e+00 2.270305e+00 3.158873e+00 1.796733e+00 2.011394e+00 2.253135e+00 2.073036e+00 3.103891e+00 2.287975e+00 1.981676e+00 6.860467e-01 4.067416e-01 2.790023e-01 8.796437e-01 3.362045e-01 7.437369e-01 4.793850e-01 7.467682e-01 4.641722e-01 3.312719e-01 1.048000e+00 3.160483e-01 2.603247e-01 2.330540e-01
<GCONST> 1.115436e+02
<STATE> 3
<MEAN> 39
 -9.334593e+00 3.147874e-01 2.504618e+01 -5.733441e-01 -1.139040e+01 -5.338654e+00 -5.549924e+00 -1.201621e+01 3.925298e+00 -2.005988e+01 5.952511e+00 2.273727e+00 6.961125e+01 5.381961e-01 4.116372e-02 7.764836e-02 -5.744390e-02 -9.794145e-01 -2.906315e-01 -3.957044e-01 -4.111187e-01 -1.643818e-01 -4.556864e-01 2.554192e-01 1.492405e-01 1.065696e-01 -2.058171e-01 -2.681825e-01 -7.376595e-01 -5.117281e-02 4.304183e-01 -1.216922e-01 3.309489e-01 1.918669e-01 3.359215e-04 8.329094e-01 -1.971143e-01 -4.924448e-02 -1.308401e-01
<VARIANCE> 39
 4.565150e+00 6.997816e+00 1.241476e+01 8.678568e+00 1.451192e+01 1.244140e+01 1.300813e+01 1.706142e+01 1.679167e+01 1.714356e+01 1.718241e+01 1.681983e+01 4.024952e+00 3.818198e-01 7.817923e-01 2.394644e+00 9.462434e-01 2.837486e+00 1.900025e+00 1.309165e+00 1.499506e+00 1.400599e+00 3.986382e+00 1.427635e+00 9.430783e-01 6.661474e-01 1.974574e-01 1.009576e-01 3.603438e-01 2.130168e-01 4.920827e-01 2.300337e-01 3.739870e-01 3.145286e-01 3.416084e-01 5.438718e-01 2.803541e-01 2.039603e-01 1.153202e-01
<GCONST> 8.921420e+01
<STATE> 4
<MEAN> 39
 -4.528919e+00 -5.914368e+00 1.262094e+01 -3.249348e+00 -1.381821e+01 -1.147943e+01 -8.595946e+00 -1.110501e+01 1.135828e+01 -1.199640e+01 3.656384e+00 8.731419e-01 7.305310e+01 5.290018e-01 -9.656687e-01 -1.818255e+00 -7.016356e-01 8.543206e-01 4.962080e-01 -4.172898e-01 8.380104e-01 1.374689e+00 1.526227e+00 -7.698673e-01 -1.061883e+00 1.656196e-02 -5.181392e-02 1.482013e-01 -3.215012e-02 7.444555e-02 3.669006e-01 4.279371e-01 1.099031e-01 4.798875e-02 -1.750990e-01 3.254651e-02 -1.757059e-01 -1.652416e-01 -2.818801e-01
<VARIANCE> 39
 7.883689e+00 2.314084e+01 6.298943e+01 1.673158e+01 2.307268e+01 2.580441e+01 1.493497e+01 2.108775e+01 6.403442e+01 3.688872e+01 2.220379e+01 2.524084e+01 9.982121e+00 4.957249e-01 1.473342e+00 1.830770e+00 1.279340e+00 2.390375e+00 3.290111e+00 1.296058e+00 1.534221e+00 3.847678e+00 1.760737e+00 1.467882e+00 1.636661e+00 1.101260e+00 5.738110e-02 2.217144e-01 3.993742e-01 2.818957e-01 2.812649e-01 3.659594e-01 2.239480e-01 3.533124e-01 6.068187e-01 3.863007e-01 2.388876e-01 3.029375e-01 6.379773e-02
<GCONST> 1.003675e+02
<TRANSP> 5
 0.000000e+00 1.000000e+00 0.000000e+00 0.000000e+00 0.000000e+00
 0.000000e+00 5.980422e-01 4.019577e-01 0.000000e+00 0.000000e+00
 0.000000e+00 0.000000e+00 8.229274e-01 1.770726e-01 0.000000e+00
 0.000000e+00 0.000000e+00 0.000000e+00 7.317489e-01 2.682511e-01
 0.000000e+00 0.000000e+00 0.000000e+00 0.000000e+00 0.000000e+00
<ENDHMM>
~h "U"
<BEGINHMM>
<NUMSTATES> 5
<STATE> 2
<MEAN> 39
 -5.165774e+00 -1.029138e+00 -5.068647e-01 -1.419568e+01 -4.526829e+00 1.962725e+00 6.108310e+00 -5.680637e+00 4.389809e+00 -2.346573e+00 -3.320990e+00 2.832251e+00 6.405435e+01 2.181966e+00 1.873690e+00 1.879034e+00 -4.389479e-01 -3.015504e+00 -1.055095e+00 -6.225154e-01 -1.492171e+00 -8.189989e-01 -1.778087e+00 -5.781150e-01 -6.723292e-01 1.058122e+00 2.354011e-01 -2.572430e-01 3.730767e-01 -7.972588e-02 -6.051769e-01 2.219769e-01 -1.330280e-01 -5.159563e-01 -2.650264e-01 -4.458644e-02 -2.780816e-02 -3.009568e-01 1.347949e-01
<VARIANCE> 39
 2.090944e+01 2.675096e+01 3.055755e+01 1.544127e+01 3.707462e+01 2.404859e+01 1.942937e+01 2.831331e+01 2.904036e+01 2.473990e+01 2.203674e+01 2.221185e+01 1.091940e+01 1.956368e+00 1.804641e+00 3.133133e+00 2.052571e+00 5.167783e+00 1.818587e+00 1.718951e+00 3.388981e+00 2.673038e+00 1.759993e+00 2.751650e+00 1.907523e+00 1.059378e+00 4.067068e-01 5.763047e-01 6.030664e-01 5.088725e-01 8.272576e-01 5.295745e-01 4.081784e-01 5.365275e-01 5.106989e-01 4.352761e-01 6.641571e-01 3.362652e-01 2.130935e-01
<GCONST> 1.132894e+02
<STATE> 3
<MEAN> 39
 3.424385e+00 9.026758e-01 7.802347e+00 -1.799047e+01 -2.001538e+01 3.242612e+00 3.715691e+00 -1.530335e+01 3.124321e-01 -9.383209e+00 -7.240142e+00 -2.812925e+00 6.931463e+01 -2.567089e-01 -4.155691e-01 -1.509150e-01 2.311931e-01 3.435510e-01 -1.746998e-02 -3.477549e-01 -1.819287e-01 -8.467816e-02 -4.680144e-01 8.033764e-02 -3.482276e-01 4.375337e-01 -8.237312e-01 -2.084999e-01 -5.042138e-01 5.758157e-01 1.274037e+00 -3.042345e-01 -6.926583e-03 6.472964e-01 1.845269e-01 3.472255e-01 4.002934e-01 2.205627e-01 -1.915267e-01
<VARIANCE> 39
 2.561114e+00 4.195687e+00 7.451498e+00 6.601702e+00 1.284136e+01 1.348460e+01 1.127605e+01 1.245514e+01 1.399819e+01 1.448373e+01 1.115845e+01 1.016716e+01 2.345700e+00 2.543933e+00 5.467193e-01 1.904923e+00 2.351731e+00 9.610192e+00 2.941617e+00 1.003320e+00 3.958760e+00 1.151131e+00 1.543084e+00 2.144083e+00 1.348032e+00 4.230931e-01 1.581657e-01 1.747142e-01 1.817225e-01 2.106931e-01 2.923458e-01 4.800790e-01 2.175987e-01 2.918162e-01 2.344798e-01 2.939019e-01 3.042078e-01 1.996778e-01 7.557470e-02
<GCONST> 8.663830e+01
<STATE> 4
<MEAN> 39
 -1.011761e+01 -3.804665e+00 2.047209e+00 -6.649332e+00 -1.243719e+00 -3.010172e+00 1.189507e+00 -7.767454e+00 1.237032e+00 -6.656846e+00 -4.407659e-01 -1.715277e+00 6.960957e+01 -4.578597e+00 -1.743952e+00 -9.496674e-01 3.160014e+00 4.109960e+00 -1.360428e+00 -6.698402e-01 1.477711e+00 6.491982e-01 1.969562e+00 1.929740e+00 2.326917e-01 -5.868493e-01 2.539633e-01 6.118321e-02 3.272281e-01 -5.055288e-01 -1.094635e+00 2.641445e-01 -4.341416e-02 -4.609916e-01 1.671701e-01 8.339486e-02 -2.895324e-01 -1.069183e-01 -2.077926e-01
<VARIANCE> 39
 4.011938e+01 1.322375e+01 5.198293e+00 2.833716e+01 4.229221e+01 9.838028e+00 9.072812e+00 1.253154e+01 1.072508e+01 1.719114e+01 1.777073e+01 9.282647e+00 3.786299e+00 9.193892e-01 8.298227e-01 8.692997e-01 1.640198e+00 4.472345e+00 1.452130e+00 1.180327e+00 1.783132e+00 1.418068e+00 1.412892e+00 1.505965e+00 1.120632e+00 4.035513e-01 7.493733e-01 2.807015e-01 1.147333e-01 5.356036e-01 7.204229e-01 2.345952e-01 2.259609e-01 2.649434e-01 2.587711e-01 4.170654e-01 3.905745e-01 2.279896e-01 6.738064e-02
<GCONST> 9.208788e+01
<TRANSP> 5
 0.000000e+00 1.000000e+00 0.000000e+00 0.000000e+00 0.000000e+00
 0.000000e+00 7.839458e-01 2.160542e-01 0.000000e+00 0.000000e+00
 0.000000e+00 0.000000e+00 8.627949e-01 1.372051e-01 0.000000e+00
 0.000000e+00 0.000000e+00 0.000000e+00 7.215537e-01 2.784463e-01
 0.000000e+00 0.000000e+00 0.000000e+00 0.000000e+00 0.000000e+00
<ENDHMM>
~h "a"
<BEGINHMM>
<NUMSTATES> 5
<STATE> 2
<MEAN> 39
 -9.212063e+00 -8.149799e+00 -4.072608e+00 -5.663464e+00 4.216022e+00 2.196287e+00 2.976897e+00 -2.143856e+00 2.031949e+00 4.317474e-01 9.782909e-01 -8.095330e+00 6.198531e+01 1.718605e+00 -2.182179e+00 -1.673367e+00 -1.721319e+00 7.932581e-02 1.815292e+00 -3.751548e-01 7.269918e-03 -6.582184e-01 -6.855714e-02 -1.803611e-02 -3.156816e+00 3.330956e+00 2.423621e-01 -2.000150e-01 3.509451e-02 -2.464663e-01 -2.950575e-01 1.371766e-01 -2.221060e-01 4.773110e-02 2.716797e-02 -1.350859e-01 1.620211e-01 -2.568050e-01 5.285778e-01
<VARIANCE> 39
 1.566534e+01 2.943100e+01 2.426778e+01 2.137447e+01 1.300498e+01 2.589574e+01 1.272919e+01 1.879713e+01 2.287224e+01 1.712245e+01 1.966590e+01 5.284127e+01 4.448708e+01 1.582587e+00 2.049976e+00 1.798285e+00 1.934031e+00 2.264389e+00 1.887192e+00 1.726101e+00 2.174046e+00 2.136474e+00 2.395226e+00 2.494013e+00 3.950279e+00 3.097644e+00 3.500900e-01 5.462794e-01 5.513533e-01 4.413634e-01 3.682526e-01 4.366105e-01 3.424888e-01 3.806095e-01 3.813638e-01 3.856059e-01 3.854741e-01 1.095598e+00 6.653666e-01
<GCONST> 1.122009e+02
<STATE> 3
<MEAN> 39
 -1.739896e+00 -1.642331e+01 -8.002799e+00 -1.298356e+01 -3.354639e-01 8.699720e+00 -1.197898e+00 -2.521250e+00 1.636635e+00 -1.961169e+00 2.973378e+00 -1.895918e+01 7.770798e+01 3.646794e-01 -5.118337e-01 -1.248139e-01 -1.652855e-01 -5.768482e-01 3.108895e-01 -6.098161e-01 -1.218553e-01 -3.338011e-02 1.020108e-01 -2.176901e-01 -1.539700e-01 1.159421e+00 -3.360754e-01 3.153632e-01 1.941315e-01 4.587804e-01 2.408509e-01 -2.569035e-01 1.541618e-01 -3.396564e-02 1.355371e-02 2.530062e-01 -2.486938e-01 6.040701e-01 -5.557228e-01
<VARIANCE> 39
 2.865173e+00 9.510798e+00 6.887006e+00 1.153004e+01 1.532653e+01 1.982818e+01 1.233571e+01 1.828941e+01 3.730171e+01 1.794595e+01 2.123311e+01 1.532467e+01 9.528352e+00 7.909371e-01 1.262243e+00 6.987611e-01 1.702150e+00 1.113991e+00 9.374723e-01 8.769589e-01 8.452829e-01 8.547231e-01 1.341137e+00 1.504409e+00 1.804927e+00 1.615342e+00 1.141374e-01 2.399589e-01 1.518061e-01 1.710638e-01 1.924626e-01 1.805984e-01 1.626573e-01 1.706055e-01 1.960041e-01 2.071425e-01 1.826995e-01 2.915179e-01 2.220764e-01
<GCONST> 8.473527e+01
<STATE> 4
<MEAN> 39
 -2.542482e+00 -1.692003e+01 -7.152059e+00 -8.682293e+00 4.617794e-01 9.111550e+00 -2.272019e+00 -3.083888e+00 2.741272e-01 2.416148e+00 -2.852108e+00 -1.368564e+01 7.916309e+01 -7.428973e-01 1.023060e+00 1.280499e+00 1.659163e+00 1.220021e+00 -6.832504e-02 6.268697e-01 -6.810786e-01 1.110875e+00 6.642033e-01 -9.324784e-01 2.107367e+00 -1.388144e+00 -5.802120e-01 2.185086e-01 3.894705e-01 3.845634e-02 6.160581e-01 8.025140e-02 8.694878e-02 7.111487e-02 6.874599e-01 -2.206759e-01 2.909683e-01 2.680694e-01 -5.958853e-01
<VARIANCE> 39
 3.025394e+00 1.274319e+01 8.883578e+00 1.255176e+01 1.315518e+01 1.908645e+01 1.608378e+01 1.785253e+01 2.333756e+01 1.547996e+01 3.359970e+01 1.882248e+01 8.188616e+00 1.006730e+00 1.555049e+00 1.142393e+00 1.044582e+00 1.992107e+00 1.111634e+00 1.003352e+00 1.130104e+00 2.520964e+00 1.276833e+00 1.299496e+00 1.507475e+00 1.575241e+00 2.578464e-01 2.860851e-01 1.459690e-01 2.377106e-01 2.906554e-01 1.878985e-01 2.933171e-01 3.048025e-01 2.244276e-01 2.084279e-01 3.267612e-01 3.141434e-01 1.309290e-01
<GCONST> 9.085059e+01
<TRANSP> 5
 0.000000e+00 1.000000e+00 0.000000e+00 0.000000e+00 0.000000e+00
 0.000000e+00 7.799204e-01 2.200796e-01 0.000000e+00 0.000000e+00
 0.000000e+00 0.000000e+00 8.514105e-01 1.485895e-01 0.000000e+00
 0.000000e+00 0.000000e+00 0.000000e+00 7.186928e-01 2.813072e-01
 0.000000e+00 0.000000e+00 0.000000e+00 0.000000e+00 0.000000e+00
<ENDHMM>
~h "b"
<BEGINHMM>
<NUMSTATES> 5
<STATE> 2
<MEAN> 39
 -6.863321e+00 -3.540056e+00 2.568134e+01 -7.431985e-01 -1.267636e+01 -4.493412e+00 -6.862907e+00 -1.110839e+01 1.557539e+00 -1.680069e+01 5.681814e+00 5.137929e-01 6.948806e+01 1.044769e+00 -2.051466e-01 -2.308986e+00 1.608345e+00 1.015153e+00 -3.073198e-01 3.800482e-01 4.531340e-01 -8.942922e-01 1.768249e+00 -1.138770e+00 -1.592272e-01 -1.773096e+00 -2.271778e-01 7.411623e-01 -1.392347e+00 8.759636e-02 1.423050e+00 -1.021179e-01 6.183391e-01 4.789912e-01 9.943119e-02 7.199836e-01 -2.866899e-01 -2.899693e-01 -6.729705e-01
<VARIANCE> 39
 5.685951e+00 1.817018e+01 2.240199e+01 1.137967e+01 1.902987e+01 1.578639e+01 1.520971e+01 1.963629e+01 2.711538e+01 2.200658e+01 1.374751e+01 1.444747e+01 5.461085e+00 3.010060e-01 2.059683e+00 2.569040e+00 8.824745e-01 4.247618e+00 1.172364e+00 1.145591e+00 2.028323e+00 1.523773e+00 1.745495e+00 1.631018e+00 1.230826e+00 1.093670e+00 5.931173e-02 1.190064e-01 1.683238e-01 2.371478e-01 3.937883e-01 2.651697e-01 2.085209e-01 2.935874e-01 2.639949e-01 2.279598e-01 2.779980e-01 2.120367e-01 4.116389e-02
<GCONST> 8.913566e+01
<STATE> 3
<MEAN> 39
 -4.688294e+00 -2.282898e+00 1.602044e+01 3.444818e+00 -7.476918e+00 -6.735788e+00 -5.408528e+00 -7.945371e+00 5.639562e-01 -1.115475e+01 3.154777e+00 5.064387e-01 6.408536e+01 -1.003768e-01 1.987731e+00 -4.579516e+00 6.393223e-01 4.745004e+00 -2.822065e-04 1.764961e+00 1.253061e+00 -5.706267e-01 3.183630e+00 -1.742943e+00 -1.096492e+00 -2.987180e+00 -5.324779e-01 2.288971e-01 7.330284e-02 -6.537552e-01 5.496979e-01 -1.465211e-01 4.364417e-01 -9.956618e-02 1.535682e-01 1.358472e-01 2.624668e-01 -1.272152e-01 3.107954e-01
<VARIANCE> 39
 2.643831e+00 2.234433e+01 3.230232e+01 9.711157e+00 3.943568e+01 1.399196e+01 1.719116e+01 1.890635e+01 2.601468e+01 2.834034e+01 1.167264e+01 1.696251e+01 1.300884e+01 5.012282e-01 1.233887e+00 1.723701e+00 1.475389e+00 1.771427e+00 1.637353e+00 1.653234e+00 2.123515e+00 1.830659e+00 1.261474e+00 1.981088e+00 1.549251e+00 3.833132e-01 5.893779e-02 3.138721e-01 5.654817e-01 1.943962e-01 9.099287e-01 2.954283e-01 3.083842e-01 4.786310e-01 3.314393e-01 3.367929e-01 2.791293e-01 2.668909e-01 2.349987e-01
<GCONST> 9.616862e+01
<STATE> 4
<MEAN> 39
 -7.326221e+00 1.317110e+00 8.828125e+00 9.394757e-01 3.567559e+00 -7.884517e+00 1.961767e-01 -7.060262e+00 -3.450936e-02 -3.665489e+00 1.130890e+00 -2.625225e+00 6.076146e+01 3.834411e-02 -3.894475e-01 -6.535444e-01 -7.353165e-02 5.955676e-01 -1.341665e+00 4.042472e-01 -8.103871e-01 7.603343e-02 1.061479e+00 7.615660e-01 -3.530836e-01 5.792364e-01 2.995210e-01 -6.906429e-01 8.519599e-01 1.072437e-01 -1.325329e+00 -1.177443e-01 -7.079079e-01 -4.764033e-01 3.322552e-01 -7.223520e-01 5.410077e-01 6.395305e-02 8.372459e-01
<VARIANCE> 39
 7.051449e+00 1.088332e+01 9.764690e+00 1.205589e+01 1.948386e+01 2.435627e+01 1.841190e+01 2.327980e+01 2.671795e+01 1.523458e+01 1.613773e+01 1.395674e+01 5.716798e+00 1.288914e+00 2.345313e+00 3.241754e+00 1.927451e+00 8.122915e+00 2.353633e+00 4.081628e+00 3.249453e+00 1.859882e+00 2.913613e+00 2.460398e+00 1.635331e+00 2.608926e+00 1.629218e-01 2.751360e-01 4.703819e-01 4.517161e-01 5.673847e-01 5.887476e-01 4.490280e-01 6.062107e-01 3.598763e-01 2.948947e-01 5.173218e-01 3.595375e-01 3.660692e-01
<GCONST> 1.067119e+02
<TRANSP> 5
 0.000000e+00 1.000000e+00 0.000000e+00 0.000000e+00 0.000000e+00
 0.000000e+00 4.204712e-01 5.795287e-01 0.000000e+00 0.000000e+00
 0.000000e+00 0.000000e+00 3.861456e-01 6.138544e-01 0.000000e+00
 0.000000e+00 0.000000e+00 0.000000e+00 7.629177e-01 2.370823e-01
 0.000000e+00 0.000000e+00 0.000000e+00 0.000000e+00 0.000000e+00
<ENDHMM>
~h "d"
<BEGINHMM>
<NUMSTATES> 5
<STATE> 2
<MEAN> 39
 -1.247732e+01 -4.067074e+00 3.331406e-01 -2.040954e+00 2.441852e+00 -5.026711e+00 2.386444e+00 -3.679292e+00 5.359132e+00 -1.609355e+00 2.255162e+00 -1.836633e+00 6.404784e+01 7.149610e-01 -9.695988e-01 -1.323515e-01 -7.717099e-01 -5.567496e-01 -9.828497e-01 -1.046679e+00 -1.540088e+00 1.623148e+00 1.226991e-01 6.224810e-01 -1.390710e+00 3.766203e+00 5.471822e-01 -7.018182e-02 2.176995e-01 -2.731743e-01 -1.699104e-01 2.117093e-01 -3.905044e-01 -3.889598e-01 3.566752e-01 2.231516e-01 2.383005e-01 -5.298629e-01 1.192025e-01
<VARIANCE> 39
 1.223331e+01 2.565932e+01 1.992977e+01 1.551159e+01 1.935258e+01 2.239084e+01 1.930361e+01 1.709810e+01 2.528117e+01 1.557093e+01 1.535183e+01 1.548524e+01 7.130133e+01 3.462904e+00 1.746506e+00 2.260689e+00 1.722360e+00 2.375523e+00 2.622331e+00 3.128450e+00 3.348692e+00 3.125335e+00 1.644034e+00 2.114034e+00 3.370022e+00 4.180585e+00 4.896429e-01 3.293621e-01 4.819392e-01 2.707984e-01 4.392574e-01 7.274472e-01 5.341156e-01 5.341437e-01 5.068937e-01 3.203326e-01 4.102129e-01 5.083728e-01 1.440775e+00
<GCONST> 1.138361e+02
<STATE> 3
<MEAN> 39
 -3.814692e+00 -1.024675e+01 1.118766e+00 -8.262185e+00 -1.285677e+00 -3.839396e+00 -3.456041e+00 -1.140754e+01 1.284004e+01 1.760406e+00 5.953930e+00 -1.252420e+01 7.616161e+01 1.232789e+00 -1.017300e+00 1.094722e-01 -9.722565e-01 -4.881597e-01 1.163114e+00 -5.071289e-01 -3.347817e-01 1.223618e-02 6.552408e-01 -4.957134e-02 -1.511618e+00 3.836580e-01 -6.254809e-01 1.058609e-01 -3.138051e-01 3.058879e-01 3.419429e-01 1.501449e-01 5.462323e-01 6.930597e-01 -7.776303e-01 7.504444e-02 -5.091986e-01 6.207651e-01 -7.404195e-01
<VARIANCE> 39
 1.139634e+01 1.786562e+01 1.250998e+01 1.529501e+01 3.197758e+01 2.111828e+01 2.404242e+01 2.941073e+01 3.989365e+01 2.277372e+01 2.504485e+01 2.086708e+01 1.397299e+01 3.087508e+00 1.382181e+00 1.606132e+00 1.608389e+00 3.767210e+00 2.028672e+00 3.355433e+00 4.079546e+00 4.677203e+00 3.105519e+00 3.526037e+00 4.042116e+00 1.751938e+00 5.749370e-01 2.710015e-01 2.526031e-01 3.558632e-01 8.219305e-01 5.408913e-01 5.693341e-01 7.482094e-01 8.785807e-01 5.507022e-01 7.759042e-01 7.919520e-01 7.194843e-01
<GCONST> 1.165010e+02
<STATE> 4
<MEAN> 39
 -3.668920e+00 -1.277412e+01 4.657610e+00 -8.665737e+00 -9.115809e+00 -4.786306e+00 -2.168030e+00 -1.665532e+00 6.457173e+00 -4.061386e+00 7.178936e+00 -1.297226e+01 7.615829e+01 -4.126127e-01 5.787809e-01 6.070634e-01 3.960467e-01 -1.720600e-01 -3.773439e-01 1.853046e-01 3.825968e-01 -6.642154e-01 1.426167e-01 -3.159747e-01 5.904253e-01 -7.183771e-01 -9.216001e-02 1.394458e-01 -9.571757e-02 1.677782e-01 1.963585e-01 -8.612409e-02 1.967459e-01 9.117166e-02 -5.016791e-02 1.028398e-01 -1.119990e-01 2.126650e-01 -1.495432e-01
<VARIANCE> 39
 5.557862e+00 2.713441e+01 6.573788e+01 1.294289e+01 4.903745e+01 5.485876e+01 1.535136e+01 5.052040e+01 4.366459e+01 3.808188e+01 4.843093e+01 3.307032e+01 1.397439e+01 4.275695e-01 1.102849e+00 2.191168e+00 8.290924e-01 2.776364e+00 2.979513e+00 1.622069e+00 3.095939e+00 2.716498e+00 2.059712e+00 4.817886e+00 2.046440e+00 7.982076e-01 8.963200e-02 1.774741e-01 2.568129e-01 1.968096e-01 2.837514e-01 4.114543e-01 2.945557e-01 5.127611e-01 3.782086e-01 1.594546e-01 6.442479e-01 3.803158e-01 6.880590e-02
<GCONST> 1.047245e+02
<TRANSP> 5
 0.000000e+00 1.000000e+00 0.000000e+00 0.000000e+00 0.000000e+00
 0.000000e+00 7.914960e-01 2.085039e-01 0.000000e+00 0.000000e+00
 0.000000e+00 0.000000e+00 7.587237e-01 2.412763e-01 0.000000e+00
 0.000000e+00 0.000000e+00 0.000000e+00 7.773626e-01 2.226373e-01
 0.000000e+00 0.000000e+00 0.000000e+00 0.000000e+00 0.000000e+00
<ENDHMM>
~h "e"
<BEGINHMM>
<NUMSTATES> 5
<STATE> 2
<MEAN> 39
 -6.636048e+00 -6.463124e+00 6.876291e+00 -2.763039e+00 -6.663138e+00 -1.228291e+01 -4.503469e+00 -5.163578e+00 1.086621e+01 -4.144815e+00 4.442722e+00 -4.776250e+00 7.342190e+01 2.810620e+00 -2.426300e+00 1.082522e+00 -1.625788e+00 -3.989341e+00 -2.277501e+00 -2.546454e+00 7.188097e-01 1.953395e+00 -6.908953e-01 1.058674e+00 -1.316388e+00 3.197946e+00 -7.869300e-01 9.032490e-02 -1.925765e-01 -1.825744e-01 9.773073e-02 5.352156e-01 6.061234e-01 5.764857e-01 -2.596104e-01 -5.968823e-02 1.668132e-01 1.640805e-01 -2.302089e-01
<VARIANCE> 39
 2.220402e+01 3.248239e+01 1.522602e+01 1.610270e+01 3.640793e+01 2.755677e+01 3.458000e+01 2.223108e+01 3.236715e+01 1.528188e+01 1.776296e+01 2.999554e+01 2.945004e+01 4.524395e+00 1.607505e+00 1.410740e+00 1.715785e+00 2.665578e+00 2.235138e+00 2.860595e+00 3.142313e+00 2.354942e+00 1.870375e+00 1.827742e+00 4.269858e+00 1.876415e+00 5.246808e-01 3.451169e-01 2.154113e-01 3.783741e-01 6.383844e-01 4.715449e-01 6.388626e-01 3.534014e-01 6.363918e-01 2.914742e-01 3.181278e-01 5.415007e-01 6.662411e-01
<GCONST> 1.134419e+02
<STATE> 3
<MEAN> 39
 -3.683944e+00 -1.337550e+01 1.017330e+01 -7.696873e+00 -1.733506e+01 -1.321909e+01 -5.149834e+00 2.286545e+00 1.177280e+01 -6.370255e+00 7.917424e+00 -4.588695e+00 7.992697e+01 -4.271952e-02 -8.429568e-02 2.936910e-01 -2.304764e-02 -9.336089e-01 -7.264366e-02 4.587933e-01 6.472561e-01 -1.002353e+00 -4.956056e-01 8.866394e-01 -3.100723e-02 1.478502e-01 -2.423251e-01 4.832105e-01 -1.958196e-02 4.336955e-01 5.986834e-01 4.581159e-02 2.183124e-01 -3.847465e-01 -6.351912e-01 1.051706e-01 -9.409703e-02 6.941213e-02 -5.463877e-01
<VARIANCE> 39
 2.088780e+00 1.006422e+01 1.636049e+01 8.262324e+00 1.734398e+01 1.499753e+01 1.455905e+01 1.898962e+01 2.878766e+01 1.822473e+01 1.855923e+01 2.763049e+01 4.960608e+00 2.524653e-01 1.177446e+00 8.946655e-01 1.265359e+00 1.262095e+00 9.309001e-01 1.343425e+00 1.984264e+00 3.970250e+00 1.103527e+00 1.340751e+00 9.320185e-01 8.376879e-01 1.342738e-01 1.429609e-01 1.888049e-01 1.959768e-01 3.182013e-01 2.665350e-01 4.685508e-01 2.700676e-01 5.226790e-01 2.815702e-01 2.857490e-01 2.804617e-01 1.497533e-01
<GCONST> 8.836910e+01
<STATE> 4
<MEAN> 39
 -4.678884e+00 -1.022328e+01 1.130398e+01 -3.366734e+00 -1.717462e+01 -1.522416e+01 -2.575216e+00 7.301538e-01 6.775808e-01 -7.582120e+00 1.309476e+01 -7.610690e+00 7.672937e+01 -9.453738e-01 1.760084e+00 4.760831e-01 1.477966e+00 2.033051e+00 -4.836678e-01 1.048882e+00 -6.851320e-01 -2.837672e+00 1.214232e+00 -9.445661e-01 7.700577e-01 -2.771690e+00 -3.291124e-01 3.870524e-01 -5.117281e-01 -2.860194e-01 9.026829e-01 3.962698e-01 3.047479e-04 -1.109826e-01 1.157018e+00 5.676284e-01 -8.848162e-01 5.790609e-01 -8.430488e-01
<VARIANCE> 39
 3.696368e+00 9.106607e+00 1.184122e+01 1.547091e+01 2.479891e+01 2.419699e+01 2.616234e+01 1.456211e+01 9.370230e+01 1.963911e+01 3.008402e+01 2.795074e+01 1.216163e+01 5.072441e-01 1.569308e+00 1.693791e+00 1.812176e+00 3.500911e+00 1.458583e+00 3.457554e+00 3.392956e+00 7.261172e+00 3.491549e+00 3.109872e+00 3.058494e+00 2.064283e+00 7.271463e-02 1.956176e-01 6.952680e-01 3.211423e-01 3.336643e-01 2.916220e-01 4.035596e-01 3.543821e-01 2.145486e+00 4.207390e-01 3.317387e-01 6.003076e-01 2.032589e-01
<GCONST> 1.073543e+02
<TRANSP> 5
 0.000000e+00 1.000000e+00 0.000000e+00 0.000000e+00 0.000000e+00
 0.000000e+00 6.329561e-01 3.670439e-01 0.000000e+00 0.000000e+00
 0.000000e+00 0.000000e+00 8.204703e-01 1.795297e-01 0.000000e+00
 0.000000e+00 0.000000e+00 0.000000e+00 6.063340e-01 3.936660e-01
 0.000000e+00 0.000000e+00 0.000000e+00 0.000000e+00 0.000000e+00
<ENDHMM>
~h "f"
<BEGINHMM>
<NUMSTATES> 5
<STATE> 2
<MEAN> 39
 -1.945859e+01 -6.507893e+00 2.149248e+00 -2.993506e+00 3.183166e+00 -4.029728e+00 2.642367e+00 -2.063386e+00 5.438959e+00 -2.337219e+00 2.668022e+00 -7.663082e-01 6.269810e+01 -4.153237e-01 -4.050627e-01 1.609267e-01 -4.906086e-02 -9.004996e-02 -2.803269e-01 -6.325664e-02 1.457006e-01 2.626952e-01 3.225168e-02 -8.339792e-02 -9.979565e-02 5.422620e-01 3.545250e-01 4.290010e-02 1.398013e-01 -2.567117e-02 -1.223934e-01 -4.421783e-03 -9.697764e-02 -8.287876e-02 -9.744244e-03 -3.285070e-02 -4.316083e-02 -3.420499e-02 3.047724e-02
<VARIANCE> 39
 7.002796e+00 8.485932e+00 6.015122e+00 7.080028e+00 9.024500e+00 1.204489e+01 1.404432e+01 1.496164e+01 1.330825e+01 1.335590e+01 1.203239e+01 1.098573e+01 1.248897e+01 9.404005e-01 6.816694e-01 7.853583e-01 8.492070e-01 1.083877e+00 1.309050e+00 1.269637e+00 1.362402e+00 1.470960e+00 1.524359e+00 1.367223e+00 1.198113e+00 5.244883e-01 2.859847e-01 1.525463e-01 1.935185e-01 2.046092e-01 2.567954e-01 2.731582e-01 3.372337e-01 3.508591e-01 2.910656e-01 3.512387e-01 2.965821e-01 2.504723e-01 1.006206e-01
<GCONST> 8.451357e+01
<STATE> 3
<MEAN> 39
 -7.577197e+00 -8.782753e+00 7.088811e+00 -1.919528e+00 -3.951048e+00 -8.187219e+00 -7.811970e+00 -1.090216e+01 9.060905e+00 -3.909955e+00 2.727855e+00 -1.775884e+00 6.856703e+01 1.619410e+00 1.602827e-01 8.925992e-01 4.049322e-01 -1.065138e+00 -6.743752e-01 -1.052583e+00 -1.582607e+00 2.215277e-01 -2.277076e-01 -3.206595e-01 2.121712e-03 4.931488e-01 -1.529952e-01 1.909957e-01 -9.954416e-03 5.226681e-02 1.368072e-01 3.470375e-02 3.477582e-01 1.617320e-02 -2.229659e-01 -2.311569e-02 -1.360264e-01 -1.286353e-02 -1.373788e-01
<VARIANCE> 39
 8.026620e+01 9.860193e+00 1.797132e+01 1.051026e+01 4.046406e+01 1.499467e+01 7.346748e+01 8.188885e+01 1.843932e+01 1.823164e+01 1.229778e+01 1.250545e+01 2.522271e+01 5.536153e+00 1.215179e+00 1.624694e+00 1.360852e+00 2.886930e+00 1.225069e+00 7.142325e+00 5.664780e+00 1.521326e+00 1.977244e+00 1.932665e+00 1.384290e+00 2.019410e+00 8.944827e-01 2.643178e-01 3.597788e-01 2.696809e-01 7.276835e-01 2.359159e-01 1.165471e+00 1.197962e+00 3.780260e-01 5.769798e-01 3.185627e-01 3.111855e-01 4.329913e-01
<GCONST> 1.133604e+02
<STATE> 4
<MEAN> 39
 -1.251902e+01 -7.452270e+00 6.835181e+00 -1.340565e+00 -5.573493e-01 -7.986067e+00 -1.087905e+00 -6.585223e+00 6.227939e+00 -2.120107e+00 -2.115750e-01 -1.876707e+00 6.620027e+01 1.758227e+00 6.328039e-01 1.369713e+00 1.757482e-01 -4.263594e-01 -2.797680e-01 -1.089610e-01 -9.426926e-01 -7.825027e-01 -7.832103e-01 -3.266917e-01 -6.961029e-01 1.419927e-01 2.760397e-01 1.775957e-01 1.364254e-01 -6.030092e-02 -3.843609e-01 4.821192e-02 -3.950900e-01 -3.850780e-01 -1.248445e-01 -4.422844e-01 4.410480e-01 1.529583e-02 1.579770e-01
<VARIANCE> 39
 6.792553e+01 1.551453e+01 1.997691e+01 2.650150e+01 3.293450e+01 3.376425e+01 4.011920e+01 7.079103e+01 2.091355e+01 1.869691e+01 2.228623e+01 1.891315e+01 2.109380e+01 7.570507e+00 2.693963e+00 3.563734e+00 2.194149e+00 5.982735e+00 2.551985e+00 7.881582e+00 3.572000e+00 2.822422e+00 6.077185e+00 2.135708e+00 1.850417e+00 3.377855e+00 5.489839e-01 4.690876e-01 5.206639e-01 4.652253e-01 6.103246e-01 4.171968e-01 5.012069e-01 5.723620e-01 3.961078e-01 7.745070e-01 4.188779e-01 4.680075e-01 2.260396e-01
<GCONST> 1.218158e+02
<TRANSP> 5
 0.000000e+00 1.000000e+00 0.000000e+00 0.000000e+00 0.000000e+00
 0.000000e+00 8.562459e-01 1.437541e-01 0.000000e+00 0.000000e+00
 0.000000e+00 0.000000e+00 6.772869e-01 3.227131e-01 0.000000e+00
 0.000000e+00 0.000000e+00 0.000000e+00 3.475606e-01 6.524394e-01
 0.000000e+00 0.000000e+00 0.000000e+00 0.000000e+00 0.000000e+00
<ENDHMM>
~h "k"
<BEGINHMM>
<NUMSTATES> 5
<STATE> 2
<MEAN> 39
 -9.762764e+00 -4.339963e+00 4.898993e+00 -1.341922e+00 -6.622749e+00 -1.122521e+01 3.673105e+00 9.689267e-01 1.917305e+00 2.525999e+00 8.329742e+00 1.377719e-01 6.043948e+01 -9.106739e-01 3.096094e-01 -2.543501e+00 -1.943661e-01 2.140724e+00 1.431016e+00 -1.978197e-01 2.049574e-01 2.376357e+00 1.441484e+00 -1.166759e+00 1.548267e+00 -2.003803e+00 8.346634e-03 -5.275248e-01 -2.108396e-01 -1.373932e-01 -1.049939e-01 5.517855e-02 -5.961223e-01 -3.119322e-01 3.648205e-02 -5.558702e-01 1.914138e-01 -5.419998e-01 1.207176e+00
<VARIANCE> 39
 8.271233e+00 5.562892e+00 3.180676e+01 1.666408e+01 2.355363e+01 3.879939e+01 1.549894e+01 3.693328e+01 5.851495e+01 2.577878e+01 1.987679e+01 2.607941e+01 1.661414e+01 8.704239e-01 1.447984e+00 2.557676e+00 1.528566e+00 2.001452e+00 2.590423e+00 2.387872e+00 2.842215e+00 6.771906e+00 3.550108e+00 2.474586e+00 4.198874e+00 5.284370e+00 2.313014e-01 1.831501e-01 8.223663e-01 4.843595e-01 3.844000e-01 5.409487e-01 3.374813e-01 5.083593e-01 2.338516e+00 5.628297e-01 4.969782e-01 7.960663e-01 5.201262e-01
<GCONST> 1.149458e+02
<STATE> 3
<MEAN> 39
 -1.248390e+01 -7.497703e+00 -4.415167e+00 -2.024694e+00 6.177496e-01 -5.810491e+00 -9.251107e-01 -1.842364e+00 5.619383e+00 3.006089e+00 4.904530e+00 -2.501243e-01 6.337236e+01 -2.000656e+00 -1.020141e+00 -8.841104e-01 1.361879e-01 1.312571e+00 -2.317962e-01 -4.639139e-01 -6.520195e-01 4.275804e-01 -3.301257e-01 -7.394220e-01 -6.683146e-01 2.865725e+00 -4.963423e-01 3.286239e-01 9.011757e-01 -8.595238e-03 -2.922415e-01 -4.538239e-01 5.046904e-01 2.018095e-01 -7.050082e-02 -2.439854e-01 3.906531e-02 2.182346e-02 2.231903e-01
<VARIANCE> 39
 1.615783e+01 2.639992e+01 6.981439e+01 2.442825e+01 2.300565e+01 3.597117e+01 2.482318e+01 3.173542e+01 3.119703e+01 1.798358e+01 2.102239e+01 1.769264e+01 3.291927e+01 3.243848e+00 2.478803e+00 7.014754e+00 2.457226e+00 2.972903e+00 4.717174e+00 2.888061e+00 4.063322e+00 4.713981e+00 2.415722e+00 2.394715e+00 2.472292e+00 2.061085e+00 4.723295e-01 5.758148e-01 1.013732e+00 4.060156e-01 5.025662e-01 8.535717e-01 5.222182e-01 5.821997e-01 8.288009e-01 4.113898e-01 4.298366e-01 4.794596e-01 9.931627e-01
<GCONST> 1.223848e+02
<STATE> 4
<MEAN> 39
 -1.793086e+01 -7.574134e+00 1.541510e+00 -2.556741e+00 2.363967e+00 -8.711751e+00 2.552840e+00 -1.223365e-01 5.666988e+00 3.716092e-01 2.960056e+00 3.594560e-01 6.654809e+01 -8.438001e-01 7.619710e-01 3.523704e-01 8.644944e-02 1.425949e-01 3.099181e-01 6.039511e-01 -1.328752e-02 2.334252e-01 -5.829909e-01 -5.290796e-01 1.026240e-01 -1.763107e-02 4.182829e-01 2.843980e-01 -8.456480e-02 2.630422e-03 -2.564700e-01 3.184527e-01 2.208414e-02 -2.506220e-02 -1.083275e-01 -9.638057e-04 7.673034e-02 2.012573e-02 -4.941074e-01
<VARIANCE> 39
 3.252959e+01 1.169869e+01 3.298462e+01 3.129051e+01 1.792455e+01 2.337190e+01 2.338790e+01 2.828058e+01 3.601286e+01 2.202455e+01 2.066327e+01 1.964368e+01 3.126816e+01 3.964256e+00 1.457204e+00 3.596509e+00 1.879497e+00 1.602523e+00 2.936308e+00 2.677919e+00 2.199969e+00 2.644237e+00 2.620520e+00 2.198595e+00 1.946106e+00 3.375154e+00 3.588929e-01 2.726586e-01 5.925936e-01 4.461929e-01 4.103163e-01 4.946763e-01 4.649540e-01 5.229353e-01 6.644738e-01 5.547541e-01 5.019104e-01 4.728264e-01 5.772753e-01
<GCONST> 1.151588e+02
<TRANSP> 5
 0.000000e+00 1.000000e+00 0.000000e+00 0.000000e+00 0.000000e+00
 0.000000e+00 7.036258e-01 2.963741e-01 0.000000e+00 0.000000e+00
 0.000000e+00 0.000000e+00 6.684091e-01 3.315908e-01 0.000000e+00
 0.000000e+00 0.000000e+00 0.000000e+00 7.276523e-01 2.723477e-01
 0.000000e+00 0.000000e+00 0.000000e+00 0.000000e+00 0.000000e+00
<ENDHMM>
~h "l"
<BEGINHMM>
<NUMSTATES> 5
<STATE> 2
<MEAN> 39
 -7.286585e+00 -2.988966e+00 1.156261e+01 -5.084337e+00 -6.591806e+00 -1.272023e+01 -9.126046e+00 -8.233549e+00 6.009664e+00 -9.569663e+00 1.578218e+00 -2.224272e+00 7.099979e+01 2.145153e-02 1.120735e-01 -4.965261e-01 9.557033e-02 1.807729e-02 -2.324095e-01 4.187468e-01 -2.034241e-01 -4.827704e-01 4.204915e-02 3.221425e-01 -2.917304e-01 -6.252625e-02 1.954109e-01 -5.046694e-01 -2.421787e-01 9.155957e-02 -6.420212e-01 -6.763120e-02 4.426745e-01 3.741128e-01 5.242997e-02 1.625410e-01 4.416015e-01 -6.797810e-03 3.235534e-01
<VARIANCE> 39
 1.677594e+01 2.458596e+01 2.419545e+01 2.287666e+01 3.349501e+01 3.367224e+01 4.225380e+01 3.329594e+01 2.079436e+01 3.091627e+01 2.840690e+01 1.908909e+01 1.611162e+01 1.991470e+00 6.321951e+00 3.198670e+00 1.621890e+00 9.580932e+00 3.249171e+00 5.625966e+00 5.110332e+00 1.963512e+00 2.334802e+00 4.819777e+00 1.860577e+00 3.610072e+00 3.045510e-01 8.050198e-01 6.618760e-01 3.361097e-01 1.178122e+00 7.036600e-01 8.228766e-01 7.809805e-01 4.212417e-01 4.387391e-01 7.011773e-01 4.161210e-01 5.324773e-01
<GCONST> 1.227212e+02
<STATE> 3
<MEAN> 39
 -5.140498e+00 -7.842968e+00 8.155906e+00 -3.087447e+00 -1.349357e+01 -1.607118e+01 -1.154564e+00 -6.972835e+00 3.149903e+00 -8.694122e+00 5.452154e+00 -3.943077e+00 7.359090e+01 -1.057692e-01 6.068983e-01 -8.706003e-02 2.149412e-01 5.381991e-01 3.330449e-01 9.511003e-01 2.853711e-01 -8.172705e-01 3.680887e-01 -4.138713e-01 -2.479940e-01 -8.477934e-01 -8.185814e-02 2.310911e-01 4.230942e-02 3.494716e-02 4.344851e-01 2.638347e-01 -1.522577e-01 6.109599e-02 -5.996165e-03 8.944062e-04 -1.346733e-01 3.747565e-02 -3.060140e-01
<VARIANCE> 39
 1.004467e+01 1.503093e+01 8.245278e+00 1.649851e+01 3.159553e+01 2.460953e+01 3.083438e+01 1.441964e+01 2.343744e+01 1.749276e+01 3.718526e+01 1.217187e+01 2.967558e+01 4.396888e-01 1.943861e+00 9.412232e-01 8.300035e-01 2.602795e+00 1.374029e+00 1.370919e+00 1.535121e+00 1.224277e+00 1.342282e+00 1.235616e+00 8.718118e-01 1.123908e+00 1.092286e-01 2.785044e-01 2.054950e-01 2.104941e-01 2.888556e-01 2.527913e-01 2.857284e-01 2.757794e-01 2.129956e-01 1.956433e-01 3.093232e-01 1.817218e-01 7.990268e-02
<GCONST> 9.180988e+01
<STATE> 4
<MEAN> 39
 -8.877413e+00 -1.847896e+00 4.592149e+00 -1.033398e-01 -6.060487e-02 -6.923109e+00 -4.970734e-01 -4.594118e+00 3.336638e+00 -2.614691e+00 9.672582e-01 -8.242428e-01 5.997934e+01 -6.193811e-01 1.026813e-01 -6.232505e-01 -2.559112e-01 6.998758e-01 8.396673e-01 7.349736e-01 5.625311e-01 -2.766554e-01 6.478730e-01 5.015578e-01 2.658965e-01 -9.480429e-01 9.709567e-02 -1.715139e-01 2.737629e-02 -6.516421e-02 -2.388830e-01 -9.447853e-02 -1.679413e-01 -1.292444e-01 1.811321e-01 -1.236859e-01 6.184679e-03 4.427397e-02 1.634091e-01
<VARIANCE> 39
 1.585098e+01 1.341272e+01 1.213929e+01 1.486268e+01 3.294665e+01 2.527538e+01 2.262251e+01 2.189210e+01 1.848948e+01 2.492621e+01 2.242875e+01 1.702731e+01 2.957704e+01 9.086360e-01 1.321833e+00 1.199955e+00 1.700036e+00 2.482418e+00 1.883321e+00 2.040880e+00 1.886219e+00 1.656127e+00 1.742607e+00 2.417160e+00 1.547241e+00 8.324142e-01 1.341176e-01 2.853937e-01 2.203205e-01 3.141371e-01 4.011779e-01 3.624816e-01 3.785864e-01 3.286144e-01 3.169462e-01 3.258276e-01 4.403065e-01 3.368760e-01 1.210980e-01
<GCONST> 1.003731e+02
<TRANSP> 5
 0.000000e+00 1.000000e+00 0.000000e+00 0.000000e+00 0.000000e+00
 0.000000e+00 7.013444e-01 2.986557e-01 0.000000e+00 0.000000e+00
 0.000000e+00 0.000000e+00 7.616903e-01 2.383097e-01 0.000000e+00
 0.000000e+00 0.000000e+00 0.000000e+00 7.038569e-01 2.961431e-01
 0.000000e+00 0.000000e+00 0.000000e+00 0.000000e+00 0.000000e+00
<ENDHMM>
~h "m"
<BEGINHMM>
<NUMSTATES> 5
<STATE> 2
<MEAN> 39
 -1.303171e+01 -1.716260e+00 5.604816e+00 -9.744256e-01 3.849348e+00 -3.068915e+00 4.613718e+00 -3.751319e+00 3.764341e+00 -9.542513e-01 3.726193e+00 1.349274e-01 5.860410e+01 2.060502e+00 7.877874e-01 7.161720e-01 1.734002e+00 1.044588e+00 -7.698501e-01 -7.424878e-01 -2.106047e+00 -7.109708e-01 -5.658597e-01 1.637971e-01 -3.297331e-01 8.523634e-01 3.268557e-01 -4.601644e-01 2.377659e-01 7.591160e-02 -6.001996e-01 -4.073260e-01 -6.279692e-01 -1.065670e+00 6.839843e-02 -3.217288e-01 9.717768e-02 -6.103059e-02 9.558653e-01
<VARIANCE> 39
 1.722824e+01 9.831860e+00 1.250730e+01 1.796807e+01 1.168827e+01 1.529178e+01 1.984373e+01 2.270815e+01 1.597744e+01 1.286010e+01 1.268324e+01 1.440060e+01 7.512742e+00 1.651029e+00 1.187835e+00 2.161023e+00 1.598451e+00 2.818616e+00 2.312454e+00 3.141977e+00 6.080572e+00 2.893682e+00 1.496153e+00 3.188366e+00 1.479362e+00 3.422047e+00 2.601601e-01 3.504887e-01 3.714798e-01 4.789415e-01 5.526693e-01 3.860311e-01 4.319172e-01 5.825124e-01 6.302520e-01 2.786017e-01 6.129848e-01 2.698166e-01 3.101630e-01
<GCONST> 1.052990e+02
<STATE> 3
<MEAN> 39
 -4.200878e+00 -2.380516e+00 7.316062e+00 4.062722e+00 3.077703e+00 -8.939142e+00 -1.283780e+00 -1.682139e+01 2.280617e-01 -4.217140e+00 6.946868e+00 -4.850318e-01 6.577246e+01 1.639423e+00 -1.780017e+00 -7.388523e-01 -1.414482e+00 -1.689126e+00 -1.031128e-01 -1.124847e+00 -1.500384e+00 1.441640e+00 -8.601405e-01 -1.321759e-01 -3.129631e-02 2.479540e+00 -3.445751e-01 -6.651886e-01 -4.839601e-01 -1.023800e+00 -5.601819e-01 7.239558e-01 1.351350e-01 1.193361e+00 1.021867e+00 1.194661e-01 -4.667261e-01 -3.217112e-01 1.452571e-01
<VARIANCE> 39
 5.325692e+00 1.471693e+01 1.102861e+01 2.060484e+01 1.727119e+01 2.600298e+01 1.542034e+01 2.528174e+01 4.384220e+01 1.669018e+01 4.242842e+01 1.804522e+01 1.560098e+01 1.402898e+00 2.697616e+00 2.837801e+00 6.134470e+00 2.701408e+00 4.456509e+00 2.558038e+00 7.086964e+00 6.890215e+00 1.382713e+00 3.983951e+00 2.217945e+00 1.926206e+00 1.758428e-01 4.531499e-01 3.965897e-01 5.019459e-01 3.545002e-01 3.671351e-01 3.638170e-01 6.932739e-01 8.976499e-01 2.954609e-01 5.906736e-01 6.625845e-01 3.113520e-01
<GCONST> 1.131908e+02
<STATE> 4
<MEAN> 39
 -2.765980e-01 -1.469435e+01 1.397023e+00 -9.557954e+00 -5.333324e+00 -8.107468e-01 -3.073576e+00 -1.133162e+01 1.602317e+01 -3.686015e+00 2.588115e+00 -9.449774e+00 7.717906e+01 3.503446e-02 -8.654014e-01 2.029937e-01 -6.051369e-01 -7.998233e-01 2.855516e-01 -5.348387e-01 1.071140e+00 1.315233e+00 1.381278e-01 -5.066540e-01 -8.345952e-01 6.636149e-01 -2.848023e-01 5.159557e-01 3.957891e-01 4.858667e-01 3.807924e-01 -3.148155e-01 7.224514e-02 1.123106e-01 -5.673128e-01 -1.398369e-02 1.584333e-01 1.872265e-01 -5.151112e-01
<VARIANCE> 39
 4.653515e+00 1.201741e+01 2.046975e+01 2.269338e+01 1.588359e+01 3.440111e+01 2.062182e+01 2.274080e+01 2.137696e+01 1.775646e+01 2.535428e+01 6.248053e+01 1.503216e+01 4.233329e-01 3.731910e+00 1.916445e+00 2.314388e+00 2.002939e+00 1.583880e+00 2.061814e+00 1.942002e+00 4.860962e+00 1.112408e+00 2.025741e+00 3.682485e+00 2.758418e+00 1.020339e-01 2.309911e-01 1.470676e-01 2.943768e-01 3.619358e-01 2.380524e-01 3.745119e-01 4.543950e-01 5.702425e-01 2.402408e-01 3.714070e-01 3.737125e-01 1.945733e-01
<GCONST> 1.028043e+02
<TRANSP> 5
 0.000000e+00 1.000000e+00 0.000000e+00 0.000000e+00 0.000000e+00
 0.000000e+00 6.316099e-01 3.683901e-01 0.000000e+00 0.000000e+00
 0.000000e+00 0.000000e+00 7.134957e-01 2.865043e-01 0.000000e+00
 0.000000e+00 0.000000e+00 0.000000e+00 8.203718e-01 1.796282e-01
 0.000000e+00 0.000000e+00 0.000000e+00 0.000000e+00 0.000000e+00
<ENDHMM>
~h "n"
<BEGINHMM>
<NUMSTATES> 5
<STATE> 2
<MEAN> 39
 -5.781364e+00 -2.722069e+00 8.233953e+00 3.263826e+00 -1.640255e+00 -9.468114e+00 -8.025185e-01 -1.101296e+01 -3.130550e-04 -2.687543e+00 2.765792e+00 -4.823369e+00 6.301055e+01 -2.083945e-01 7.183293e-01 -1.743967e-01 1.760145e-01 6.859215e-01 7.339054e-01 3.388009e-01 1.678741e-01 -2.694179e-01 5.551072e-01 -5.446097e-01 1.547823e-02 -9.721659e-01 -1.622273e-01 2.046559e-02 -9.989719e-02 -2.950789e-01 3.903304e-02 1.589150e-01 9.462696e-02 4.539317e-01 1.470673e-01 -1.186127e-01 1.066275e-01 1.301799e-01 3.302393e-02
<VARIANCE> 39
 1.161749e+01 1.216131e+01 1.406018e+01 1.422437e+01 1.857869e+01 2.360342e+01 2.667995e+01 4.297546e+01 2.395273e+01 1.595616e+01 1.456782e+01 1.501155e+01 1.113614e+01 4.649131e-01 1.218023e+00 8.293679e-01 1.135319e+00 1.608109e+00 1.218006e+00 1.873537e+00 3.396385e+00 2.083174e+00 2.256726e+00 1.123608e+00 1.248516e+00 7.519984e-01 7.362529e-02 2.969815e-01 1.897922e-01 2.373172e-01 3.147053e-01 2.100967e-01 4.183579e-01 3.230477e-01 3.702694e-01 3.589021e-01 2.418271e-01 2.219294e-01 1.650689e-01
<GCONST> 9.390797e+01
<STATE> 3
<MEAN> 39
 -9.852221e+00 -8.446194e-01 5.481236e+00 1.135215e+00 2.963189e+00 -3.637710e+00 2.322623e+00 -3.909913e+00 2.111622e+00 -1.704315e+00 1.252220e+00 -2.601672e+00 5.822918e+01 -7.255809e-01 -2.155387e-01 -9.595216e-01 -7.179449e-01 4.285429e-01 8.446934e-01 6.542723e-01 1.038050e+00 6.897196e-01 3.544018e-01 2.688523e-01 6.684475e-01 -6.945413e-01 -1.922772e-02 -2.381901e-01 -1.315461e-01 -1.639113e-01 -2.773670e-01 -2.099222e-01 -1.657463e-01 -1.359650e-01 9.629621e-02 1.749816e-02 1.742721e-01 6.357686e-02 2.013375e-01
<VARIANCE> 39
 1.502301e+01 1.436749e+01 1.373367e+01 1.344275e+01 1.998415e+01 2.479404e+01 1.822861e+01 2.310667e+01 2.411135e+01 1.462383e+01 1.438154e+01 1.539822e+01 7.330633e+00 1.278656e+00 1.777507e+00 1.381882e+00 1.419397e+00 1.952464e+00 1.914635e+00 2.482927e+00 2.467693e+00 2.338200e+00 1.543733e+00 1.683142e+00 1.364919e+00 7.357074e-01 2.401345e-01 4.089834e-01 2.678569e-01 2.791634e-01 4.073412e-01 3.838047e-01 4.484927e-01 4.645236e-01 5.314208e-01 3.574983e-01 3.739274e-01 2.830364e-01 1.457433e-01
<GCONST> 1.000399e+02
<STATE> 4
<MEAN> 39
 -1.212331e+01 -2.484723e+00 1.052805e+00 -1.911231e+00 2.662127e+00 -2.402852e+00 3.276348e+00 -1.450163e+00 3.747495e+00 -2.591524e-01 3.021119e+00 -3.179575e-02 5.554330e+01 -3.619904e-02 5.009192e-02 -6.044627e-03 3.562837e-04 9.970412e-03 -6.288875e-03 2.096603e-02 -6.436083e-02 -2.000544e-02 -6.936945e-04 6.265740e-03 1.273119e-02 7.769116e-03 3.630398e-02 1.463454e-02 1.328662e-01 8.088040e-02 -2.378517e-02 -7.485470e-02 -4.190553e-02 -1.259339e-01 -3.683346e-02 -3.613607e-02 -4.787492e-02 -7.613186e-02 1.273459e-01
<VARIANCE> 39
 2.956866e+00 2.907956e+00 5.209432e+00 6.101966e+00 8.653242e+00 1.157133e+01 1.157004e+01 1.342413e+01 1.299224e+01 1.170860e+01 1.151016e+01 1.168711e+01 2.357807e+00 4.655863e-01 5.306871e-01 9.153119e-01 9.434721e-01 9.880093e-01 1.222929e+00 1.346977e+00 1.603925e+00 1.550617e+00 1.357032e+00 1.355154e+00 1.355842e+00 2.326904e-01 9.382755e-02 9.504449e-02 1.564679e-01 1.641042e-01 2.098533e-01 2.768461e-01 2.828820e-01 3.679705e-01 3.203900e-01 2.813733e-01 2.742774e-01 2.696987e-01 5.139453e-02
<GCONST> 7.556440e+01
<TRANSP> 5
 0.000000e+00 1.000000e+00 0.000000e+00 0.000000e+00 0.000000e+00
 0.000000e+00 6.669170e-01 3.330830e-01 0.000000e+00 0.000000e+00
 0.000000e+00 0.000000e+00 5.818185e-01 4.181815e-01 0.000000e+00
 0.000000e+00 0.000000e+00 0.000000e+00 8.915457e-01 1.084543e-01
 0.000000e+00 0.000000e+00 0.000000e+00 0.000000e+00 0.000000e+00
<ENDHMM>
~h "o"
<BEGINHMM>
<NUMSTATES> 5
<STATE> 2
<MEAN> 39
 -1.967721e+00 -2.862991e+00 1.572343e+00 -1.294052e+01 -9.094116e+00 1.243871e+00 2.412091e+00 -1.223624e+01 3.711706e+00 -5.550918e+00 3.132993e+00 3.143035e+00 6.612206e+01 -1.387504e-01 1.163698e-01 -3.777820e-01 -5.346785e-01 -1.704707e-01 3.272882e-02 1.169275e-01 1.842200e-01 1.085543e-01 -3.171605e-01 -2.797662e-02 6.242604e-01 -3.616635e-01 -5.390354e-02 1.154606e-01 5.546820e-02 2.234944e-01 2.031965e-01 -9.194035e-02 -5.022472e-02 5.662294e-02 -1.593873e-01 -3.423068e-03 -7.299054e-02 -1.026093e-01 -7.580890e-02
<VARIANCE> 39
 3.856019e+01 3.147245e+01 1.372333e+01 6.339235e+01 8.169863e+01 2.486637e+01 1.508237e+01 9.281382e+01 2.390949e+01 3.034694e+01 3.273004e+01 2.819319e+01 5.488477e+01 1.393343e+00 1.633928e+00 1.094525e+00 3.546682e+00 3.994076e+00 1.870386e+00 1.712433e+00 3.009624e+00 2.482259e+00 2.137928e+00 2.785297e+00 2.455734e+00 1.106200e+00 1.959954e-01 1.685895e-01 2.518989e-01 4.274913e-01 4.349638e-01 3.639984e-01 2.508800e-01 4.647939e-01 4.734516e-01 4.795393e-01 5.335946e-01 4.515887e-01 1.928927e-01
<GCONST> 1.131678e+02
<STATE> 3
<MEAN> 39
 -7.235865e+00 -1.262623e+00 2.489080e+00 -4.156127e+00 4.772520e-01 -2.212316e+00 1.183624e+00 -7.643443e+00 3.168267e+00 -3.376243e+00 4.258165e+00 1.654812e+00 6.003168e+01 -7.403781e-01 -8.576340e-02 -1.781426e-01 8.241507e-01 5.944248e-01 -5.945268e-01 -3.379740e-01 5.459576e-01 -6.882112e-03 9.772590e-01 3.529958e-01 -1.899741e-01 -8.177287e-01 1.120739e-01 -8.159416e-03 -5.402814e-02 -1.801883e-01 -1.790521e-01 8.582557e-02 1.213268e-01 -1.056605e-02 1.800440e-02 -6.931137e-02 -1.406690e-01 -4.789865e-02 1.193078e-01
<VARIANCE> 39
 1.472574e+01 8.279325e+00 1.306966e+01 2.100261e+01 1.477796e+01 2.425004e+01 2.202406e+01 5.565061e+01 1.390528e+01 2.715285e+01 1.600892e+01 1.516959e+01 2.014148e+01 6.113104e-01 9.538198e-01 1.616573e+00 3.214720e+00 2.668015e+00 1.992496e+00 2.195321e+00 2.713672e+00 2.051634e+00 2.164925e+00 1.780774e+00 1.597143e+00 5.750700e-01 9.884667e-02 2.685847e-01 1.960511e-01 3.455682e-01 3.818136e-01 3.671380e-01 4.113526e-01 3.678296e-01 4.319108e-01 3.793083e-01 3.785554e-01 2.957876e-01 9.583646e-02
<GCONST> 9.954669e+01
<STATE> 4
<MEAN> 39
 -1.174105e+01 -2.101587e+00 2.830109e-01 -3.196828e+00 1.230231e+00 -3.278260e+00 1.956689e+00 -2.022623e+00 3.255809e+00 -7.346167e-02 3.493142e+00 8.464598e-01 5.545642e+01 -1.568220e-01 -1.074249e-01 -2.040764e-02 1.015128e-01 1.282581e-01 4.762851e-02 6.078418e-02 2.447147e-02 8.180237e-03 2.084497e-03 -5.549900e-02 -1.106279e-01 -5.868098e-02 1.928393e-02 -1.258310e-02 4.548859e-02 8.576939e-03 3.653418e-02 4.125240e-02 3.874830e-02 -2.516591e-03 -2.760714e-03 -5.538280e-02 -4.535263e-02 -4.196904e-02 7.835389e-02
<VARIANCE> 39
 1.944148e+00 2.494191e+00 4.094613e+00 6.213834e+00 8.150087e+00 9.781080e+00 1.142262e+01 1.194062e+01 1.196909e+01 1.246880e+01 1.102843e+01 1.101663e+01 7.902974e-01 1.705642e-01 3.087359e-01 4.312126e-01 6.346954e-01 8.560580e-01 1.122296e+00 1.251422e+00 1.290158e+00 1.270946e+00 1.436684e+00 1.260836e+00 1.253271e+00 6.654314e-02 4.141496e-02 7.500580e-02 1.025988e-01 1.408502e-01 1.755103e-01 2.371977e-01 2.668588e-01 2.804882e-01 2.639562e-01 3.144630e-01 2.645628e-01 2.772001e-01 4.000471e-02
<GCONST> 6.580283e+01
<TRANSP> 5
 0.000000e+00 1.000000e+00 0.000000e+00 0.000000e+00 0.000000e+00
 0.000000e+00 6.062297e-01 3.937703e-01 0.000000e+00 0.000000e+00
 0.000000e+00 0.000000e+00 4.930551e-01 5.069449e-01 0.000000e+00
 0.000000e+00 0.000000e+00 0.000000e+00 9.146673e-01 8.533268e-02
 0.000000e+00 0.000000e+00 0.000000e+00 0.000000e+00 0.000000e+00
<ENDHMM>
~h "r"
<BEGINHMM>
<NUMSTATES> 5
<STATE> 2
<MEAN> 39
 -3.574095e+00 -6.068173e+00 2.108991e+00 -4.614339e+00 -1.712028e-01 -1.763921e+00 -5.681649e+00 -6.352773e+00 1.101642e+01 -1.775644e+00 -1.474342e+00 -5.563624e+00 6.665527e+01 -5.807973e-01 7.426103e-01 -5.025074e-01 5.479591e-01 1.324386e+00 6.096287e-01 1.110594e+00 5.628147e-01 -7.958886e-01 7.349632e-01 -1.231547e-01 4.825936e-01 -1.396622e+00 -1.434133e-01 -4.579604e-02 9.593424e-03 1.868633e-04 -1.869344e-01 -1.965975e-01 1.688983e-01 5.248090e-02 -3.868641e-02 -4.538358e-02 2.217817e-01 1.322280e-01 -2.719820e-02
<VARIANCE> 39
 1.378338e+01 2.560545e+01 1.780761e+01 1.970713e+01 3.212397e+01 2.271520e+01 5.015128e+01 2.479855e+01 3.856227e+01 2.539764e+01 2.238498e+01 2.223993e+01 3.321593e+01 1.021226e+00 1.744380e+00 1.655493e+00 1.889367e+00 1.963426e+00 2.110049e+00 2.558070e+00 1.962954e+00 2.631856e+00 1.612663e+00 2.151486e+00 1.766141e+00 1.555293e+00 1.205853e-01 3.523559e-01 2.585749e-01 4.007691e-01 3.671764e-01 3.358399e-01 4.548595e-01 3.428888e-01 3.844206e-01 3.037758e-01 3.390445e-01 3.020510e-01 1.888955e-01
<GCONST> 1.062284e+02
<STATE> 3
<MEAN> 39
 -1.113671e+01 -2.913954e+00 5.552139e-01 -2.506489e+00 2.505648e+00 -2.687948e+00 1.997760e+00 -2.076689e+00 4.629742e+00 7.973697e-01 2.629523e+00 -6.269527e-01 5.677104e+01 -2.855087e-01 -1.952423e-01 -2.923107e-01 -2.339675e-01 -6.728547e-02 1.096344e-01 2.972501e-01 5.285994e-02 -2.505160e-01 1.033851e-01 1.484718e-01 2.019193e-01 -1.759670e-01 1.174628e-01 -5.959823e-02 4.497632e-02 -8.491252e-02 -8.031541e-02 2.018028e-02 -7.070679e-02 -5.713064e-02 5.070214e-02 -1.155842e-01 -5.071200e-02 -1.117984e-01 1.864135e-01
<VARIANCE> 39
 4.432265e+00 6.446605e+00 5.517781e+00 8.702691e+00 1.158747e+01 1.349621e+01 1.376733e+01 1.551688e+01 1.528816e+01 1.498964e+01 1.381882e+01 1.672515e+01 1.396532e+01 4.700719e-01 4.846536e-01 8.307618e-01 9.500912e-01 1.182404e+00 1.356403e+00 1.495520e+00 1.571861e+00 1.644313e+00 1.500082e+00 1.669345e+00 1.527012e+00 3.397713e-01 9.404380e-02 1.153890e-01 1.276913e-01 2.007089e-01 2.639772e-01 2.636360e-01 3.176133e-01 3.342783e-01 3.052329e-01 3.504955e-01 4.002323e-01 3.253237e-01 8.817978e-02
<GCONST> 8.340485e+01
<STATE> 4
<MEAN> 39
 -1.059932e+01 -7.103562e+00 -1.756158e+00 -7.350871e+00 2.729553e+00 2.357685e+00 4.172570e+00 -4.080447e+00 5.025735e+00 3.075762e+00 1.079000e+00 -3.680468e-01 6.091945e+01 2.349105e-01 -3.106487e-01 -3.608471e-01 -1.133983e+00 -6.338506e-01 2.673932e-01 6.794631e-01 3.165522e-01 3.691719e-02 -1.596916e-01 -6.371437e-01 8.462717e-02 6.575115e-01 2.755415e-01 1.646540e-01 1.497797e-01 3.069568e-02 -2.521100e-01 -3.148271e-01 -1.974303e-01 2.412392e-02 -6.280559e-04 -3.880501e-01 7.179064e-02 -2.049254e-01 2.488708e-01
<VARIANCE> 39
 1.093948e+01 1.550527e+01 1.261898e+01 3.410987e+01 2.372889e+01 3.303569e+01 1.958707e+01 2.648679e+01 1.828725e+01 2.130406e+01 2.484210e+01 3.241761e+01 2.842590e+01 1.238812e+00 1.703480e+00 1.325787e+00 2.157718e+00 1.923504e+00 2.506331e+00 1.874434e+00 2.246453e+00 2.228064e+00 2.062642e+00 3.214105e+00 2.187623e+00 1.225092e+00 2.357477e-01 4.304330e-01 2.906866e-01 4.786223e-01 4.580154e-01 4.758290e-01 3.524627e-01 5.175050e-01 4.393387e-01 4.655353e-01 6.449932e-01 4.944704e-01 3.393461e-01
<GCONST> 1.089860e+02
<TRANSP> 5
 0.000000e+00 1.000000e+00 0.000000e+00 0.000000e+00 0.000000e+00
 0.000000e+00 7.666751e-01 2.333249e-01 0.000000e+00 0.000000e+00
 0.000000e+00 0.000000e+00 7.951167e-01 2.048833e-01 0.000000e+00
 0.000000e+00 0.000000e+00 0.000000e+00 5.365663e-01 4.634337e-01
 0.000000e+00 0.000000e+00 0.000000e+00 0.000000e+00 0.000000e+00
<ENDHMM>
~h "s"
<BEGINHMM>
<NUMSTATES> 5
<STATE> 2
<MEAN> 39
 -1.932214e+01 4.395917e-01 -2.373409e-01 -1.861329e+00 1.100151e+00 -7.059422e+00 2.845433e+00 -4.884258e+00 4.599557e+00 -2.150742e+00 2.228603e+00 -1.702415e+00 6.713702e+01 -3.612862e+00 7.767908e-01 -1.188748e+00 -6.895487e-01 6.118151e-01 1.135197e+00 6.272019e-01 1.130910e+00 1.008079e+00 -2.110577e-01 -2.348618e-02 1.061238e+00 6.482077e-01 2.824384e-01 -2.719477e-02 1.306525e-02 1.624147e-01 -2.219974e-01 -3.308542e-02 7.222348e-02 -1.456119e-01 -2.082140e-01 1.236061e-01 1.640184e-01 -1.099637e-01 -8.398588e-02
<VARIANCE> 39
 7.496856e+01 1.658805e+01 3.373652e+01 1.780861e+01 1.726798e+01 2.144507e+01 1.566243e+01 2.069887e+01 2.623286e+01 1.359746e+01 1.260289e+01 1.509131e+01 1.449458e+01 4.309299e+00 1.748536e+00 3.359323e+00 1.653412e+00 2.341152e+00 2.199198e+00 2.001692e+00 1.980999e+00 2.620324e+00 1.606365e+00 1.885697e+00 1.771216e+00 9.149585e-01 1.158446e+00 3.638420e-01 6.889300e-01 3.924094e-01 3.939341e-01 5.606148e-01 3.896102e-01 4.287305e-01 4.735840e-01 3.015116e-01 3.532180e-01 3.257598e-01 2.499673e-01
<GCONST> 1.090336e+02
<STATE> 3
<MEAN> 39
 -2.776739e+01 1.957115e+00 -1.913317e+00 -2.609077e+00 3.213080e+00 -4.698094e+00 6.151966e+00 -3.091227e+00 7.822041e+00 -2.251244e+00 3.471629e+00 8.958551e-01 6.762136e+01 5.924394e-01 -1.375860e-01 4.758765e-01 -2.823815e-02 1.869544e-01 4.118135e-02 3.045057e-01 -3.236140e-02 8.811496e-02 -4.477408e-02 1.586521e-01 8.576415e-02 -6.645300e-01 4.050403e-01 -1.650464e-01 1.193310e-02 6.574349e-02 -6.468680e-03 -9.448223e-03 -1.138552e-01 5.644139e-03 -4.194304e-02 6.332684e-02 -7.941770e-04 -5.605069e-02 -1.921158e-01
<VARIANCE> 39
 8.933316e+00 8.348757e+00 1.356111e+01 1.084790e+01 1.301581e+01 1.352961e+01 1.547001e+01 1.481347e+01 1.681928e+01 1.514868e+01 1.414681e+01 1.198979e+01 6.464019e+00 1.919692e+00 1.388386e+00 1.000144e+00 1.119233e+00 1.088845e+00 1.488459e+00 1.434647e+00 1.503319e+00 1.540869e+00 1.523444e+00 1.481417e+00 1.198902e+00 6.497099e-01 1.443903e-01 1.622668e-01 2.267748e-01 2.168994e-01 2.248888e-01 3.187790e-01 3.007408e-01 3.264062e-01 3.265153e-01 3.079789e-01 3.032167e-01 2.472567e-01 4.949719e-02
<GCONST> 8.785118e+01
<STATE> 4
<MEAN> 39
 -1.420614e+01 -2.499506e+00 1.050648e+00 -9.686525e-01 3.601969e+00 -2.865166e+00 5.638569e+00 -1.104375e+00 6.641991e+00 -2.589933e-01 4.587855e+00 8.624281e-01 5.713479e+01 1.242556e+00 -1.183793e-01 -2.603505e-01 1.326104e-01 -2.033871e-01 5.427753e-01 -5.751370e-01 2.994145e-01 -7.045491e-01 2.472177e-01 -1.867979e-01 -2.071414e-01 -1.015897e+00 -4.435146e-01 1.756667e-01 -6.026583e-03 -1.445617e-01 6.011052e-03 -5.412362e-02 1.695503e-02 -1.015818e-01 -2.188971e-02 -9.560982e-02 -7.030477e-02 -1.951097e-02 3.080751e-01
<VARIANCE> 39
 6.767686e+00 5.614037e+00 8.682726e+00 7.792974e+00 1.116387e+01 1.652172e+01 1.479816e+01 1.621678e+01 1.846962e+01 1.567720e+01 1.490166e+01 1.262160e+01 5.123788e+00 1.882323e+00 7.923204e-01 9.861367e-01 1.054370e+00 1.174053e+00 1.731966e+00 1.633256e+00 1.758246e+00 1.817814e+00 1.666767e+00 1.659612e+00 1.375021e+00 1.012105e+00 1.786776e-01 1.718311e-01 2.018548e-01 1.913478e-01 2.425064e-01 3.549902e-01 3.208481e-01 3.421486e-01 3.818119e-01 3.356969e-01 3.412821e-01 2.794298e-01 9.019040e-02
<GCONST> 8.870590e+01
<TRANSP> 5
 0.000000e+00 1.000000e+00 0.000000e+00 0.000000e+00 0.000000e+00
 0.000000e+00 6.476574e-01 3.523426e-01 0.000000e+00 0.000000e+00
 0.000000e+00 0.000000e+00 9.144355e-01 8.556448e-02 0.000000e+00
 0.000000e+00 0.000000e+00 0.000000e+00 8.168781e-01 1.831219e-01
 0.000000e+00 0.000000e+00 0.000000e+00 0.000000e+00 0.000000e+00
<ENDHMM>
~h "t"
<BEGINHMM>
<NUMSTATES> 5
<STATE> 2
<MEAN> 39
 -1.466901e+01 -4.106385e+00 -7.512020e-01 -4.645472e+00 5.080479e+00 -4.515450e+00 4.475133e+00 -2.449751e+00 6.893243e+00 -4.031250e-01 2.950274e+00 5.054838e-01 6.216745e+01 -7.251146e-01 -2.283359e-01 4.047930e-02 -4.887079e-01 1.984735e-01 -7.160645e-01 -2.804317e-02 -6.540452e-03 1.882220e-01 -2.454618e-01 1.600342e-03 2.355588e-01 5.925800e-01 1.149577e-01 -1.173830e-01 1.561099e-01 1.361516e-01 9.222433e-02 3.721907e-02 -1.084279e-01 -2.594544e-02 5.953581e-02 -7.222829e-03 -3.400039e-02 -8.250427e-02 6.757997e-02
<VARIANCE> 39
 2.506784e+01 1.297729e+01 1.956720e+01 2.146466e+01 1.605990e+01 3.728758e+01 2.107827e+01 1.842154e+01 1.616080e+01 1.541164e+01 1.393922e+01 1.356628e+01 3.729551e+01 2.609924e+00 1.535862e+00 2.090502e+00 2.420289e+00 1.914335e+00 4.286765e+00 1.886862e+00 2.501391e+00 1.893986e+00 2.014558e+00 1.680181e+00 1.653638e+00 6.059236e+00 7.582763e-01 3.607735e-01 3.242082e-01 5.484613e-01 3.773080e-01 1.055849e+00 3.456396e-01 5.833914e-01 4.312856e-01 4.090495e-01 3.456077e-01 3.610767e-01 1.787471e+00
<GCONST> 1.122868e+02
<STATE> 3
<MEAN> 39
 -1.409703e+01 -6.100890e+00 1.032108e+00 -3.561782e+00 6.748178e+00 -5.215996e+00 3.341050e+00 -1.195011e+00 7.267092e+00 -1.182268e+00 2.292960e+00 6.527370e-01 6.065655e+01 1.466711e+00 3.482807e-01 -1.604518e-01 8.492903e-01 -4.768835e-01 1.434708e+00 -1.552559e-01 5.135694e-01 -6.188434e-01 3.561141e-01 7.011671e-02 -1.720906e-01 -1.851455e+00 -1.286324e-01 2.703022e-01 -1.884628e-01 -1.380377e-01 -2.963974e-01 1.527823e-02 1.702653e-01 -1.613074e-01 -1.326885e-01 3.674480e-02 1.320465e-01 4.570445e-02 1.141606e-01
<VARIANCE> 39
 1.101192e+01 7.226623e+00 8.199657e+00 1.078156e+01 1.355188e+01 1.968905e+01 1.866423e+01 1.744444e+01 1.935217e+01 1.593254e+01 1.356878e+01 1.421579e+01 1.169535e+01 1.165947e+00 1.350892e+00 9.471769e-01 1.395066e+00 1.417150e+00 1.620512e+00 1.685274e+00 1.644410e+00 1.843838e+00 1.622637e+00 1.671276e+00 1.546621e+00 5.798404e-01 3.467442e-01 1.984685e-01 2.196592e-01 2.761793e-01 2.975207e-01 4.418684e-01 2.999070e-01 3.446259e-01 3.514215e-01 3.767928e-01 3.531745e-01 3.309057e-01 1.868085e-01
<GCONST> 9.382134e+01
<STATE> 4
<MEAN> 39
 -1.232793e+01 -2.870250e+00 2.763047e-01 -2.177976e+00 3.315319e+00 -1.513290e+00 3.758905e+00 -1.124401e+00 3.843828e+00 -3.367229e-01 3.045459e+00 8.448333e-02 5.532480e+01 -3.385611e-02 7.981188e-02 6.025048e-02 5.748217e-02 -1.369135e-01 1.364475e-02 -3.133488e-02 -9.674679e-02 -1.650499e-01 -5.141694e-02 -1.369420e-02 -9.022634e-02 -1.180711e-01 -4.520204e-02 -7.144701e-02 3.090138e-02 -2.548268e-02 6.807436e-02 -8.423137e-02 -5.219143e-03 -2.389197e-02 6.825697e-02 -3.990962e-02 -2.068627e-02 -9.729177e-03 1.285269e-01
<VARIANCE> 39
 1.359852e+00 2.832083e+00 3.779966e+00 6.464732e+00 7.698936e+00 8.989070e+00 1.137596e+01 1.066596e+01 1.251755e+01 1.130430e+01 1.151329e+01 1.081640e+01 1.546609e+00 2.705716e-01 3.179441e-01 4.518135e-01 7.345480e-01 9.179838e-01 1.096201e+00 1.283989e+00 1.308274e+00 1.444119e+00 1.230499e+00 1.410876e+00 1.185949e+00 1.322489e-01 5.468090e-02 7.045085e-02 9.387048e-02 1.635431e-01 1.892838e-01 2.460508e-01 2.742571e-01 2.582279e-01 2.911790e-01 2.526447e-01 2.883706e-01 2.432686e-01 4.823074e-02
<GCONST> 6.775737e+01
<TRANSP> 5
 0.000000e+00 1.000000e+00 0.000000e+00 0.000000e+00 0.000000e+00
 0.000000e+00 8.767850e-01 1.232150e-01 0.000000e+00 0.000000e+00
 0.000000e+00 0.000000e+00 7.382681e-01 2.617320e-01 0.000000e+00
 0.000000e+00 0.000000e+00 0.000000e+00 9.008891e-01 9.911093e-02
 0.000000e+00 0.000000e+00 0.000000e+00 0.000000e+00 0.000000e+00
<ENDHMM>
~h "u"
<BEGINHMM>
<NUMSTATES> 5
<STATE> 2
<MEAN> 39
 -4.648366e+00 2.316155e-01 9.816639e+00 4.812561e+00 -1.559005e+00 -9.610091e+00 1.620100e+00 -1.415741e+01 -6.002175e-01 2.985781e-01 1.365494e+00 -4.393496e+00 6.340336e+01 1.092977e+00 -5.320402e-01 -6.541540e-02 -1.581997e-01 -8.798274e-01 -4.832075e-01 -1.035826e+00 -1.911181e+00 8.440849e-02 -1.341568e-01 2.624561e-01 -1.490016e-01 1.366667e+00 -3.029359e-02 -1.449449e-01 -4.231934e-01 -4.800349e-01 -4.887672e-02 3.820757e-01 -1.744897e-01 8.884589e-02 2.000026e-01 -1.112907e-01 3.099169e-01 2.771818e-01 -3.447328e-02
<VARIANCE> 39
 7.769774e+00 1.844343e+01 1.674083e+01 1.415715e+01 1.956957e+01 3.145513e+01 2.752277e+01 4.118848e+01 2.033636e+01 1.245049e+01 1.303076e+01 1.114331e+01 1.502022e+01 7.184092e-01 2.130391e+00 4.379922e+00 3.462495e+00 2.265373e+00 4.327553e+00 3.126079e+00 4.291763e+00 3.056880e+00 1.528264e+00 2.323061e+00 2.009861e+00 9.919453e-01 1.280505e-01 4.267726e-01 3.748281e-01 3.451561e-01 4.821604e-01 5.280250e-01 5.191398e-01 8.353134e-01 4.757143e-01 3.014835e-01 4.141220e-01 2.941386e-01 2.231130e-01
<GCONST> 1.071830e+02
<STATE> 3
<MEAN> 39
 2.038238e+00 -4.045151e+00 2.393707e+00 -6.677410e+00 -7.906620e+00 -2.801286e+00 -8.632304e+00 -2.449883e+01 2.327007e+00 -2.335417e+00 1.183017e+01 -1.839142e-01 7.057350e+01 1.405522e-01 -2.303646e-01 8.154730e-02 -5.434844e-01 -6.150424e-01 -7.417816e-03 -8.609681e-01 -2.512472e-01 6.156951e-01 8.866247e-02 6.452564e-01 -2.001716e-01 2.253258e-01 -2.277290e-01 -3.304140e-02 3.370550e-01 4.528169e-01 1.233431e-01 -4.416509e-01 1.401374e-01 4.033256e-01 1.249722e-01 7.352210e-03 -5.846716e-01 -2.604832e-01 -1.431285e-01
<VARIANCE> 39
 1.827109e+00 9.663744e+00 5.778637e+00 1.170305e+01 9.360859e+00 1.383239e+01 1.863860e+01 1.985394e+01 2.662794e+01 1.902174e+01 1.998176e+01 2.157291e+01 4.120310e+00 4.291026e-01 1.157591e+00 1.166058e+00 3.266695e+00 9.718248e-01 4.091036e+00 2.173541e+00 2.105225e+00 4.868105e+00 2.737030e+00 4.500113e+00 3.129168e+00 2.363514e-01 3.725483e-02 2.544037e-01 1.038044e-01 2.168193e-01 2.206318e-01 3.232937e-01 5.291484e-01 3.702160e-01 9.000775e-01 6.569554e-01 4.010263e-01 4.352703e-01 1.111306e-01
<GCONST> 9.338861e+01
<STATE> 4
<MEAN> 39
 -1.115843e+00 -9.208447e+00 8.244298e+00 -5.496238e-01 -1.060520e+01 -1.200811e+01 -1.271158e+01 -1.684275e+01 1.162628e+01 -7.418405e+00 1.970536e+00 -2.567396e+00 7.117704e+01 -3.618133e-01 -5.986102e-02 3.241626e-01 5.648422e-01 1.621638e-02 -4.669758e-01 3.815208e-01 1.270010e+00 7.385238e-02 -1.085005e+00 -1.168679e+00 4.397828e-01 -3.056739e-01 1.204711e-02 2.408304e-01 -1.637960e-01 -1.061330e-01 1.707764e-01 2.055952e-01 1.946499e-01 -6.764501e-03 -3.141685e-01 1.608621e-01 1.658346e-01 4.833771e-02 -1.588803e-01
<VARIANCE> 39
 3.014014e+00 1.199786e+01 1.047843e+01 1.399073e+01 8.666303e+00 1.559491e+01 1.484238e+01 2.802867e+01 1.928741e+01 3.034207e+01 2.388017e+01 1.708531e+01 4.519189e+00 1.711098e-01 1.335734e+00 1.143995e+00 1.020642e+00 9.879688e-01 1.362767e+00 1.168861e+00 1.119392e+00 1.776727e+00 1.912139e+00 1.814323e+00 7.921184e-01 3.328265e-01 4.369619e-02 2.063913e-01 1.799341e-01 1.820594e-01 2.042188e-01 2.098316e-01 2.310084e-01 2.156691e-01 3.163474e-01 4.136931e-01 3.118034e-01 2.265666e-01 5.482156e-02
<GCONST> 8.294865e+01
<TRANSP> 5
 0.000000e+00 1.000000e+00 0.000000e+00 0.000000e+00 0.000000e+00
 0.000000e+00 8.912855e-01 1.087145e-01 0.000000e+00 0.000000e+00
 0.000000e+00 0.000000e+00 8.780964e-01 1.219036e-01 0.000000e+00
 0.000000e+00 0.000000e+00 0.000000e+00 8.852831e-01 1.147169e-01
 0.000000e+00 0.000000e+00 0.000000e+00 0.000000e+00 0.000000e+00
<ENDHMM>
~h "v"
<BEGINHMM>
<NUMSTATES> 5
<STATE> 2
<MEAN> 39
 -9.030269e+00 -2.327997e-01 1.497297e+00 -3.398023e+00 8.386328e-01 -2.558256e+00 3.032241e+00 -2.359361e+00 2.508652e+00 -1.801484e+00 2.506459e+00 7.715043e-01 5.719300e+01 -7.091932e-01 -1.266439e-02 4.202325e-01 1.427028e+00 1.206460e+00 -4.204049e-01 -1.525735e-01 5.596329e-01 1.931553e-02 5.868620e-01 2.122343e-01 -5.444781e-01 -5.632362e-01 1.774767e-01 -1.165209e-01 1.133210e-01 -3.348177e-01 -3.862104e-01 5.461406e-02 -1.969482e-01 -2.997225e-01 1.241049e-01 -1.910999e-01 -1.348897e-01 -1.910026e-02 3.110280e-01
<VARIANCE> 39
 1.442788e+01 1.238047e+01 5.825910e+00 9.583029e+00 1.445648e+01 1.445049e+01 1.422662e+01 1.481645e+01 1.529474e+01 1.713961e+01 1.236321e+01 1.351835e+01 5.534733e+00 2.059076e+00 1.095247e+00 1.226388e+00 3.203743e+00 3.324370e+00 2.391392e+00 1.577504e+00 2.046963e+00 1.378464e+00 2.379633e+00 1.725867e+00 1.492336e+00 1.162221e+00 1.077204e-01 1.988780e-01 2.104793e-01 5.117658e-01 7.088463e-01 4.124731e-01 3.734293e-01 3.446529e-01 4.040707e-01 3.101003e-01 2.705809e-01 3.277393e-01 7.578393e-02
<GCONST> 9.525644e+01
<STATE> 3
<MEAN> 39
 -7.859985e+00 1.744110e+00 5.531291e+00 1.263942e+00 4.248141e+00 -2.944552e+00 1.684036e+00 -3.686397e+00 1.423250e+00 -2.810265e+00 9.876770e-01 -2.272030e+00 5.806390e+01 1.937510e-01 -3.304191e-01 8.850219e-01 8.202714e-01 3.757522e-01 -6.983299e-01 -9.171590e-01 -2.968872e-01 9.099897e-02 -1.677234e-01 -1.708110e-01 -4.373485e-01 9.350230e-01 -2.547622e-02 -6.881002e-01 -2.113625e-01 -7.187003e-01 -8.498708e-01 -2.412010e-01 -1.930702e-01 2.525334e-02 3.486690e-01 -5.046323e-02 1.016570e-01 3.062918e-01 5.462326e-01
<VARIANCE> 39
 9.984234e+00 9.754471e+00 1.433401e+01 1.840073e+01 1.682189e+01 2.214408e+01 2.420413e+01 1.684624e+01 1.249729e+01 1.163417e+01 1.275502e+01 1.238908e+01 6.065711e+00 3.132140e+00 2.744595e+00 1.807433e+00 2.321068e+00 2.628975e+00 3.093980e+00 2.514051e+00 2.756377e+00 1.819141e+00 2.278744e+00 1.601121e+00 1.637507e+00 2.529845e+00 2.648558e-01 3.469341e-01 2.800582e-01 4.333644e-01 5.149534e-01 7.200226e-01 5.299901e-01 4.853343e-01 3.282517e-01 3.155957e-01 3.068333e-01 3.076532e-01 2.131501e-01
<GCONST> 1.035186e+02
<STATE> 4
<MEAN> 39
 -9.578135e+00 -2.685325e+00 4.149666e+00 -1.684468e+00 2.364707e+00 -3.350106e+00 2.001670e+00 -2.608591e+00 3.194947e+00 -2.840485e+00 1.349361e+00 -1.139262e+00 6.122878e+01 -2.141984e-01 -1.856338e+00 2.699908e-01 -6.716913e-01 -1.657463e+00 -1.380848e+00 -1.147639e+00 3.661993e-01 1.051511e+00 3.170727e-01 6.135013e-01 4.223549e-01 1.607588e+00 4.007736e-01 -1.739474e-01 4.710449e-02 -5.203295e-01 -1.011622e+00 -2.082704e-01 -3.184517e-01 3.351552e-02 2.119085e-01 -2.962386e-02 2.323995e-01 2.467621e-01 3.046380e-01
<VARIANCE> 39
 1.436762e+01 1.953323e+01 1.830799e+01 2.279419e+01 3.410878e+01 1.884268e+01 2.473269e+01 2.009343e+01 1.412215e+01 1.700377e+01 1.131106e+01 1.489493e+01 2.341623e+01 2.139295e+00 2.122336e+00 1.823959e+00 2.481046e+00 5.299801e+00 3.208967e+00 2.817017e+00 1.803819e+00 1.722140e+00 1.981030e+00 1.583055e+00 1.277134e+00 5.579737e+00 2.485036e-01 3.306136e-01 3.951415e-01 5.643135e-01 5.654742e-01 5.727400e-01 4.910538e-01 6.325538e-01 4.183031e-01 4.349814e-01 3.931693e-01 3.504820e-01 2.058307e-01
<GCONST> 1.093529e+02
<TRANSP> 5
 0.000000e+00 1.000000e+00 0.000000e+00 0.000000e+00 0.000000e+00
 0.000000e+00 4.453856e-01 5.546144e-01 0.000000e+00 0.000000e+00
 0.000000e+00 0.000000e+00 5.286259e-01 4.713741e-01 0.000000e+00
 0.000000e+00 0.000000e+00 0.000000e+00 2.422495e-01 7.577505e-01
 0.000000e+00 0.000000e+00 0.000000e+00 0.000000e+00 0.000000e+00
<ENDHMM>
~h "x"
<BEGINHMM>
<NUMSTATES> 5
<STATE> 2
<MEAN> 39
 -9.304454e+00 -1.384418e+01 3.052743e-01 -3.493221e+00 1.017819e+01 1.059284e+01 -8.270398e-01 -3.974143e+00 9.024490e+00 2.327654e+00 -3.380333e+00 -5.979081e+00 7.108689e+01 -3.350579e+00 -1.216369e-01 1.186749e+00 6.115931e-01 3.185214e+00 -6.747708e-02 -5.109510e-01 7.125220e-01 2.956651e+00 -1.690324e-01 7.676229e-01 1.762381e+00 -1.784915e+00 -3.423881e-02 -3.378694e-01 -6.835234e-01 -3.724280e-01 -4.227662e-01 -3.651635e-01 -2.303407e-01 2.763145e-01 -2.759027e-01 5.087295e-02 2.491687e-01 -3.769738e-01 4.897514e-01
<VARIANCE> 39
 2.504864e+01 5.280313e+00 7.713791e+00 1.017415e+01 3.439840e+01 1.491243e+01 1.810142e+01 1.471375e+01 2.507377e+01 1.755753e+01 1.586890e+01 1.363036e+01 4.595150e+00 6.920002e-01 9.597730e-01 1.768408e+00 1.474419e+00 1.828252e+00 1.580003e+00 1.781919e+00 1.554015e+00 2.010050e+00 2.100024e+00 1.836200e+00 1.722994e+00 6.426337e-01 5.467825e-01 1.949368e-01 1.789141e-01 2.540596e-01 6.435645e-01 3.002646e-01 3.072702e-01 3.149248e-01 4.718347e-01 3.820955e-01 2.978428e-01 3.031787e-01 7.158436e-02
<GCONST> 9.445312e+01
<STATE> 3
<MEAN> 39
 -1.634711e+01 -1.373139e+01 -1.310238e+00 -2.787638e+00 1.443293e+01 5.820779e+00 -2.431656e+00 -1.412885e+00 1.412248e+01 3.572649e+00 3.316309e-01 -3.333398e+00 6.830165e+01 -9.491426e-02 8.171682e-01 -4.210532e-02 9.685986e-02 -1.614254e-01 -1.248443e+00 4.085676e-01 -2.323470e-02 -3.681289e-01 1.404734e-02 7.214035e-01 -5.231293e-02 -3.549753e-01 4.370589e-01 3.562415e-01 7.941652e-02 -1.955795e-02 -4.657571e-01 -8.882707e-02 4.033247e-01 -1.672460e-01 -5.306922e-01 -1.316984e-01 -1.580599e-02 -1.013645e-01 -5.010970e-02
<VARIANCE> 39
 2.789766e+00 6.727157e+00 8.068705e+00 1.080604e+01 1.073482e+01 1.712299e+01 1.543738e+01 1.701234e+01 1.831434e+01 1.953099e+01 1.714392e+01 1.845350e+01 3.621855e+00 9.168229e-01 1.067940e+00 9.691603e-01 1.002576e+00 1.647513e+00 1.717401e+00 2.289460e+00 1.829565e+00 2.804787e+00 2.072295e+00 1.544055e+00 1.806367e+00 2.100553e-01 1.979715e-01 1.562155e-01 1.871227e-01 2.072541e-01 3.242541e-01 3.405837e-01 4.038744e-01 3.265055e-01 3.738737e-01 4.348153e-01 3.232234e-01 4.633258e-01 1.381102e-01
<GCONST> 8.978321e+01
<STATE> 4
<MEAN> 39
 -1.395048e+01 -4.765375e+00 4.968243e-01 -1.947714e+00 9.310997e+00 -1.145270e+00 5.994797e+00 -3.112696e+00 7.380754e+00 1.419038e+00 4.065934e+00 -2.555041e+00 6.414291e+01 8.020179e-01 1.798748e+00 -2.959376e-01 1.673266e-01 -1.775940e+00 -3.217697e-01 1.862909e+00 3.092160e-01 -1.289237e+00 -4.002310e-01 5.157694e-02 1.019333e+00 -2.473374e+00 -1.879567e-02 -5.767617e-01 -3.581826e-01 -1.255979e-01 1.616535e-01 5.771860e-01 -6.694986e-01 3.202016e-01 3.626478e-01 1.505519e-01 -3.043970e-01 3.801969e-02 -2.480364e-01
<VARIANCE> 39
 5.612227e+00 1.154430e+01 1.150813e+01 1.130539e+01 1.451447e+01 2.153166e+01 3.118075e+01 1.819967e+01 1.719519e+01 1.425245e+01 1.424838e+01 1.744672e+01 1.961837e+01 4.836649e-01 1.653462e+00 1.408085e+00 1.223225e+00 1.227514e+00 3.055553e+00 3.680320e+00 2.142295e+00 2.046523e+00 2.004822e+00 1.632989e+00 1.634863e+00 9.173645e-01 1.197889e-01 2.177126e-01 1.929743e-01 2.312049e-01 3.045565e-01 5.192914e-01 6.242604e-01 4.148791e-01 3.834870e-01 3.780976e-01 2.970318e-01 3.962002e-01 4.327474e-01
<GCONST> 9.795106e+01
<TRANSP> 5
 0.000000e+00 1.000000e+00 0.000000e+00 0.000000e+00 0.000000e+00
 0.000000e+00 6.623164e-01 3.376836e-01 0.000000e+00 0.000000e+00
 0.000000e+00 0.000000e+00 8.522500e-01 1.477500e-01 0.000000e+00
 0.000000e+00 0.000000e+00 0.000000e+00 6.903160e-01 3.096840e-01
 0.000000e+00 0.000000e+00 0.000000e+00 0.000000e+00 0.000000e+00
<ENDHMM>
~h "y"
<BEGINHMM>
<NUMSTATES> 5
<STATE> 2
<MEAN> 39
 -4.689616e+00 -1.630446e-01 9.830823e+00 3.718642e+00 -2.321724e+00 -1.111948e+01 2.020636e-01 -2.003023e+01 2.439591e+00 1.671089e+00 -2.610579e+00 -4.558900e+00 6.361725e+01 -3.016238e-01 5.339825e-01 -1.044371e-01 2.039961e-02 6.405186e-01 4.503537e-01 7.768381e-01 1.131673e-01 -8.953420e-01 4.108950e-01 1.581190e-01 -5.531791e-01 -4.853988e-01 7.753950e-02 -4.663428e-01 -1.670697e-01 -2.023146e-01 -1.037348e-01 4.453386e-02 -4.709825e-01 4.119169e-01 2.642791e-01 -4.147198e-01 1.592811e-01 2.056985e-01 3.157445e-01
<VARIANCE> 39
 1.472179e+00 8.565216e+00 6.327417e+00 6.409710e+00 9.878672e+00 1.379728e+01 1.552306e+01 1.749039e+01 1.559343e+01 1.195244e+01 1.398516e+01 1.075414e+01 2.836332e+00 3.533963e-01 1.693369e+00 9.193521e-01 7.601386e-01 1.408319e+00 9.992691e-01 2.250721e+00 2.107791e+00 1.907288e+00 1.631362e+00 1.101354e+00 1.155254e+00 6.918817e-01 9.434045e-02 2.513871e-01 1.634710e-01 1.767319e-01 3.139112e-01 2.246176e-01 3.698787e-01 4.768178e-01 3.542588e-01 2.316057e-01 2.382394e-01 2.184974e-01 8.342163e-02
<GCONST> 8.213836e+01
<STATE> 3
<MEAN> 39
 -6.830400e+00 -4.494809e+00 6.296404e+00 1.655005e+00 1.283571e+00 -8.852410e+00 1.005707e-01 -1.133336e+01 8.114188e-01 -2.122676e+00 -6.557054e-01 -3.858913e+00 6.507497e+01 -2.243715e+00 -2.276341e+00 -8.353982e-01 -1.290966e+00 8.624572e-01 1.220012e+00 1.135786e-01 3.366591e+00 9.383717e-01 -1.358017e+00 6.522252e-01 7.783696e-01 7.556303e-01 -7.034345e-01 3.052411e-02 1.421188e-01 -2.317975e-01 -1.739842e-01 2.570292e-01 1.484572e-01 -1.037885e-01 4.632587e-01 2.567822e-01 2.180336e-02 6.582947e-02 -1.163231e-01
<VARIANCE> 39
 1.212616e+01 3.916891e+01 1.588792e+01 1.362137e+01 1.642474e+01 1.569076e+01 2.073605e+01 4.211557e+01 1.611275e+01 2.292404e+01 1.268563e+01 1.516064e+01 1.016697e+01 2.439173e+00 2.836272e+00 1.345543e+00 1.268372e+00 1.571015e+00 2.305869e+00 2.197394e+00 2.441586e+00 2.360124e+00 2.292591e+00 1.570934e+00 1.476673e+00 7.734574e-01 2.420555e-01 9.646249e-01 2.555712e-01 2.668549e-01 3.035475e-01 3.611625e-01 3.690189e-01 7.766328e-01 3.833426e-01 5.193714e-01 3.013487e-01 3.015952e-01 2.508553e-01
<GCONST> 1.037454e+02
<STATE> 4
<MEAN> 39
 -1.865779e+01 -7.946416e+00 3.332305e+00 -4.065726e+00 3.496538e+00 -3.952988e+00 1.596751e+00 -2.125149e+00 6.170207e+00 -2.510517e+00 2.108589e+00 -6.936868e-01 6.348788e+01 -1.436359e-01 1.703319e-01 -1.982694e-01 -2.111951e-01 6.303463e-02 1.483848e-01 9.093996e-03 3.505968e-01 1.387483e-01 2.365837e-01 1.545382e-01 1.666197e-01 -5.599110e-01 3.707919e-01 1.576429e-01 5.939028e-03 1.658281e-01 -5.003721e-02 -8.685040e-02 -2.190157e-02 -1.913556e-01 -1.642554e-01 3.901847e-02 -5.932210e-02 -6.083238e-02 -1.024599e-01
<VARIANCE> 39
 5.134114e+00 7.665285e+00 7.473436e+00 8.469866e+00 9.624574e+00 1.128372e+01 1.294524e+01 1.322600e+01 1.321943e+01 1.334663e+01 1.334528e+01 1.151257e+01 5.223261e+00 2.004648e+00 7.380034e-01 8.174601e-01 1.033006e+00 1.095849e+00 1.343712e+00 1.468548e+00 1.520921e+00 1.596633e+00 1.446682e+00 1.518623e+00 1.209022e+00 3.896299e-01 1.569355e-01 2.371323e-01 1.533527e-01 2.018725e-01 2.071012e-01 3.145409e-01 3.030021e-01 3.636747e-01 3.217815e-01 3.111979e-01 3.178120e-01 2.409799e-01 7.945950e-02
<GCONST> 8.399836e+01
<TRANSP> 5
 0.000000e+00 1.000000e+00 0.000000e+00 0.000000e+00 0.000000e+00
 0.000000e+00 8.524176e-01 1.475824e-01 0.000000e+00 0.000000e+00
 0.000000e+00 0.000000e+00 7.374525e-01 2.625475e-01 0.000000e+00
 0.000000e+00 0.000000e+00 0.000000e+00 9.128637e-01 8.713629e-02
 0.000000e+00 0.000000e+00 0.000000e+00 0.000000e+00 0.000000e+00
<ENDHMM>
~h "z"
<BEGINHMM>
<NUMSTATES> 5
<STATE> 2
<MEAN> 39
 -1.723947e+01 -3.283798e+00 2.459290e+00 -2.666996e+00 3.502405e+00 -4.960510e+00 5.415819e+00 -2.504736e+00 6.225430e+00 -2.287152e+00 3.106421e+00 1.114814e+00 5.999522e+01 -2.626611e+00 8.305319e-01 -9.628937e-02 -5.591379e-01 2.420364e-01 -4.081512e-01 5.160963e-01 -5.025166e-01 6.749488e-01 -4.253094e-01 6.444818e-02 2.079453e-01 1.691414e+00 -2.438012e-01 4.076198e-01 -3.115786e-01 1.480655e-02 -5.715509e-02 1.868660e-01 -1.181591e-01 3.597106e-02 -1.264825e-01 8.825910e-02 2.177476e-02 -1.159690e-01 1.246745e-01
<VARIANCE> 39
 2.486716e+01 1.008657e+01 8.818845e+00 1.182820e+01 1.154885e+01 1.577150e+01 1.812595e+01 1.689030e+01 1.947347e+01 1.548398e+01 1.347518e+01 1.330362e+01 1.076622e+01 1.895159e+00 1.620103e+00 1.315825e+00 1.147252e+00 1.415969e+00 1.831538e+00 1.860376e+00 1.600959e+00 2.075736e+00 1.716705e+00 1.610506e+00 1.382995e+00 1.008120e+00 4.024324e-01 2.200893e-01 2.301413e-01 2.963232e-01 2.839049e-01 3.964297e-01 3.955596e-01 3.485842e-01 4.214620e-01 3.586831e-01 3.245438e-01 2.782117e-01 1.628679e-01
<GCONST> 9.632608e+01
<STATE> 3
<MEAN> 39
 -2.900958e+01 3.341498e+00 -1.967151e+00 -2.571060e+00 3.676559e+00 -3.914645e+00 6.011100e+00 -3.473953e+00 6.684648e+00 -2.667234e+00 3.619127e+00 9.016814e-01 6.717919e+01 -5.373234e-01 2.845758e-01 -3.893827e-01 4.173493e-01 -6.323086e-02 2.399853e-01 9.522811e-02 7.332481e-02 -1.169960e-02 7.526965e-02 5.588759e-02 -1.290105e-02 5.023333e-01 5.050840e-01 -3.097300e-01 2.547449e-01 8.008927e-02 -2.024392e-02 -6.082051e-02 6.068233e-02 1.260029e-02 5.070077e-03 3.072371e-02 3.365427e-03 3.218742e-02 -2.237885e-01
<VARIANCE> 39
 5.286221e+00 6.799139e+00 7.643990e+00 9.485453e+00 1.054410e+01 1.127389e+01 1.224698e+01 1.337975e+01 1.393458e+01 1.380543e+01 1.356139e+01 1.167748e+01 3.165942e+00 1.120744e+00 1.309300e+00 1.050615e+00 9.853011e-01 1.083666e+00 1.355970e+00 1.447689e+00 1.412278e+00 1.407905e+00 1.455884e+00 1.446399e+00 1.236750e+00 3.334104e-01 1.293094e-01 1.296472e-01 1.857525e-01 2.230145e-01 2.233508e-01 2.641751e-01 2.879231e-01 2.976680e-01 3.018341e-01 3.006212e-01 3.036016e-01 2.466354e-01 5.175392e-02
<GCONST> 8.210337e+01
<STATE> 4
<MEAN> 39
 -2.605763e+01 9.518412e-01 3.683038e-01 -1.372613e-01 3.613240e+00 -3.531523e+00 8.838155e+00 -2.701594e+00 8.010276e+00 -1.690732e+00 4.707579e+00 1.676381e+00 6.784091e+01 2.837688e+00 -8.872057e-01 2.019571e+00 3.615065e-01 -5.634655e-01 -1.005633e+00 -4.056372e-01 -7.383451e-01 3.940623e-02 -2.718399e-01 1.198445e-02 -3.992737e-01 -1.206742e-01 9.293985e-01 -2.759743e-02 6.418325e-01 -1.367888e-01 -6.556152e-01 -4.692517e-01 -9.461268e-01 -3.753983e-01 -1.690532e-02 -5.532737e-01 -5.454815e-03 -4.035066e-01 3.428854e-01
<VARIANCE> 39
 1.228194e+01 1.743986e+01 1.416370e+01 1.428988e+01 1.879462e+01 1.635812e+01 1.932525e+01 1.799699e+01 1.708179e+01 1.492149e+01 1.555411e+01 1.468391e+01 5.229052e+00 3.574455e+00 1.524136e+00 3.256589e+00 1.310711e+00 2.308782e+00 2.056605e+00 3.490856e+00 2.316274e+00 2.087285e+00 1.960202e+00 1.829066e+00 1.806513e+00 9.006658e-01 2.820917e-01 3.142983e-01 7.286832e-01 3.224173e-01 4.785946e-01 3.947964e-01 4.869727e-01 3.664924e-01 5.285544e-01 5.385418e-01 3.800735e-01 4.213714e-01 3.134678e-01
<GCONST> 1.043451e+02
<TRANSP> 5
 0.000000e+00 1.000000e+00 0.000000e+00 0.000000e+00 0.000000e+00
 0.000000e+00 7.603332e-01 2.396667e-01 0.000000e+00 0.000000e+00
 0.000000e+00 0.000000e+00 8.701460e-01 1.298540e-01 0.000000e+00
 0.000000e+00 0.000000e+00 0.000000e+00 6.940339e-01 3.059661e-01
 0.000000e+00 0.000000e+00 0.000000e+00 0.000000e+00 0.000000e+00
<ENDHMM>
~h "OY"
<BEGINHMM>
<NUMSTATES> 5
<STATE> 2
<MEAN> 39
 -1.359998e+00 -7.262955e+00 4.793589e+00 -6.257981e+00 -4.771292e+00 -1.440501e+00 -3.275920e+00 -1.506835e+01 5.995643e+00 6.082088e-01 4.842607e+00 -4.771274e+00 6.941518e+01 6.683827e-01 -1.038643e+00 -2.175559e-01 -9.180610e-01 -7.196793e-01 3.088655e-01 -6.821896e-01 -1.705136e-01 6.872595e-01 1.493451e-01 2.371919e-01 -5.555060e-01 1.114724e+00 -1.420556e-01 -5.501023e-02 -4.016637e-02 2.447756e-02 1.025399e-02 -8.296099e-02 -1.592115e-02 3.575244e-01 1.355190e-01 -7.702118e-02 -7.039666e-02 2.688937e-02 -1.075965e-01
<VARIANCE> 39
 1.345723e+01 4.376852e+01 3.231532e+01 9.274283e+01 2.291651e+01 6.279578e+01 2.501695e+01 2.966492e+01 4.007908e+01 1.857036e+01 2.593061e+01 1.977339e+01 3.390297e+01 7.484785e-01 1.299032e+00 3.189513e+00 5.489643e+00 1.499603e+00 5.949102e+00 2.524877e+00 5.268664e+00 3.462206e+00 2.061627e+00 2.271591e+00 2.334907e+00 1.283340e+00 8.185827e-02 2.695059e-01 5.190718e-01 8.569152e-01 3.045334e-01 8.883098e-01 5.057115e-01 4.393925e-01 7.177371e-01 4.886070e-01 3.661203e-01 4.147107e-01 1.821852e-01
<GCONST> 1.157412e+02
<STATE> 3
<MEAN> 39
 -1.664512e+00 -1.366387e+01 1.061556e+01 -6.277917e+00 -1.445168e+01 -8.281372e+00 -7.406635e+00 -1.305305e+00 1.018008e+01 -7.403614e+00 5.179768e+00 -5.076840e+00 7.404723e+01 -4.842033e-01 9.454512e-01 9.710484e-01 1.231581e+00 -2.063483e-01 -1.270468e+00 3.632150e-01 2.348137e-01 -1.189337e+00 -1.171914e+00 8.511082e-03 8.672792e-01 -6.801401e-01 3.440542e-02 2.848054e-01 -3.171333e-01 -1.958383e-02 4.534449e-01 2.061342e-01 2.835275e-01 -4.742026e-01 -4.360491e-01 3.598240e-01 1.231378e-01 -7.523426e-02 -2.452969e-01
<VARIANCE> 39
 3.979761e+00 1.206984e+01 2.365196e+01 1.514984e+01 2.349670e+01 2.002097e+01 1.068409e+01 2.243960e+01 3.271724e+01 4.552594e+01 1.878101e+01 3.157099e+01 5.069417e+00 1.773452e-01 1.207382e+00 2.424699e+00 9.327028e-01 5.430799e+00 2.527143e+00 1.534663e+00 4.957967e+00 3.027567e+00 4.389251e+00 2.409931e+00 2.407401e+00 8.550466e-01 3.071517e-02 1.205391e-01 2.713668e-01 1.893786e-01 6.750112e-01 3.925574e-01 2.495306e-01 3.672658e-01 4.338826e-01 8.638275e-01 5.578907e-01 7.426427e-01 5.871587e-02
<GCONST> 9.950747e+01
<STATE> 4
<MEAN> 39
 -3.903367e+00 -2.792650e+00 8.586412e+00 1.733182e+00 -4.032306e+00 -1.334350e+01 -1.622040e-01 -9.540617e+00 -4.930596e+00 -1.882109e+00 5.559169e+00 -7.378637e+00 6.457883e+01 -1.806751e-01 1.004666e+00 -7.326049e-01 7.567570e-01 1.619922e+00 -8.387862e-02 1.047514e+00 -9.559538e-01 -1.333583e+00 1.806506e+00 -3.367150e-01 -1.048355e+00 -1.086919e+00 -3.115655e-02 -3.921579e-01 2.854948e-01 -2.696083e-01 -6.206224e-01 3.666368e-01 -3.267969e-01 4.437058e-01 7.473308e-01 -5.344582e-01 -1.074077e-01 3.747955e-01 3.190966e-01
<VARIANCE> 39
 1.886187e+00 9.449143e+00 8.383881e+00 1.037903e+01 1.136131e+01 1.094687e+01 1.799139e+01 1.689491e+01 2.003210e+01 1.940362e+01 1.389314e+01 2.085369e+01 3.357349e+00 1.636249e-01 1.880049e+00 1.169072e+00 1.236426e+00 3.133877e+00 1.248891e+00 1.970663e+00 2.012161e+00 4.138596e+00 3.023149e+00 1.438560e+00 2.390483e+00 8.754309e-01 3.258592e-02 2.746832e-01 1.741550e-01 1.888771e-01 3.718784e-01 1.600411e-01 2.803568e-01 2.425963e-01 3.977710e-01 4.000580e-01 2.589315e-01 3.711281e-01 1.230612e-01
<GCONST> 8.805173e+01
<TRANSP> 5
 0.000000e+00 1.000000e+00 0.000000e+00 0.000000e+00 0.000000e+00
 0.000000e+00 9.342324e-01 6.576762e-02 0.000000e+00 0.000000e+00
 0.000000e+00 0.000000e+00 8.936836e-01 1.063165e-01 0.000000e+00
 0.000000e+00 0.000000e+00 0.000000e+00 7.791233e-01 2.208767e-01
 0.000000e+00 0.000000e+00 0.000000e+00 0.000000e+00 0.000000e+00
<ENDHMM>
~h "aI"
<BEGINHMM>
<NUMSTATES> 5
<STATE> 2
<MEAN> 39
 -4.766077e+00 -1.331192e+01 -3.315809e+00 -8.416639e+00 -1.328222e-02 1.018299e+00 1.578456e+00 -2.661675e+00 4.651367e+00 3.172794e-01 2.065579e+00 -1.309228e+01 7.212196e+01 1.211004e+00 -1.761829e+00 -6.197533e-01 -6.814691e-01 -7.440043e-01 5.045189e-01 -4.600633e-01 7.513494e-01 4.377167e-01 -1.041265e+00 -5.712754e-02 -1.929441e+00 2.266693e+00 -2.641226e-01 1.615706e-01 3.369769e-01 1.595788e-01 -1.495829e-01 -2.372093e-01 -9.549717e-02 1.669393e-01 2.203781e-01 -1.931585e-01 -1.228355e-01 3.082749e-01 -1.046059e-01
<VARIANCE> 39
 2.879877e+01 3.780951e+01 2.252689e+01 1.760786e+01 2.295239e+01 2.144347e+01 2.127794e+01 3.027230e+01 3.428852e+01 2.805401e+01 2.680934e+01 5.175814e+01 7.021607e+01 2.306173e+00 1.881212e+00 2.215657e+00 1.462926e+00 2.004247e+00 1.975043e+00 2.078787e+00 2.186388e+00 2.920170e+00 2.246453e+00 2.467033e+00 3.251198e+00 3.003903e+00 4.842299e-01 4.372533e-01 4.169080e-01 2.831146e-01 2.970630e-01 3.938014e-01 3.935810e-01 3.932582e-01 4.054337e-01 3.739301e-01 4.757685e-01 7.611470e-01 6.167252e-01
<GCONST> 1.151858e+02
<STATE> 3
<MEAN> 39
 -2.799401e+00 -1.744268e+01 9.086790e-01 -8.957600e+00 -7.476374e+00 -3.243069e+00 -1.264967e+00 4.875977e+00 9.422167e+00 -6.415038e+00 -8.039122e-02 -1.398454e+01 7.910888e+01 -3.210692e-01 5.824313e-01 1.957561e+00 1.917845e-01 -1.675474e+00 -1.920015e+00 -2.153427e-01 1.183031e+00 1.645520e-01 -5.525569e-01 4.178287e-01 1.524736e+00 -1.540559e-01 -6.876729e-02 3.121994e-01 2.500506e-01 2.141583e-02 -1.938017e-02 -1.220302e-01 1.507722e-02 -3.379474e-01 -4.261165e-01 2.355424e-01 4.897894e-01 2.794271e-01 -2.672732e-01
<VARIANCE> 39
 4.483652e+00 1.011549e+01 2.193680e+01 7.110702e+00 2.610680e+01 3.040001e+01 1.637835e+01 2.963361e+01 4.314117e+01 2.274996e+01 1.982686e+01 2.848262e+01 9.237774e+00 1.763044e-01 7.570366e-01 8.752806e-01 5.936242e-01 8.329179e-01 1.103693e+00 1.016661e+00 1.583777e+00 1.837923e+00 1.239522e+00 3.071867e+00 1.383257e+00 4.485277e-01 5.613599e-02 1.246925e-01 1.452671e-01 1.122150e-01 1.779455e-01 2.892633e-01 2.094407e-01 3.654242e-01 2.777133e-01 1.948433e-01 3.164171e-01 3.215991e-01 9.661428e-02
<GCONST> 8.588953e+01
<STATE> 4
<MEAN> 39
 -5.025786e+00 -9.025640e+00 1.227100e+01 -5.860870e+00 -1.355920e+01 -1.146913e+01 -1.183865e+00 1.357907e+00 2.304512e+00 -7.362249e+00 8.162792e+00 -6.001012e+00 7.349181e+01 -1.109092e-01 1.230169e+00 1.563484e-01 1.057750e+00 7.124415e-01 -8.514646e-02 1.936044e-01 -1.203188e+00 -7.500821e-01 9.959480e-02 8.199508e-02 4.355753e-01 -1.350551e+00 1.827651e-02 1.539794e-03 -4.284737e-01 1.361270e-01 4.734387e-01 2.406102e-01 1.373668e-01 -8.416364e-02 1.122622e-01 1.826757e-01 -4.003760e-01 -1.929704e-01 -2.008555e-01
<VARIANCE> 39
 4.264255e+00 2.280554e+01 1.311462e+01 1.897202e+01 2.287205e+01 1.749788e+01 2.323446e+01 2.783006e+01 3.853675e+01 2.069620e+01 2.427413e+01 1.233278e+01 2.412715e+01 3.142118e-01 1.035146e+00 2.645579e+00 1.201031e+00 3.053745e+00 1.669584e+00 1.721061e+00 2.177786e+00 2.407472e+00 1.872984e+00 3.210469e+00 1.313562e+00 8.763667e-01 5.450132e-02 1.956256e-01 2.340273e-01 2.159864e-01 3.370065e-01 2.414511e-01 3.238780e-01 3.743295e-01 3.551004e-01 4.285245e-01 3.522831e-01 2.760233e-01 1.032420e-01
<GCONST> 9.696919e+01
<TRANSP> 5
 0.000000e+00 1.000000e+00 0.000000e+00 0.000000e+00 0.000000e+00
 0.000000e+00 8.123593e-01 1.876408e-01 0.000000e+00 0.000000e+00
 0.000000e+00 0.000000e+00 8.210803e-01 1.789196e-01 0.000000e+00
 0.000000e+00 0.000000e+00 0.000000e+00 8.691846e-01 1.308154e-01
 0.000000e+00 0.000000e+00 0.000000e+00 0.000000e+00 0.000000e+00
<ENDHMM>
~h "sh"
<BEGINHMM>
<NUMSTATES> 5
<STATE> 2
<MEAN> 39
 -1.787547e+01 -9.848529e+00 1.028685e+01 -5.702108e+00 1.155295e+00 -1.515617e+00 -2.758142e-01 -2.998011e+00 7.961666e+00 -3.089423e+00 3.709975e+00 -7.948680e-01 6.215460e+01 -2.998256e+00 -1.270172e+00 3.021198e+00 -1.683704e+00 -6.896527e-01 7.168295e-01 2.613733e-01 -7.914972e-01 8.103495e-01 -8.223869e-01 5.341253e-01 -4.256769e-01 2.072352e+00 -1.600438e-01 5.546860e-01 -1.365937e-01 -8.279089e-02 -8.170993e-02 6.971858e-02 2.138836e-01 -2.196803e-01 -2.387362e-01 2.551505e-02 -3.096950e-02 8.558822e-03 7.965045e-02
<VARIANCE> 39
 2.334007e+01 1.196838e+01 3.244979e+01 1.815931e+01 1.244090e+01 1.809204e+01 2.045869e+01 2.032728e+01 2.236349e+01 1.990919e+01 1.436100e+01 1.546367e+01 1.341859e+01 8.035927e-01 1.986529e+00 1.716782e+00 1.312986e+00 1.401295e+00 1.530237e+00 2.491231e+00 1.542392e+00 2.446394e+00 1.719182e+00 1.547754e+00 1.752061e+00 3.590764e-01 3.544055e-01 2.698942e-01 7.168909e-01 2.952895e-01 2.627763e-01 3.031723e-01 4.665405e-01 2.652494e-01 4.680474e-01 3.996869e-01 2.963453e-01 3.717384e-01 1.801079e-01
<GCONST> 9.991752e+01
<STATE> 3
<MEAN> 39
 -2.922114e+01 -7.863777e+00 1.670453e+01 -1.165926e+01 -3.311670e-01 2.763054e+00 1.015257e+00 -6.432488e+00 8.097587e+00 -4.394853e+00 4.469395e+00 -2.342900e+00 6.978642e+01 -5.630558e-01 2.446115e-01 -1.714637e-01 -1.008720e-01 -3.685240e-02 3.747133e-01 -1.365626e-01 -4.878627e-02 -1.624160e-01 1.366720e-01 -1.366021e-01 -1.687149e-01 5.896839e-01 6.459084e-01 -1.395540e-01 -4.096036e-01 3.330074e-01 1.396239e-02 -2.505442e-01 -7.630473e-02 1.775194e-01 -3.438860e-02 9.486341e-02 -3.683877e-02 3.105029e-02 -2.661715e-01
<VARIANCE> 39
 4.905280e+00 7.916123e+00 4.712501e+00 9.574850e+00 1.474850e+01 1.658733e+01 1.961201e+01 1.524298e+01 1.998310e+01 1.647633e+01 1.543922e+01 1.177631e+01 3.888176e+00 1.337674e+00 8.851700e-01 8.052185e-01 1.193603e+00 1.223857e+00 1.631187e+00 1.430961e+00 1.316180e+00 1.381428e+00 1.281141e+00 1.298978e+00 1.342883e+00 3.296671e-01 2.208789e-01 1.446413e-01 1.843199e-01 1.478308e-01 2.388256e-01 3.845689e-01 3.339950e-01 2.439042e-01 2.962903e-01 2.742843e-01 2.598342e-01 3.010104e-01 7.006451e-02
<GCONST> 8.451651e+01
<STATE> 4
<MEAN> 39
 -2.139170e+01 -9.825184e+00 1.037951e+01 -7.971221e+00 -1.459886e+00 5.567254e-01 3.227956e-02 -4.965910e+00 7.174175e+00 -3.042144e+00 3.716570e+00 -3.465818e+00 6.965997e+01 4.875253e+00 -6.658523e-01 -2.769983e+00 7.354242e-01 -4.714842e-01 -1.375392e+00 -2.012107e-01 2.473958e-01 8.241221e-02 7.290467e-01 1.365406e-01 -5.428508e-01 -4.110113e-01 4.449804e-01 -1.000463e-02 -1.827821e-01 -3.578631e-01 1.177438e-03 1.095084e-01 -1.024799e-01 2.470502e-02 2.888935e-01 6.601126e-02 -1.128091e-02 -2.769576e-01 2.593909e-01
<VARIANCE> 39
 6.452376e+01 9.101742e+00 2.911496e+01 1.567909e+01 3.535970e+01 3.108930e+01 1.909431e+01 1.678934e+01 1.967518e+01 1.624324e+01 1.833463e+01 1.936084e+01 8.993740e+00 3.764811e+00 2.237349e+00 1.193409e+00 1.874970e+00 4.385383e+00 2.927934e+00 2.461276e+00 1.914510e+00 2.614779e+00 1.510674e+00 1.849559e+00 4.047971e+00 4.432976e+00 1.261993e+00 2.941500e-01 4.147564e-01 2.144112e-01 1.175748e+00 5.087869e-01 4.024033e-01 4.294116e-01 3.045323e-01 3.268579e-01 3.856552e-01 3.903044e-01 7.727988e-01
<GCONST> 1.125606e+02
<TRANSP> 5
 0.000000e+00 1.000000e+00 0.000000e+00 0.000000e+00 0.000000e+00
 0.000000e+00 7.563910e-01 2.436090e-01 0.000000e+00 0.000000e+00
 0.000000e+00 0.000000e+00 8.699744e-01 1.300256e-01 0.000000e+00
 0.000000e+00 0.000000e+00 0.000000e+00 7.124736e-01 2.875264e-01
 0.000000e+00 0.000000e+00 0.000000e+00 0.000000e+00 0.000000e+00
<ENDHMM>
~h "sp"
<BEGINHMM>
<NUMSTATES> 3
<STATE> 2
~s "silst"
<TRANSP> 3
 0.000000e+00 6.334053e-01 3.665946e-01
 0.000000e+00 8.528765e-01 1.471234e-01
 0.000000e+00 0.000000e+00 0.000000e+00
<ENDHMM>
~h "ts"
<BEGINHMM>
<NUMSTATES> 5
<STATE> 2
<MEAN> 39
 -2.419746e+01 -1.404191e+00 -3.975087e+00 -3.352121e+00 3.387309e+00 -4.097353e+00 4.950091e+00 -3.314063e+00 6.202768e+00 -1.309569e+00 2.930117e+00 1.044644e+00 6.734785e+01 -9.836218e-01 7.669374e-02 8.074971e-02 -9.193338e-02 6.152601e-01 -1.751194e-01 3.500025e-01 1.404213e-01 4.407316e-01 3.241004e-02 1.624507e-01 1.255757e-01 1.313672e+00 3.965527e-01 -6.017574e-02 3.427573e-01 8.073925e-02 1.230120e-01 1.336697e-01 -8.220420e-02 1.762511e-01 -3.993495e-02 5.135818e-02 4.525116e-02 -5.789641e-02 -3.290069e-01
<VARIANCE> 39
 3.161696e+01 1.530017e+01 1.354398e+01 1.256912e+01 1.540627e+01 1.225194e+01 1.548821e+01 1.142645e+01 1.356997e+01 1.177899e+01 1.128723e+01 1.095301e+01 2.658419e+01 3.898471e+00 2.483086e+00 3.152381e+00 1.770573e+00 2.100297e+00 1.563240e+00 1.878747e+00 1.868940e+00 1.545158e+00 1.423265e+00 1.396697e+00 1.255370e+00 2.316021e+00 4.715771e-01 5.142810e-01 3.790105e-01 3.865284e-01 3.946706e-01 3.871376e-01 4.632845e-01 3.251321e-01 3.251136e-01 2.703080e-01 2.704276e-01 2.559732e-01 3.416342e-01
<GCONST> 1.019228e+02
<STATE> 3
<MEAN> 39
 -1.345586e+01 -2.135497e+00 4.229191e+00 -2.047102e+00 5.232556e+00 6.876358e-02 3.230865e+00 -3.000854e+00 4.992100e+00 -2.608486e+00 4.099854e+00 2.352915e-01 6.494423e+01 2.908880e+00 2.027384e-01 4.339441e-01 -8.267790e-01 -2.006265e+00 8.699203e-01 -8.756785e-01 -1.444437e+00 -1.028505e+00 -1.166957e+00 -5.215932e-01 9.187152e-03 -3.369201e-01 5.031453e-02 1.285507e-01 -2.481254e-01 -4.453111e-01 -6.940169e-01 -5.839768e-02 3.232653e-02 -3.244641e-01 -2.000598e-02 -2.121358e-01 -1.912166e-01 3.060613e-02 3.001158e-01
<VARIANCE> 39
 5.836201e+01 2.104828e+01 1.278108e+01 2.882172e+01 4.459151e+01 1.941676e+01 2.416186e+01 4.924632e+01 3.196120e+01 2.799900e+01 1.558802e+01 1.298391e+01 2.328636e+01 2.000904e+00 2.571204e+00 2.655870e+00 6.496490e+00 5.926033e+00 2.107000e+00 2.436927e+00 5.141362e+00 2.969793e+00 3.178352e+00 1.880233e+00 1.504221e+00 4.727655e+00 4.751612e-01 5.669115e-01 4.690717e-01 8.610559e-01 5.910962e-01 4.246870e-01 5.643685e-01 1.031388e+00 7.720970e-01 5.763705e-01 3.309344e-01 3.226950e-01 7.160763e-01
<GCONST> 1.206544e+02
<STATE> 4
<MEAN> 39
 1.918461e+00 2.695479e+00 5.328077e+00 -1.855054e+01 -1.952717e+01 1.441239e+00 8.083520e-01 -1.141180e+01 5.304345e+00 -8.514511e+00 -3.005182e+00 -6.338373e-01 6.685596e+01 -1.332291e-01 2.102679e-01 -7.683033e-02 8.548096e-02 2.031369e-01 -1.105230e-01 2.108552e-01 3.822925e-01 5.034610e-02 2.261434e-01 -1.378427e-02 2.471806e-02 -3.703637e-01 -2.460978e-01 -1.314703e-02 -1.785633e-03 3.679455e-01 4.259598e-01 -9.214036e-02 2.295947e-02 1.735637e-01 -1.217803e-02 1.679070e-01 1.071894e-01 -2.408218e-02 -1.669908e-01
<VARIANCE> 39
 2.868441e+00 9.963900e+00 1.075887e+01 1.843336e+01 4.944018e+01 2.197840e+01 1.164559e+01 1.467064e+01 2.567022e+01 1.395255e+01 1.322503e+01 1.528056e+01 5.425008e+00 7.909426e-01 8.668319e-01 8.929244e-01 3.901791e+00 7.721714e+00 1.869864e+00 9.857340e-01 1.463216e+00 2.165151e+00 1.527375e+00 1.248660e+00 1.375704e+00 6.399884e-01 1.117159e-01 1.547481e-01 1.497155e-01 2.538225e-01 3.731991e-01 3.427424e-01 1.939604e-01 2.826564e-01 3.236898e-01 3.337764e-01 1.779117e-01 2.462650e-01 9.318238e-02
<GCONST> 9.051562e+01
<TRANSP> 5
 0.000000e+00 1.000000e+00 0.000000e+00 0.000000e+00 0.000000e+00
 0.000000e+00 8.980428e-01 1.019572e-01 0.000000e+00 0.000000e+00
 0.000000e+00 0.000000e+00 8.775135e-01 1.224865e-01 0.000000e+00
 0.000000e+00 0.000000e+00 0.000000e+00 9.460532e-01 5.394681e-02
 0.000000e+00 0.000000e+00 0.000000e+00 0.000000e+00 0.000000e+00
<ENDHMM>
~h "sil"
<BEGINHMM>
<NUMSTATES> 5
<STATE> 2
<MEAN> 39
 -1.245341e+01 -3.069680e+00 3.114080e-01 -2.205076e+00 2.717945e+00 -2.245046e+00 2.833507e+00 -1.578229e+00 3.419636e+00 -5.599991e-01 2.713445e+00 -3.525312e-01 5.511454e+01 -1.479216e-02 3.888052e-02 4.372160e-03 -8.719435e-03 3.558456e-03 2.745698e-02 2.869177e-02 -2.404759e-02 -6.745785e-02 -4.363911e-02 1.876756e-02 1.943303e-02 -2.837397e-02 -4.032899e-04 -1.552282e-02 5.956894e-03 -1.250795e-03 8.731121e-03 -1.066919e-03 1.404356e-04 2.974364e-03 1.935275e-02 1.097279e-02 -1.702226e-03 8.919787e-03 1.962622e-02
<VARIANCE> 39
 1.088161e+00 2.729394e+00 3.593751e+00 5.248563e+00 6.932496e+00 9.567745e+00 1.063615e+01 1.149226e+01 1.250263e+01 1.235962e+01 1.148258e+01 1.053008e+01 6.346930e-01 9.849608e-02 2.325384e-01 4.017447e-01 5.937808e-01 7.892087e-01 1.030315e+00 1.164556e+00 1.286111e+00 1.411905e+00 1.420046e+00 1.346606e+00 1.182193e+00 3.792166e-02 2.070512e-02 4.396882e-02 8.286458e-02 1.216268e-01 1.574489e-01 2.033076e-01 2.327766e-01 2.632566e-01 2.878430e-01 2.851297e-01 2.724355e-01 2.349390e-01 7.633106e-03
<GCONST> 5.900295e+01
<STATE> 3
~s "silst"
<STATE> 4
<MEAN> 39
 -1.486280e+01 -6.260614e+00 2.034260e+00 -2.834303e+00 2.472748e+00 -2.237201e+00 3.197209e+00 -2.630788e+00 4.800560e+00 -1.749260e-01 2.513408e+00 -2.596161e-01 5.852207e+01 -4.006951e-01 -6.197696e-01 1.121651e-01 -3.558566e-02 -2.032207e-01 2.151843e-01 6.779771e-02 -2.853570e-01 3.243612e-01 1.288840e-01 2.762968e-02 -1.035275e-01 7.235721e-01 1.216630e-01 1.301723e-02 -1.155899e-01 5.591701e-02 -2.649396e-02 -2.521622e-02 -4.990301e-02 5.904476e-02 5.991883e-03 -8.677412e-04 2.191110e-02 -3.159637e-02 1.871013e-02
<VARIANCE> 39
 1.411404e+01 1.660847e+01 1.382936e+01 1.186967e+01 1.437145e+01 2.129098e+01 1.930348e+01 1.757297e+01 1.972643e+01 1.680680e+01 1.439167e+01 1.336332e+01 1.553639e+01 1.695945e+00 2.167907e+00 1.317181e+00 1.336699e+00 1.670694e+00 1.598345e+00 1.727490e+00 1.791865e+00 2.027820e+00 1.837399e+00 1.481326e+00 1.545197e+00 2.379193e+00 1.722056e-01 2.514216e-01 2.558483e-01 2.569892e-01 2.568463e-01 2.908484e-01 3.382549e-01 3.346727e-01 3.639942e-01 3.280009e-01 2.762652e-01 2.809216e-01 2.208944e-01
<GCONST> 9.775547e+01
<TRANSP> 5
 0.000000e+00 1.000000e+00 0.000000e+00 0.000000e+00 0.000000e+00
 0.000000e+00 9.345960e-01 4.212213e-02 2.328188e-02 0.000000e+00
 0.000000e+00 0.000000e+00 6.316425e-01 3.683575e-01 0.000000e+00
 0.000000e+00 6.996790e-02 0.000000e+00 5.846410e-01 3.453910e-01
 0.000000e+00 0.000000e+00 0.000000e+00 0.000000e+00 0.000000e+00
<ENDHMM>
