~o
<STREAMINFO> 1 39
<VECSIZE> 39<NULLD><MFCC_D_A_0><DIAGC>
~h "@"
<BEGINHMM>
<NUMSTATES> 5
<STATE> 2
<MEAN> 39
 -3.746850e+00 -1.001567e+01 9.245127e+00 -2.660044e+00 -1.100861e+01 -1.376969e+01 -7.436705e+00 -6.611722e+00 7.130407e+00 -1.149368e+01 4.598717e+00 -4.077737e+00 7.299209e+01 4.281990e-01 1.776300e-01 1.637504e-01 2.268974e-01 -4.535939e-01 8.863912e-02 -2.443177e-02 1.299684e-01 9.482808e-03 -4.562294e-01 3.473800e-02 6.929136e-03 -2.113099e-01 -3.492417e-01 2.897342e-01 -1.393026e-01 1.695432e-01 5.190193e-01 2.655490e-01 3.003121e-01 1.353768e-01 -1.322161e-01 3.434120e-01 -2.059711e-01 8.928829e-02 -4.025495e-01
<VARIANCE> 39
 3.826875e+00 2.282905e+01 9.031806e+00 1.405178e+01 3.277373e+01 1.494379e+01 3.097805e+01 3.163531e+01 2.905551e+01 2.189736e+01 1.984290e+01 1.265114e+01 1.793344e+01 1.789329e+00 2.542218e+00 1.042218e+00 1.372149e+00 5.291241e+00 2.094749e+00 2.690284e+00 2.258160e+00 1.694128e+00 2.579275e+00 2.367927e+00 1.180477e+00 2.935323e+00 2.756130e-01 2.394005e-01 1.980989e-01 1.893062e-01 2.940105e-01 2.343128e-01 3.457980e-01 2.780138e-01 2.654136e-01 3.411223e-01 2.650566e-01 2.508541e-01 1.547689e-01
<GCONST> 1.006044e+02
<STATE> 3
<MEAN> 39
 -5.339973e+00 -2.016334e+00 9.078131e+00 3.055835e+00 -2.287856e+00 -9.021575e+00 -7.818154e-01 -5.572990e+00 2.136784e+00 -7.154123e+00 5.659550e-01 -3.980053e+00 6.382090e+01 -7.405019e-01 8.021265e-01 -3.717773e-01 9.060458e-01 2.102715e+00 1.297026e+00 7.242140e-01 5.146916e-01 -4.410370e-02 1.262781e+00 -3.895939e-01 5.108098e-01 -1.764650e+00 -2.065700e-01 -3.605259e-01 -2.427560e-01 -3.623856e-01 -1.774087e-01 1.580091e-03 1.904465e-02 8.177608e-02 1.736923e-01 9.821829e-02 3.364332e-01 2.059259e-01 1.096354e-01
<VARIANCE> 39
 4.016634e+00 1.508511e+01 8.278629e+00 1.734327e+01 3.197477e+01 2.219425e+01 2.390067e+01 5.116518e+01 1.948961e+01 1.810947e+01 2.984668e+01 1.078907e+01 1.322283e+01 6.147798e-01 1.954344e+00 9.457453e-01 1.568595e+00 3.313236e+00 1.726499e+00 2.336325e+00 2.300071e+00 2.303430e+00 2.049108e+00 1.830330e+00 1.395416e+00 1.441235e+00 7.426662e-02 3.858044e-01 1.731755e-01 3.003950e-01 5.813102e-01 3.699427e-01 3.730535e-01 2.984793e-01 3.595262e-01 2.908999e-01 3.947845e-01 2.234952e-01 1.814770e-01
<GCONST> 9.887061e+01
<STATE> 4
<MEAN> 39
 -1.097733e+01 -2.615385e+00 3.049575e+00 -4.860435e-01 1.497178e+00 -4.991778e+00 2.121534e+00 -1.614536e+00 3.857732e+00 -1.341301e+00 2.865401e+00 2.510580e-01 5.727673e+01 -4.668228e-01 -2.712816e-01 -3.733880e-01 -3.988555e-01 9.414342e-02 2.755235e-01 3.684672e-02 -8.935425e-02 9.561124e-02 3.813592e-01 2.900273e-01 1.925224e-01 -2.294001e-01 4.320023e-02 -4.088815e-02 1.094060e-01 -3.696825e-02 -1.061974e-01 -6.171850e-02 -7.009477e-02 -7.512110e-02 -1.450852e-02 -1.471330e-01 -5.940764e-02 -1.133875e-01 1.975101e-01
<VARIANCE> 39
 7.571781e+00 6.066100e+00 1.358867e+01 1.388236e+01 1.503430e+01 1.641211e+01 1.460184e+01 2.553243e+01 1.450014e+01 1.488348e+01 1.807431e+01 1.333849e+01 8.614882e+00 5.478429e-01 7.242622e-01 1.185168e+00 1.228760e+00 1.294363e+00 1.330569e+00 1.615878e+00 1.763801e+00 1.969540e+00 1.668481e+00 1.691520e+00 1.460861e+00 5.077406e-01 1.091320e-01 1.578767e-01 2.183528e-01 2.741151e-01 3.667780e-01 3.087046e-01 3.476313e-01 3.879519e-01 3.716016e-01 3.084032e-01 3.378533e-01 2.705875e-01 1.106734e-01
<GCONST> 8.982721e+01
<TRANSP> 5
 0.000000e+00 1.000000e+00 0.000000e+00 0.000000e+00 0.000000e+00
 0.000000e+00 8.093060e-01 1.906940e-01 0.000000e+00 0.000000e+00
 0.000000e+00 0.000000e+00 6.306467e-01 3.693533e-01 0.000000e+00
 0.000000e+00 0.000000e+00 0.000000e+00 8.522093e-01 1.477906e-01
 0.000000e+00 0.000000e+00 0.000000e+00 0.000000e+00 0.000000e+00
<ENDHMM>
~h "I"
<BEGINHMM>
<NUMSTATES> 5
<STATE> 2
<MEAN> 39
 -1.582743e+01 -2.893061e+00 1.540554e+01 -2.063070e+00 -3.358081e-01 -4.668097e+00 1.647461e+00 -7.428571e+00 3.899169e+00 -6.818243e+00 2.527964e+00 3.483138e-01 6.693989e+01 2.952864e+00 1.086623e+00 4.856534e+00 6.126451e-01 -2.497471e+00 -1.838150e-01 -2.947757e+00 -1.768759e+00 -6.623902e-01 -3.933506e+00 4.432651e-01 2.968971e-01 7.847258e-01 -1.377098e-01 1.801286e-01 -2.194959e-01 4.217893e-02 -5.790877e-01 6.421159e-02 -2.479619e-01 1.482425e-01 2.191186e-01 -6.783027e-01 3.568558e-01 1.761011e-01 1.507507e-01
<VARIANCE> 39
 2.775078e+01 2.914330e+01 5.466504e+01 3.000186e+01 3.568349e+01 2.356334e+01 3.872270e+01 2.685949e+01 1.798104e+01 4.814838e+01 1.704115e+01 1.319432e+01 1.086438e+01 1.586134e+00 1.663140e+00 3.252196e+00 2.349976e+00 4.311095e+00 1.999995e+00 2.701693e+00 2.141255e+00 2.014956e+00 5.044255e+00 2.320700e+00 1.838210e+00 1.006411e+00 6.139700e-01 3.751356e-01 1.054376e+00 4.547448e-01 6.854213e-01 4.739862e-01 8.442129e-01 5.219359e-01 3.584557e-01 1.151266e+00 3.648824e-01 2.622768e-01 2.445976e-01
<GCONST> 1.159234e+02
<STATE> 3
<MEAN> 39
 -9.560154e+00 1.846341e-01 2.515706e+01 -3.671297e-01 -1.136690e+01 -5.273706e+00 -5.511588e+00 -1.170836e+01 4.048573e+00 -2.020298e+01 6.020883e+00 2.176905e+00 6.977159e+01 6.080077e-01 1.062799e-01 2.306382e-01 6.644564e-03 -1.266131e+00 -2.721008e-01 -4.879768e-01 -5.003592e-01 -2.429173e-02 -8.267983e-01 3.669871e-01 2.227505e-01 1.603136e-01 -2.695366e-01 -2.594561e-01 -8.473698e-01 -1.047338e-01 5.226985e-01 -1.000419e-01 4.001192e-01 2.094470e-01 6.596638e-03 9.453388e-01 -2.099978e-01 -4.907185e-02 -1.662137e-01
<VARIANCE> 39
 4.828525e+00 6.274441e+00 1.428049e+01 8.577980e+00 1.531488e+01 1.247165e+01 1.324806e+01 1.655570e+01 1.503050e+01 1.868142e+01 1.682631e+01 1.584955e+01 3.901158e+00 4.697966e-01 8.269582e-01 2.871728e+00 9.834512e-01 2.758788e+00 1.877500e+00 1.484001e+00 1.456686e+00 1.376792e+00 4.083387e+00 1.437340e+00 9.261308e-01 7.385729e-01 2.195463e-01 9.358916e-02 3.604457e-01 1.944100e-01 4.626217e-01 2.554359e-01 3.920804e-01 3.230098e-01 3.503906e-01 5.207275e-01 3.029286e-01 2.054535e-01 1.196760e-01
<GCONST> 8.999608e+01
<STATE> 4
<MEAN> 39
 -5.710448e+00 -4.124980e+00 1.552416e+01 -2.835313e+00 -1.302157e+01 -1.007588e+01 -7.751683e+00 -1.156907e+01 9.142948e+00 -1.373070e+01 4.219851e+00 1.431720e+00 7.189788e+01 5.295810e-01 -8.325424e-01 -1.504184e+00 -5.798246e-01 6.559834e-01 2.806204e-01 -3.313068e-01 5.915000e-01 9.090993e-01 1.389129e+00 -6.653268e-01 -7.925230e-01 -1.177677e-02 -1.720185e-02 3.866325e-02 -1.083356e-01 1.057216e-01 2.832084e-01 2.836299e-01 9.292060e-02 8.797659e-02 -1.187044e-01 1.014010e-01 -1.720379e-01 -1.537560e-01 -2.027237e-01
<VARIANCE> 39
 1.042156e+01 2.673544e+01 7.551875e+01 1.510522e+01 2.508244e+01 2.860204e+01 1.604897e+01 2.189405e+01 6.456422e+01 4.088135e+01 2.072130e+01 2.323757e+01 1.265958e+01 4.095802e-01 1.226858e+00 1.961899e+00 1.311283e+00 2.316866e+00 3.094582e+00 1.250873e+00 1.650888e+00 3.906302e+00 1.743933e+00 1.343022e+00 1.664920e+00 8.981825e-01 5.653436e-02 2.350357e-01 3.605913e-01 2.713538e-01 3.241011e-01 3.940648e-01 2.088977e-01 3.471156e-01 5.374019e-01 3.833023e-01 2.232668e-01 2.671871e-01 8.333340e-02
<GCONST> 1.007342e+02
<TRANSP> 5
 0.000000e+00 1.000000e+00 0.000000e+00 0.000000e+00 0.000000e+00
 0.000000e+00 6.617464e-01 3.382535e-01 0.000000e+00 0.000000e+00
 0.000000e+00 0.000000e+00 7.805815e-01 2.194186e-01 0.000000e+00
 0.000000e+00 0.000000e+00 0.000000e+00 7.922304e-01 2.077696e-01
 0.000000e+00 0.000000e+00 0.000000e+00 0.000000e+00 0.000000e+00
<ENDHMM>
~h "U"
<BEGINHMM>
<NUMSTATES> 5
<STATE> 2
<MEAN> 39
 -5.818019e+00 -2.090088e+00 -1.152472e+00 -1.439483e+01 -3.689564e+00 2.614936e+00 6.189591e+00 -5.556408e+00 4.515833e+00 -1.760673e+00 -3.390332e+00 3.104097e+00 6.397543e+01 1.993891e+00 1.795227e+00 1.602139e+00 -5.254034e-01 -2.770516e+00 -1.001599e+00 -4.794849e-01 -1.229941e+00 -6.564028e-01 -1.688560e+00 -6.368513e-01 -5.699836e-01 1.005415e+00 2.643684e-01 -1.261431e-01 4.056531e-01 2.335452e-02 -5.744129e-01 1.232747e-01 -1.758096e-01 -4.909470e-01 -2.547089e-01 -9.125742e-02 6.049918e-02 -3.224573e-01 9.940600e-02
<VARIANCE> 39
 2.116303e+01 3.182408e+01 2.869515e+01 1.578513e+01 3.403845e+01 2.561736e+01 1.893998e+01 2.813469e+01 2.802821e+01 2.529885e+01 2.187055e+01 2.268832e+01 1.060546e+01 2.112813e+00 1.852133e+00 3.524960e+00 2.185940e+00 5.046246e+00 1.799357e+00 1.911443e+00 3.677953e+00 2.893186e+00 1.872644e+00 2.891751e+00 2.012858e+00 1.047996e+00 3.839415e-01 6.464713e-01 5.473604e-01 5.845658e-01 7.978980e-01 5.676723e-01 4.016365e-01 5.573316e-01 5.057337e-01 4.419765e-01 7.175875e-01 3.430510e-01 2.241179e-01
<GCONST> 1.143300e+02
<STATE> 3
<MEAN> 39
 3.273571e+00 9.351609e-01 7.689713e+00 -1.786029e+01 -1.974287e+01 3.076920e+00 3.677987e+00 -1.511425e+01 3.312668e-01 -9.377169e+00 -7.126579e+00 -2.736535e+00 6.928814e+01 -3.002609e-01 -4.149331e-01 -1.381242e-01 2.841305e-01 3.841742e-01 -6.902953e-02 -3.480905e-01 -1.577741e-01 -9.260604e-02 -4.505037e-01 1.126170e-01 -3.420813e-01 4.527927e-01 -8.258845e-01 -2.290607e-01 -4.895359e-01 5.623431e-01 1.239337e+00 -2.779579e-01 -4.022683e-03 6.224461e-01 1.866015e-01 3.592172e-01 3.877717e-01 2.090036e-01 -1.930636e-01
<VARIANCE> 39
 3.165487e+00 4.282559e+00 7.828211e+00 6.876023e+00 1.446476e+01 1.403552e+01 1.105528e+01 1.321043e+01 1.383043e+01 1.434217e+01 1.127466e+01 1.021198e+01 2.495579e+00 3.038992e+00 5.913820e-01 2.089653e+00 2.604520e+00 1.063002e+01 2.979847e+00 9.926252e-01 4.191174e+00 1.177994e+00 1.619808e+00 2.218937e+00 1.371922e+00 4.629861e-01 1.563631e-01 1.830949e-01 1.906716e-01 2.201735e-01 3.156129e-01 4.902922e-01 2.193018e-01 3.022411e-01 2.334142e-01 2.906526e-01 3.068154e-01 2.017307e-01 7.451607e-02
<GCONST> 8.829536e+01
<STATE> 4
<MEAN> 39
 -1.129830e+01 -4.373927e+00 1.821598e+00 -5.972155e+00 -3.075305e-01 -3.387599e+00 8.830966e-01 -7.528151e+00 1.461555e+00 -6.031182e+00 1.649910e-03 -1.809652e+00 6.953333e+01 -4.374268e+00 -1.686407e+00 -8.429835e-01 2.925296e+00 3.717885e+00 -1.318674e+00 -7.125920e-01 1.337337e+00 6.910450e-01 1.948459e+00 1.798291e+00 1.727055e-01 -5.989310e-01 3.953249e-01 1.271564e-01 3.356158e-01 -5.748982e-01 -1.171518e+00 2.757593e-01 -1.087773e-02 -4.555046e-01 1.487648e-01 -6.753676e-05 -3.398913e-01 -9.987770e-02 -1.730089e-01
<VARIANCE> 39
 4.137359e+01 1.417167e+01 5.480818e+00 2.584072e+01 3.795192e+01 1.116251e+01 1.009421e+01 1.168106e+01 1.134172e+01 1.904389e+01 1.708385e+01 9.911853e+00 3.856781e+00 1.655302e+00 9.060879e-01 9.323731e-01 2.288043e+00 5.460800e+00 1.417607e+00 1.219330e+00 1.771179e+00 1.410713e+00 1.487003e+00 1.773814e+00 1.183727e+00 4.041854e-01 7.245484e-01 2.819234e-01 1.195633e-01 4.744596e-01 6.163293e-01 2.510990e-01 2.443856e-01 2.710180e-01 2.628042e-01 4.443107e-01 3.925694e-01 2.409291e-01 8.009933e-02
<GCONST> 9.416774e+01
<TRANSP> 5
 0.000000e+00 1.000000e+00 0.000000e+00 0.000000e+00 0.000000e+00
 0.000000e+00 7.995194e-01 2.004806e-01 0.000000e+00 0.000000e+00
 0.000000e+00 0.000000e+00 8.683590e-01 1.316411e-01 0.000000e+00
 0.000000e+00 0.000000e+00 0.000000e+00 7.270545e-01 2.729455e-01
 0.000000e+00 0.000000e+00 0.000000e+00 0.000000e+00 0.000000e+00
<ENDHMM>
~h "a"
<BEGINHMM>
<NUMSTATES> 5
<STATE> 2
<MEAN> 39
 -1.033800e+01 -6.470471e+00 -2.789016e+00 -4.701931e+00 3.708743e+00 7.486205e-01 3.168197e+00 -2.006099e+00 2.761108e+00 2.458747e-01 1.538555e+00 -5.537803e+00 5.969434e+01 1.376187e+00 -1.865813e+00 -1.454175e+00 -1.428552e+00 1.917158e-01 1.521480e+00 -2.947316e-01 -2.890260e-02 -5.917099e-01 -1.415095e-02 -9.329598e-02 -2.630555e+00 2.673851e+00 2.731590e-01 -2.775283e-01 -5.894114e-02 -2.590914e-01 -1.857015e-01 2.024894e-01 -1.822053e-01 4.984841e-02 -5.716310e-02 -9.412514e-02 8.979405e-02 -3.957303e-01 5.826288e-01
<VARIANCE> 39
 1.287243e+01 2.598287e+01 2.084938e+01 1.702220e+01 1.176695e+01 2.212569e+01 1.145571e+01 1.722456e+01 1.963713e+01 1.579767e+01 1.851213e+01 4.818360e+01 3.743456e+01 1.796800e+00 2.424101e+00 1.963899e+00 2.161322e+00 1.978346e+00 2.199270e+00 1.568984e+00 2.080882e+00 2.024235e+00 2.168974e+00 2.274400e+00 5.124708e+00 4.300008e+00 2.865212e-01 4.363674e-01 4.550895e-01 3.824615e-01 3.425075e-01 3.890783e-01 3.104534e-01 3.687304e-01 3.534118e-01 3.695835e-01 3.819210e-01 9.490240e-01 5.393174e-01
<GCONST> 1.096481e+02
<STATE> 3
<MEAN> 39
 -2.151086e+00 -1.624942e+01 -8.066826e+00 -1.262877e+01 4.300425e-01 8.699741e+00 -8.444122e-01 -2.249953e+00 1.034152e+00 -1.606582e+00 2.623908e+00 -1.872729e+01 7.700458e+01 4.957937e-01 -6.328146e-01 -1.623508e-01 -2.539286e-01 -5.875236e-01 4.848104e-01 -5.757058e-01 -9.542414e-02 -3.324363e-02 5.987548e-02 -1.921743e-01 -3.404873e-01 1.375455e+00 -3.299592e-01 3.497927e-01 2.419400e-01 4.355062e-01 1.661862e-01 -2.577148e-01 1.257637e-01 -5.659122e-02 8.840910e-02 1.903037e-01 -1.941263e-01 6.332932e-01 -5.726548e-01
<VARIANCE> 39
 4.754682e+00 1.064338e+01 7.578392e+00 1.284307e+01 1.480344e+01 1.869005e+01 1.355748e+01 1.740570e+01 3.094596e+01 1.855266e+01 2.191282e+01 1.684467e+01 1.613989e+01 1.035166e+00 1.528589e+00 8.713659e-01 2.047271e+00 1.164905e+00 1.162529e+00 1.034658e+00 9.277739e-01 9.773453e-01 1.428104e+00 1.593586e+00 2.810510e+00 2.354518e+00 1.358442e-01 2.577101e-01 1.831301e-01 2.039611e-01 2.349725e-01 1.981878e-01 1.884879e-01 1.879428e-01 2.221864e-01 2.489639e-01 2.290240e-01 3.086146e-01 2.294071e-01
<GCONST> 9.023716e+01
<STATE> 4
<MEAN> 39
 -2.425489e+00 -1.629760e+01 -6.970399e+00 -8.974465e+00 -1.070661e-01 8.554497e+00 -2.136097e+00 -3.583591e+00 1.449146e+00 1.688335e+00 -1.837404e+00 -1.405647e+01 7.864794e+01 -8.274977e-01 8.834080e-01 1.158471e+00 1.427601e+00 1.177916e+00 -1.009303e-01 4.117804e-01 -5.006572e-01 8.642535e-01 7.172825e-01 -8.852152e-01 1.941968e+00 -1.168116e+00 -5.476451e-01 1.464950e-01 3.209455e-01 5.466362e-02 5.706236e-01 2.815275e-02 7.041831e-02 1.013781e-01 5.296413e-01 -1.441752e-01 2.052335e-01 2.742746e-01 -4.855366e-01
<VARIANCE> 39
 3.415108e+00 1.617605e+01 9.075786e+00 1.513892e+01 1.792981e+01 2.436672e+01 1.629871e+01 2.035620e+01 3.660287e+01 1.778626e+01 3.659163e+01 1.876534e+01 1.112275e+01 1.507725e+00 1.600020e+00 1.294273e+00 1.262735e+00 2.205533e+00 1.105187e+00 1.122515e+00 1.285039e+00 2.400790e+00 1.212038e+00 1.488066e+00 2.079854e+00 1.705680e+00 2.636002e-01 3.160239e-01 1.817341e-01 2.459687e-01 3.075957e-01 1.893947e-01 2.952578e-01 2.979984e-01 3.278271e-01 2.229691e-01 3.256227e-01 3.105167e-01 1.796583e-01
<GCONST> 9.578568e+01
<TRANSP> 5
 0.000000e+00 1.000000e+00 0.000000e+00 0.000000e+00 0.000000e+00
 0.000000e+00 7.877810e-01 2.122190e-01 0.000000e+00 0.000000e+00
 0.000000e+00 0.000000e+00 8.595532e-01 1.404468e-01 0.000000e+00
 0.000000e+00 0.000000e+00 0.000000e+00 7.319488e-01 2.680512e-01
 0.000000e+00 0.000000e+00 0.000000e+00 0.000000e+00 0.000000e+00
<ENDHMM>
~h "b"
<BEGINHMM>
<NUMSTATES> 5
<STATE> 2
<MEAN> 39
 -6.962918e+00 -3.468246e+00 2.502822e+01 -1.244395e+00 -1.219965e+01 -5.038573e+00 -7.221961e+00 -1.082241e+01 2.398681e+00 -1.647957e+01 5.776102e+00 5.414382e-01 6.977869e+01 1.048475e+00 -3.308550e-01 -1.901338e+00 1.632922e+00 7.348979e-01 -2.273442e-01 2.429511e-01 3.099795e-01 -9.340081e-01 1.583092e+00 -1.112691e+00 -1.754944e-01 -1.673464e+00 -1.726945e-01 6.675727e-01 -1.386990e+00 1.473577e-01 1.290988e+00 -4.336740e-02 6.435621e-01 5.227758e-01 6.506162e-02 7.325749e-01 -3.384257e-01 -3.136766e-01 -6.939234e-01
<VARIANCE> 39
 7.948254e+00 2.446465e+01 2.900440e+01 1.077291e+01 2.207471e+01 1.765479e+01 1.874370e+01 2.298314e+01 2.940178e+01 2.521747e+01 1.463108e+01 1.373949e+01 5.812732e+00 3.992221e-01 2.661103e+00 2.068925e+00 9.796354e-01 4.818244e+00 1.270931e+00 1.211894e+00 2.131703e+00 1.659766e+00 1.663775e+00 1.871991e+00 1.204265e+00 1.246624e+00 6.478640e-02 1.318018e-01 2.015788e-01 2.296319e-01 4.488126e-01 2.723578e-01 2.296983e-01 2.974545e-01 2.719264e-01 2.399846e-01 3.012589e-01 2.445319e-01 4.705464e-02
<GCONST> 9.295703e+01
<STATE> 3
<MEAN> 39
 -5.018629e+00 -3.206219e+00 1.911406e+01 2.940141e+00 -9.806381e+00 -6.212981e+00 -5.728557e+00 -8.873728e+00 3.481372e-01 -1.294520e+01 3.904620e+00 4.876953e-01 6.556386e+01 2.264116e-01 1.638658e+00 -4.427843e+00 9.251964e-01 4.116754e+00 -8.321028e-02 1.579235e+00 1.211770e+00 -6.909343e-01 3.038029e+00 -1.714635e+00 -9.293683e-01 -2.897677e+00 -5.084042e-01 4.410117e-01 -3.626754e-01 -5.518309e-01 9.296830e-01 -1.399196e-01 4.920551e-01 4.117932e-02 1.944577e-01 3.161450e-01 1.421423e-01 -1.633019e-01 5.139512e-02
<VARIANCE> 39
 3.068164e+00 1.485833e+01 4.443768e+01 1.151373e+01 3.387044e+01 1.520367e+01 1.411646e+01 2.039231e+01 2.491038e+01 3.280701e+01 1.283606e+01 1.821931e+01 1.128617e+01 5.971748e-01 1.565651e+00 1.721268e+00 1.300045e+00 2.718904e+00 1.583081e+00 1.637452e+00 1.912739e+00 1.613095e+00 1.384463e+00 1.849010e+00 1.602533e+00 4.238411e-01 6.089607e-02 3.445892e-01 6.903462e-01 2.403992e-01 1.015717e+00 2.698292e-01 2.793368e-01 4.670423e-01 3.240666e-01 3.373155e-01 2.917030e-01 2.565174e-01 2.951640e-01
<GCONST> 9.757871e+01
<STATE> 4
<MEAN> 39
 -7.238037e+00 1.357560e+00 8.919798e+00 1.108792e+00 3.351306e+00 -7.530354e+00 8.053075e-02 -7.071826e+00 4.647593e-02 -3.951875e+00 9.907299e-01 -2.487058e+00 6.067814e+01 -3.459341e-02 -2.722768e-01 -9.006519e-01 -1.326895e-01 9.279037e-01 -1.277815e+00 4.864079e-01 -6.339222e-01 7.635493e-02 1.198004e+00 6.584281e-01 -3.870014e-01 4.020577e-01 2.576046e-01 -6.817424e-01 8.850054e-01 3.961615e-02 -1.285056e+00 -1.547252e-01 -6.839778e-01 -4.742384e-01 3.167457e-01 -7.054204e-01 5.770324e-01 6.114373e-02 8.673714e-01
<VARIANCE> 39
 6.901350e+00 1.139925e+01 1.017405e+01 1.181671e+01 1.966780e+01 2.261825e+01 1.892314e+01 2.401644e+01 2.618850e+01 1.586140e+01 1.550563e+01 1.379103e+01 5.696447e+00 1.233042e+00 2.576118e+00 4.030767e+00 1.867838e+00 8.873991e+00 2.396665e+00 4.183645e+00 3.382859e+00 1.920536e+00 3.131254e+00 2.679569e+00 1.721079e+00 3.008750e+00 1.933153e-01 2.768415e-01 4.606769e-01 4.637270e-01 6.351506e-01 5.604571e-01 4.780853e-01 6.282544e-01 3.657761e-01 3.051564e-01 4.816210e-01 3.504215e-01 3.405664e-01
<GCONST> 1.077328e+02
<TRANSP> 5
 0.000000e+00 1.000000e+00 0.000000e+00 0.000000e+00 0.000000e+00
 0.000000e+00 1.977318e-01 8.022683e-01 0.000000e+00 0.000000e+00
 0.000000e+00 0.000000e+00 4.414706e-01 5.585294e-01 0.000000e+00
 0.000000e+00 0.000000e+00 0.000000e+00 7.647784e-01 2.352215e-01
 0.000000e+00 0.000000e+00 0.000000e+00 0.000000e+00 0.000000e+00
<ENDHMM>
~h "d"
<BEGINHMM>
<NUMSTATES> 5
<STATE> 2
<MEAN> 39
 -1.234020e+01 -4.225006e+00 2.149619e-01 -2.334119e+00 2.231407e+00 -5.096947e+00 2.166443e+00 -3.903547e+00 5.924163e+00 -1.170438e+00 2.549448e+00 -1.957510e+00 6.438329e+01 7.543666e-01 -1.062338e+00 -1.389713e-01 -8.793746e-01 -5.701725e-01 -8.250738e-01 -1.033942e+00 -1.565513e+00 1.690945e+00 1.540587e-01 6.688599e-01 -1.448652e+00 3.655878e+00 5.263374e-01 -7.928140e-02 2.210129e-01 -2.518786e-01 -1.638620e-01 2.244450e-01 -3.626142e-01 -3.756276e-01 2.900249e-01 1.800455e-01 1.816374e-01 -5.007712e-01 9.412976e-02
<VARIANCE> 39
 1.273694e+01 2.230429e+01 1.774967e+01 1.426757e+01 1.770117e+01 2.152619e+01 2.057024e+01 1.981028e+01 2.565327e+01 1.575779e+01 1.464037e+01 1.745741e+01 7.266141e+01 3.657241e+00 1.471613e+00 2.291882e+00 1.543637e+00 2.368264e+00 2.690485e+00 3.253351e+00 3.382884e+00 3.065683e+00 1.707068e+00 2.109936e+00 3.572478e+00 4.363606e+00 4.991490e-01 2.982860e-01 4.648257e-01 2.639495e-01 4.371253e-01 7.035392e-01 5.503426e-01 5.502518e-01 5.797166e-01 3.114472e-01 4.318947e-01 5.342236e-01 1.506169e+00
<GCONST> 1.138452e+02
<STATE> 3
<MEAN> 39
 -4.314050e+00 -1.089258e+01 1.893561e-01 -8.259323e+00 -4.805669e-01 -2.503091e+00 -2.427220e+00 -9.755645e+00 1.028516e+01 4.041808e+00 3.804285e+00 -1.192822e+01 7.484501e+01 8.172087e-01 -1.063704e+00 -3.662163e-01 -6.109145e-01 -2.529462e-01 8.847674e-01 2.484902e-01 4.549446e-01 -6.877350e-01 3.901408e-01 -5.541352e-02 -1.033518e+00 4.098791e-01 -2.900463e-01 -1.092792e-02 -1.930798e-01 1.500545e-01 1.268531e-01 7.341816e-02 2.966114e-01 3.811594e-01 -3.575923e-01 -1.997356e-01 -1.160952e-01 2.498649e-01 -2.329092e-01
<VARIANCE> 39
 1.438966e+01 1.584219e+01 1.191242e+01 1.559766e+01 3.240979e+01 2.030902e+01 2.476837e+01 2.739967e+01 3.970892e+01 2.515985e+01 2.793197e+01 2.441374e+01 1.890405e+01 2.861744e+00 1.464749e+00 1.273255e+00 2.003018e+00 3.729866e+00 1.899407e+00 3.195665e+00 3.420335e+00 3.839520e+00 3.666750e+00 3.887390e+00 3.973906e+00 2.227568e+00 6.956016e-01 3.117570e-01 2.310258e-01 4.363211e-01 7.770526e-01 4.508999e-01 6.261945e-01 7.094228e-01 8.764089e-01 5.885406e-01 9.107729e-01 9.003995e-01 7.928007e-01
<GCONST> 1.178378e+02
<STATE> 4
<MEAN> 39
 -3.766638e+00 -1.288747e+01 5.590457e+00 -8.758330e+00 -9.589149e+00 -5.459085e+00 -1.174886e+00 4.962607e-01 3.896965e+00 -4.154966e+00 6.373090e+00 -1.226400e+01 7.603323e+01 -2.360092e-01 5.887159e-01 6.503332e-01 4.064229e-01 -2.563882e-01 -3.817813e-01 1.753719e-01 1.564718e-01 -3.042870e-01 -2.831388e-01 -5.054625e-02 5.123397e-01 -5.844505e-01 -3.585580e-02 1.254566e-01 -4.540074e-02 9.554783e-02 1.385279e-01 -7.090013e-03 3.983085e-02 -1.920885e-02 7.151990e-02 1.136870e-01 -9.665959e-02 1.206646e-01 -1.511521e-01
<VARIANCE> 39
 6.318817e+00 3.041615e+01 7.345464e+01 1.209557e+01 3.850064e+01 5.763438e+01 1.609979e+01 3.444470e+01 3.715902e+01 2.467946e+01 4.159507e+01 4.012674e+01 1.813342e+01 2.551830e-01 1.178475e+00 2.218624e+00 7.610840e-01 2.289414e+00 2.907173e+00 1.382474e+00 2.800222e+00 2.092533e+00 1.324574e+00 3.692796e+00 1.983166e+00 8.462228e-01 5.296410e-02 1.648476e-01 2.428551e-01 1.144325e-01 2.332091e-01 3.703091e-01 2.046002e-01 4.215111e-01 3.252620e-01 1.662307e-01 5.611728e-01 2.985786e-01 6.746925e-02
<GCONST> 9.967825e+01
<TRANSP> 5
 0.000000e+00 1.000000e+00 0.000000e+00 0.000000e+00 0.000000e+00
 0.000000e+00 7.869717e-01 2.130283e-01 0.000000e+00 0.000000e+00
 0.000000e+00 0.000000e+00 8.584382e-01 1.415618e-01 0.000000e+00
 0.000000e+00 0.000000e+00 0.000000e+00 9.306111e-01 6.938889e-02
 0.000000e+00 0.000000e+00 0.000000e+00 0.000000e+00 0.000000e+00
<ENDHMM>
~h "e"
<BEGINHMM>
<NUMSTATES> 5
<STATE> 2
<MEAN> 39
 -7.566769e+00 -5.551217e+00 6.413132e+00 -2.167264e+00 -5.229547e+00 -1.147930e+01 -3.537713e+00 -5.303645e+00 1.017763e+01 -3.746493e+00 4.003064e+00 -4.293288e+00 7.239715e+01 3.232337e+00 -2.388900e+00 1.078935e+00 -1.561733e+00 -4.012749e+00 -2.520903e+00 -2.841230e+00 4.660245e-01 2.037220e+00 -6.882166e-01 9.713035e-01 -1.506453e+00 3.247461e+00 -7.031384e-01 -1.051225e-02 -1.946063e-01 -2.991228e-01 -8.351251e-02 4.239483e-01 4.516258e-01 5.505016e-01 -9.702073e-02 -1.005595e-01 2.210555e-01 7.032900e-02 -4.344640e-02
<VARIANCE> 39
 2.906476e+01 3.312017e+01 1.498386e+01 1.693248e+01 3.464267e+01 3.057519e+01 3.984765e+01 2.227039e+01 2.903376e+01 1.417576e+01 1.706474e+01 3.243060e+01 2.872525e+01 4.579139e+00 1.736882e+00 1.412337e+00 1.742711e+00 3.032560e+00 1.987121e+00 2.689992e+00 3.256145e+00 2.395807e+00 1.867672e+00 1.825437e+00 4.432687e+00 2.033398e+00 6.117567e-01 3.105872e-01 2.385410e-01 3.613289e-01 6.179324e-01 5.182490e-01 7.224432e-01 3.893868e-01 5.624157e-01 2.830891e-01 3.122209e-01 5.465314e-01 6.646112e-01
<GCONST> 1.142369e+02
<STATE> 3
<MEAN> 39
 -3.608315e+00 -1.335787e+01 9.931136e+00 -7.490594e+00 -1.698257e+01 -1.316203e+01 -5.543114e+00 1.684582e+00 1.257866e+01 -6.383394e+00 7.570541e+00 -4.770174e+00 7.990273e+01 6.024459e-02 -3.359308e-01 3.065262e-01 -2.944008e-01 -1.173161e+00 -1.120713e-01 3.228988e-01 8.184862e-01 -5.699250e-01 -5.625104e-01 9.142854e-01 -7.404785e-02 3.901524e-01 -3.204557e-01 5.138892e-01 -3.147664e-02 4.206169e-01 6.308544e-01 1.312357e-01 3.049060e-01 -3.272417e-01 -6.876354e-01 8.358666e-02 -6.788304e-02 1.249211e-01 -5.862088e-01
<VARIANCE> 39
 2.126836e+00 1.053680e+01 1.754432e+01 8.859422e+00 1.963799e+01 1.502888e+01 1.392931e+01 2.191112e+01 2.680610e+01 1.638026e+01 1.533021e+01 2.866426e+01 5.116663e+00 3.780216e-01 1.590445e+00 8.679967e-01 1.328352e+00 1.961041e+00 1.016999e+00 1.511906e+00 2.054340e+00 3.492057e+00 1.097562e+00 1.325999e+00 1.014416e+00 1.295354e+00 1.968821e-01 1.418736e-01 1.937943e-01 2.009728e-01 3.313934e-01 3.181329e-01 5.082889e-01 3.175082e-01 5.277656e-01 2.456519e-01 2.810436e-01 3.214050e-01 1.676176e-01
<GCONST> 9.126958e+01
<STATE> 4
<MEAN> 39
 -4.716939e+00 -1.047855e+01 1.086946e+01 -4.197315e+00 -1.668063e+01 -1.512656e+01 -2.550820e+00 8.966330e-01 1.974280e+00 -7.519067e+00 1.296546e+01 -7.671303e+00 7.694936e+01 -8.216335e-01 1.457990e+00 5.132182e-01 1.444231e+00 1.509635e+00 -4.230669e-01 1.143574e+00 -5.344185e-01 -3.180711e+00 1.159104e+00 -4.841841e-01 5.063919e-01 -2.311490e+00 -2.743364e-01 3.633450e-01 -4.512604e-01 -1.262315e-01 7.937409e-01 3.131546e-01 2.892031e-02 -1.507240e-01 8.831494e-01 5.740712e-01 -8.217968e-01 4.866910e-01 -7.824171e-01
<VARIANCE> 39
 3.559446e+00 1.128091e+01 1.352316e+01 1.825182e+01 2.882069e+01 2.534397e+01 2.070105e+01 1.475925e+01 8.516456e+01 2.126935e+01 3.192045e+01 3.013607e+01 1.507673e+01 5.448993e-01 1.613087e+00 1.869726e+00 1.759480e+00 3.978268e+00 1.289786e+00 2.726611e+00 2.684523e+00 6.427410e+00 2.827600e+00 3.612607e+00 2.608252e+00 2.553859e+00 7.981135e-02 2.033587e-01 5.965424e-01 4.026963e-01 3.913606e-01 3.027553e-01 3.551417e-01 3.314347e-01 2.210036e+00 4.132049e-01 3.561813e-01 6.102581e-01 2.723459e-01
<GCONST> 1.083094e+02
<TRANSP> 5
 0.000000e+00 1.000000e+00 0.000000e+00 0.000000e+00 0.000000e+00
 0.000000e+00 5.705061e-01 4.294939e-01 0.000000e+00 0.000000e+00
 0.000000e+00 0.000000e+00 8.145674e-01 1.854326e-01 0.000000e+00
 0.000000e+00 0.000000e+00 0.000000e+00 6.505551e-01 3.494449e-01
 0.000000e+00 0.000000e+00 0.000000e+00 0.000000e+00 0.000000e+00
<ENDHMM>
~h "f"
<BEGINHMM>
<NUMSTATES> 5
<STATE> 2
<MEAN> 39
 -1.897800e+01 -7.401595e+00 1.928023e+00 -3.027215e+00 3.051141e+00 -4.892998e+00 1.571351e+00 -2.672540e+00 5.614864e+00 -2.021757e+00 2.197428e+00 -1.306200e+00 6.416219e+01 3.487872e-02 -4.000893e-01 2.391054e-01 5.885403e-03 -1.957455e-01 -4.010901e-01 -3.811373e-01 4.036025e-02 4.798210e-01 1.440475e-01 -6.147512e-02 -1.138524e-01 3.955787e-01 5.754169e-01 1.190947e-01 2.287769e-01 -2.327754e-02 -2.579474e-01 -2.550952e-02 -2.164460e-01 -2.637779e-01 -1.185149e-02 -1.316155e-01 -4.272312e-02 -5.585523e-02 1.321623e-01
<VARIANCE> 39
 1.538490e+01 1.096767e+01 7.861360e+00 9.425801e+00 1.100093e+01 1.293093e+01 1.576320e+01 1.695173e+01 1.535165e+01 1.414633e+01 1.310317e+01 1.165055e+01 1.522539e+01 3.487313e+00 9.865032e-01 1.152796e+00 1.189051e+00 1.496933e+00 1.417424e+00 2.131660e+00 2.627323e+00 1.521508e+00 1.593692e+00 1.507271e+00 1.337671e+00 9.012954e-01 4.262117e-01 1.986704e-01 1.966025e-01 2.871895e-01 3.735056e-01 2.966426e-01 4.736719e-01 5.673035e-01 3.000011e-01 3.942607e-01 3.580987e-01 2.653270e-01 2.015415e-01
<GCONST> 9.535005e+01
<STATE> 3
<MEAN> 39
 -9.115178e+00 -8.410954e+00 6.355296e+00 -1.964360e+00 -2.974194e+00 -7.721492e+00 -6.767327e+00 -1.011225e+01 8.410394e+00 -3.635640e+00 2.839309e+00 -1.796154e+00 6.803767e+01 1.195389e+00 -1.618096e-02 6.952904e-01 2.110125e-01 -9.782981e-01 -6.716995e-01 -9.261448e-01 -1.153050e+00 3.151707e-01 -3.193905e-01 -2.711588e-01 2.484497e-02 6.094124e-01 -1.236521e-01 1.382893e-01 -4.756962e-02 4.618216e-03 1.369889e-01 2.059974e-02 3.722493e-01 1.211449e-01 -1.645013e-01 4.973740e-04 -1.583570e-01 -1.939749e-02 -1.358081e-01
<VARIANCE> 39
 8.841872e+01 1.110992e+01 2.026651e+01 9.383425e+00 4.225758e+01 1.579786e+01 7.637774e+01 7.833949e+01 1.843587e+01 1.822617e+01 1.220706e+01 1.249768e+01 2.893443e+01 5.358914e+00 1.096671e+00 1.444922e+00 1.201710e+00 2.928750e+00 1.207754e+00 5.930174e+00 5.834033e+00 1.481805e+00 1.979272e+00 1.861583e+00 1.447949e+00 1.807963e+00 9.167017e-01 2.388669e-01 2.958796e-01 2.522337e-01 6.568376e-01 2.439484e-01 9.754034e-01 9.859711e-01 3.344715e-01 5.517532e-01 3.237006e-01 2.994794e-01 3.766235e-01
<GCONST> 1.120307e+02
<STATE> 4
<MEAN> 39
 -1.500261e+01 -6.607572e+00 4.392755e+00 -1.682770e+00 7.935634e-01 -6.443423e+00 5.192620e-01 -4.740021e+00 6.166217e+00 -2.391314e+00 1.286776e+00 -6.102772e-01 6.407984e+01 3.015895e-01 1.066118e-01 5.364333e-01 5.145698e-02 -9.040909e-02 -1.512126e-01 3.785296e-01 -2.263711e-01 -3.293064e-01 1.013416e-02 -2.538839e-01 -3.254298e-01 6.865844e-02 2.236401e-01 7.166582e-02 2.018771e-01 -5.406832e-02 -1.472463e-01 7.723109e-02 -1.583857e-01 -2.313936e-01 -1.087423e-01 -1.303306e-01 1.661153e-01 -9.414499e-02 5.594970e-02
<VARIANCE> 39
 5.617669e+01 1.304690e+01 1.686863e+01 1.555956e+01 2.783722e+01 2.473475e+01 3.692278e+01 6.266553e+01 1.953816e+01 1.660413e+01 1.983161e+01 1.425456e+01 2.091322e+01 4.078376e+00 1.894136e+00 2.017376e+00 1.671230e+00 2.793006e+00 1.811234e+00 4.146649e+00 2.073261e+00 2.223562e+00 3.488476e+00 1.882399e+00 1.686479e+00 1.788424e+00 2.891078e-01 3.050382e-01 3.461716e-01 2.831798e-01 4.278136e-01 3.386281e-01 4.315471e-01 4.321045e-01 3.818296e-01 5.422906e-01 3.988183e-01 3.706182e-01 1.672648e-01
<GCONST> 1.097729e+02
<TRANSP> 5
 0.000000e+00 1.000000e+00 0.000000e+00 0.000000e+00 0.000000e+00
 0.000000e+00 6.586365e-01 3.413635e-01 0.000000e+00 0.000000e+00
 0.000000e+00 0.000000e+00 6.407693e-01 3.592307e-01 0.000000e+00
 0.000000e+00 0.000000e+00 0.000000e+00 6.502308e-01 3.497692e-01
 0.000000e+00 0.000000e+00 0.000000e+00 0.000000e+00 0.000000e+00
<ENDHMM>
~h "k"
<BEGINHMM>
<NUMSTATES> 5
<STATE> 2
<MEAN> 39
 -9.483719e+00 -5.345505e+00 5.964939e+00 -1.391327e+00 -6.493723e+00 -1.131150e+01 2.554038e+00 1.438136e+00 1.101995e+00 1.462584e+00 8.896204e+00 -8.516390e-01 6.196247e+01 -1.010772e+00 3.074001e-01 -2.351140e+00 -5.636662e-02 2.076506e+00 1.172343e+00 1.692559e-01 2.496263e-01 1.851014e+00 1.605787e+00 -1.108846e+00 1.440216e+00 -1.942079e+00 5.022000e-04 -3.968102e-01 -2.955830e-01 -2.295836e-01 -6.712334e-02 1.679617e-01 -4.608462e-01 -2.756180e-01 3.419495e-01 -4.066056e-01 2.483755e-02 -3.724375e-01 8.728531e-01
<VARIANCE> 39
 8.556507e+00 1.317324e+01 4.288097e+01 1.583874e+01 3.151822e+01 4.008254e+01 2.240887e+01 3.686438e+01 6.305689e+01 3.202244e+01 2.946355e+01 2.944551e+01 2.708137e+01 8.787687e-01 2.466509e+00 3.872918e+00 1.819492e+00 2.069738e+00 3.194488e+00 2.925098e+00 2.979318e+00 8.818398e+00 3.667428e+00 2.975438e+00 4.537405e+00 6.552336e+00 2.400327e-01 3.544246e-01 9.516469e-01 4.582029e-01 4.327608e-01 5.238047e-01 4.494669e-01 4.959121e-01 2.371185e+00 7.166594e-01 6.506497e-01 8.410668e-01 9.395332e-01
<GCONST> 1.227806e+02
<STATE> 3
<MEAN> 39
 -1.344098e+01 -7.567178e+00 -2.273905e+00 -2.446161e+00 5.400377e-01 -6.776248e+00 3.710671e-01 -9.403461e-01 5.328683e+00 3.220214e+00 4.871616e+00 1.544204e-02 6.397290e+01 -1.654822e+00 -4.042539e-01 -6.133167e-01 7.526209e-02 1.116460e+00 -1.321048e-02 -2.539586e-01 -6.509231e-01 5.538657e-01 -4.338538e-01 -7.358752e-01 -3.850698e-01 1.885082e+00 -2.595821e-01 3.096088e-01 5.899459e-01 7.609053e-02 -2.622460e-01 -2.628705e-01 3.281036e-01 7.542936e-02 -8.344286e-02 -3.108621e-01 -4.925631e-03 -2.771267e-02 4.634861e-02
<VARIANCE> 39
 1.880924e+01 2.154344e+01 7.563281e+01 2.608167e+01 2.265170e+01 3.535164e+01 3.001543e+01 3.082217e+01 3.300333e+01 1.781381e+01 1.961615e+01 1.900007e+01 3.473657e+01 3.707456e+00 2.263826e+00 6.573756e+00 2.285626e+00 2.739233e+00 4.152437e+00 3.095886e+00 3.290102e+00 3.925351e+00 2.413840e+00 2.136985e+00 2.312425e+00 4.260576e+00 6.032658e-01 4.894497e-01 1.223917e+00 4.270841e-01 4.719073e-01 9.383664e-01 6.463766e-01 6.432542e-01 8.765720e-01 4.241892e-01 4.518211e-01 5.155439e-01 1.136180e+00
<GCONST> 1.236353e+02
<STATE> 4
<MEAN> 39
 -1.762016e+01 -6.482821e+00 9.335193e-01 -2.359305e+00 2.142747e+00 -7.124376e+00 2.590466e+00 -1.640168e+00 6.116402e+00 6.759295e-02 2.125781e+00 -2.483013e-01 6.568079e+01 -6.676348e-01 6.104407e-01 5.049687e-02 2.926609e-03 -1.103490e-01 3.440723e-01 4.227186e-01 -1.829213e-01 2.239462e-01 -4.809907e-01 -4.336432e-01 -1.266026e-01 1.625536e-01 3.645231e-01 1.399808e-01 1.612036e-02 -7.118749e-02 -2.749703e-01 1.754113e-01 2.176164e-02 5.108645e-02 -1.744007e-01 7.672756e-02 1.927389e-01 2.494237e-02 -2.478600e-01
<VARIANCE> 39
 3.695205e+01 9.737965e+00 2.962835e+01 2.794557e+01 1.562621e+01 2.230263e+01 2.219580e+01 2.599985e+01 2.994511e+01 2.094823e+01 1.755496e+01 1.917031e+01 4.353766e+01 4.507783e+00 1.468689e+00 2.980849e+00 1.527771e+00 1.666396e+00 2.543252e+00 2.926841e+00 2.420325e+00 2.642262e+00 2.506800e+00 2.291500e+00 1.764536e+00 3.273088e+00 4.257098e-01 2.688980e-01 5.333030e-01 3.524734e-01 3.963358e-01 4.549728e-01 5.146141e-01 4.952064e-01 5.490360e-01 4.746529e-01 4.421932e-01 4.014810e-01 5.784826e-01
<GCONST> 1.132691e+02
<TRANSP> 5
 0.000000e+00 1.000000e+00 0.000000e+00 0.000000e+00 0.000000e+00
 0.000000e+00 7.608691e-01 2.391309e-01 0.000000e+00 0.000000e+00
 0.000000e+00 0.000000e+00 7.337912e-01 2.662088e-01 0.000000e+00
 0.000000e+00 0.000000e+00 0.000000e+00 7.160712e-01 2.839288e-01
 0.000000e+00 0.000000e+00 0.000000e+00 0.000000e+00 0.000000e+00
<ENDHMM>
~h "l"
<BEGINHMM>
<NUMSTATES> 5
<STATE> 2
<MEAN> 39
 -5.685749e+00 -6.598050e+00 1.072096e+01 -4.775503e+00 -1.022343e+01 -1.320238e+01 -8.121755e+00 -7.988582e+00 7.217079e+00 -9.589193e+00 3.639699e+00 -2.778542e+00 7.341298e+01 4.423773e-02 -5.593816e-02 -2.251102e-01 2.090004e-01 -2.609283e-01 -2.697082e-01 4.444579e-01 -2.058081e-01 -3.868855e-01 -2.157183e-01 1.325417e-01 -1.324418e-01 2.368486e-02 7.113580e-02 -9.585672e-02 -1.282978e-01 1.844404e-02 -1.834015e-01 -4.757791e-03 2.241862e-01 1.553416e-01 -3.508626e-02 1.520251e-01 1.471438e-01 -5.021592e-02 5.886984e-02
<VARIANCE> 39
 1.438262e+01 4.126576e+01 2.262735e+01 1.972248e+01 4.470004e+01 3.002738e+01 4.552689e+01 4.155597e+01 3.251228e+01 2.761699e+01 3.093377e+01 1.799359e+01 2.225493e+01 1.432957e+00 4.603151e+00 2.424176e+00 1.122277e+00 6.647186e+00 2.392958e+00 4.547496e+00 4.555395e+00 1.662891e+00 1.986848e+00 3.623901e+00 1.512885e+00 2.434701e+00 2.394951e-01 8.841959e-01 5.427116e-01 2.502467e-01 1.218614e+00 5.393518e-01 7.425180e-01 7.197160e-01 3.568918e-01 3.737339e-01 7.117693e-01 2.977768e-01 4.720595e-01
<GCONST> 1.186959e+02
<STATE> 3
<MEAN> 39
 -4.458359e+00 -7.526358e+00 8.067747e+00 -1.819363e+00 -1.206484e+01 -1.517987e+01 -2.786972e+00 -8.355005e+00 4.501337e+00 -8.665427e+00 3.339429e+00 -3.384592e+00 7.180657e+01 -9.557053e-02 9.959663e-01 -1.614496e-01 1.797599e-01 8.831520e-01 3.317237e-01 8.275897e-01 5.133564e-01 -8.283569e-01 3.841959e-01 -6.177106e-01 -2.389659e-01 -1.108307e+00 -7.080129e-02 1.424012e-01 -2.140066e-02 9.685281e-03 3.519030e-01 2.689076e-01 -3.785296e-02 1.218299e-01 2.937607e-03 1.084323e-01 -6.189022e-03 1.059908e-02 -2.385456e-01
<VARIANCE> 39
 9.689863e+00 1.389310e+01 9.208405e+00 1.852657e+01 2.805725e+01 2.942805e+01 4.368421e+01 2.066941e+01 3.289319e+01 1.741442e+01 3.717177e+01 1.438165e+01 2.834903e+01 5.835624e-01 1.817194e+00 1.028407e+00 8.881656e-01 1.879363e+00 1.293935e+00 1.353334e+00 1.876403e+00 1.425749e+00 1.439176e+00 1.069219e+00 9.969859e-01 9.815012e-01 9.587521e-02 2.463851e-01 1.907212e-01 2.180800e-01 2.306148e-01 2.490614e-01 2.947159e-01 2.794711e-01 2.447355e-01 2.221433e-01 2.580743e-01 1.986989e-01 8.850440e-02
<GCONST> 9.318390e+01
<STATE> 4
<MEAN> 39
 -8.722629e+00 -2.147686e+00 4.380078e+00 -5.544985e-01 -5.505176e-01 -6.890415e+00 -2.484433e-01 -4.841748e+00 3.213531e+00 -2.663372e+00 1.052277e+00 -1.322200e+00 6.010999e+01 -4.962807e-01 1.669915e-01 -4.718336e-01 -1.748752e-01 8.436034e-01 8.475160e-01 6.337690e-01 4.879330e-01 -2.281623e-01 5.159603e-01 3.260479e-01 1.428491e-01 -7.827708e-01 4.137276e-02 -2.231779e-01 -6.422554e-02 -9.204062e-02 -1.754684e-01 -7.509231e-03 -1.198564e-01 -3.257545e-02 1.920446e-01 -8.231143e-02 7.439290e-02 7.851558e-02 1.369377e-01
<VARIANCE> 39
 1.735525e+01 1.189369e+01 1.876959e+01 1.563161e+01 3.588084e+01 2.997712e+01 2.499043e+01 3.115107e+01 1.852446e+01 2.403113e+01 2.390499e+01 1.922618e+01 3.651315e+01 1.004023e+00 1.370959e+00 1.323068e+00 1.754143e+00 2.567850e+00 1.869808e+00 2.261393e+00 2.107050e+00 2.050289e+00 2.091271e+00 2.172082e+00 1.733166e+00 1.201103e+00 1.359568e-01 2.944722e-01 2.525222e-01 3.347711e-01 4.139144e-01 3.646964e-01 3.967434e-01 3.860215e-01 3.990906e-01 3.703484e-01 4.181865e-01 3.757893e-01 1.518191e-01
<GCONST> 1.043062e+02
<TRANSP> 5
 0.000000e+00 1.000000e+00 0.000000e+00 0.000000e+00 0.000000e+00
 0.000000e+00 8.083879e-01 1.916120e-01 0.000000e+00 0.000000e+00
 0.000000e+00 0.000000e+00 7.351572e-01 2.648428e-01 0.000000e+00
 0.000000e+00 0.000000e+00 0.000000e+00 7.262608e-01 2.737392e-01
 0.000000e+00 0.000000e+00 0.000000e+00 0.000000e+00 0.000000e+00
<ENDHMM>
~h "m"
<BEGINHMM>
<NUMSTATES> 5
<STATE> 2
<MEAN> 39
 -1.313900e+01 -2.052555e+00 6.229331e+00 -8.711950e-01 3.123677e+00 -3.718317e+00 4.108768e+00 -4.541545e+00 3.499510e+00 -1.073169e+00 4.018977e+00 3.648088e-01 5.952921e+01 2.194999e+00 7.382817e-01 4.652679e-01 1.708722e+00 1.120309e+00 -9.520053e-01 -6.991414e-01 -2.036777e+00 -6.696463e-01 -4.912111e-01 2.129514e-01 -1.959686e-01 6.351652e-01 2.108447e-01 -4.489929e-01 2.066462e-01 -2.976089e-02 -5.283642e-01 -2.609721e-01 -5.267180e-01 -9.262071e-01 1.927353e-01 -3.075189e-01 1.061487e-02 -8.496277e-02 8.912095e-01
<VARIANCE> 39
 2.086699e+01 1.110028e+01 1.277378e+01 1.923461e+01 1.823254e+01 1.897656e+01 2.252061e+01 2.710014e+01 1.644930e+01 1.262797e+01 1.397000e+01 1.465154e+01 1.190145e+01 1.652586e+00 1.311184e+00 2.816989e+00 1.690888e+00 2.982709e+00 2.472775e+00 3.363986e+00 6.835196e+00 2.879124e+00 1.504726e+00 3.331588e+00 1.695318e+00 4.465553e+00 3.287966e-01 3.688930e-01 3.858714e-01 5.062295e-01 6.929046e-01 5.537548e-01 5.338086e-01 7.371961e-01 5.882416e-01 2.708428e-01 6.040769e-01 3.036811e-01 3.660854e-01
<GCONST> 1.100119e+02
<STATE> 3
<MEAN> 39
 -3.996033e+00 -3.781234e+00 7.902846e+00 4.015808e+00 1.043445e+00 -1.000956e+01 -1.922336e+00 -1.725561e+01 2.603053e+00 -4.197688e+00 4.800347e+00 3.180925e-01 6.706223e+01 1.438309e+00 -1.455983e+00 -3.737204e-01 -1.119696e+00 -1.771783e+00 -2.450646e-01 -1.274359e+00 -1.106705e+00 1.144430e+00 -8.926111e-01 -2.210967e-02 1.446488e-01 2.105188e+00 -4.005242e-01 -4.435183e-01 -4.303858e-01 -9.493539e-01 -3.708233e-01 6.784676e-01 1.780442e-01 1.206238e+00 7.927294e-01 1.151323e-01 -2.604686e-01 -2.591477e-01 -2.036624e-02
<VARIANCE> 39
 5.680666e+00 2.579160e+01 7.404253e+00 1.553980e+01 4.329992e+01 2.552626e+01 1.892134e+01 2.767671e+01 6.881348e+01 1.400932e+01 5.988820e+01 2.037997e+01 2.499522e+01 1.784019e+00 2.272816e+00 2.396982e+00 4.736153e+00 3.207556e+00 3.577050e+00 2.569445e+00 8.151395e+00 5.146634e+00 1.384424e+00 3.477187e+00 1.565379e+00 2.037429e+00 1.955413e-01 7.419809e-01 4.420414e-01 6.215503e-01 7.178351e-01 4.438563e-01 3.659710e-01 7.637171e-01 1.264793e+00 2.647300e-01 7.434210e-01 5.496143e-01 4.385243e-01
<GCONST> 1.171019e+02
<STATE> 4
<MEAN> 39
 -1.823809e+00 -1.251462e+01 2.153660e+00 -8.296787e+00 -4.840397e+00 -2.531156e+00 -3.057482e+00 -1.079622e+01 1.404465e+01 -3.833475e+00 2.806812e+00 -7.035728e+00 7.448286e+01 -2.499247e-01 -9.557348e-01 -1.791544e-01 -1.005107e+00 -3.719978e-01 4.879618e-01 -1.735796e-01 1.146520e+00 1.208722e+00 2.397318e-01 -2.882797e-01 -1.091620e+00 6.874172e-01 -2.434380e-01 3.400952e-01 3.013748e-01 3.916358e-01 3.140459e-01 -2.361414e-01 9.333308e-02 3.720585e-02 -4.001965e-01 2.843854e-02 4.967139e-02 8.917759e-02 -3.569683e-01
<VARIANCE> 39
 2.078907e+01 2.842191e+01 2.638855e+01 2.989082e+01 2.143285e+01 4.526326e+01 2.349561e+01 2.316572e+01 4.707442e+01 1.844763e+01 2.519638e+01 6.325991e+01 4.327480e+01 1.302466e+00 4.878569e+00 2.838502e+00 3.329289e+00 2.887110e+00 2.130132e+00 2.331003e+00 1.865316e+00 6.950666e+00 1.472425e+00 2.743694e+00 3.587502e+00 5.074702e+00 1.325139e-01 4.584979e-01 2.838333e-01 4.478036e-01 4.610030e-01 3.337629e-01 4.373657e-01 4.573870e-01 8.119000e-01 3.464391e-01 4.354787e-01 5.374928e-01 5.771517e-01
<GCONST> 1.178177e+02
<TRANSP> 5
 0.000000e+00 1.000000e+00 0.000000e+00 0.000000e+00 0.000000e+00
 0.000000e+00 6.501138e-01 3.498861e-01 0.000000e+00 0.000000e+00
 0.000000e+00 0.000000e+00 7.149531e-01 2.850469e-01 0.000000e+00
 0.000000e+00 0.000000e+00 0.000000e+00 8.291485e-01 1.708515e-01
 0.000000e+00 0.000000e+00 0.000000e+00 0.000000e+00 0.000000e+00
<ENDHMM>
~h "n"
<BEGINHMM>
<NUMSTATES> 5
<STATE> 2
<MEAN> 39
 -6.210548e+00 -2.148799e+00 8.256916e+00 3.204175e+00 -6.117536e-01 -8.633011e+00 -7.812081e-01 -1.089743e+01 9.866315e-01 -2.584255e+00 2.193887e+00 -4.275471e+00 6.252833e+01 -1.712660e-01 5.069847e-01 -2.207230e-01 2.225796e-01 5.404624e-01 6.089947e-01 5.054965e-01 2.310331e-02 -3.336037e-01 6.727321e-01 -3.388713e-01 -3.107974e-02 -8.372736e-01 -1.287810e-01 -9.298952e-02 -1.062690e-01 -3.040485e-01 -9.346330e-02 9.026369e-02 8.645020e-02 3.608857e-01 9.330077e-02 -6.609080e-02 1.414189e-01 1.003233e-01 7.675820e-02
<VARIANCE> 39
 1.292176e+01 1.447704e+01 1.577750e+01 1.399514e+01 2.168440e+01 2.791924e+01 2.664131e+01 5.105733e+01 2.436069e+01 1.658175e+01 1.643365e+01 1.431753e+01 1.188245e+01 7.777252e-01 1.436759e+00 1.489229e+00 1.421997e+00 1.960538e+00 1.882596e+00 2.430363e+00 4.359537e+00 2.400806e+00 2.244091e+00 1.389776e+00 1.447316e+00 1.183228e+00 7.869647e-02 3.535376e-01 2.215538e-01 2.489433e-01 3.702157e-01 2.712807e-01 4.260361e-01 4.124685e-01 3.892666e-01 3.553288e-01 2.834373e-01 2.331571e-01 1.895681e-01
<GCONST> 1.000686e+02
<STATE> 3
<MEAN> 39
 -8.151419e+00 -8.144580e-01 6.219725e+00 1.877066e+00 1.297501e+00 -5.627676e+00 1.734932e+00 -6.605224e+00 1.087428e+00 -1.081886e+00 1.534134e+00 -3.517862e+00 5.953311e+01 -4.891452e-01 2.067257e-02 -6.792067e-01 -4.995522e-01 3.685350e-01 6.792819e-01 5.942737e-01 8.233306e-01 3.237344e-01 3.223574e-01 1.505485e-01 4.592304e-01 -6.095101e-01 -9.957223e-02 -2.131706e-01 -1.119701e-01 -2.212297e-01 -1.118764e-01 -7.662000e-02 -1.520612e-01 9.794483e-02 1.933312e-01 -1.425135e-01 1.043684e-01 1.233910e-01 1.784211e-01
<VARIANCE> 39
 1.474039e+01 1.243199e+01 1.624491e+01 1.282724e+01 2.265903e+01 2.994555e+01 1.848583e+01 4.025006e+01 2.728677e+01 1.369057e+01 1.367237e+01 1.633820e+01 1.067934e+01 7.008958e-01 1.412134e+00 1.175339e+00 1.151670e+00 1.341473e+00 1.606395e+00 2.140818e+00 2.545836e+00 2.088140e+00 1.363757e+00 1.495610e+00 1.274727e+00 5.509451e-01 1.254505e-01 3.007889e-01 2.065686e-01 2.325492e-01 3.714938e-01 3.572426e-01 4.182202e-01 5.202284e-01 4.681872e-01 3.663631e-01 3.045088e-01 2.643750e-01 1.064762e-01
<GCONST> 9.653127e+01
<STATE> 4
<MEAN> 39
 -1.224899e+01 -2.506462e+00 1.492224e+00 -1.710185e+00 2.708574e+00 -2.552545e+00 3.211604e+00 -1.740012e+00 3.654075e+00 -4.654346e-01 2.882001e+00 -2.549998e-01 5.595779e+01 -4.372092e-02 -6.495648e-04 1.813348e-02 -1.211821e-02 -1.558794e-02 -3.665053e-02 3.380954e-02 -7.886185e-02 -1.895870e-02 1.023715e-02 9.300641e-03 1.497921e-02 4.142436e-02 3.279696e-02 -9.041551e-03 8.356842e-02 4.351692e-02 -3.024816e-02 -6.710468e-02 -5.080771e-02 -1.095288e-01 -1.489239e-02 -2.405860e-02 -3.374914e-02 -5.925786e-02 1.237625e-01
<VARIANCE> 39
 5.830080e+00 4.518049e+00 7.645313e+00 7.417351e+00 9.563369e+00 1.274399e+01 1.218922e+01 1.594999e+01 1.409752e+01 1.214773e+01 1.178921e+01 1.211485e+01 4.016370e+00 5.303292e-01 6.138044e-01 1.023282e+00 9.894080e-01 1.023088e+00 1.367230e+00 1.396437e+00 1.877751e+00 1.569591e+00 1.389690e+00 1.370194e+00 1.378776e+00 3.629359e-01 1.032955e-01 1.178023e-01 1.696840e-01 1.742258e-01 2.246139e-01 2.985165e-01 2.983436e-01 3.740670e-01 3.291566e-01 2.907243e-01 2.795134e-01 2.746551e-01 6.383451e-02
<GCONST> 8.065626e+01
<TRANSP> 5
 0.000000e+00 1.000000e+00 0.000000e+00 0.000000e+00 0.000000e+00
 0.000000e+00 6.294333e-01 3.705666e-01 0.000000e+00 0.000000e+00
 0.000000e+00 0.000000e+00 4.490119e-01 5.509881e-01 0.000000e+00
 0.000000e+00 0.000000e+00 0.000000e+00 9.137306e-01 8.626943e-02
 0.000000e+00 0.000000e+00 0.000000e+00 0.000000e+00 0.000000e+00
<ENDHMM>
~h "o"
<BEGINHMM>
<NUMSTATES> 5
<STATE> 2
<MEAN> 39
 -1.156178e-01 -7.776260e-01 3.884982e+00 -1.673149e+01 -1.603787e+01 2.348918e+00 1.165667e+00 -1.299743e+01 4.583466e+00 -7.295810e+00 2.338993e-01 6.243362e-01 6.780688e+01 2.888969e-01 2.849342e-01 -1.422249e-01 -7.288232e-01 -5.704811e-01 2.542274e-01 2.498081e-01 -2.890968e-02 5.233892e-02 -3.985266e-01 -2.557046e-01 3.334452e-01 6.660397e-03 -2.115751e-01 1.417673e-02 -1.770362e-02 3.386630e-01 4.149071e-01 -1.091748e-01 2.595814e-02 2.047885e-01 -3.114104e-02 1.111553e-01 4.220072e-02 -4.439639e-02 -1.508244e-01
<VARIANCE> 39
 3.794696e+01 2.765049e+01 1.510497e+01 4.873090e+01 1.041586e+02 2.034775e+01 1.134474e+01 4.362594e+01 3.025511e+01 2.089036e+01 2.875230e+01 2.518855e+01 2.364019e+01 1.860665e+00 1.251238e+00 1.001082e+00 3.159714e+00 6.041378e+00 1.736748e+00 1.011806e+00 2.642400e+00 2.344617e+00 1.746424e+00 1.741123e+00 1.951129e+00 1.122730e+00 1.787302e-01 1.835230e-01 1.856132e-01 3.017768e-01 3.978024e-01 3.170209e-01 1.884736e-01 3.942855e-01 3.880838e-01 3.330740e-01 3.033803e-01 3.435451e-01 1.620550e-01
<GCONST> 1.062773e+02
<STATE> 3
<MEAN> 39
 -5.271798e+00 -2.689174e-01 2.317749e+00 -8.097936e+00 -2.465454e+00 6.452475e-02 2.690819e+00 -9.106341e+00 2.424643e+00 -6.694027e+00 1.911434e+00 2.268689e+00 6.270177e+01 -1.026431e+00 1.470784e-01 1.515941e-01 1.992079e+00 2.070159e+00 -5.938558e-01 -4.061256e-02 1.007998e+00 -3.335097e-01 9.194632e-01 4.060185e-01 -4.239809e-01 -9.012696e-01 -8.511493e-02 -1.363057e-01 -2.404972e-02 -4.982376e-02 -2.567121e-01 -6.587531e-02 -3.066386e-02 1.289888e-01 2.205097e-01 2.506621e-01 2.276177e-02 -1.744549e-01 1.013291e-02
<VARIANCE> 39
 4.161866e+01 1.306149e+01 1.472687e+01 5.213947e+01 4.487403e+01 3.237839e+01 2.139248e+01 4.841834e+01 1.902665e+01 2.878004e+01 2.105457e+01 1.836417e+01 1.959341e+01 1.154567e+00 1.129980e+00 1.472941e+00 3.390652e+00 4.209729e+00 2.421773e+00 1.686549e+00 2.759898e+00 2.326601e+00 2.223137e+00 1.731957e+00 1.795844e+00 1.297284e+00 1.697119e-01 2.524951e-01 3.163193e-01 5.351910e-01 5.469449e-01 4.365881e-01 3.519255e-01 3.792877e-01 4.860249e-01 3.565464e-01 3.360373e-01 4.117719e-01 1.899093e-01
<GCONST> 1.090899e+02
<STATE> 4
<MEAN> 39
 -1.165051e+01 -1.848164e+00 5.353766e-01 -3.136141e+00 1.370112e+00 -3.017583e+00 1.864208e+00 -2.176659e+00 3.224181e+00 -3.571194e-01 3.600913e+00 9.069389e-01 5.660279e+01 -4.116412e-01 -3.122843e-01 -1.487019e-01 1.106068e-01 9.777971e-02 -2.099299e-01 -2.966354e-03 2.028048e-01 1.401971e-01 2.693815e-01 6.627525e-02 -1.241305e-01 -6.713130e-02 4.754815e-02 -9.600732e-02 5.538425e-02 -1.339317e-01 -9.292267e-02 7.318570e-02 1.147496e-02 -1.130358e-01 2.786911e-02 -1.279017e-01 -6.692740e-02 -3.615646e-02 2.241464e-01
<VARIANCE> 39
 1.170181e+01 5.674110e+00 7.300494e+00 9.279599e+00 1.050905e+01 1.272514e+01 1.317918e+01 1.661397e+01 1.313866e+01 1.361810e+01 1.258955e+01 1.281786e+01 5.784916e+00 6.592872e-01 7.439280e-01 8.070450e-01 1.033266e+00 1.292654e+00 1.585650e+00 1.725195e+00 1.613063e+00 1.448823e+00 1.797360e+00 1.577096e+00 1.515402e+00 5.071364e-01 1.332409e-01 1.634984e-01 1.886089e-01 2.912900e-01 3.275503e-01 3.151216e-01 3.205548e-01 3.680775e-01 3.004902e-01 3.637366e-01 3.348927e-01 3.589859e-01 1.294407e-01
<GCONST> 8.688295e+01
<TRANSP> 5
 0.000000e+00 1.000000e+00 0.000000e+00 0.000000e+00 0.000000e+00
 0.000000e+00 8.111563e-01 1.888437e-01 0.000000e+00 0.000000e+00
 0.000000e+00 0.000000e+00 6.034095e-01 3.965905e-01 0.000000e+00
 0.000000e+00 0.000000e+00 0.000000e+00 8.209272e-01 1.790727e-01
 0.000000e+00 0.000000e+00 0.000000e+00 0.000000e+00 0.000000e+00
<ENDHMM>
~h "r"
<BEGINHMM>
<NUMSTATES> 5
<STATE> 2
<MEAN> 39
 -6.421342e+00 -4.387185e+00 1.954790e+00 -3.398060e+00 -2.429605e-02 -2.891973e+00 -2.517635e+00 -4.182601e+00 8.163012e+00 -1.480252e+00 6.212194e-02 -3.702185e+00 6.236090e+01 -4.663424e-01 3.245347e-01 -5.066573e-01 1.153452e-01 8.832002e-01 5.492901e-01 5.923696e-01 2.991219e-01 -3.489841e-01 4.948845e-01 -6.385424e-03 3.569181e-01 -9.370352e-01 -6.329899e-02 -1.437269e-02 8.706519e-02 -2.313516e-02 -1.373422e-01 -1.322019e-01 6.766544e-02 1.494555e-02 -5.273076e-02 -6.332604e-02 1.052809e-01 6.842476e-02 4.376630e-02
<VARIANCE> 39
 2.161403e+01 2.184294e+01 1.465922e+01 1.735885e+01 2.362007e+01 1.906075e+01 5.179932e+01 2.331526e+01 4.306870e+01 1.973443e+01 2.145790e+01 2.379813e+01 4.674791e+01 6.407755e-01 1.335631e+00 1.295992e+00 1.636203e+00 2.095548e+00 1.828200e+00 2.051467e+00 1.615134e+00 2.434202e+00 1.513506e+00 1.831388e+00 1.585939e+00 1.219339e+00 9.200662e-02 2.366928e-01 1.697103e-01 2.979579e-01 3.117367e-01 2.982180e-01 3.681923e-01 3.140325e-01 3.570838e-01 2.872979e-01 3.363985e-01 2.922543e-01 1.233725e-01
<GCONST> 1.010777e+02
<STATE> 3
<MEAN> 39
 -1.187087e+01 -3.641138e+00 5.723658e-01 -2.993701e+00 2.631931e+00 -1.620335e+00 2.970979e+00 -2.112798e+00 4.466224e+00 4.266645e-01 2.820383e+00 -3.397492e-01 5.707092e+01 -2.423794e-01 -7.534200e-02 -9.588944e-02 -1.782907e-01 1.599241e-02 1.088526e-01 2.117423e-01 7.837863e-02 -6.126710e-02 -3.033155e-02 -1.314814e-01 1.258148e-01 -2.079514e-02 3.099603e-02 8.210717e-03 4.026358e-02 -1.955905e-02 -7.798593e-02 -8.747175e-02 -4.904137e-02 2.254657e-02 2.195795e-02 -9.489356e-02 -4.725029e-02 -5.288166e-02 8.709514e-02
<VARIANCE> 39
 9.937597e+00 9.462795e+00 7.401473e+00 1.176800e+01 1.268713e+01 1.676878e+01 1.566536e+01 1.659235e+01 1.636118e+01 1.461936e+01 1.393666e+01 1.588049e+01 1.505235e+01 4.047953e-01 5.013512e-01 7.510196e-01 1.062781e+00 1.245318e+00 1.313282e+00 1.564294e+00 1.543796e+00 1.596297e+00 1.513429e+00 1.742649e+00 1.447139e+00 4.895942e-01 7.692663e-02 1.184207e-01 1.385851e-01 1.814891e-01 2.705804e-01 2.792845e-01 3.098018e-01 3.374110e-01 3.125858e-01 3.229125e-01 3.517750e-01 2.933561e-01 6.839896e-02
<GCONST> 8.537408e+01
<STATE> 4
<MEAN> 39
 -1.017166e+01 -5.623428e+00 -2.738886e-01 -5.787736e+00 2.586004e+00 9.963157e-01 3.280398e+00 -2.517861e+00 6.075437e+00 1.294287e+00 9.804865e-01 -1.080683e+00 6.037201e+01 -2.723586e-01 9.632168e-02 -1.724255e-01 -3.742723e-01 -2.739677e-01 -2.685122e-01 3.967396e-01 4.480849e-01 -1.212460e-01 -2.633592e-01 -3.580331e-01 2.255370e-01 4.718877e-02 1.156638e-01 1.365338e-02 7.131437e-02 4.523824e-02 -2.044674e-01 -3.054443e-01 -1.689039e-01 -5.835698e-02 -7.267035e-02 -2.345632e-01 1.367423e-01 -9.858835e-02 2.897424e-01
<VARIANCE> 39
 2.017362e+01 1.707681e+01 1.601043e+01 3.187902e+01 2.201270e+01 2.864309e+01 3.309517e+01 2.388992e+01 2.473545e+01 2.180169e+01 1.998544e+01 2.983413e+01 3.116401e+01 1.251564e+00 1.649028e+00 1.473745e+00 2.633247e+00 2.208412e+00 2.283654e+00 2.071858e+00 2.094817e+00 2.287166e+00 1.894845e+00 2.508045e+00 1.952027e+00 2.002419e+00 2.443019e-01 3.755876e-01 3.358856e-01 4.239320e-01 4.129097e-01 4.368646e-01 3.997918e-01 4.459877e-01 4.200530e-01 4.334509e-01 4.001721e-01 4.317227e-01 3.472577e-01
<GCONST> 1.096182e+02
<TRANSP> 5
 0.000000e+00 1.000000e+00 0.000000e+00 0.000000e+00 0.000000e+00
 0.000000e+00 8.386229e-01 1.613771e-01 0.000000e+00 0.000000e+00
 0.000000e+00 0.000000e+00 8.041662e-01 1.958338e-01 0.000000e+00
 0.000000e+00 0.000000e+00 0.000000e+00 4.558856e-01 5.441144e-01
 0.000000e+00 0.000000e+00 0.000000e+00 0.000000e+00 0.000000e+00
<ENDHMM>
~h "s"
<BEGINHMM>
<NUMSTATES> 5
<STATE> 2
<MEAN> 39
 -1.929284e+01 5.961854e-01 5.696591e-03 -1.383261e+00 1.043257e+00 -7.117768e+00 3.056476e+00 -4.630123e+00 4.323462e+00 -2.157029e+00 2.083884e+00 -1.412609e+00 6.699158e+01 -3.159697e+00 7.906154e-01 -1.088405e+00 -7.051138e-01 7.404171e-01 1.272224e+00 5.338443e-01 1.088226e+00 1.038116e+00 -2.490678e-01 -6.050747e-05 9.999709e-01 4.559687e-01 1.910582e-01 -7.450639e-02 -4.732766e-02 1.180588e-01 -1.649463e-01 -9.854286e-03 7.256188e-02 -1.615242e-01 -1.053398e-01 1.366171e-01 1.920411e-01 -1.229580e-01 -2.663127e-02
<VARIANCE> 39
 8.408114e+01 1.438726e+01 3.600565e+01 1.650744e+01 1.799770e+01 2.176634e+01 1.514786e+01 2.056300e+01 2.873844e+01 1.272656e+01 1.266348e+01 1.517050e+01 1.599190e+01 4.660960e+00 1.882206e+00 3.317928e+00 1.720700e+00 2.378593e+00 2.036150e+00 2.027084e+00 2.052211e+00 2.658062e+00 1.547106e+00 1.778262e+00 1.581144e+00 9.203995e-01 1.102094e+00 3.288983e-01 6.508989e-01 3.628595e-01 4.030949e-01 5.043200e-01 3.621726e-01 3.804289e-01 4.736956e-01 2.933486e-01 3.511679e-01 3.067462e-01 2.408851e-01
<GCONST> 1.084301e+02
<STATE> 3
<MEAN> 39
 -2.805695e+01 2.257168e+00 -2.034326e+00 -2.699478e+00 3.187266e+00 -4.586570e+00 6.163308e+00 -3.114030e+00 7.756111e+00 -2.296744e+00 3.477721e+00 8.803557e-01 6.770428e+01 5.108845e-01 -1.465330e-01 5.000019e-01 -6.725499e-02 1.997623e-01 -1.706408e-02 3.258094e-01 -6.528475e-02 1.271494e-01 -4.915924e-02 1.727259e-01 8.543936e-02 -5.999846e-01 4.050674e-01 -1.918880e-01 3.776334e-02 6.663400e-02 -8.175408e-03 -3.946295e-02 -1.081253e-01 2.633900e-04 -3.890666e-02 5.332329e-02 -3.983568e-03 -5.352561e-02 -1.862543e-01
<VARIANCE> 39
 7.688318e+00 7.095611e+00 1.234399e+01 1.068416e+01 1.252872e+01 1.323741e+01 1.498275e+01 1.450824e+01 1.661009e+01 1.513635e+01 1.386512e+01 1.174294e+01 5.535166e+00 1.721493e+00 1.217686e+00 9.893079e-01 1.054026e+00 1.051528e+00 1.408796e+00 1.358156e+00 1.453234e+00 1.502292e+00 1.514206e+00 1.454770e+00 1.157776e+00 5.753364e-01 1.413621e-01 1.473482e-01 2.099513e-01 2.149119e-01 2.165406e-01 3.081273e-01 2.957374e-01 3.200657e-01 3.191026e-01 3.091894e-01 2.972831e-01 2.456474e-01 4.919318e-02
<GCONST> 8.604771e+01
<STATE> 4
<MEAN> 39
 -1.438503e+01 -2.775272e+00 9.620825e-01 -1.709590e+00 3.305088e+00 -2.657129e+00 4.528342e+00 -1.361378e+00 5.270219e+00 -6.706256e-01 3.687289e+00 2.981540e-01 5.697454e+01 5.018855e-01 -1.939976e-01 -5.116044e-02 4.460294e-02 -7.883491e-02 1.839874e-01 -2.585104e-01 9.381441e-02 -2.859693e-01 6.508507e-02 -1.112571e-01 -1.145794e-01 -3.451090e-01 -1.864425e-01 5.171623e-02 -2.491512e-02 -5.580850e-02 -2.232785e-03 -1.796076e-02 1.535151e-02 -4.306932e-02 2.019666e-02 -3.659729e-02 -1.577644e-02 -2.206087e-02 1.868320e-01
<VARIANCE> 39
 1.138891e+01 5.600562e+00 6.739016e+00 7.186640e+00 9.693450e+00 1.292257e+01 1.406283e+01 1.437136e+01 1.751979e+01 1.395634e+01 1.326538e+01 1.172382e+01 8.478233e+00 1.720222e+00 6.539072e-01 7.828112e-01 9.039472e-01 1.029933e+00 1.424878e+00 1.473653e+00 1.592440e+00 1.750487e+00 1.594168e+00 1.470635e+00 1.311527e+00 1.071375e+00 1.825682e-01 1.521229e-01 1.750250e-01 1.830055e-01 2.102622e-01 2.852485e-01 2.907806e-01 3.254348e-01 3.558671e-01 3.190123e-01 3.037936e-01 2.743246e-01 9.915330e-02
<GCONST> 8.612809e+01
<TRANSP> 5
 0.000000e+00 1.000000e+00 0.000000e+00 0.000000e+00 0.000000e+00
 0.000000e+00 7.226455e-01 2.773545e-01 0.000000e+00 0.000000e+00
 0.000000e+00 0.000000e+00 9.057950e-01 9.420498e-02 0.000000e+00
 0.000000e+00 0.000000e+00 0.000000e+00 9.293669e-01 7.063306e-02
 0.000000e+00 0.000000e+00 0.000000e+00 0.000000e+00 0.000000e+00
<ENDHMM>
~h "t"
<BEGINHMM>
<NUMSTATES> 5
<STATE> 2
<MEAN> 39
 -1.498698e+01 -4.339751e+00 -8.159504e-01 -4.435304e+00 5.762159e+00 -4.512024e+00 5.000116e+00 -2.260232e+00 6.971992e+00 -5.211756e-01 2.876667e+00 4.634373e-01 6.220323e+01 -3.067682e-01 -2.120485e-01 3.275514e-02 -2.627411e-01 1.692810e-02 -4.408514e-01 -8.302651e-02 8.277255e-02 9.737212e-02 -1.949432e-01 -5.746825e-02 2.364966e-01 1.437827e-01 1.071463e-01 -9.471358e-02 8.258358e-02 9.267647e-02 7.214978e-02 1.155199e-01 -1.267760e-01 -3.355090e-03 5.265972e-02 3.895076e-02 -3.498948e-03 -8.355226e-02 4.068093e-02
<VARIANCE> 39
 2.262400e+01 1.202120e+01 1.618887e+01 2.038680e+01 1.465026e+01 3.549708e+01 1.774174e+01 1.807880e+01 1.564575e+01 1.549254e+01 1.365891e+01 1.332619e+01 3.358211e+01 3.123993e+00 1.421801e+00 1.942455e+00 2.470614e+00 1.837546e+00 4.573033e+00 1.813431e+00 2.511258e+00 1.815973e+00 1.971863e+00 1.649303e+00 1.644969e+00 6.316713e+00 7.043917e-01 3.658491e-01 3.285536e-01 5.156060e-01 3.916760e-01 1.019643e+00 3.789614e-01 5.612632e-01 4.049973e-01 3.957333e-01 3.479393e-01 3.465655e-01 1.553098e+00
<GCONST> 1.110331e+02
<STATE> 3
<MEAN> 39
 -1.333946e+01 -5.666152e+00 7.625727e-01 -3.444901e+00 6.335503e+00 -4.214765e+00 3.340067e+00 -1.149086e+00 7.006391e+00 -8.763549e-01 2.557559e+00 7.510207e-01 5.990811e+01 1.086584e+00 4.683160e-01 -1.885831e-01 5.713855e-01 -5.503277e-01 1.171111e+00 -7.799628e-02 3.593313e-01 -5.819939e-01 2.577379e-01 9.378592e-02 -6.943570e-02 -1.562812e+00 -2.017267e-01 2.040496e-01 -1.039761e-01 -1.208655e-01 -1.970388e-01 -6.925818e-02 1.335020e-01 -1.670306e-01 -1.063135e-01 4.429471e-03 7.289199e-02 7.214270e-03 1.665886e-01
<VARIANCE> 39
 8.493306e+00 7.749415e+00 8.516376e+00 1.142979e+01 1.230581e+01 1.871352e+01 1.706668e+01 1.637375e+01 1.840733e+01 1.465071e+01 1.357810e+01 1.318340e+01 1.217926e+01 1.427348e+00 1.036155e+00 8.596563e-01 1.698929e+00 1.383198e+00 2.123934e+00 1.557792e+00 1.570209e+00 1.862284e+00 1.507948e+00 1.600080e+00 1.474452e+00 1.406876e+00 2.953668e-01 1.999912e-01 2.129208e-01 3.026479e-01 2.909612e-01 4.310669e-01 3.129192e-01 3.202043e-01 3.465133e-01 3.729327e-01 3.768929e-01 3.168682e-01 2.814845e-01
<GCONST> 9.438671e+01
<STATE> 4
<MEAN> 39
 -1.282901e+01 -3.109209e+00 5.653817e-01 -2.179429e+00 3.367779e+00 -1.730300e+00 3.742073e+00 -1.245819e+00 3.970299e+00 -5.865754e-01 2.954866e+00 -6.913495e-03 5.575002e+01 -5.259377e-02 5.478461e-02 9.762923e-02 7.477036e-02 -9.715372e-02 2.824875e-03 -3.157023e-02 -1.130107e-01 -1.217747e-01 -5.884478e-02 -3.202219e-02 -1.051261e-01 2.020466e-02 -3.562727e-02 -5.264706e-02 4.038228e-02 -2.349660e-02 4.114603e-02 -7.905947e-02 -5.670270e-03 -5.116068e-02 4.819931e-02 -2.503923e-02 -1.622519e-02 -3.488310e-02 1.621352e-01
<VARIANCE> 39
 4.419814e+00 3.755733e+00 4.791371e+00 6.276849e+00 7.553928e+00 9.607076e+00 1.128262e+01 1.085056e+01 1.281218e+01 1.238078e+01 1.214357e+01 1.093162e+01 3.228157e+00 4.322503e-01 5.033811e-01 6.365950e-01 7.641360e-01 9.252469e-01 1.211714e+00 1.301736e+00 1.400680e+00 1.481807e+00 1.320203e+00 1.425969e+00 1.232079e+00 4.001633e-01 9.399879e-02 9.926465e-02 1.315766e-01 1.693927e-01 1.906139e-01 2.649566e-01 2.678347e-01 2.936189e-01 2.919790e-01 2.699039e-01 2.939525e-01 2.622475e-01 7.849083e-02
<GCONST> 7.524213e+01
<TRANSP> 5
 0.000000e+00 1.000000e+00 0.000000e+00 0.000000e+00 0.000000e+00
 0.000000e+00 8.796599e-01 1.203401e-01 0.000000e+00 0.000000e+00
 0.000000e+00 0.000000e+00 6.501049e-01 3.498951e-01 0.000000e+00
 0.000000e+00 0.000000e+00 0.000000e+00 9.270765e-01 7.292355e-02
 0.000000e+00 0.000000e+00 0.000000e+00 0.000000e+00 0.000000e+00
<ENDHMM>
~h "u"
<BEGINHMM>
<NUMSTATES> 5
<STATE> 2
<MEAN> 39
 -3.649253e+00 -2.866505e-01 9.491771e+00 4.596531e+00 -2.524211e+00 -1.016325e+01 7.110227e-01 -1.598563e+01 -6.689494e-01 3.146080e-01 1.755144e+00 -4.415036e+00 6.463158e+01 1.048862e+00 -6.708487e-01 -5.143953e-01 -5.949957e-01 -8.863329e-01 -6.383134e-02 -1.183485e+00 -1.803820e+00 2.953659e-01 -2.255477e-01 5.320728e-01 1.475247e-01 1.318401e+00 -6.154301e-02 -6.819270e-02 -3.910625e-01 -4.946809e-01 2.879248e-03 4.732890e-01 -1.213683e-01 1.896699e-01 1.625297e-01 -1.355813e-01 3.317916e-01 3.021353e-01 -1.037979e-01
<VARIANCE> 39
 6.795155e+00 2.041681e+01 1.882700e+01 1.832513e+01 1.622381e+01 2.660830e+01 3.276889e+01 3.427714e+01 2.162421e+01 1.304492e+01 1.568856e+01 1.200078e+01 1.343295e+01 6.457173e-01 2.092224e+00 3.746571e+00 3.720166e+00 2.318295e+00 4.679457e+00 3.204201e+00 4.066988e+00 3.019679e+00 1.664582e+00 2.666268e+00 2.334234e+00 9.685255e-01 1.308642e-01 4.968095e-01 4.398300e-01 3.794463e-01 4.497616e-01 4.329496e-01 5.945859e-01 7.964668e-01 5.642345e-01 3.156573e-01 4.250940e-01 2.902496e-01 2.299200e-01
<GCONST> 1.081257e+02
<STATE> 3
<MEAN> 39
 1.754108e+00 -4.718467e+00 3.137316e+00 -6.397699e+00 -8.476106e+00 -3.708522e+00 -9.651414e+00 -2.407342e+01 3.813117e+00 -2.288135e+00 1.107487e+01 -9.947398e-01 7.078857e+01 -4.646848e-02 -3.654666e-01 3.400955e-01 -1.196423e-01 -5.013930e-01 -3.697519e-01 -7.551959e-01 1.603161e-01 7.631072e-01 -1.905234e-01 -1.895129e-02 -2.617328e-01 1.586556e-01 -1.847025e-01 -4.002644e-02 2.288807e-01 3.916605e-01 1.297717e-01 -3.516809e-01 1.568817e-01 3.326910e-01 3.973921e-02 -6.789238e-02 -4.781472e-01 -1.364609e-01 -1.115398e-01
<VARIANCE> 39
 2.532167e+00 1.191004e+01 9.143873e+00 1.247592e+01 9.364859e+00 2.053240e+01 2.195120e+01 2.093544e+01 3.787934e+01 1.999048e+01 2.646468e+01 2.503781e+01 4.028783e+00 3.903677e-01 1.210051e+00 1.159176e+00 2.977424e+00 9.211605e-01 3.529013e+00 2.110791e+00 2.291787e+00 4.682163e+00 3.201985e+00 5.419621e+00 2.615790e+00 2.447509e-01 4.540714e-02 2.312658e-01 1.484500e-01 2.575692e-01 2.132823e-01 3.831188e-01 4.875846e-01 3.563947e-01 9.027863e-01 7.003062e-01 5.155452e-01 5.133479e-01 9.047357e-02
<GCONST> 9.665942e+01
<STATE> 4
<MEAN> 39
 -4.374017e+00 -6.135283e+00 5.539201e+00 -6.181957e-01 -5.901682e+00 -9.646114e+00 -7.839720e+00 -1.210890e+01 8.718357e+00 -5.251523e+00 1.412797e+00 -1.361859e+00 6.564793e+01 -3.650917e-01 -3.566460e-02 8.271632e-02 3.237585e-01 1.768440e-01 -1.639908e-01 4.299078e-01 9.587244e-01 -1.640554e-01 -6.385587e-01 -5.445293e-01 3.645749e-01 -3.391137e-01 1.254008e-02 6.830768e-02 -8.390082e-02 -8.303765e-02 4.106831e-02 1.316856e-01 8.525600e-02 -4.072162e-02 -1.366735e-01 1.374904e-01 1.565871e-01 9.024375e-03 -4.666570e-02
<VARIANCE> 39
 2.555952e+01 1.834860e+01 1.668149e+01 1.225059e+01 4.159809e+01 3.111230e+01 5.393169e+01 6.407281e+01 3.306791e+01 2.691521e+01 2.187832e+01 1.480598e+01 5.181212e+01 2.423268e-01 9.618234e-01 8.750088e-01 1.026284e+00 1.246737e+00 1.433100e+00 1.202495e+00 1.315793e+00 1.493997e+00 2.215142e+00 2.001956e+00 9.527639e-01 4.255709e-01 4.771496e-02 1.552951e-01 1.513255e-01 1.743199e-01 2.179416e-01 2.294699e-01 2.618894e-01 2.151484e-01 3.201071e-01 2.997287e-01 3.373085e-01 1.909737e-01 4.595876e-02
<GCONST> 9.286562e+01
<TRANSP> 5
 0.000000e+00 1.000000e+00 0.000000e+00 0.000000e+00 0.000000e+00
 0.000000e+00 8.768301e-01 1.231700e-01 0.000000e+00 0.000000e+00
 0.000000e+00 0.000000e+00 8.912679e-01 1.087321e-01 0.000000e+00
 0.000000e+00 0.000000e+00 0.000000e+00 8.593088e-01 1.406912e-01
 0.000000e+00 0.000000e+00 0.000000e+00 0.000000e+00 0.000000e+00
<ENDHMM>
~h "v"
<BEGINHMM>
<NUMSTATES> 5
<STATE> 2
<MEAN> 39
 -1.154871e+01 -2.024835e+00 7.370690e-01 -2.752458e+00 1.518148e+00 -3.194926e+00 2.371989e+00 -1.789559e+00 3.366485e+00 -4.145885e-01 3.116122e+00 5.381762e-01 5.591130e+01 -2.356745e-01 -1.547217e-01 -5.564091e-03 1.193163e-01 1.327159e-01 -7.610273e-02 -8.064125e-02 1.516732e-02 6.462334e-02 9.010360e-02 5.821905e-02 -8.020817e-02 -5.298179e-02 8.070812e-02 8.404675e-03 3.551790e-02 -9.498209e-02 -7.739244e-02 3.013238e-02 -1.077976e-02 -7.812191e-02 -1.230025e-02 -1.007939e-01 -6.105248e-02 5.777787e-03 1.315474e-01
<VARIANCE> 39
 4.917114e+00 5.974021e+00 5.220243e+00 7.660288e+00 1.086124e+01 1.073193e+01 1.235869e+01 1.160108e+01 1.183871e+01 1.240896e+01 1.094662e+01 1.173442e+01 2.448635e+00 5.941294e-01 6.375489e-01 7.525393e-01 8.298782e-01 9.948223e-01 1.330913e+00 1.455499e+00 1.323734e+00 1.385295e+00 1.555404e+00 1.315313e+00 1.331191e+00 3.064072e-01 7.045542e-02 9.135132e-02 1.209952e-01 2.393172e-01 2.615018e-01 2.819617e-01 3.016022e-01 2.816074e-01 2.619662e-01 3.200577e-01 2.647401e-01 2.809460e-01 6.347597e-02
<GCONST> 7.735510e+01
<STATE> 3
<MEAN> 39
 -1.115710e+01 1.439872e-01 4.200122e+00 6.874846e-01 4.230254e+00 -3.397474e+00 1.498074e+00 -3.936126e+00 2.172609e+00 -2.497524e+00 1.429942e+00 -1.832263e+00 5.957204e+01 3.170315e-01 -3.668069e-01 5.379592e-01 -1.232823e-02 -2.553373e-01 -5.480620e-01 -6.920052e-01 -5.970986e-01 6.247466e-02 -5.339781e-01 -3.178659e-01 -1.651839e-01 1.554359e+00 -8.436319e-02 -5.444043e-01 -1.156344e-01 -4.655481e-01 -5.967309e-01 -2.156273e-01 -9.504153e-02 1.637309e-01 3.029704e-01 5.649516e-02 1.521822e-01 2.225054e-01 4.276914e-01
<VARIANCE> 39
 4.844060e+01 1.802069e+01 2.411763e+01 2.184172e+01 2.269219e+01 1.922552e+01 2.219883e+01 1.823756e+01 1.497482e+01 1.440084e+01 1.261622e+01 1.340913e+01 1.811732e+01 2.693659e+00 2.351977e+00 1.863514e+00 2.095615e+00 2.293246e+00 3.012961e+00 2.579315e+00 2.033910e+00 1.599654e+00 1.494584e+00 1.191728e+00 1.503723e+00 2.074007e+00 3.657544e-01 5.485947e-01 2.938823e-01 4.215207e-01 6.481231e-01 6.442606e-01 5.038142e-01 3.979115e-01 3.660637e-01 3.129727e-01 2.721345e-01 3.022280e-01 3.534830e-01
<GCONST> 1.073028e+02
<STATE> 4
<MEAN> 39
 -1.271271e+01 -3.416897e+00 3.592634e+00 -1.558190e+00 2.772951e+00 -3.662322e+00 1.661627e+00 -2.718244e+00 4.718014e+00 -2.260872e+00 2.050308e+00 -9.654939e-01 6.409231e+01 6.855828e-01 -1.150669e+00 6.095229e-01 -8.268301e-01 -1.594808e+00 -5.742652e-01 -7.724285e-01 -5.475908e-02 4.616161e-01 -3.105493e-01 1.186673e-01 2.931393e-01 1.665867e+00 2.335646e-01 -9.871701e-02 7.635492e-02 -2.435142e-01 -6.773903e-01 -7.272501e-02 -1.198528e-01 1.079515e-01 4.925799e-02 1.730845e-02 1.827970e-01 1.077151e-01 9.018497e-02
<VARIANCE> 39
 4.616956e+01 2.000967e+01 2.884289e+01 2.394509e+01 4.356491e+01 2.958421e+01 2.665376e+01 2.750873e+01 1.730702e+01 2.065228e+01 1.414567e+01 1.568737e+01 3.517326e+01 3.540712e+00 3.890856e+00 2.155264e+00 3.105637e+00 6.497836e+00 4.426088e+00 2.950069e+00 3.370063e+00 2.658326e+00 2.041090e+00 1.610922e+00 1.631982e+00 5.168604e+00 3.376042e-01 5.548107e-01 4.331866e-01 5.835091e-01 8.768046e-01 6.886418e-01 4.630830e-01 7.089751e-01 5.276469e-01 4.120524e-01 3.775839e-01 3.661457e-01 4.464760e-01
<GCONST> 1.191444e+02
<TRANSP> 5
 0.000000e+00 1.000000e+00 0.000000e+00 0.000000e+00 0.000000e+00
 0.000000e+00 8.938119e-01 1.061881e-01 0.000000e+00 0.000000e+00
 0.000000e+00 0.000000e+00 5.328748e-01 4.671251e-01 0.000000e+00
 0.000000e+00 0.000000e+00 0.000000e+00 3.848325e-01 6.151676e-01
 0.000000e+00 0.000000e+00 0.000000e+00 0.000000e+00 0.000000e+00
<ENDHMM>
~h "x"
<BEGINHMM>
<NUMSTATES> 5
<STATE> 2
<MEAN> 39
 -9.682171e+00 -1.435807e+01 -5.506394e-01 -3.863123e+00 9.944928e+00 1.013316e+01 -1.187585e+00 -3.697452e+00 8.640697e+00 2.787573e+00 -3.775379e+00 -5.805879e+00 7.147678e+01 -2.839530e+00 1.005580e-01 1.006522e+00 7.164325e-01 2.721764e+00 -2.242621e-01 -3.084697e-01 4.814278e-01 2.758382e+00 -5.788410e-02 6.926501e-01 1.571179e+00 -1.675412e+00 1.886337e-02 -1.999536e-01 -4.988529e-01 -2.858984e-01 -3.395100e-01 -2.851070e-01 -1.459468e-01 2.226577e-01 -1.970499e-01 5.500402e-03 2.993316e-01 -3.596931e-01 3.544525e-01
<VARIANCE> 39
 3.101796e+01 5.851668e+00 1.087914e+01 1.193567e+01 3.662764e+01 1.457018e+01 1.589917e+01 1.406488e+01 3.353086e+01 1.869069e+01 1.654535e+01 1.730628e+01 9.001877e+00 1.672555e+00 1.123738e+00 1.975439e+00 1.535828e+00 2.788139e+00 1.543411e+00 1.792131e+00 1.734382e+00 2.342068e+00 1.984497e+00 1.733087e+00 1.879424e+00 9.101866e-01 6.290056e-01 2.319103e-01 2.829229e-01 2.753837e-01 6.847116e-01 2.954499e-01 3.030227e-01 3.137247e-01 5.545117e-01 3.852119e-01 3.070961e-01 3.224300e-01 1.470315e-01
<GCONST> 1.004856e+02
<STATE> 3
<MEAN> 39
 -1.611948e+01 -1.351426e+01 -1.112396e+00 -2.746979e+00 1.444198e+01 5.814383e+00 -2.327041e+00 -1.457943e+00 1.390920e+01 3.500219e+00 5.326037e-01 -3.535935e+00 6.824301e+01 -1.398859e-01 8.720657e-01 2.693782e-02 1.051414e-01 -1.485449e-01 -1.202087e+00 5.013571e-01 1.042449e-02 -3.524298e-01 -5.425538e-02 7.707644e-01 4.571920e-02 -4.382624e-01 3.978679e-01 3.192480e-01 2.737306e-02 -4.137007e-02 -4.746344e-01 -9.138125e-02 3.809832e-01 -1.432342e-01 -5.140123e-01 -1.290155e-01 -4.036192e-02 -7.681600e-02 -5.631592e-02
<VARIANCE> 39
 3.471735e+00 7.094594e+00 8.301653e+00 1.036073e+01 1.084356e+01 1.870799e+01 1.654621e+01 1.702607e+01 1.953162e+01 1.931877e+01 1.720533e+01 1.772187e+01 3.976569e+00 1.280962e+00 1.271477e+00 9.590802e-01 1.010177e+00 2.014790e+00 1.769979e+00 2.682073e+00 1.840258e+00 3.079576e+00 2.095578e+00 1.555502e+00 1.930401e+00 2.924199e-01 1.839178e-01 1.690923e-01 2.235270e-01 2.033942e-01 3.267549e-01 3.583748e-01 4.263090e-01 3.381860e-01 3.991283e-01 4.363900e-01 3.208948e-01 4.575821e-01 1.632273e-01
<GCONST> 9.225972e+01
<STATE> 4
<MEAN> 39
 -1.437809e+01 -4.653291e+00 4.815823e-01 -2.055705e+00 9.352628e+00 -1.481618e+00 6.135019e+00 -2.939722e+00 8.056619e+00 1.511061e+00 3.839001e+00 -2.216598e+00 6.466517e+01 5.731007e-01 1.643299e+00 -1.143211e-01 8.725982e-02 -1.488509e+00 -6.513060e-01 1.688012e+00 1.565758e-01 -1.186882e+00 -4.431651e-01 6.800880e-02 7.945135e-01 -1.833007e+00 -1.447753e-02 -4.585068e-01 -2.874942e-01 -8.210312e-02 1.200630e-01 4.668058e-01 -5.542281e-01 2.680509e-01 2.695178e-01 9.234940e-02 -2.721992e-01 5.568336e-02 -2.478467e-01
<VARIANCE> 39
 1.145067e+01 1.499950e+01 1.478070e+01 1.190880e+01 1.527645e+01 2.538374e+01 3.200966e+01 2.137465e+01 1.927283e+01 1.551575e+01 1.563793e+01 1.838579e+01 2.089123e+01 1.484841e+00 2.259534e+00 1.543815e+00 1.275382e+00 1.984058e+00 3.362417e+00 3.994712e+00 2.456808e+00 2.644652e+00 2.063607e+00 1.643339e+00 1.990928e+00 2.928582e+00 2.815517e-01 3.408473e-01 2.807204e-01 2.463063e-01 3.253317e-01 7.170088e-01 7.088916e-01 5.342001e-01 4.875223e-01 4.163562e-01 3.256964e-01 4.251364e-01 6.325635e-01
<GCONST> 1.074385e+02
<TRANSP> 5
 0.000000e+00 1.000000e+00 0.000000e+00 0.000000e+00 0.000000e+00
 0.000000e+00 6.946994e-01 3.053005e-01 0.000000e+00 0.000000e+00
 0.000000e+00 0.000000e+00 8.518078e-01 1.481922e-01 0.000000e+00
 0.000000e+00 0.000000e+00 0.000000e+00 6.562003e-01 3.437997e-01
 0.000000e+00 0.000000e+00 0.000000e+00 0.000000e+00 0.000000e+00
<ENDHMM>
~h "y"
<BEGINHMM>
<NUMSTATES> 5
<STATE> 2
<MEAN> 39
 -7.954345e+00 -1.255872e+00 7.135845e+00 1.544619e+00 -4.659024e-01 -8.940339e+00 7.539532e-01 -1.450899e+01 3.254416e+00 8.497451e-01 -1.003676e+00 -3.084435e+00 6.195113e+01 -3.546945e-01 2.800363e-01 -5.191639e-02 -2.673086e-02 4.764026e-01 3.457938e-01 5.801819e-01 5.056476e-02 -5.649244e-01 2.357865e-01 1.088206e-01 -3.919567e-01 -2.224749e-01 6.638277e-02 -3.350168e-01 -6.395924e-02 -1.253859e-01 -1.323038e-01 4.358236e-02 -3.481154e-01 2.189876e-01 1.958181e-01 -2.753432e-01 1.114768e-01 1.334513e-01 2.423790e-01
<VARIANCE> 39
 2.865464e+01 1.108478e+01 1.892803e+01 1.379706e+01 1.325904e+01 2.491264e+01 1.532640e+01 8.239275e+01 1.457711e+01 1.341206e+01 1.989071e+01 1.560218e+01 1.082201e+01 3.928848e-01 1.371182e+00 7.305994e-01 6.835093e-01 1.152000e+00 9.329588e-01 2.169458e+00 1.733484e+00 2.019393e+00 1.548751e+00 1.088015e+00 1.155060e+00 6.666126e-01 9.367318e-02 2.275147e-01 1.487589e-01 1.636706e-01 2.345892e-01 1.915829e-01 3.990391e-01 3.753757e-01 3.541999e-01 2.780865e-01 2.431256e-01 2.193519e-01 8.268903e-02
<GCONST> 9.007980e+01
<STATE> 3
<MEAN> 39
 -9.944326e+00 -4.141158e+00 6.213632e+00 6.047015e-01 1.060506e+00 -7.542995e+00 7.507696e-01 -1.111541e+01 2.858453e+00 -1.182990e+00 -3.337259e-01 -3.373918e+00 6.416331e+01 -1.275597e+00 -1.335730e+00 -6.057467e-01 -7.600642e-01 5.086783e-01 6.446685e-01 5.247176e-02 2.083749e+00 3.138927e-01 -7.798688e-01 4.574863e-01 4.055857e-01 4.191782e-01 -2.836855e-01 -1.462157e-01 1.968988e-03 -1.517286e-01 -5.713078e-02 8.592512e-02 -8.558400e-03 1.480747e-01 2.427268e-01 3.572952e-03 2.787156e-03 6.817378e-02 3.181466e-02
<VARIANCE> 39
 4.579676e+01 2.818253e+01 1.474209e+01 1.547929e+01 1.790405e+01 1.996400e+01 1.807545e+01 7.826212e+01 2.083616e+01 2.010912e+01 1.337246e+01 1.442693e+01 7.316533e+00 2.408798e+00 3.296842e+00 1.155373e+00 1.196704e+00 1.397209e+00 1.906016e+00 1.791425e+00 4.519924e+00 2.243478e+00 2.348068e+00 1.450149e+00 1.358635e+00 8.497932e-01 4.971046e-01 6.547076e-01 2.019794e-01 2.278626e-01 2.625660e-01 3.238350e-01 3.550756e-01 7.977170e-01 4.501825e-01 4.499795e-01 2.578144e-01 2.563359e-01 1.698722e-01
<GCONST> 1.043248e+02
<STATE> 4
<MEAN> 39
 -1.564912e+01 -7.855370e+00 4.157918e+00 -3.045777e+00 2.028716e+00 -5.281343e+00 1.856794e-01 -4.644310e+00 5.872805e+00 -2.617305e+00 1.462621e+00 -1.349755e+00 6.447787e+01 -1.580720e-01 1.764181e-02 -1.455367e-01 -2.019886e-01 9.603613e-03 1.580783e-01 -7.330060e-02 4.065496e-01 1.758471e-01 3.170900e-02 1.523504e-01 1.609450e-01 -3.476576e-01 1.849463e-01 1.717752e-01 5.799039e-03 1.167921e-01 -2.822395e-02 -4.455436e-02 2.216933e-02 -1.571072e-01 -9.592506e-02 7.157581e-02 -3.030265e-02 -3.250184e-02 -1.205368e-01
<VARIANCE> 39
 4.331437e+01 1.258423e+01 1.289261e+01 1.510514e+01 2.027778e+01 1.835886e+01 3.042566e+01 4.673668e+01 1.805664e+01 1.577074e+01 1.475671e+01 1.267062e+01 1.118874e+01 3.462599e+00 1.636577e+00 1.083874e+00 1.365343e+00 1.586240e+00 1.738983e+00 2.592146e+00 3.516076e+00 1.891919e+00 1.794547e+00 1.516775e+00 1.248828e+00 8.942736e-01 3.728630e-01 3.328905e-01 2.109101e-01 2.437485e-01 2.849107e-01 3.261482e-01 4.933596e-01 5.711678e-01 3.744076e-01 3.683541e-01 3.086668e-01 2.359098e-01 1.503062e-01
<GCONST> 1.016343e+02
<TRANSP> 5
 0.000000e+00 1.000000e+00 0.000000e+00 0.000000e+00 0.000000e+00
 0.000000e+00 8.496527e-01 1.503473e-01 0.000000e+00 0.000000e+00
 0.000000e+00 0.000000e+00 7.261789e-01 2.738211e-01 0.000000e+00
 0.000000e+00 0.000000e+00 0.000000e+00 9.148942e-01 8.510582e-02
 0.000000e+00 0.000000e+00 0.000000e+00 0.000000e+00 0.000000e+00
<ENDHMM>
~h "z"
<BEGINHMM>
<NUMSTATES> 5
<STATE> 2
<MEAN> 39
 -1.592391e+01 -2.846164e+00 1.932682e+00 -2.486171e+00 3.191515e+00 -4.592218e+00 4.424247e+00 -2.487640e+00 5.355773e+00 -1.717079e+00 3.202811e+00 1.018433e+00 5.880198e+01 -2.044908e+00 5.585720e-01 -1.463050e-01 -4.540760e-01 2.001916e-01 -2.576447e-01 4.653800e-01 -3.388251e-01 5.611324e-01 -3.116597e-01 9.967761e-02 1.671212e-01 1.257927e+00 -2.014001e-01 2.877842e-01 -1.813235e-01 1.628991e-02 -5.552242e-02 1.233968e-01 -6.452771e-02 1.184962e-02 -7.245535e-02 3.065226e-02 5.300313e-04 -8.969297e-02 1.431940e-01
<VARIANCE> 39
 2.704643e+01 7.955276e+00 7.492664e+00 9.708086e+00 1.041674e+01 1.422890e+01 1.795755e+01 1.493742e+01 1.806380e+01 1.502829e+01 1.240002e+01 1.222765e+01 1.249589e+01 2.398844e+00 1.465344e+00 1.172414e+00 1.065759e+00 1.183644e+00 1.644209e+00 1.690398e+00 1.523610e+00 1.845577e+00 1.635595e+00 1.400555e+00 1.354746e+00 1.324521e+00 3.479937e-01 2.156526e-01 2.323768e-01 2.565050e-01 2.510026e-01 3.685207e-01 3.581462e-01 3.066415e-01 3.753706e-01 3.291782e-01 2.872558e-01 2.734778e-01 1.392991e-01
<GCONST> 9.358959e+01
<STATE> 3
<MEAN> 39
 -2.867947e+01 3.157413e+00 -1.697034e+00 -2.935608e+00 3.671921e+00 -4.123299e+00 6.030306e+00 -3.585865e+00 6.719022e+00 -2.732020e+00 3.557577e+00 8.433197e-01 6.689283e+01 -7.906721e-01 5.169342e-01 -5.331087e-01 4.147573e-01 -3.420309e-02 3.174851e-01 1.646748e-02 6.075818e-02 -4.157692e-02 6.002401e-02 5.277658e-02 -3.989494e-02 6.113300e-01 4.732336e-01 -2.879996e-01 1.972144e-01 1.090455e-01 -7.132050e-03 -2.151058e-02 3.606983e-02 4.584649e-02 -1.400225e-02 4.707866e-02 -2.304843e-03 3.971058e-02 -2.348552e-01
<VARIANCE> 39
 6.927984e+00 7.659368e+00 7.777855e+00 8.953621e+00 1.022357e+01 1.097093e+01 1.243578e+01 1.331848e+01 1.394869e+01 1.322879e+01 1.323758e+01 1.134362e+01 3.457089e+00 1.139565e+00 1.185256e+00 9.438650e-01 9.878539e-01 1.024431e+00 1.268493e+00 1.358419e+00 1.400355e+00 1.410380e+00 1.426815e+00 1.415324e+00 1.172016e+00 3.926651e-01 1.232819e-01 1.434548e-01 1.754606e-01 2.228382e-01 2.171148e-01 2.582811e-01 2.985293e-01 2.940157e-01 3.090176e-01 2.968110e-01 2.954428e-01 2.330993e-01 5.434819e-02
<GCONST> 8.203020e+01
<STATE> 4
<MEAN> 39
 -2.730887e+01 1.873771e+00 -7.612869e-01 -4.408711e-01 3.587391e+00 -3.350521e+00 8.056928e+00 -2.846097e+00 7.590454e+00 -1.998865e+00 4.385328e+00 1.457232e+00 6.788203e+01 2.045558e+00 -7.939993e-01 1.480371e+00 3.691111e-01 -4.158748e-01 -7.051470e-01 -9.942389e-02 -4.810708e-01 6.254619e-02 -1.374218e-01 3.341508e-02 -2.076379e-01 -5.153519e-02 8.362992e-01 -1.260780e-01 6.000408e-01 -1.035432e-01 -4.658799e-01 -3.945654e-01 -6.236087e-01 -2.931016e-01 -4.814459e-03 -3.778441e-01 8.767043e-03 -2.758763e-01 1.797933e-01
<VARIANCE> 39
 1.169248e+01 1.371444e+01 1.361431e+01 1.143965e+01 1.603580e+01 1.515087e+01 1.833811e+01 1.628696e+01 1.609583e+01 1.532361e+01 1.527154e+01 1.400028e+01 4.441553e+00 3.821486e+00 1.327731e+00 3.173246e+00 1.232692e+00 1.896372e+00 1.996379e+00 2.872917e+00 2.169073e+00 1.847889e+00 1.841017e+00 1.738192e+00 1.733155e+00 6.529536e-01 2.614592e-01 2.620993e-01 5.747375e-01 2.664725e-01 4.509495e-01 3.619397e-01 6.315980e-01 3.591906e-01 4.393803e-01 5.239593e-01 3.668202e-01 4.159073e-01 2.692106e-01
<GCONST> 1.008948e+02
<TRANSP> 5
 0.000000e+00 1.000000e+00 0.000000e+00 0.000000e+00 0.000000e+00
 0.000000e+00 8.051933e-01 1.948067e-01 0.000000e+00 0.000000e+00
 0.000000e+00 0.000000e+00 8.419276e-01 1.580724e-01 0.000000e+00
 0.000000e+00 0.000000e+00 0.000000e+00 7.826276e-01 2.173723e-01
 0.000000e+00 0.000000e+00 0.000000e+00 0.000000e+00 0.000000e+00
<ENDHMM>
~h "OY"
<BEGINHMM>
<NUMSTATES> 5
<STATE> 2
<MEAN> 39
 -6.425830e-01 -8.294560e+00 4.042605e+00 -7.596649e+00 -5.532278e+00 -6.287096e-01 -3.813509e+00 -1.596340e+01 6.766238e+00 5.505259e-01 5.366420e+00 -4.544285e+00 7.059279e+01 6.498651e-01 -1.256690e+00 -5.781649e-01 -1.353324e+00 -7.104599e-01 7.733631e-01 -6.377349e-01 1.304780e-01 8.854875e-01 4.497886e-02 4.362985e-01 -4.234261e-01 1.124789e+00 -1.457294e-01 -2.574412e-03 2.299927e-02 8.331116e-02 4.750474e-02 -1.143727e-01 1.741694e-03 3.997100e-01 1.060376e-01 -6.187606e-02 -1.024588e-01 -2.506205e-02 -1.365714e-01
<VARIANCE> 39
 1.033234e+01 3.548700e+01 3.153995e+01 8.980904e+01 1.881791e+01 6.354200e+01 2.361117e+01 2.525396e+01 3.721881e+01 1.932363e+01 2.634134e+01 1.963646e+01 2.436656e+01 6.679432e-01 1.198334e+00 2.787109e+00 5.509245e+00 1.553918e+00 5.712192e+00 2.810932e+00 4.501695e+00 3.607321e+00 2.243772e+00 2.276501e+00 2.430962e+00 1.338214e+00 7.863142e-02 2.660731e-01 5.350440e-01 9.758657e-01 2.982611e-01 9.633245e-01 5.570725e-01 4.116499e-01 8.131553e-01 4.993234e-01 3.945912e-01 4.263408e-01 1.788578e-01
<GCONST> 1.147097e+02
<STATE> 3
<MEAN> 39
 -1.334920e+00 -1.406156e+01 9.810442e+00 -7.095629e+00 -1.398929e+01 -7.225227e+00 -7.467429e+00 -1.785907e+00 1.057287e+01 -6.487440e+00 5.413690e+00 -5.674095e+00 7.431133e+01 -4.935800e-01 7.470027e-01 1.104633e+00 1.225496e+00 -4.279028e-01 -1.378854e+00 2.207552e-01 4.911174e-01 -9.316357e-01 -1.232136e+00 -7.427709e-02 7.818112e-01 -5.264239e-01 1.687553e-02 2.877322e-01 -2.593017e-01 5.504790e-03 3.903034e-01 1.616592e-01 2.512815e-01 -4.396462e-01 -3.890746e-01 2.444624e-01 9.081902e-02 6.515156e-03 -2.297209e-01
<VARIANCE> 39
 4.297468e+00 1.043419e+01 2.817867e+01 1.744045e+01 2.594179e+01 2.877583e+01 1.012838e+01 2.744682e+01 3.116276e+01 4.994770e+01 1.882940e+01 3.174343e+01 4.340246e+00 1.669810e-01 1.141587e+00 2.023474e+00 9.150113e-01 4.327980e+00 2.546702e+00 1.538802e+00 4.706354e+00 3.152831e+00 3.812706e+00 2.547246e+00 2.619824e+00 6.978692e-01 3.200154e-02 1.153000e-01 2.951261e-01 1.925982e-01 6.940228e-01 4.230320e-01 2.564797e-01 3.954635e-01 4.498289e-01 9.239734e-01 5.562732e-01 7.471684e-01 5.858699e-02
<GCONST> 9.991846e+01
<STATE> 4
<MEAN> 39
 -4.114403e+00 -3.155457e+00 8.993130e+00 1.711760e+00 -4.507623e+00 -1.269963e+01 -6.778495e-01 -9.099229e+00 -3.761604e+00 -2.303027e+00 4.718422e+00 -6.958951e+00 6.465803e+01 -2.734213e-01 1.130363e+00 -6.362272e-01 6.037351e-01 1.645651e+00 1.884831e-01 7.113602e-01 -5.769222e-01 -8.173536e-01 1.316934e+00 -5.220369e-01 -6.040295e-01 -1.177373e+00 -5.495373e-02 -2.160363e-01 9.676065e-02 -2.198762e-01 -2.982574e-01 3.202147e-01 -1.580003e-01 3.775361e-01 5.166730e-01 -3.044069e-01 -1.755677e-02 2.588583e-01 1.424318e-01
<VARIANCE> 39
 2.280570e+00 1.239105e+01 9.564507e+00 1.211147e+01 1.989157e+01 1.152755e+01 1.835823e+01 1.941915e+01 2.546120e+01 2.518697e+01 1.472862e+01 2.171045e+01 7.418405e+00 2.058109e-01 1.682809e+00 1.133662e+00 1.305153e+00 2.994385e+00 1.532577e+00 2.060130e+00 2.629782e+00 4.677178e+00 3.372000e+00 1.362881e+00 2.706211e+00 8.136925e-01 4.075043e-02 3.103505e-01 2.288640e-01 2.059638e-01 5.471004e-01 1.718591e-01 3.156279e-01 2.658989e-01 4.687328e-01 5.078434e-01 2.568976e-01 3.993880e-01 1.609474e-01
<GCONST> 9.391328e+01
<TRANSP> 5
 0.000000e+00 1.000000e+00 0.000000e+00 0.000000e+00 0.000000e+00
 0.000000e+00 9.189032e-01 8.109687e-02 0.000000e+00 0.000000e+00
 0.000000e+00 0.000000e+00 8.954698e-01 1.045302e-01 0.000000e+00
 0.000000e+00 0.000000e+00 0.000000e+00 8.521647e-01 1.478353e-01
 0.000000e+00 0.000000e+00 0.000000e+00 0.000000e+00 0.000000e+00
<ENDHMM>
~h "aI"
<BEGINHMM>
<NUMSTATES> 5
<STATE> 2
<MEAN> 39
 -5.801965e+00 -1.226323e+01 -3.537335e+00 -7.453126e+00 8.452553e-01 7.542077e-01 1.426760e+00 -1.694894e+00 5.023473e+00 -7.030326e-01 1.269529e+00 -1.221424e+01 7.019765e+01 1.058393e+00 -1.710033e+00 -4.219997e-01 -6.660590e-01 -7.093160e-01 2.867594e-01 -4.768877e-01 8.422500e-01 5.821079e-01 -9.009916e-01 -2.416394e-01 -1.811907e+00 2.383871e+00 -1.952275e-01 1.757980e-01 3.979488e-01 1.527045e-01 -2.089319e-01 -2.969514e-01 -1.997005e-02 1.464112e-01 1.066431e-01 -1.986097e-01 -6.969145e-03 3.712789e-01 -1.085838e-01
<VARIANCE> 39
 2.968165e+01 4.117709e+01 2.133876e+01 1.798759e+01 2.291934e+01 2.191340e+01 2.121032e+01 3.068764e+01 3.667193e+01 2.649028e+01 2.490593e+01 5.966932e+01 7.848261e+01 2.161544e+00 2.154825e+00 2.625317e+00 1.661303e+00 1.987537e+00 2.257145e+00 1.939721e+00 2.224976e+00 2.745253e+00 2.413889e+00 2.323005e+00 4.225426e+00 3.597985e+00 4.609979e-01 4.627314e-01 4.038385e-01 3.441487e-01 3.134519e-01 3.958685e-01 3.832784e-01 3.657882e-01 4.268991e-01 3.922115e-01 4.605149e-01 8.815651e-01 7.365493e-01
<GCONST> 1.168447e+02
<STATE> 3
<MEAN> 39
 -3.528325e+00 -1.693941e+01 1.639373e+00 -8.493645e+00 -7.362197e+00 -4.041910e+00 -9.155353e-01 5.063370e+00 9.696744e+00 -7.234529e+00 1.193289e-01 -1.249993e+01 7.833878e+01 -3.216482e-01 4.976082e-01 1.929201e+00 1.778536e-01 -1.661223e+00 -1.822096e+00 -1.064664e-01 9.368569e-01 -2.695497e-02 -4.826622e-01 5.596471e-01 1.509292e+00 -3.878849e-02 -6.985366e-02 3.401043e-01 1.950601e-01 5.768173e-02 3.425767e-02 -4.880688e-02 8.447864e-03 -3.682477e-01 -4.489660e-01 2.559042e-01 4.257306e-01 2.273979e-01 -3.018466e-01
<VARIANCE> 39
 1.068373e+01 1.714238e+01 2.095956e+01 8.771402e+00 3.181285e+01 2.638610e+01 1.861829e+01 3.110763e+01 4.715334e+01 2.219329e+01 2.113911e+01 3.287302e+01 2.767485e+01 2.726581e-01 8.545325e-01 1.083732e+00 7.079303e-01 1.056666e+00 1.242634e+00 1.129665e+00 1.623482e+00 1.796066e+00 1.352634e+00 2.534693e+00 1.514807e+00 6.375805e-01 7.661251e-02 1.331155e-01 1.528360e-01 1.311038e-01 1.837547e-01 2.688459e-01 2.181583e-01 3.107866e-01 2.811100e-01 2.251242e-01 3.245651e-01 3.458853e-01 1.149277e-01
<GCONST> 9.164829e+01
<STATE> 4
<MEAN> 39
 -4.927125e+00 -9.487138e+00 1.137509e+01 -5.521598e+00 -1.324364e+01 -1.158246e+01 -1.448235e+00 1.758808e+00 3.221759e+00 -8.020695e+00 7.669688e+00 -5.627210e+00 7.373948e+01 -4.404112e-02 1.341026e+00 1.953827e-01 1.132760e+00 6.224101e-01 -3.299702e-01 4.044790e-02 -1.433573e+00 -8.641995e-01 7.298597e-02 1.951943e-01 4.059696e-01 -1.326346e+00 2.590898e-02 2.808667e-02 -4.121977e-01 1.612821e-01 5.048394e-01 2.407424e-01 1.682255e-01 -1.678800e-01 3.613116e-02 2.400592e-01 -4.059627e-01 -2.368591e-01 -2.050233e-01
<VARIANCE> 39
 8.214703e+00 2.233357e+01 1.943349e+01 1.901041e+01 3.017130e+01 2.000731e+01 2.338991e+01 2.948809e+01 3.985326e+01 2.234896e+01 2.515482e+01 1.309708e+01 2.585079e+01 3.794223e-01 1.034488e+00 2.619349e+00 1.376018e+00 3.290889e+00 1.505343e+00 1.728141e+00 2.079004e+00 2.259680e+00 2.145898e+00 3.197669e+00 1.351834e+00 1.122581e+00 5.789785e-02 1.943635e-01 2.769879e-01 2.329574e-01 3.782883e-01 2.414387e-01 3.444732e-01 3.414393e-01 3.726996e-01 5.012195e-01 3.687346e-01 2.747100e-01 1.302534e-01
<GCONST> 1.001995e+02
<TRANSP> 5
 0.000000e+00 1.000000e+00 0.000000e+00 0.000000e+00 0.000000e+00
 0.000000e+00 7.693747e-01 2.306253e-01 0.000000e+00 0.000000e+00
 0.000000e+00 0.000000e+00 7.608426e-01 2.391574e-01 0.000000e+00
 0.000000e+00 0.000000e+00 0.000000e+00 8.205416e-01 1.794583e-01
 0.000000e+00 0.000000e+00 0.000000e+00 0.000000e+00 0.000000e+00
<ENDHMM>
~h "sh"
<BEGINHMM>
<NUMSTATES> 5
<STATE> 2
<MEAN> 39
 -1.738237e+01 -9.703153e+00 9.630835e+00 -5.480892e+00 1.382551e+00 -1.679287e+00 -6.349806e-01 -2.680246e+00 7.848738e+00 -2.978550e+00 3.670327e+00 -4.940275e-01 6.163408e+01 -2.935803e+00 -1.402701e+00 3.144712e+00 -1.706635e+00 -6.529458e-01 7.280130e-01 1.137829e-01 -7.817662e-01 8.665923e-01 -9.304895e-01 4.931276e-01 -3.609354e-01 2.106405e+00 -2.199559e-01 5.346287e-01 -5.006395e-02 -1.013292e-01 -9.813024e-02 8.237789e-02 2.762529e-01 -2.243154e-01 -2.438105e-01 1.752898e-02 -1.697450e-02 -2.101143e-02 1.218853e-01
<VARIANCE> 39
 1.970466e+01 1.186209e+01 3.423642e+01 1.687581e+01 1.199555e+01 1.762336e+01 1.907712e+01 1.896129e+01 2.232919e+01 2.014706e+01 1.416410e+01 1.480007e+01 1.327793e+01 7.993816e-01 1.814570e+00 1.655993e+00 1.385784e+00 1.343432e+00 1.488896e+00 2.374101e+00 1.404167e+00 2.481740e+00 1.665173e+00 1.478309e+00 1.550156e+00 3.555373e-01 3.142136e-01 2.780428e-01 7.262892e-01 2.759537e-01 2.459141e-01 2.787956e-01 4.261258e-01 2.328608e-01 4.495512e-01 3.956122e-01 2.616639e-01 3.602989e-01 1.621023e-01
<GCONST> 9.814632e+01
<STATE> 3
<MEAN> 39
 -2.891986e+01 -8.076186e+00 1.662173e+01 -1.152957e+01 -3.149911e-01 2.648268e+00 1.031363e+00 -6.290838e+00 8.125977e+00 -4.397839e+00 4.478893e+00 -2.359675e+00 6.960063e+01 -6.708322e-01 2.334682e-01 -7.572482e-02 -1.942918e-01 -5.692843e-02 4.261856e-01 -7.106755e-02 -1.107188e-01 -1.384384e-01 1.030415e-01 -1.091324e-01 -2.025349e-01 6.490913e-01 6.447647e-01 -9.668700e-02 -4.413874e-01 3.263026e-01 1.818014e-02 -2.316240e-01 -8.782612e-02 1.649323e-01 -4.365577e-02 1.017536e-01 -4.844004e-02 3.148736e-02 -2.625739e-01
<VARIANCE> 39
 6.148570e+00 8.599977e+00 5.054675e+00 1.001559e+01 1.433263e+01 1.663960e+01 1.951109e+01 1.520950e+01 2.006822e+01 1.650332e+01 1.515886e+01 1.181116e+01 4.588357e+00 1.623919e+00 8.928775e-01 1.075939e+00 1.189760e+00 1.208978e+00 1.541645e+00 1.539456e+00 1.376376e+00 1.349412e+00 1.301888e+00 1.315829e+00 1.361043e+00 4.223787e-01 2.239629e-01 1.862069e-01 1.990915e-01 1.500057e-01 2.351909e-01 3.722179e-01 3.268887e-01 2.424335e-01 3.039541e-01 2.735089e-01 2.547634e-01 3.017980e-01 6.622199e-02
<GCONST> 8.610055e+01
<STATE> 4
<MEAN> 39
 -1.783763e+01 -1.162223e+01 8.394851e+00 -9.120400e+00 -2.112132e+00 1.394228e+00 -1.031835e+00 -4.992132e+00 8.495046e+00 -2.593629e+00 3.598261e+00 -5.582011e+00 7.163341e+01 4.803433e+00 -1.134507e+00 -2.574167e+00 3.616549e-01 -1.246014e+00 -1.203480e+00 -5.934119e-01 2.419769e-01 4.280777e-01 7.557956e-01 1.393263e-02 -1.013110e+00 5.236495e-01 3.515832e-02 3.508748e-02 3.772314e-02 -2.508790e-01 -4.071931e-02 -2.934934e-02 -7.547425e-02 1.879422e-01 2.143653e-01 -4.445261e-02 -1.737451e-03 -1.096196e-01 1.207882e-01
<VARIANCE> 39
 1.262977e+02 1.875922e+01 4.560809e+01 1.404391e+01 3.425710e+01 2.091499e+01 2.424710e+01 1.644637e+01 1.923332e+01 1.583959e+01 1.647504e+01 2.676247e+01 1.945735e+01 3.764196e+00 2.271180e+00 1.409546e+00 2.468489e+00 4.037380e+00 2.855430e+00 2.441159e+00 1.921233e+00 2.942030e+00 1.557765e+00 1.875305e+00 4.027140e+00 5.377190e+00 2.026611e+00 3.019757e-01 6.252200e-01 2.531095e-01 9.759587e-01 4.143944e-01 3.671355e-01 4.271753e-01 3.097109e-01 3.819886e-01 3.555688e-01 4.332091e-01 8.018133e-01
<GCONST> 1.165397e+02
<TRANSP> 5
 0.000000e+00 1.000000e+00 0.000000e+00 0.000000e+00 0.000000e+00
 0.000000e+00 7.209654e-01 2.790346e-01 0.000000e+00 0.000000e+00
 0.000000e+00 0.000000e+00 8.764726e-01 1.235274e-01 0.000000e+00
 0.000000e+00 0.000000e+00 0.000000e+00 7.455083e-01 2.544917e-01
 0.000000e+00 0.000000e+00 0.000000e+00 0.000000e+00 0.000000e+00
<ENDHMM>
~h "ts"
<BEGINHMM>
<NUMSTATES> 5
<STATE> 2
<MEAN> 39
 -2.261606e+01 -1.869587e+00 -2.740240e+00 -3.119621e+00 3.569795e+00 -3.818208e+00 4.635626e+00 -2.768899e+00 6.045153e+00 -1.164154e+00 3.033473e+00 8.528130e-01 6.583675e+01 -6.288322e-01 6.904536e-02 1.532367e-02 7.872043e-03 4.157515e-01 -3.563586e-03 2.383628e-01 8.926349e-02 3.272227e-01 3.499735e-03 1.162559e-01 6.264896e-02 8.293340e-01 3.249158e-01 -2.585522e-02 2.203236e-01 4.548387e-02 4.369509e-02 7.895503e-02 -4.240601e-02 5.457378e-02 -4.874920e-02 -1.449700e-02 7.455341e-03 -3.183559e-02 -1.836507e-01
<VARIANCE> 39
 4.215601e+01 1.599677e+01 1.948698e+01 1.297360e+01 1.550966e+01 1.261212e+01 1.530475e+01 1.333076e+01 1.457117e+01 1.232286e+01 1.162415e+01 1.125178e+01 3.457729e+01 4.059638e+00 2.278862e+00 2.691935e+00 1.770635e+00 2.118769e+00 1.748134e+00 2.005910e+00 1.802265e+00 1.708738e+00 1.483065e+00 1.407923e+00 1.297688e+00 3.106483e+00 4.679726e-01 5.035641e-01 4.190407e-01 4.027126e-01 4.370497e-01 3.759634e-01 4.415866e-01 3.839409e-01 3.416114e-01 2.985137e-01 2.873224e-01 2.650950e-01 4.363513e-01
<GCONST> 1.044798e+02
<STATE> 3
<MEAN> 39
 -1.433364e+01 -1.551045e+00 4.211496e+00 -1.098289e+00 6.428617e+00 -9.972223e-02 3.892212e+00 -2.370194e+00 5.634708e+00 -2.193145e+00 4.460563e+00 3.384090e-01 6.522997e+01 2.920122e+00 2.010533e-01 5.768700e-01 -7.604252e-01 -1.695620e+00 8.264191e-01 -9.241655e-01 -1.440139e+00 -1.100257e+00 -1.112714e+00 -4.589528e-01 5.244898e-02 -3.625678e-01 1.254591e-01 6.745380e-02 -2.515123e-01 -5.030813e-01 -7.653555e-01 -4.170376e-02 -5.791214e-02 -3.686751e-01 -7.838868e-02 -2.609680e-01 -2.213201e-01 2.635158e-02 2.973092e-01
<VARIANCE> 39
 5.649115e+01 2.164084e+01 1.732414e+01 2.691512e+01 3.771254e+01 2.077489e+01 2.767665e+01 4.385975e+01 3.282061e+01 2.498895e+01 1.605743e+01 1.297190e+01 2.717748e+01 2.397030e+00 2.704287e+00 3.482390e+00 6.169042e+00 6.683648e+00 2.247119e+00 2.753707e+00 5.915180e+00 3.159928e+00 3.522124e+00 2.166843e+00 1.474730e+00 4.589886e+00 4.874163e-01 5.679027e-01 5.571808e-01 8.912716e-01 5.731502e-01 4.862361e-01 6.647923e-01 1.016726e+00 7.549292e-01 5.786802e-01 3.515158e-01 2.996958e-01 7.786882e-01
<GCONST> 1.225956e+02
<STATE> 4
<MEAN> 39
 1.191340e+00 2.775927e+00 5.297910e+00 -1.700443e+01 -1.747530e+01 8.980676e-01 9.285104e-01 -1.063929e+01 4.870859e+00 -8.180491e+00 -2.882121e+00 -5.873097e-01 6.610609e+01 -1.608820e-01 1.387395e-01 -5.315459e-02 1.594832e-01 1.694878e-01 -1.772091e-01 1.583391e-01 3.718166e-01 5.879056e-02 2.725967e-01 -8.369726e-04 -4.269853e-02 -3.906917e-01 -2.352551e-01 -4.332062e-02 -2.055818e-02 2.586113e-01 2.988816e-01 -8.262582e-02 1.505020e-02 1.530016e-01 4.782952e-02 1.647886e-01 1.062391e-01 -1.385623e-02 -1.333211e-01
<VARIANCE> 39
 8.903502e+00 9.913628e+00 1.059819e+01 3.538842e+01 7.837956e+01 2.135879e+01 1.286833e+01 1.827775e+01 2.593016e+01 1.514698e+01 1.448511e+01 1.421847e+01 9.119413e+00 1.373329e+00 9.110671e-01 9.665841e-01 4.742115e+00 8.154625e+00 1.960586e+00 1.093281e+00 1.707442e+00 2.129185e+00 1.894461e+00 1.405257e+00 1.332482e+00 8.703812e-01 1.295222e-01 1.612868e-01 1.686887e-01 3.956123e-01 5.376118e-01 3.437884e-01 2.292963e-01 3.317030e-01 3.708551e-01 3.555222e-01 1.922882e-01 2.438053e-01 1.146936e-01
<GCONST> 9.741325e+01
<TRANSP> 5
 0.000000e+00 1.000000e+00 0.000000e+00 0.000000e+00 0.000000e+00
 0.000000e+00 9.026362e-01 9.736376e-02 0.000000e+00 0.000000e+00
 0.000000e+00 0.000000e+00 8.276874e-01 1.723126e-01 0.000000e+00
 0.000000e+00 0.000000e+00 0.000000e+00 9.379095e-01 6.209046e-02
 0.000000e+00 0.000000e+00 0.000000e+00 0.000000e+00 0.000000e+00
<ENDHMM>
~h "sil"
<BEGINHMM>
<NUMSTATES> 5
<STATE> 2
<MEAN> 39
 -1.241817e+01 -3.200173e+00 2.934481e-01 -2.232761e+00 2.725400e+00 -2.355192e+00 2.734037e+00 -1.531073e+00 3.544175e+00 -5.250138e-01 2.692734e+00 -3.319210e-01 5.522206e+01 -2.584168e-02 4.823842e-02 1.602026e-03 -2.570928e-02 -1.219372e-02 3.302148e-02 2.355439e-02 -5.364354e-02 -8.118032e-02 -3.332223e-02 1.930633e-02 6.847245e-03 -4.442950e-02 -1.362292e-03 -1.652380e-02 1.598184e-02 -1.269617e-03 8.825010e-03 3.574282e-04 5.755031e-03 2.825761e-03 1.520657e-02 9.481264e-03 -1.822332e-03 7.829365e-03 2.761153e-02
<VARIANCE> 39
 1.199943e+00 3.474266e+00 3.842066e+00 5.504795e+00 7.169877e+00 9.944670e+00 1.085752e+01 1.152664e+01 1.284907e+01 1.253439e+01 1.166483e+01 1.053609e+01 8.589094e-01 1.100769e-01 2.558145e-01 4.299784e-01 6.237404e-01 8.034280e-01 1.055151e+00 1.169035e+00 1.296310e+00 1.437682e+00 1.406307e+00 1.368944e+00 1.181024e+00 5.779459e-02 2.444439e-02 4.763099e-02 9.218338e-02 1.295270e-01 1.628280e-01 2.092085e-01 2.348837e-01 2.611069e-01 2.933599e-01 2.883081e-01 2.781423e-01 2.370711e-01 1.180786e-02
<GCONST> 6.170959e+01
<STATE> 3
<MEAN> 39
 -1.294913e+01 -3.595264e+00 5.874210e-01 -2.590527e+00 3.021138e+00 -2.292621e+00 3.146367e+00 -1.835448e+00 3.083703e+00 -5.808938e-01 2.891670e+00 -9.741858e-02 5.562893e+01 -7.240181e-02 -1.634001e-01 1.511044e-01 -1.359923e-01 4.102161e-02 2.728086e-01 1.002416e-01 -2.670538e-01 8.881160e-02 1.448199e-01 -5.127123e-02 6.865036e-02 2.463421e-01 -4.734751e-02 -8.193184e-02 1.033145e-01 -3.730965e-02 -1.551705e-02 1.070186e-01 6.824226e-03 -1.165064e-01 5.765725e-02 2.437474e-02 -4.816223e-02 -3.476190e-02 1.675016e-01
<VARIANCE> 39
 3.452384e+00 4.886878e+00 7.160076e+00 8.782145e+00 8.214081e+00 1.419229e+01 1.287324e+01 1.319924e+01 1.450670e+01 1.446210e+01 1.187210e+01 1.136219e+01 2.462776e+00 5.021987e-01 6.277522e-01 1.040592e+00 1.059597e+00 1.002625e+00 1.471888e+00 1.457477e+00 1.695478e+00 1.627655e+00 1.650895e+00 1.438653e+00 1.313943e+00 3.141759e-01 1.390013e-01 1.707418e-01 2.186399e-01 2.368378e-01 2.040579e-01 3.173008e-01 3.177502e-01 3.615567e-01 3.181836e-01 3.258133e-01 2.994990e-01 2.778661e-01 9.394128e-02
<GCONST> 8.167385e+01
<STATE> 4
<MEAN> 39
 -1.513301e+01 -5.830829e+00 2.044907e+00 -3.037321e+00 2.164781e+00 -1.293573e+00 3.600703e+00 -3.488651e+00 4.527802e+00 2.891204e-02 2.361216e+00 -2.238362e-01 5.849364e+01 -6.775880e-01 -1.014531e+00 4.029489e-01 -1.627320e-01 -3.108003e-01 3.791028e-01 1.241569e-01 -5.496607e-01 4.221067e-01 1.948032e-01 -6.698082e-02 -1.511880e-01 1.304963e+00 7.212799e-02 -1.115958e-01 -6.786956e-02 2.053717e-02 -7.875693e-02 -7.495042e-02 -6.932681e-02 6.387573e-02 4.326359e-02 -2.070102e-02 -1.329480e-02 -3.870830e-02 1.689503e-01
<VARIANCE> 39
 1.698777e+01 1.819135e+01 1.411778e+01 1.003090e+01 1.447607e+01 1.770184e+01 1.667070e+01 1.711413e+01 1.757302e+01 1.547869e+01 1.463317e+01 1.264169e+01 1.953993e+01 2.282038e+00 2.512616e+00 1.676852e+00 1.602658e+00 1.909567e+00 1.919151e+00 1.792026e+00 2.018531e+00 1.983972e+00 1.884720e+00 1.571131e+00 1.632498e+00 2.297963e+00 2.458593e-01 2.724006e-01 2.594584e-01 2.301416e-01 2.320405e-01 2.684642e-01 3.082030e-01 3.815996e-01 3.264111e-01 2.893939e-01 2.859384e-01 2.554360e-01 2.741508e-01
<GCONST> 9.906595e+01
<TRANSP> 5
 0.000000e+00 1.000000e+00 0.000000e+00 0.000000e+00 0.000000e+00
 0.000000e+00 9.492018e-01 5.079819e-02 0.000000e+00 0.000000e+00
 0.000000e+00 0.000000e+00 6.452802e-01 3.547198e-01 0.000000e+00
 0.000000e+00 0.000000e+00 0.000000e+00 5.208112e-01 4.791889e-01
 0.000000e+00 0.000000e+00 0.000000e+00 0.000000e+00 0.000000e+00
<ENDHMM>
~h "sp"
<BEGINHMM>
<NUMSTATES> 3
<STATE> 2
<MEAN> 39
 -1.294913e+01 -3.595264e+00 5.874210e-01 -2.590527e+00 3.021138e+00 -2.292621e+00 3.146367e+00 -1.835448e+00 3.083703e+00 -5.808938e-01 2.891670e+00 -9.741858e-02 5.562893e+01 -7.240181e-02 -1.634001e-01 1.511044e-01 -1.359923e-01 4.102161e-02 2.728086e-01 1.002416e-01 -2.670538e-01 8.881160e-02 1.448199e-01 -5.127123e-02 6.865036e-02 2.463421e-01 -4.734751e-02 -8.193184e-02 1.033145e-01 -3.730965e-02 -1.551705e-02 1.070186e-01 6.824226e-03 -1.165064e-01 5.765725e-02 2.437474e-02 -4.816223e-02 -3.476190e-02 1.675016e-01
<VARIANCE> 39
 3.452384e+00 4.886878e+00 7.160076e+00 8.782145e+00 8.214081e+00 1.419229e+01 1.287324e+01 1.319924e+01 1.450670e+01 1.446210e+01 1.187210e+01 1.136219e+01 2.462776e+00 5.021987e-01 6.277522e-01 1.040592e+00 1.059597e+00 1.002625e+00 1.471888e+00 1.457477e+00 1.695478e+00 1.627655e+00 1.650895e+00 1.438653e+00 1.313943e+00 3.141759e-01 1.390013e-01 1.707418e-01 2.186399e-01 2.368378e-01 2.040579e-01 3.173008e-01 3.177502e-01 3.615567e-01 3.181836e-01 3.258133e-01 2.994990e-01 2.778661e-01 9.394128e-02
<GCONST> 8.167385e+01
<TRANSP> 3
0.0 1.0 0.0
0.0 0.9 0.1
0.0 0.0 0.0
<ENDHMM>
