~o
<STREAMINFO> 1 39
<VECSIZE> 39<NULLD><MFCC_D_A_0><DIAGC>
~s "silst"
<MEAN> 39
 -1.220642e+01 -2.626985e+00 6.781532e-01 -2.047485e+00 2.347980e+00 -2.741839e+00 2.924252e+00 -1.366882e+00 3.761999e+00 -3.434574e-01 2.937271e+00 1.145838e-01 5.542214e+01 -1.554976e-01 -1.015288e-01 -3.155615e-02 -1.059618e-01 5.967725e-02 9.494644e-02 3.958306e-02 -6.038969e-02 -2.647340e-02 -2.241411e-02 -2.871736e-02 -2.906239e-02 1.298482e-02 -5.638635e-02 -6.043416e-02 6.221000e-02 -1.241650e-02 4.910979e-03 -2.109370e-02 1.824967e-02 -4.512673e-02 3.327361e-02 -3.627529e-02 -1.104132e-02 -4.831039e-02 1.853754e-01
<VARIANCE> 39
 1.769909e+00 2.712532e+00 4.491799e+00 5.885413e+00 8.070567e+00 1.017273e+01 1.143084e+01 1.180604e+01 1.240331e+01 1.229453e+01 1.171179e+01 1.097344e+01 7.627398e-01 2.833758e-01 3.941332e-01 6.779150e-01 7.472453e-01 9.469658e-01 1.142151e+00 1.288579e+00 1.369155e+00 1.474743e+00 1.468281e+00 1.345856e+00 1.254386e+00 2.188427e-01 9.860200e-02 1.015847e-01 1.517366e-01 1.682533e-01 2.115356e-01 2.493249e-01 2.662925e-01 2.828148e-01 3.077334e-01 3.114732e-01 2.893151e-01 2.846004e-01 8.494085e-02
<GCONST> 7.188925e+01
~h "@"
<BEGINHMM>
<NUMSTATES> 5
<STATE> 2
<MEAN> 39
 -3.632892e+00 -1.049068e+01 9.416330e+00 -2.908415e+00 -1.175643e+01 -1.393819e+01 -7.783081e+00 -6.102839e+00 7.549335e+00 -1.164982e+01 5.383398e+00 -4.024333e+00 7.336366e+01 2.422284e-01 2.704568e-01 1.141375e-01 2.667136e-01 -3.488441e-01 9.718179e-02 1.403147e-01 1.923334e-01 -1.487576e-01 -3.271699e-01 7.645678e-02 2.446299e-02 -3.173856e-01 -3.378147e-01 3.233886e-01 -1.450059e-01 1.825700e-01 5.853592e-01 2.836367e-01 3.163277e-01 1.398271e-01 -1.482507e-01 3.606356e-01 -2.713686e-01 6.580281e-02 -4.463392e-01
<VARIANCE> 39
 3.393316e+00 2.115799e+01 1.030181e+01 1.335844e+01 2.597522e+01 1.475953e+01 2.931603e+01 3.836317e+01 2.823818e+01 2.178872e+01 2.407326e+01 1.311141e+01 1.627278e+01 1.034959e+00 2.527636e+00 9.275180e-01 1.350181e+00 4.521965e+00 1.883494e+00 2.414304e+00 2.125759e+00 2.380545e+00 2.000811e+00 2.376083e+00 1.152713e+00 2.710698e+00 2.658507e-01 2.107676e-01 2.177935e-01 1.824050e-01 2.177636e-01 2.315567e-01 3.440171e-01 2.897741e-01 3.064193e-01 3.457033e-01 2.506058e-01 2.490985e-01 1.412758e-01
<GCONST> 9.896950e+01
<STATE> 3
<MEAN> 39
 -5.537934e+00 -1.498677e+00 9.031801e+00 2.653868e+00 -2.675738e+00 -9.511630e+00 8.817764e-02 -3.606405e+00 1.714998e+00 -7.457778e+00 7.481847e-01 -3.933135e+00 6.334955e+01 -8.558339e-01 7.438506e-01 -5.508682e-01 1.003219e+00 2.411645e+00 1.436806e+00 8.207169e-01 3.608101e-01 1.705932e-01 1.535152e+00 -4.628081e-01 7.051524e-01 -1.976699e+00 -2.135986e-01 -4.782858e-01 -3.181848e-01 -4.482979e-01 -2.494770e-01 -1.681807e-03 -6.962383e-02 4.725385e-02 3.240123e-01 1.221602e-01 3.354477e-01 2.447245e-01 1.894899e-01
<VARIANCE> 39
 4.127189e+00 9.468903e+00 1.023952e+01 1.422182e+01 3.295980e+01 2.400512e+01 2.219652e+01 4.169516e+01 2.283827e+01 1.767451e+01 3.946409e+01 1.152391e+01 1.055836e+01 5.942812e-01 1.994678e+00 1.333831e+00 1.449996e+00 2.938473e+00 1.570627e+00 2.529376e+00 2.079520e+00 2.349042e+00 2.155198e+00 2.172141e+00 1.537621e+00 1.590433e+00 7.749932e-02 2.282798e-01 2.154089e-01 2.852558e-01 6.066789e-01 4.342562e-01 3.590194e-01 3.083707e-01 4.961637e-01 2.990893e-01 4.778958e-01 2.268320e-01 1.559052e-01
<GCONST> 9.926881e+01
<STATE> 4
<MEAN> 39
 -9.556986e+00 -2.408050e+00 4.716318e+00 1.170772e+00 1.095766e+00 -6.542988e+00 1.725284e+00 -2.084538e+00 4.000376e+00 -1.995082e+00 2.780339e+00 2.814882e-02 5.870682e+01 -7.306405e-01 -4.824219e-01 -9.656814e-01 -7.958799e-01 -1.540108e-02 1.737846e-01 -1.351559e-01 -1.552612e-01 4.017824e-01 8.215005e-01 5.642867e-01 5.983264e-01 -5.687205e-01 8.729054e-02 8.209821e-03 1.343517e-01 -1.249488e-01 -2.404930e-01 -9.920523e-02 -1.002416e-01 -1.111867e-01 -1.374513e-01 -2.693112e-01 -1.065738e-01 -1.854960e-01 2.234528e-01
<VARIANCE> 39
 7.829607e+00 5.947829e+00 1.501589e+01 1.526681e+01 1.627790e+01 1.916100e+01 1.770751e+01 4.663398e+01 1.607171e+01 1.557443e+01 2.061287e+01 1.512265e+01 1.041994e+01 5.077582e-01 5.937161e-01 1.478716e+00 1.315209e+00 1.423829e+00 1.457392e+00 1.680651e+00 1.648793e+00 2.036436e+00 1.822234e+00 2.056437e+00 1.488176e+00 5.574626e-01 1.017323e-01 1.624566e-01 2.064718e-01 3.025880e-01 4.594900e-01 3.565220e-01 4.113111e-01 4.082680e-01 3.598283e-01 3.312674e-01 3.447561e-01 2.778533e-01 1.294215e-01
<GCONST> 9.309502e+01
<TRANSP> 5
 0.000000e+00 1.000000e+00 0.000000e+00 0.000000e+00 0.000000e+00
 0.000000e+00 7.957121e-01 2.042879e-01 0.000000e+00 0.000000e+00
 0.000000e+00 0.000000e+00 6.173885e-01 3.826115e-01 0.000000e+00
 0.000000e+00 0.000000e+00 0.000000e+00 6.380013e-01 3.619987e-01
 0.000000e+00 0.000000e+00 0.000000e+00 0.000000e+00 0.000000e+00
<ENDHMM>
~h "I"
<BEGINHMM>
<NUMSTATES> 5
<STATE> 2
<MEAN> 39
 -1.377109e+01 -1.517365e+00 1.764768e+01 -8.130994e-01 -1.405329e+00 -5.365620e+00 1.807868e-01 -9.290380e+00 3.528521e+00 -8.952931e+00 2.016592e+00 6.595260e-01 6.765717e+01 3.129236e+00 1.049436e+00 5.103745e+00 7.242497e-01 -3.238193e+00 -3.624073e-01 -3.318567e+00 -1.741774e+00 -5.773829e-01 -4.716093e+00 7.073416e-01 3.948679e-01 1.053821e+00 -4.759112e-01 1.866463e-02 -5.775038e-01 -1.202682e-01 -4.490727e-01 1.422683e-01 2.029301e-02 3.583005e-01 3.089753e-01 -3.618812e-01 4.332965e-01 1.180013e-01 1.074054e-01
<VARIANCE> 39
 2.289231e+01 1.942638e+01 4.878798e+01 2.094086e+01 4.017618e+01 2.497886e+01 3.654209e+01 2.233930e+01 1.815828e+01 4.538658e+01 1.754154e+01 1.455436e+01 1.238701e+01 1.217837e+00 1.473031e+00 2.593045e+00 2.320265e+00 2.758158e+00 1.767883e+00 2.013748e+00 2.294186e+00 2.074567e+00 2.864906e+00 2.269084e+00 1.987010e+00 6.103562e-01 3.466368e-01 2.574012e-01 8.041895e-01 3.145018e-01 7.935726e-01 4.706034e-01 7.062854e-01 4.213950e-01 3.210729e-01 1.047028e+00 3.147109e-01 2.542523e-01 2.334025e-01
<GCONST> 1.103228e+02
<STATE> 3
<MEAN> 39
 -9.292101e+00 3.381865e-01 2.501475e+01 -5.842949e-01 -1.143280e+01 -5.351418e+00 -5.555490e+00 -1.204360e+01 3.895680e+00 -2.006157e+01 5.962657e+00 2.296216e+00 6.959447e+01 5.204030e-01 1.261508e-02 1.023201e-02 -6.861337e-02 -9.268513e-01 -3.007459e-01 -3.597108e-01 -3.908854e-01 -1.707167e-01 -3.652746e-01 2.245333e-01 1.450043e-01 9.568735e-02 -1.887088e-01 -2.658461e-01 -7.192125e-01 -4.131410e-02 4.266065e-01 -1.273736e-01 3.157022e-01 1.878757e-01 -1.084900e-03 8.228989e-01 -2.000963e-01 -5.175857e-02 -1.277408e-01
<VARIANCE> 39
 4.657151e+00 7.028605e+00 1.265138e+01 8.745580e+00 1.471204e+01 1.252193e+01 1.292193e+01 1.707448e+01 1.704968e+01 1.695127e+01 1.728772e+01 1.673942e+01 4.066344e+00 3.311175e-01 7.631708e-01 2.202438e+00 9.099464e-01 2.633164e+00 1.899860e+00 1.220760e+00 1.482714e+00 1.395396e+00 3.658314e+00 1.385725e+00 9.274204e-01 6.079047e-01 1.884301e-01 1.001296e-01 3.505251e-01 2.151390e-01 4.929594e-01 2.267332e-01 3.687510e-01 3.151472e-01 3.469441e-01 5.436548e-01 2.799881e-01 2.018005e-01 1.152549e-01
<GCONST> 8.852692e+01
<STATE> 4
<MEAN> 39
 -4.499983e+00 -5.960342e+00 1.261566e+01 -3.246916e+00 -1.379015e+01 -1.153321e+01 -8.574791e+00 -1.108292e+01 1.137509e+01 -1.189827e+01 3.599848e+00 8.977214e-01 7.305642e+01 5.175258e-01 -9.544262e-01 -1.808892e+00 -6.875744e-01 8.765066e-01 4.964803e-01 -4.166041e-01 8.546458e-01 1.364525e+00 1.539003e+00 -7.714239e-01 -1.082839e+00 -6.287702e-03 -5.812467e-02 1.582211e-01 -4.341755e-02 7.783020e-02 3.786941e-01 4.356826e-01 1.150161e-01 4.533701e-02 -1.817673e-01 3.348743e-02 -1.750015e-01 -1.682260e-01 -2.947634e-01
<VARIANCE> 39
 7.858440e+00 2.289641e+01 6.246542e+01 1.658360e+01 2.311298e+01 2.596628e+01 1.539251e+01 2.103289e+01 6.388235e+01 3.680696e+01 2.222159e+01 2.481806e+01 1.004101e+01 5.291257e-01 1.547835e+00 1.838917e+00 1.324495e+00 2.441044e+00 3.236511e+00 1.317062e+00 1.537843e+00 3.927712e+00 1.768047e+00 1.460947e+00 1.616253e+00 1.132401e+00 5.847781e-02 2.188587e-01 4.188840e-01 2.788204e-01 2.860996e-01 3.628213e-01 2.293677e-01 3.512422e-01 6.026724e-01 3.897730e-01 2.391676e-01 3.034584e-01 6.761634e-02
<GCONST> 1.007014e+02
<TRANSP> 5
 0.000000e+00 1.000000e+00 0.000000e+00 0.000000e+00 0.000000e+00
 0.000000e+00 5.828577e-01 4.171423e-01 0.000000e+00 0.000000e+00
 0.000000e+00 0.000000e+00 8.224258e-01 1.775742e-01 0.000000e+00
 0.000000e+00 0.000000e+00 0.000000e+00 7.305257e-01 2.694744e-01
 0.000000e+00 0.000000e+00 0.000000e+00 0.000000e+00 0.000000e+00
<ENDHMM>
~h "U"
<BEGINHMM>
<NUMSTATES> 5
<STATE> 2
<MEAN> 39
 -4.835534e+00 -5.559620e-01 -1.958218e-01 -1.412929e+01 -4.874782e+00 1.738406e+00 5.965160e+00 -5.804864e+00 4.231847e+00 -2.650157e+00 -3.231636e+00 2.677436e+00 6.413842e+01 2.259605e+00 1.860201e+00 1.987135e+00 -4.500546e-01 -3.149233e+00 -1.030233e+00 -6.663271e-01 -1.614685e+00 -8.906912e-01 -1.814218e+00 -5.919575e-01 -7.178252e-01 1.095020e+00 2.141255e-01 -3.250923e-01 3.483431e-01 -1.249562e-01 -6.118190e-01 2.673560e-01 -1.026257e-01 -5.133303e-01 -2.471582e-01 -1.624427e-02 -7.178716e-02 -2.886959e-01 1.496573e-01
<VARIANCE> 39
 2.095307e+01 2.405227e+01 3.108212e+01 1.511893e+01 3.874095e+01 2.323684e+01 1.954486e+01 2.871545e+01 2.953060e+01 2.487084e+01 2.189801e+01 2.154500e+01 1.115137e+01 1.898236e+00 1.860659e+00 3.007642e+00 2.041512e+00 5.165728e+00 1.899045e+00 1.666895e+00 3.280687e+00 2.585966e+00 1.742119e+00 2.722580e+00 1.866059e+00 1.058896e+00 4.207446e-01 5.259482e-01 6.270896e-01 4.680625e-01 8.410224e-01 5.147989e-01 4.052054e-01 5.455917e-01 5.172462e-01 4.362414e-01 6.268848e-01 3.342107e-01 2.056781e-01
<GCONST> 1.128856e+02
<STATE> 3
<MEAN> 39
 3.454717e+00 8.884468e-01 7.821164e+00 -1.801429e+01 -2.007622e+01 3.282378e+00 3.728099e+00 -1.535637e+01 3.106481e-01 -9.381185e+00 -7.270300e+00 -2.833913e+00 6.932497e+01 -2.671406e-01 -4.162828e-01 -1.665977e-01 2.356313e-01 3.715740e-01 -1.590430e-02 -3.470512e-01 -1.702801e-01 -7.672838e-02 -4.621961e-01 8.059553e-02 -3.447050e-01 4.260753e-01 -8.233096e-01 -2.008754e-01 -5.057734e-01 5.812764e-01 1.281698e+00 -3.161033e-01 -1.026688e-02 6.536391e-01 1.834370e-01 3.440798e-01 4.039432e-01 2.224173e-01 -1.912935e-01
<VARIANCE> 39
 2.483868e+00 4.154745e+00 7.404845e+00 6.592189e+00 1.260868e+01 1.336219e+01 1.125336e+01 1.223982e+01 1.400030e+01 1.447313e+01 1.110874e+01 1.011435e+01 2.311950e+00 2.423896e+00 5.365985e-01 1.843732e+00 2.296274e+00 9.300812e+00 2.935817e+00 9.953247e-01 3.863244e+00 1.139470e+00 1.509815e+00 2.112583e+00 1.338374e+00 4.020741e-01 1.589687e-01 1.704153e-01 1.809135e-01 2.074535e-01 2.889076e-01 4.697747e-01 2.156971e-01 2.896978e-01 2.346217e-01 2.937050e-01 3.026763e-01 1.990651e-01 7.589654e-02
<GCONST> 8.612964e+01
<STATE> 4
<MEAN> 39
 -1.019445e+01 -3.844886e+00 2.040215e+00 -6.647263e+00 -1.241987e+00 -3.023548e+00 1.159089e+00 -7.792672e+00 1.279612e+00 -6.607402e+00 -4.403880e-01 -1.733756e+00 6.959084e+01 -4.540652e+00 -1.726777e+00 -9.435713e-01 3.117666e+00 4.058692e+00 -1.353919e+00 -6.752302e-01 1.472389e+00 6.522845e-01 1.949796e+00 1.909167e+00 2.260490e-01 -5.883779e-01 2.608923e-01 6.540221e-02 3.256762e-01 -5.022159e-01 -1.086227e+00 2.635966e-01 -3.697243e-02 -4.515476e-01 1.636527e-01 7.677846e-02 -2.896526e-01 -1.062188e-01 -2.022585e-01
<VARIANCE> 39
 4.135408e+01 1.335233e+01 5.357221e+00 2.856610e+01 4.306067e+01 1.021314e+01 9.199862e+00 1.274233e+01 1.094567e+01 1.764513e+01 1.791734e+01 9.344844e+00 3.782918e+00 9.704182e-01 8.364418e-01 8.670882e-01 1.718513e+00 4.632908e+00 1.456766e+00 1.195621e+00 1.806591e+00 1.427597e+00 1.413063e+00 1.537459e+00 1.130316e+00 4.050585e-01 7.647878e-01 2.823138e-01 1.159310e-01 5.393378e-01 7.278425e-01 2.380168e-01 2.286370e-01 2.685493e-01 2.609135e-01 4.225121e-01 3.928896e-01 2.276867e-01 6.904588e-02
<GCONST> 9.266641e+01
<TRANSP> 5
 0.000000e+00 1.000000e+00 0.000000e+00 0.000000e+00 0.000000e+00
 0.000000e+00 7.756177e-01 2.243823e-01 0.000000e+00 0.000000e+00
 0.000000e+00 0.000000e+00 8.610429e-01 1.389571e-01 0.000000e+00
 0.000000e+00 0.000000e+00 0.000000e+00 7.289249e-01 2.710751e-01
 0.000000e+00 0.000000e+00 0.000000e+00 0.000000e+00 0.000000e+00
<ENDHMM>
~h "a"
<BEGINHMM>
<NUMSTATES> 5
<STATE> 2
<MEAN> 39
 -9.058030e+00 -8.286024e+00 -4.191143e+00 -5.875141e+00 4.213892e+00 2.330487e+00 2.890550e+00 -2.094867e+00 1.989566e+00 4.078139e-01 9.761375e-01 -8.392253e+00 6.230572e+01 1.720508e+00 -2.179881e+00 -1.631881e+00 -1.725693e+00 2.554058e-02 1.815840e+00 -3.880722e-01 1.326088e-02 -6.592192e-01 -9.131278e-02 6.056681e-03 -3.159045e+00 3.347563e+00 2.201590e-01 -1.692898e-01 5.781215e-02 -2.184630e-01 -2.993608e-01 1.220475e-01 -2.101501e-01 4.147883e-02 3.295941e-02 -1.381602e-01 1.692320e-01 -2.077247e-01 4.785930e-01
<VARIANCE> 39
 1.667850e+01 2.965981e+01 2.376266e+01 2.178182e+01 1.356423e+01 2.646265e+01 1.291467e+01 1.872098e+01 2.319201e+01 1.707377e+01 1.938744e+01 5.385931e+01 4.661325e+01 1.598425e+00 2.026839e+00 1.837222e+00 1.928591e+00 2.361553e+00 1.845276e+00 1.697144e+00 2.169538e+00 2.111313e+00 2.394258e+00 2.491143e+00 3.853750e+00 3.096578e+00 3.581709e-01 5.541233e-01 5.361559e-01 4.478174e-01 3.743794e-01 4.441794e-01 3.390651e-01 3.776584e-01 3.808363e-01 3.821835e-01 3.764793e-01 1.108168e+00 7.109578e-01
<GCONST> 1.124684e+02
<STATE> 3
<MEAN> 39
 -1.700657e+00 -1.649800e+01 -8.026800e+00 -1.302047e+01 -4.205383e-01 8.734452e+00 -1.254390e+00 -2.537712e+00 1.645835e+00 -1.976354e+00 2.987575e+00 -1.898835e+01 7.784297e+01 3.238413e-01 -4.734173e-01 -1.142416e-01 -1.123728e-01 -5.522815e-01 2.718078e-01 -6.003437e-01 -1.285304e-01 -3.268050e-02 1.303970e-01 -2.473821e-01 -7.488263e-02 1.083929e+00 -3.315958e-01 3.065123e-01 1.875466e-01 4.581161e-01 2.540543e-01 -2.487803e-01 1.582177e-01 -3.415767e-02 1.074295e-02 2.617324e-01 -2.600052e-01 5.922925e-01 -5.485578e-01
<VARIANCE> 39
 2.768009e+00 9.351929e+00 6.837265e+00 1.133663e+01 1.502085e+01 2.000078e+01 1.231421e+01 1.846152e+01 3.743129e+01 1.792657e+01 2.144277e+01 1.534816e+01 8.800488e+00 7.232025e-01 1.201079e+00 6.815405e-01 1.646149e+00 1.102604e+00 8.789005e-01 8.618653e-01 8.305998e-01 8.355723e-01 1.299787e+00 1.472962e+00 1.605576e+00 1.419434e+00 1.145661e-01 2.384467e-01 1.480590e-01 1.694809e-01 1.835635e-01 1.782144e-01 1.621641e-01 1.701283e-01 1.934205e-01 1.990256e-01 1.763725e-01 2.886544e-01 2.205379e-01
<GCONST> 8.375280e+01
<STATE> 4
<MEAN> 39
 -2.559663e+00 -1.692009e+01 -7.128111e+00 -8.624636e+00 5.016465e-01 9.126675e+00 -2.243367e+00 -3.112086e+00 2.876383e-01 2.458694e+00 -2.936310e+00 -1.358881e+01 7.915499e+01 -7.487347e-01 1.039241e+00 1.299633e+00 1.662468e+00 1.234302e+00 -6.116090e-02 6.333789e-01 -6.907695e-01 1.140292e+00 6.549211e-01 -9.192533e-01 2.114589e+00 -1.415318e+00 -5.862311e-01 2.165949e-01 3.897062e-01 3.336354e-02 6.215509e-01 8.133868e-02 7.979293e-02 7.781947e-02 6.921152e-01 -2.246391e-01 3.016091e-01 2.613408e-01 -5.978814e-01
<VARIANCE> 39
 3.044536e+00 1.266146e+01 8.834741e+00 1.252493e+01 1.325079e+01 1.882607e+01 1.620986e+01 1.777877e+01 2.320518e+01 1.548160e+01 3.335504e+01 1.866166e+01 8.362007e+00 9.907861e-01 1.540567e+00 1.137699e+00 1.048234e+00 2.018401e+00 1.128611e+00 1.008732e+00 1.128777e+00 2.536062e+00 1.289189e+00 1.300798e+00 1.492222e+00 1.558630e+00 2.565467e-01 2.877717e-01 1.462002e-01 2.391719e-01 2.927797e-01 1.903133e-01 2.958440e-01 3.058605e-01 2.245433e-01 2.100872e-01 3.241706e-01 3.141235e-01 1.312039e-01
<GCONST> 9.088496e+01
<TRANSP> 5
 0.000000e+00 1.000000e+00 0.000000e+00 0.000000e+00 0.000000e+00
 0.000000e+00 7.874405e-01 2.125595e-01 0.000000e+00 0.000000e+00
 0.000000e+00 0.000000e+00 8.493941e-01 1.506059e-01 0.000000e+00
 0.000000e+00 0.000000e+00 0.000000e+00 7.141254e-01 2.858746e-01
 0.000000e+00 0.000000e+00 0.000000e+00 0.000000e+00 0.000000e+00
<ENDHMM>
~h "b"
<BEGINHMM>
<NUMSTATES> 5
<STATE> 2
<MEAN> 39
 -6.677097e+00 -3.794521e+00 2.560015e+01 -3.724454e-01 -1.290211e+01 -4.672423e+00 -6.859059e+00 -1.111382e+01 1.455408e+00 -1.672968e+01 5.626846e+00 5.742555e-01 6.942921e+01 1.019834e+00 -5.556669e-02 -2.539384e+00 1.612888e+00 1.265241e+00 -3.037594e-01 4.323782e-01 5.251932e-01 -9.000594e-01 1.852033e+00 -1.168179e+00 -2.035354e-01 -1.895646e+00 -2.601807e-01 7.665386e-01 -1.372298e+00 2.268126e-02 1.458717e+00 -8.065566e-02 6.297906e-01 4.731008e-01 1.132513e-01 7.162626e-01 -2.803623e-01 -3.009536e-01 -6.582603e-01
<VARIANCE> 39
 5.595143e+00 1.782990e+01 2.228353e+01 1.254740e+01 1.853894e+01 1.570743e+01 1.500287e+01 1.972464e+01 2.740822e+01 2.186169e+01 1.322654e+01 1.443307e+01 5.420856e+00 3.051670e-01 2.100233e+00 2.609242e+00 8.828500e-01 4.318487e+00 1.196476e+00 1.131414e+00 2.025226e+00 1.557673e+00 1.767926e+00 1.650489e+00 1.285993e+00 1.065079e+00 6.058899e-02 1.174195e-01 1.768838e-01 2.573050e-01 3.882630e-01 2.641472e-01 2.099392e-01 3.046870e-01 2.638956e-01 2.239721e-01 2.754745e-01 2.140453e-01 4.590580e-02
<GCONST> 8.950220e+01
<STATE> 3
<MEAN> 39
 -4.727462e+00 -1.716745e+00 1.509812e+01 3.330812e+00 -6.439297e+00 -6.523959e+00 -5.168485e+00 -7.679843e+00 5.414512e-01 -1.059322e+01 2.793703e+00 2.616294e-01 6.352201e+01 -1.947782e-01 2.033300e+00 -4.554667e+00 5.236349e-01 4.857485e+00 -1.655798e-02 1.839615e+00 1.244245e+00 -5.460482e-01 3.221005e+00 -1.718900e+00 -1.091812e+00 -2.955853e+00 -5.180220e-01 1.425886e-01 2.060369e-01 -6.402922e-01 4.022526e-01 -1.907421e-01 3.978925e-01 -1.631205e-01 1.563856e-01 7.249861e-02 3.193813e-01 -8.391193e-02 4.044409e-01
<VARIANCE> 39
 2.644452e+00 2.298120e+01 2.881900e+01 9.279343e+00 4.070486e+01 1.450812e+01 1.681087e+01 1.756465e+01 2.604527e+01 2.660832e+01 1.197783e+01 1.701560e+01 1.271461e+01 4.980773e-01 1.215090e+00 1.745236e+00 1.561951e+00 1.768670e+00 1.699598e+00 1.636970e+00 2.207815e+00 1.831175e+00 1.251829e+00 2.000049e+00 1.537231e+00 4.029090e-01 6.197098e-02 3.085320e-01 5.496064e-01 1.978859e-01 9.224334e-01 3.049677e-01 3.069675e-01 4.775729e-01 3.385304e-01 3.418261e-01 2.773936e-01 2.696150e-01 2.277266e-01
<GCONST> 9.617966e+01
<STATE> 4
<MEAN> 39
 -7.353888e+00 1.257791e+00 8.798920e+00 9.138474e-01 3.588382e+00 -8.046088e+00 2.725289e-01 -7.128195e+00 -2.365561e-02 -3.550761e+00 1.196187e+00 -2.648564e+00 6.082038e+01 6.882103e-02 -4.599988e-01 -5.573754e-01 -5.482554e-02 4.518183e-01 -1.357328e+00 3.524094e-01 -8.657739e-01 9.770145e-02 9.894570e-01 8.073325e-01 -3.483974e-01 6.627295e-01 3.129095e-01 -6.923626e-01 8.414191e-01 1.219172e-01 -1.331525e+00 -9.932898e-02 -7.248607e-01 -4.656522e-01 3.342644e-01 -7.311868e-01 5.303212e-01 5.958366e-02 8.245496e-01
<VARIANCE> 39
 7.116691e+00 1.091130e+01 9.844638e+00 1.217799e+01 1.985054e+01 2.436544e+01 1.844670e+01 2.405097e+01 2.681322e+01 1.491214e+01 1.640664e+01 1.391836e+01 5.851937e+00 1.297638e+00 2.217287e+00 2.965146e+00 1.947471e+00 7.646893e+00 2.344287e+00 4.080268e+00 3.193655e+00 1.859453e+00 2.827984e+00 2.393869e+00 1.642225e+00 2.422068e+00 1.556482e-01 2.792027e-01 4.755908e-01 4.475367e-01 5.752486e-01 5.958880e-01 4.418547e-01 6.146097e-01 3.600619e-01 2.892379e-01 5.265417e-01 3.601483e-01 3.782280e-01
<GCONST> 1.065043e+02
<TRANSP> 5
 0.000000e+00 1.000000e+00 0.000000e+00 0.000000e+00 0.000000e+00
 0.000000e+00 4.264255e-01 5.735745e-01 0.000000e+00 0.000000e+00
 0.000000e+00 0.000000e+00 3.871888e-01 6.128111e-01 0.000000e+00
 0.000000e+00 0.000000e+00 0.000000e+00 7.585385e-01 2.414615e-01
 0.000000e+00 0.000000e+00 0.000000e+00 0.000000e+00 0.000000e+00
<ENDHMM>
~h "d"
<BEGINHMM>
<NUMSTATES> 5
<STATE> 2
<MEAN> 39
 -1.241373e+01 -3.885399e+00 4.023658e-01 -2.008118e+00 2.368315e+00 -5.005185e+00 2.418376e+00 -3.668227e+00 5.133483e+00 -1.624794e+00 2.254897e+00 -1.678733e+00 6.369292e+01 6.949189e-01 -9.375176e-01 -1.299415e-01 -7.454038e-01 -5.712705e-01 -1.010470e+00 -1.028847e+00 -1.539636e+00 1.586348e+00 8.056174e-02 5.892612e-01 -1.342464e+00 3.757491e+00 5.363448e-01 -7.392055e-02 2.128617e-01 -2.683134e-01 -1.568706e-01 2.021015e-01 -3.875563e-01 -3.933758e-01 3.670021e-01 2.191814e-01 2.333432e-01 -5.305446e-01 1.447637e-01
<VARIANCE> 39
 1.198831e+01 2.549903e+01 1.991777e+01 1.546982e+01 1.892283e+01 2.283001e+01 1.910327e+01 1.730517e+01 2.438663e+01 1.532998e+01 1.508441e+01 1.485734e+01 7.086645e+01 3.331233e+00 1.812274e+00 2.238132e+00 1.721687e+00 2.211783e+00 2.586450e+00 3.042387e+00 3.312419e+00 3.147532e+00 1.643704e+00 2.070749e+00 3.329243e+00 4.131795e+00 4.841594e-01 3.282989e-01 4.796960e-01 2.675972e-01 4.344577e-01 7.303255e-01 5.252486e-01 5.328565e-01 4.930192e-01 3.178144e-01 3.931058e-01 5.037689e-01 1.410791e+00
<GCONST> 1.133486e+02
<STATE> 3
<MEAN> 39
 -3.473678e+00 -9.072659e+00 2.443519e+00 -8.016383e+00 -2.431016e+00 -4.932527e+00 -4.699273e+00 -1.319083e+01 1.521634e+01 5.925023e-01 7.016472e+00 -1.239145e+01 7.668294e+01 1.610905e+00 -1.090021e+00 5.696129e-01 -1.300156e+00 -6.405912e-01 1.393877e+00 -1.181783e+00 -9.709262e-01 6.001562e-01 1.007252e+00 -8.177894e-02 -2.020014e+00 4.604744e-01 -9.188957e-01 1.501203e-01 -4.459224e-01 3.962516e-01 5.680681e-01 2.141431e-01 7.573490e-01 1.034297e+00 -1.174750e+00 2.932795e-01 -8.052673e-01 9.413517e-01 -1.147310e+00
<VARIANCE> 39
 6.856468e+00 1.609823e+01 7.191719e+00 1.556788e+01 2.361421e+01 1.939516e+01 1.906031e+01 2.336929e+01 2.674349e+01 1.850218e+01 1.864954e+01 2.083512e+01 1.280267e+01 2.935303e+00 1.305450e+00 1.446849e+00 1.352509e+00 3.102213e+00 1.745206e+00 2.798785e+00 3.889790e+00 4.843254e+00 2.474975e+00 3.287761e+00 3.952745e+00 1.773170e+00 3.286722e-01 2.499509e-01 2.185573e-01 3.531622e-01 5.402604e-01 5.630168e-01 4.380606e-01 5.317994e-01 6.197051e-01 4.635206e-01 5.096509e-01 6.032945e-01 4.802595e-01
<GCONST> 1.088859e+02
<STATE> 4
<MEAN> 39
 -4.400989e+00 -1.101661e+01 2.637504e+00 -9.307250e+00 -4.295907e+00 -2.930503e+00 -4.153329e+00 -7.618782e+00 9.516015e+00 1.535848e+00 4.608271e+00 -1.349510e+01 7.573528e+01 -7.996698e-01 1.321454e-01 -4.250496e-01 3.634351e-01 8.865972e-01 3.794345e-01 5.255671e-01 9.419659e-01 -1.620455e+00 1.291973e+00 -1.418531e+00 6.162050e-01 -1.109382e+00 -3.492979e-01 1.972389e-01 -3.132662e-01 4.679872e-01 2.959964e-01 -2.763262e-01 5.504568e-01 4.573454e-01 -3.696190e-01 -2.622375e-03 -1.683571e-01 5.546405e-01 -2.170752e-01
<VARIANCE> 39
 7.108581e+00 1.548005e+01 2.898411e+01 8.597776e+00 4.820733e+01 2.799791e+01 1.677427e+01 4.893438e+01 3.386618e+01 2.848743e+01 2.801552e+01 2.005906e+01 1.222128e+01 1.009418e+00 1.056520e+00 1.436026e+00 9.672289e-01 3.292409e+00 2.481288e+00 1.733514e+00 2.417898e+00 2.818005e+00 2.727082e+00 4.152666e+00 2.035950e+00 1.120052e+00 2.037562e-01 2.229957e-01 2.123840e-01 2.127697e-01 4.228713e-01 2.961937e-01 4.245710e-01 4.285892e-01 4.217415e-01 2.585699e-01 5.408669e-01 3.977045e-01 1.202242e-01
<GCONST> 1.038938e+02
<TRANSP> 5
 0.000000e+00 1.000000e+00 0.000000e+00 0.000000e+00 0.000000e+00
 0.000000e+00 7.964128e-01 2.035871e-01 0.000000e+00 0.000000e+00
 0.000000e+00 0.000000e+00 6.400834e-01 3.599167e-01 0.000000e+00
 0.000000e+00 0.000000e+00 0.000000e+00 2.726358e-01 7.273642e-01
 0.000000e+00 0.000000e+00 0.000000e+00 0.000000e+00 0.000000e+00
<ENDHMM>
~h "e"
<BEGINHMM>
<NUMSTATES> 5
<STATE> 2
<MEAN> 39
 -6.213382e+00 -6.811867e+00 7.084246e+00 -3.015838e+00 -7.267353e+00 -1.259570e+01 -4.925487e+00 -5.020627e+00 1.110155e+01 -4.195029e+00 4.570444e+00 -4.921886e+00 7.386533e+01 2.671016e+00 -2.435369e+00 1.080944e+00 -1.652458e+00 -3.992960e+00 -2.182584e+00 -2.456496e+00 8.238956e-01 1.940063e+00 -6.891220e-01 1.091626e+00 -1.266316e+00 3.179810e+00 -8.192633e-01 1.297783e-01 -2.019462e-01 -1.369357e-01 1.784829e-01 5.815414e-01 6.711243e-01 5.655620e-01 -3.091822e-01 -5.701778e-02 1.464022e-01 1.904982e-01 -3.036763e-01
<VARIANCE> 39
 1.884932e+01 3.327645e+01 1.596256e+01 1.613505e+01 3.497003e+01 2.623160e+01 3.172016e+01 2.332491e+01 3.224157e+01 1.515338e+01 1.751491e+01 2.936899e+01 2.797332e+01 4.331602e+00 1.535479e+00 1.412627e+00 1.682629e+00 2.615973e+00 2.258984e+00 3.000691e+00 3.090688e+00 2.411680e+00 1.883718e+00 1.823488e+00 4.210932e+00 1.865404e+00 5.042895e-01 3.512113e-01 2.084980e-01 3.786282e-01 6.152575e-01 4.381182e-01 5.844168e-01 3.628407e-01 6.229751e-01 2.837975e-01 3.165552e-01 5.109742e-01 6.220426e-01
<GCONST> 1.126422e+02
<STATE> 3
<MEAN> 39
 -3.697817e+00 -1.335899e+01 1.015979e+01 -7.698282e+00 -1.738586e+01 -1.321501e+01 -5.097737e+00 2.328054e+00 1.170715e+01 -6.421490e+00 8.016006e+00 -4.645115e+00 7.994327e+01 -5.615183e-02 -4.360076e-02 2.897983e-01 2.009087e-02 -8.887494e-01 -6.736355e-02 4.787453e-01 6.137240e-01 -1.074095e+00 -4.949706e-01 8.847995e-01 -3.620793e-02 1.064533e-01 -2.343609e-01 4.781663e-01 -1.486160e-02 4.315039e-01 5.917907e-01 3.186953e-02 2.053485e-01 -3.911480e-01 -6.292388e-01 1.141653e-01 -1.007493e-01 7.072464e-02 -5.413971e-01
<VARIANCE> 39
 2.097292e+00 1.013395e+01 1.615866e+01 8.292112e+00 1.721669e+01 1.512571e+01 1.450006e+01 1.879880e+01 2.892659e+01 1.835126e+01 1.909192e+01 2.765828e+01 4.955157e+00 2.455450e-01 1.104731e+00 8.902740e-01 1.245723e+00 1.148996e+00 9.234295e-01 1.334886e+00 1.943651e+00 4.058962e+00 1.084473e+00 1.339210e+00 9.285559e-01 7.644080e-01 1.269969e-01 1.422051e-01 1.870203e-01 1.953029e-01 3.139194e-01 2.569803e-01 4.574063e-01 2.645054e-01 5.237620e-01 2.869795e-01 2.902288e-01 2.762905e-01 1.474119e-01
<GCONST> 8.790234e+01
<STATE> 4
<MEAN> 39
 -4.705852e+00 -1.016968e+01 1.135687e+01 -3.248431e+00 -1.711175e+01 -1.524240e+01 -2.484436e+00 7.017885e-01 4.558113e-01 -7.480673e+00 1.302543e+01 -7.571895e+00 7.660213e+01 -9.642703e-01 1.791757e+00 4.340718e-01 1.458708e+00 2.101634e+00 -4.690007e-01 1.046085e+00 -6.887696e-01 -2.732679e+00 1.258659e+00 -1.013114e+00 8.230542e-01 -2.844031e+00 -3.279444e-01 3.785410e-01 -5.239567e-01 -3.102249e-01 8.991084e-01 4.090689e-01 -1.395256e-02 -1.057962e-01 1.200814e+00 5.555345e-01 -8.762616e-01 5.832245e-01 -8.317115e-01
<VARIANCE> 39
 3.801754e+00 9.225954e+00 1.190281e+01 1.574358e+01 2.509722e+01 2.436600e+01 2.668224e+01 1.468228e+01 9.539904e+01 1.986102e+01 3.011648e+01 2.819169e+01 1.280388e+01 5.140340e-01 1.546111e+00 1.789446e+00 1.843049e+00 3.432645e+00 1.497565e+00 3.513422e+00 3.435243e+00 7.440182e+00 3.542603e+00 3.013763e+00 3.106563e+00 2.047173e+00 7.379217e-02 2.005499e-01 6.994218e-01 3.194771e-01 3.377634e-01 2.916539e-01 4.015325e-01 3.605989e-01 2.137119e+00 4.280219e-01 3.396876e-01 6.046836e-01 2.106781e-01
<GCONST> 1.078204e+02
<TRANSP> 5
 0.000000e+00 1.000000e+00 0.000000e+00 0.000000e+00 0.000000e+00
 0.000000e+00 6.299998e-01 3.700003e-01 0.000000e+00 0.000000e+00
 0.000000e+00 0.000000e+00 8.192408e-01 1.807593e-01 0.000000e+00
 0.000000e+00 0.000000e+00 0.000000e+00 6.038123e-01 3.961877e-01
 0.000000e+00 0.000000e+00 0.000000e+00 0.000000e+00 0.000000e+00
<ENDHMM>
~h "f"
<BEGINHMM>
<NUMSTATES> 5
<STATE> 2
<MEAN> 39
 -1.918482e+01 -6.236397e+00 2.193067e+00 -2.963941e+00 3.194605e+00 -3.929169e+00 2.690688e+00 -2.058843e+00 5.312369e+00 -2.322256e+00 2.732053e+00 -6.930385e-01 6.223939e+01 -5.055645e-01 -4.155092e-01 1.534017e-01 -8.050475e-02 -8.739376e-02 -2.497077e-01 -2.581006e-02 1.361742e-01 2.348466e-01 6.598633e-04 -7.361177e-02 -9.430342e-02 5.637245e-01 3.024994e-01 3.400532e-02 1.183409e-01 -2.566391e-02 -1.005937e-01 2.792712e-03 -6.776285e-02 -4.744350e-02 -7.190937e-03 -1.590025e-02 -4.627416e-02 -2.123491e-02 2.473278e-02
<VARIANCE> 39
 7.533320e+00 8.197436e+00 5.926963e+00 6.764472e+00 8.839912e+00 1.176058e+01 1.380589e+01 1.463681e+01 1.308813e+01 1.310311e+01 1.188283e+01 1.098887e+01 1.223586e+01 6.745912e-01 6.591153e-01 7.518942e-01 8.115239e-01 1.056502e+00 1.285786e+00 1.233511e+00 1.321428e+00 1.467638e+00 1.534748e+00 1.358562e+00 1.191020e+00 4.755949e-01 2.467676e-01 1.486260e-01 1.871350e-01 1.920231e-01 2.370975e-01 2.672810e-01 3.065564e-01 3.179028e-01 2.867075e-01 3.326452e-01 2.884105e-01 2.470400e-01 9.028396e-02
<GCONST> 8.289047e+01
<STATE> 3
<MEAN> 39
 -8.124507e+00 -8.903207e+00 6.849077e+00 -2.096758e+00 -3.719666e+00 -8.052582e+00 -7.358770e+00 -1.048968e+01 8.963177e+00 -3.841177e+00 2.653112e+00 -1.750970e+00 6.850309e+01 1.620538e+00 1.915684e-01 8.843550e-01 4.314238e-01 -9.783238e-01 -6.455281e-01 -1.022331e+00 -1.503842e+00 2.174381e-01 -1.652327e-01 -3.247577e-01 1.993261e-03 4.143165e-01 -8.251332e-02 2.140261e-01 2.323933e-02 8.371431e-02 1.210448e-01 3.476966e-02 2.903329e-01 -3.119948e-02 -2.159835e-01 -3.644034e-02 -1.235511e-01 -1.970206e-02 -1.380862e-01
<VARIANCE> 39
 8.384882e+01 9.545527e+00 1.919189e+01 1.119630e+01 4.058309e+01 1.522764e+01 7.530397e+01 8.313316e+01 1.864819e+01 1.828308e+01 1.271149e+01 1.252787e+01 2.446344e+01 5.189710e+00 1.184750e+00 1.584678e+00 1.361665e+00 2.925508e+00 1.237824e+00 6.953717e+00 5.648365e+00 1.550893e+00 1.896520e+00 1.893888e+00 1.375273e+00 1.977360e+00 9.633489e-01 2.581442e-01 3.814108e-01 2.776819e-01 7.120683e-01 2.429309e-01 1.222400e+00 1.230504e+00 3.828117e-01 5.687928e-01 3.244945e-01 3.116496e-01 4.169210e-01
<GCONST> 1.135871e+02
<STATE> 4
<MEAN> 39
 -1.289033e+01 -7.633477e+00 6.849073e+00 -1.518307e+00 -2.970353e-01 -7.856074e+00 -1.173533e+00 -6.300636e+00 6.253555e+00 -2.065807e+00 -7.211331e-02 -2.031869e+00 6.625135e+01 1.971647e+00 6.413311e-01 1.506674e+00 2.073965e-01 -5.356227e-01 -3.219825e-01 -2.885275e-01 -9.610556e-01 -7.366518e-01 -9.291101e-01 -3.090130e-01 -6.529024e-01 1.496622e-01 2.996941e-01 1.662208e-01 1.348501e-01 -5.101692e-02 -4.386735e-01 8.693651e-03 -3.925939e-01 -3.851506e-01 -1.138359e-01 -4.964326e-01 4.434339e-01 5.067622e-02 1.657274e-01
<VARIANCE> 39
 6.699197e+01 1.476138e+01 2.006656e+01 2.672519e+01 3.291477e+01 3.395163e+01 3.890393e+01 6.779124e+01 2.081314e+01 1.952026e+01 2.217405e+01 1.801705e+01 2.192199e+01 7.222471e+00 2.644904e+00 3.811304e+00 2.125859e+00 5.927448e+00 2.576686e+00 7.776764e+00 3.690806e+00 2.818641e+00 5.996233e+00 2.128323e+00 1.828929e+00 3.143719e+00 5.869770e-01 4.497753e-01 4.940884e-01 4.709142e-01 6.266394e-01 4.106094e-01 5.258670e-01 5.607297e-01 3.952928e-01 8.459283e-01 4.131935e-01 4.547130e-01 2.225471e-01
<GCONST> 1.216579e+02
<TRANSP> 5
 0.000000e+00 1.000000e+00 0.000000e+00 0.000000e+00 0.000000e+00
 0.000000e+00 8.623083e-01 1.376917e-01 0.000000e+00 0.000000e+00
 0.000000e+00 0.000000e+00 6.924621e-01 3.075379e-01 0.000000e+00
 0.000000e+00 0.000000e+00 0.000000e+00 3.905904e-01 6.094096e-01
 0.000000e+00 0.000000e+00 0.000000e+00 0.000000e+00 0.000000e+00
<ENDHMM>
~h "k"
<BEGINHMM>
<NUMSTATES> 5
<STATE> 2
<MEAN> 39
 -9.816514e+00 -4.294446e+00 4.682608e+00 -1.427121e+00 -6.408033e+00 -1.110835e+01 3.642444e+00 9.675167e-01 2.131036e+00 2.615819e+00 8.270424e+00 2.562523e-01 6.025784e+01 -9.091014e-01 2.810715e-01 -2.543546e+00 -2.081866e-01 2.120099e+00 1.459574e+00 -2.559626e-01 1.598729e-01 2.349109e+00 1.399715e+00 -1.159668e+00 1.490481e+00 -1.920280e+00 2.543798e-03 -5.339696e-01 -1.822950e-01 -1.185434e-01 -1.211329e-01 3.961851e-02 -5.869917e-01 -3.152159e-01 -9.103928e-04 -5.659753e-01 1.932643e-01 -5.568394e-01 1.233866e+00
<VARIANCE> 39
 8.091674e+00 5.397798e+00 3.057725e+01 1.688451e+01 2.364687e+01 3.887410e+01 1.560635e+01 3.630676e+01 5.667844e+01 2.527275e+01 1.949937e+01 2.522092e+01 1.554201e+01 9.082467e-01 1.413378e+00 2.680048e+00 1.535903e+00 2.051692e+00 2.548944e+00 2.406918e+00 2.901766e+00 6.740170e+00 3.542492e+00 2.428207e+00 4.193844e+00 5.299076e+00 2.381719e-01 1.879555e-01 8.347039e-01 4.867644e-01 3.763984e-01 5.407852e-01 3.419602e-01 5.035735e-01 2.263548e+00 5.505581e-01 4.937241e-01 7.791148e-01 4.844025e-01
<GCONST> 1.146786e+02
<STATE> 3
<MEAN> 39
 -1.239059e+01 -7.294116e+00 -4.744056e+00 -1.842529e+00 6.825802e-01 -5.507673e+00 -1.014653e+00 -1.973655e+00 5.704614e+00 2.973109e+00 4.738865e+00 -2.768334e-01 6.302494e+01 -1.990866e+00 -1.094662e+00 -9.677390e-01 1.855825e-01 1.292764e+00 -2.640869e-01 -4.863541e-01 -6.707705e-01 4.608331e-01 -3.692559e-01 -7.445918e-01 -7.062107e-01 2.963885e+00 -5.284584e-01 3.056991e-01 9.467191e-01 -2.252345e-02 -2.935598e-01 -5.160805e-01 5.245870e-01 2.332965e-01 -8.274747e-02 -2.368144e-01 6.233899e-02 3.154038e-02 2.813064e-01
<VARIANCE> 39
 1.510036e+01 2.516288e+01 7.022587e+01 2.265345e+01 2.263703e+01 3.420084e+01 2.417963e+01 3.001907e+01 2.957651e+01 1.771357e+01 2.060400e+01 1.750099e+01 3.091968e+01 3.307898e+00 2.404654e+00 6.754624e+00 2.364104e+00 3.028164e+00 4.679474e+00 2.802100e+00 4.097086e+00 4.740785e+00 2.336143e+00 2.374496e+00 2.443055e+00 1.843923e+00 4.556141e-01 5.520561e-01 9.907829e-01 3.898113e-01 5.050122e-01 7.961046e-01 5.073619e-01 5.626959e-01 7.909024e-01 4.090045e-01 4.128032e-01 4.694577e-01 8.855597e-01
<GCONST> 1.211323e+02
<STATE> 4
<MEAN> 39
 -1.780769e+01 -7.903279e+00 1.571771e+00 -2.733472e+00 2.123644e+00 -8.746213e+00 2.468027e+00 -1.599935e-01 5.507386e+00 5.751140e-01 3.067685e+00 2.294426e-01 6.682011e+01 -9.203583e-01 7.286776e-01 4.207487e-01 4.489526e-02 1.499791e-01 2.277262e-01 6.205149e-01 -2.099501e-02 2.127320e-01 -5.746930e-01 -5.286487e-01 1.192469e-01 8.793959e-02 4.279634e-01 3.202307e-01 -8.011164e-02 1.298138e-02 -2.577125e-01 3.388345e-01 2.862836e-02 -3.145375e-02 -8.819487e-02 -2.083359e-02 5.249629e-02 2.948137e-02 -5.396708e-01
<VARIANCE> 39
 3.026053e+01 1.262577e+01 3.333747e+01 3.251494e+01 1.716345e+01 2.419378e+01 2.410119e+01 2.856037e+01 3.750245e+01 2.240124e+01 2.089602e+01 1.982495e+01 3.158360e+01 3.948061e+00 1.547311e+00 3.658901e+00 1.959691e+00 1.623251e+00 3.027112e+00 2.681087e+00 2.252699e+00 2.687808e+00 2.672274e+00 2.236980e+00 1.942250e+00 3.567439e+00 3.449077e-01 2.982285e-01 5.974752e-01 4.509723e-01 4.211610e-01 5.112752e-01 4.821815e-01 5.469860e-01 6.984690e-01 5.610741e-01 5.039358e-01 4.657483e-01 6.036413e-01
<GCONST> 1.159245e+02
<TRANSP> 5
 0.000000e+00 1.000000e+00 0.000000e+00 0.000000e+00 0.000000e+00
 0.000000e+00 7.076926e-01 2.923073e-01 0.000000e+00 0.000000e+00
 0.000000e+00 0.000000e+00 6.477564e-01 3.522437e-01 0.000000e+00
 0.000000e+00 0.000000e+00 0.000000e+00 7.321256e-01 2.678744e-01
 0.000000e+00 0.000000e+00 0.000000e+00 0.000000e+00 0.000000e+00
<ENDHMM>
~h "l"
<BEGINHMM>
<NUMSTATES> 5
<STATE> 2
<MEAN> 39
 -7.468390e+00 -2.607836e+00 1.174181e+01 -5.267189e+00 -6.158254e+00 -1.256536e+01 -9.299615e+00 -8.288631e+00 6.027543e+00 -9.523156e+00 1.198301e+00 -2.203516e+00 7.076133e+01 -4.870064e-03 2.296429e-01 -4.813917e-01 7.071871e-02 1.683975e-01 -2.151185e-01 3.028843e-01 -2.371409e-01 -5.058475e-01 2.376265e-02 2.493398e-01 -3.061383e-01 -1.259659e-01 2.243921e-01 -5.752796e-01 -2.758631e-01 1.200552e-01 -7.075451e-01 -8.865567e-02 4.768196e-01 4.135459e-01 6.233482e-02 1.667108e-01 5.125967e-01 -5.913713e-03 3.751198e-01
<VARIANCE> 39
 1.706034e+01 2.228373e+01 2.425992e+01 2.235177e+01 2.930863e+01 3.305879e+01 4.210540e+01 3.253908e+01 2.068580e+01 3.203645e+01 2.572634e+01 1.901940e+01 1.426539e+01 2.029820e+00 6.484494e+00 3.294084e+00 1.642789e+00 9.331185e+00 3.321517e+00 5.558671e+00 5.091606e+00 1.984018e+00 2.394926e+00 4.923734e+00 1.855621e+00 3.700500e+00 3.013553e-01 7.391240e-01 6.402901e-01 3.250540e-01 1.142080e+00 7.090082e-01 8.195806e-01 7.560288e-01 4.236442e-01 4.341683e-01 6.492458e-01 4.098999e-01 5.142015e-01
<GCONST> 1.220382e+02
<STATE> 3
<MEAN> 39
 -5.289520e+00 -8.167821e+00 8.181857e+00 -3.468240e+00 -1.409439e+01 -1.640137e+01 -7.671739e-01 -6.806942e+00 2.908376e+00 -8.761904e+00 6.272830e+00 -4.076745e+00 7.436365e+01 -3.240331e-02 3.853809e-01 -6.290806e-02 2.351495e-01 2.818802e-01 2.680176e-01 9.890088e-01 2.244244e-01 -7.431304e-01 3.053575e-01 -3.303827e-01 -2.633549e-01 -6.820325e-01 -7.808205e-02 2.785308e-01 6.973344e-02 2.809828e-02 4.495073e-01 2.651817e-01 -1.773936e-01 4.718345e-02 -1.141113e-02 -9.374167e-03 -1.868040e-01 2.689245e-02 -3.301818e-01
<VARIANCE> 39
 9.729113e+00 1.293729e+01 8.387424e+00 1.545686e+01 2.819101e+01 2.484232e+01 2.822088e+01 1.433004e+01 2.189751e+01 1.779567e+01 3.261444e+01 1.154572e+01 2.461340e+01 4.404345e-01 2.047811e+00 9.285585e-01 8.344968e-01 2.977905e+00 1.382697e+00 1.465765e+00 1.578098e+00 1.191522e+00 1.299099e+00 1.358644e+00 8.601669e-01 1.233338e+00 1.186793e-01 2.571286e-01 2.299620e-01 2.117301e-01 3.008906e-01 2.577263e-01 2.943456e-01 2.972896e-01 2.075236e-01 2.000269e-01 3.156788e-01 1.757752e-01 7.825169e-02
<GCONST> 9.160304e+01
<STATE> 4
<MEAN> 39
 -7.843461e+00 -1.643552e+00 5.753820e+00 4.122666e-01 -6.021935e-01 -7.746245e+00 -1.138439e+00 -5.125100e+00 3.543293e+00 -3.478909e+00 -9.058652e-03 -1.484617e+00 6.128157e+01 -7.594958e-01 2.897233e-01 -6.811978e-01 -1.641095e-01 1.087876e+00 1.053763e+00 9.139597e-01 7.109551e-01 -4.392276e-01 8.647987e-01 6.000799e-01 3.050606e-01 -1.239922e+00 7.121523e-02 -2.827999e-01 -5.893479e-02 -1.270494e-01 -3.130853e-01 -8.081917e-02 -1.870231e-01 -1.573143e-01 2.338042e-01 -1.193074e-01 9.828636e-02 8.946946e-02 1.841433e-01
<VARIANCE> 39
 1.783811e+01 1.639360e+01 1.220111e+01 1.663879e+01 3.830424e+01 2.877482e+01 2.717787e+01 2.355944e+01 2.013857e+01 2.660685e+01 2.426888e+01 1.711584e+01 2.941147e+01 1.145692e+00 1.671392e+00 1.552613e+00 1.809416e+00 2.968153e+00 1.866593e+00 2.115591e+00 1.903264e+00 1.943242e+00 1.738566e+00 2.681939e+00 1.634707e+00 8.870999e-01 1.756444e-01 3.358162e-01 2.591041e-01 3.397560e-01 4.515645e-01 3.925093e-01 3.879370e-01 3.292303e-01 3.422015e-01 3.245583e-01 4.560324e-01 3.529838e-01 1.536138e-01
<GCONST> 1.042471e+02
<TRANSP> 5
 0.000000e+00 1.000000e+00 0.000000e+00 0.000000e+00 0.000000e+00
 0.000000e+00 6.822695e-01 3.177305e-01 0.000000e+00 0.000000e+00
 0.000000e+00 0.000000e+00 7.523863e-01 2.476137e-01 0.000000e+00
 0.000000e+00 0.000000e+00 0.000000e+00 6.522885e-01 3.477115e-01
 0.000000e+00 0.000000e+00 0.000000e+00 0.000000e+00 0.000000e+00
<ENDHMM>
~h "m"
<BEGINHMM>
<NUMSTATES> 5
<STATE> 2
<MEAN> 39
 -1.305943e+01 -1.716552e+00 5.527898e+00 -1.055230e+00 3.881350e+00 -3.002926e+00 4.737442e+00 -3.649873e+00 3.732619e+00 -9.988465e-01 3.772430e+00 2.064391e-01 5.852500e+01 2.057354e+00 7.601399e-01 7.377066e-01 1.751171e+00 9.994110e-01 -7.561293e-01 -7.763711e-01 -2.144353e+00 -6.893615e-01 -5.643531e-01 1.272489e-01 -3.339097e-01 8.959570e-01 3.389329e-01 -4.599920e-01 2.360555e-01 8.884434e-02 -6.014394e-01 -4.144355e-01 -6.376250e-01 -1.068237e+00 6.492118e-02 -3.172121e-01 8.460674e-02 -7.056837e-02 9.546042e-01
<VARIANCE> 39
 1.696134e+01 9.651143e+00 1.333985e+01 1.756822e+01 1.095078e+01 1.481339e+01 1.918812e+01 2.243214e+01 1.583681e+01 1.287203e+01 1.250254e+01 1.425999e+01 7.394289e+00 1.642174e+00 1.189469e+00 2.079371e+00 1.528806e+00 2.758022e+00 2.316571e+00 3.029521e+00 5.860650e+00 2.922649e+00 1.522878e+00 3.195345e+00 1.440203e+00 3.229730e+00 2.511119e-01 3.536567e-01 3.855213e-01 4.633726e-01 5.332436e-01 3.738178e-01 4.178134e-01 5.638025e-01 6.237130e-01 2.832410e-01 6.053382e-01 2.684815e-01 3.183517e-01
<GCONST> 1.047393e+02
<STATE> 3
<MEAN> 39
 -4.236334e+00 -2.327940e+00 7.316786e+00 4.087784e+00 3.124492e+00 -8.919811e+00 -1.256742e+00 -1.678425e+01 1.014572e-01 -4.184071e+00 7.011603e+00 -5.170447e-01 6.568523e+01 1.652596e+00 -1.768381e+00 -7.258527e-01 -1.374615e+00 -1.646097e+00 -9.691147e-02 -1.129755e+00 -1.548489e+00 1.429805e+00 -8.629577e-01 -1.385100e-01 -4.679108e-02 2.488692e+00 -3.400619e-01 -6.713167e-01 -4.857066e-01 -1.027924e+00 -5.596734e-01 7.229173e-01 1.325988e-01 1.189633e+00 1.032860e+00 1.160649e-01 -4.659459e-01 -3.205828e-01 1.535745e-01
<VARIANCE> 39
 5.445756e+00 1.426574e+01 1.095941e+01 2.068870e+01 1.577183e+01 2.575348e+01 1.534955e+01 2.517992e+01 4.234583e+01 1.646089e+01 4.157914e+01 1.793043e+01 1.544939e+01 1.374930e+00 2.720248e+00 2.883628e+00 6.233693e+00 2.675511e+00 4.473701e+00 2.498167e+00 6.956153e+00 6.931723e+00 1.401808e+00 4.022425e+00 2.231272e+00 1.901614e+00 1.697391e-01 4.437621e-01 4.021268e-01 5.031123e-01 3.521490e-01 3.676218e-01 3.579978e-01 6.881952e-01 8.754003e-01 2.896831e-01 5.937285e-01 6.661158e-01 3.062418e-01
<GCONST> 1.128606e+02
<STATE> 4
<MEAN> 39
 -2.702540e-01 -1.475997e+01 1.258381e+00 -9.694899e+00 -5.166848e+00 -5.476435e-01 -3.017442e+00 -1.132838e+01 1.604698e+01 -3.627043e+00 2.644173e+00 -9.683987e+00 7.722673e+01 5.063967e-02 -9.094223e-01 1.990911e-01 -6.091729e-01 -8.338021e-01 3.214113e-01 -5.508367e-01 1.048179e+00 1.360534e+00 1.407771e-01 -5.349542e-01 -8.374453e-01 7.008322e-01 -2.840605e-01 5.125358e-01 4.031901e-01 4.859475e-01 3.557679e-01 -3.250194e-01 7.605906e-02 1.259263e-01 -5.636597e-01 -2.170288e-02 1.731720e-01 1.985996e-01 -5.069500e-01
<VARIANCE> 39
 4.773967e+00 1.151734e+01 1.946087e+01 2.187151e+01 1.460538e+01 3.141817e+01 2.038526e+01 2.293634e+01 2.120125e+01 1.752115e+01 2.475863e+01 5.980862e+01 1.502758e+01 4.053828e-01 3.730838e+00 1.974600e+00 2.341734e+00 1.973836e+00 1.565711e+00 2.092059e+00 1.913495e+00 4.829683e+00 1.111343e+00 2.011040e+00 3.733628e+00 2.782588e+00 1.043036e-01 2.292784e-01 1.464043e-01 3.029945e-01 3.351594e-01 2.340745e-01 3.796558e-01 4.692920e-01 5.642918e-01 2.368359e-01 3.788659e-01 3.705795e-01 1.939324e-01
<GCONST> 1.023869e+02
<TRANSP> 5
 0.000000e+00 1.000000e+00 0.000000e+00 0.000000e+00 0.000000e+00
 0.000000e+00 6.270885e-01 3.729115e-01 0.000000e+00 0.000000e+00
 0.000000e+00 0.000000e+00 7.126016e-01 2.873984e-01 0.000000e+00
 0.000000e+00 0.000000e+00 0.000000e+00 8.170163e-01 1.829837e-01
 0.000000e+00 0.000000e+00 0.000000e+00 0.000000e+00 0.000000e+00
<ENDHMM>
~h "n"
<BEGINHMM>
<NUMSTATES> 5
<STATE> 2
<MEAN> 39
 -5.765296e+00 -2.684882e+00 8.188957e+00 3.202712e+00 -1.668504e+00 -9.538782e+00 -7.285203e-01 -1.099971e+01 -2.359402e-01 -2.576602e+00 2.815948e+00 -4.996367e+00 6.295318e+01 -2.324702e-01 7.184592e-01 -1.812339e-01 1.476168e-01 6.994874e-01 7.556743e-01 3.380003e-01 2.240479e-01 -2.054263e-01 5.078194e-01 -5.584791e-01 4.514429e-02 -9.501864e-01 -1.629871e-01 2.583966e-02 -9.821542e-02 -2.834243e-01 5.019777e-02 1.623877e-01 8.034220e-02 4.532187e-01 1.615528e-01 -1.312100e-01 9.898455e-02 1.409374e-01 3.114872e-02
<VARIANCE> 39
 1.134267e+01 1.181079e+01 1.373373e+01 1.407931e+01 1.832719e+01 2.352126e+01 2.625981e+01 4.108793e+01 2.415382e+01 1.561738e+01 1.438433e+01 1.546438e+01 1.124657e+01 4.157106e-01 1.183102e+00 7.734117e-01 1.097654e+00 1.510447e+00 1.169459e+00 1.820071e+00 3.221018e+00 2.090028e+00 2.165293e+00 1.108379e+00 1.255045e+00 6.929532e-01 7.481623e-02 2.912933e-01 1.869237e-01 2.349330e-01 3.086436e-01 2.069577e-01 4.212315e-01 3.208180e-01 3.747678e-01 3.532089e-01 2.393188e-01 2.224000e-01 1.584351e-01
<GCONST> 9.308241e+01
<STATE> 3
<MEAN> 39
 -1.010767e+01 -1.143396e+00 5.245201e+00 1.015181e+00 3.010470e+00 -3.443907e+00 2.474510e+00 -3.644126e+00 2.379194e+00 -1.669547e+00 1.328380e+00 -2.471620e+00 5.818799e+01 -7.171081e-01 -2.316267e-01 -9.262807e-01 -6.844790e-01 4.230152e-01 8.182898e-01 6.165189e-01 1.017736e+00 7.128337e-01 3.341784e-01 2.492273e-01 6.418130e-01 -6.191683e-01 -9.945048e-03 -2.161988e-01 -1.086274e-01 -1.456437e-01 -2.708824e-01 -2.128898e-01 -1.661682e-01 -1.536674e-01 7.054982e-02 2.596518e-02 1.682458e-01 4.927031e-02 1.977983e-01
<VARIANCE> 39
 1.513439e+01 1.697576e+01 1.350607e+01 1.331350e+01 1.930599e+01 2.397472e+01 1.762102e+01 2.278161e+01 2.457017e+01 1.459804e+01 1.431400e+01 1.534806e+01 7.524713e+00 1.317358e+00 1.806376e+00 1.435907e+00 1.480235e+00 1.932297e+00 1.924940e+00 2.490675e+00 2.496783e+00 2.308549e+00 1.551558e+00 1.676208e+00 1.403308e+00 7.891298e-01 2.552332e-01 4.165986e-01 2.731237e-01 2.820356e-01 4.016397e-01 3.837349e-01 4.403272e-01 4.642005e-01 5.285112e-01 3.492256e-01 3.737064e-01 2.877608e-01 1.519122e-01
<GCONST> 1.004332e+02
<STATE> 4
<MEAN> 39
 -1.207323e+01 -2.458477e+00 1.126398e+00 -1.883327e+00 2.700782e+00 -2.396512e+00 3.323264e+00 -1.440194e+00 3.810405e+00 -2.006498e-01 3.065767e+00 -6.845345e-02 5.563783e+01 -4.049125e-02 6.909750e-02 -1.993510e-02 -1.051343e-02 4.487231e-03 -1.489613e-02 1.102368e-02 -7.832894e-02 -1.301922e-02 6.242500e-04 2.133484e-02 4.080351e-02 1.339261e-02 4.933277e-02 2.609695e-02 1.640077e-01 1.027858e-01 -3.708403e-02 -9.529775e-02 -5.390611e-02 -1.600665e-01 -5.895913e-02 -4.293099e-02 -6.049297e-02 -8.956318e-02 1.421586e-01
<VARIANCE> 39
 3.317239e+00 3.133138e+00 5.475763e+00 6.303448e+00 8.808044e+00 1.221779e+01 1.193982e+01 1.414973e+01 1.311888e+01 1.163196e+01 1.157217e+01 1.181872e+01 2.816175e+00 5.963642e-01 6.027040e-01 1.057691e+00 1.043201e+00 1.047744e+00 1.296983e+00 1.397529e+00 1.737310e+00 1.613669e+00 1.328108e+00 1.374145e+00 1.392896e+00 2.655883e-01 1.101743e-01 1.015593e-01 1.669213e-01 1.711669e-01 2.175522e-01 2.913950e-01 2.921543e-01 3.996954e-01 3.250933e-01 2.725500e-01 2.760104e-01 2.706728e-01 5.528420e-02
<GCONST> 7.783688e+01
<TRANSP> 5
 0.000000e+00 1.000000e+00 0.000000e+00 0.000000e+00 0.000000e+00
 0.000000e+00 6.835062e-01 3.164938e-01 0.000000e+00 0.000000e+00
 0.000000e+00 0.000000e+00 5.939437e-01 4.060563e-01 0.000000e+00
 0.000000e+00 0.000000e+00 0.000000e+00 8.583153e-01 1.416847e-01
 0.000000e+00 0.000000e+00 0.000000e+00 0.000000e+00 0.000000e+00
<ENDHMM>
~h "o"
<BEGINHMM>
<NUMSTATES> 5
<STATE> 2
<MEAN> 39
 -2.631434e+00 -3.315078e+00 1.380630e+00 -1.217281e+01 -7.823249e+00 1.085337e+00 2.723734e+00 -1.147753e+01 3.650784e+00 -5.274009e+00 3.446046e+00 3.251043e+00 6.605417e+01 -2.114309e-01 5.057113e-02 -3.548693e-01 -4.654121e-01 -1.174129e-01 -2.040591e-02 7.929298e-02 1.780197e-01 1.358911e-01 -2.010929e-01 1.147341e-02 6.008775e-01 -3.530121e-01 -1.587797e-02 1.111726e-01 5.361704e-02 1.481857e-01 1.266513e-01 -7.270775e-02 -6.943958e-02 -1.854285e-03 -1.520877e-01 -2.491396e-02 -7.452502e-02 -7.528941e-02 -5.639054e-02
<VARIANCE> 39
 4.369304e+01 3.133559e+01 1.336619e+01 6.166615e+01 7.694419e+01 2.312769e+01 1.488749e+01 1.029501e+02 2.302719e+01 3.319469e+01 3.079370e+01 2.769900e+01 5.443390e+01 1.607500e+00 1.769534e+00 1.182156e+00 4.087827e+00 4.016370e+00 2.013352e+00 1.697823e+00 3.152910e+00 2.488321e+00 2.518556e+00 2.743396e+00 2.478697e+00 1.506579e+00 2.190025e-01 1.775894e-01 2.512035e-01 5.003161e-01 4.619709e-01 3.563884e-01 2.515246e-01 4.941536e-01 4.503823e-01 5.035286e-01 5.313558e-01 4.568855e-01 2.432986e-01
<GCONST> 1.148450e+02
<STATE> 3
<MEAN> 39
 -7.983116e+00 -1.626618e+00 2.189340e+00 -3.413324e+00 1.183873e+00 -2.663763e+00 1.099112e+00 -6.656031e+00 3.441031e+00 -2.320118e+00 4.252534e+00 1.499641e+00 5.937364e+01 -7.057048e-01 -1.832883e-01 -3.311343e-01 4.489122e-01 2.956782e-01 -5.690040e-01 -3.931946e-01 4.093319e-01 9.063499e-02 8.474413e-01 3.477730e-01 -2.414730e-02 -7.349033e-01 1.578104e-01 2.872207e-02 -4.400690e-02 -2.284714e-01 -2.052144e-01 1.095597e-01 9.369811e-02 -4.198850e-02 -9.355346e-03 -1.783040e-01 -1.736798e-01 -3.829222e-02 1.352523e-01
<VARIANCE> 39
 1.148704e+01 1.011030e+01 1.265246e+01 1.304788e+01 1.402169e+01 1.976502e+01 1.788226e+01 5.098804e+01 1.469994e+01 2.573777e+01 1.420203e+01 1.378696e+01 1.674772e+01 4.855914e-01 9.344495e-01 1.475246e+00 2.613239e+00 2.160313e+00 1.771004e+00 1.999051e+00 2.494936e+00 1.851810e+00 2.022775e+00 1.664129e+00 1.645715e+00 4.631097e-01 7.100543e-02 2.344922e-01 2.000072e-01 2.815107e-01 3.658763e-01 3.615120e-01 3.756024e-01 3.675388e-01 3.908066e-01 3.868062e-01 3.485927e-01 2.793228e-01 7.813496e-02
<GCONST> 9.533252e+01
<STATE> 4
<MEAN> 39
 -1.164177e+01 -2.087766e+00 2.117524e-01 -3.354811e+00 1.046877e+00 -3.476328e+00 1.924623e+00 -2.101569e+00 3.225781e+00 -1.524881e-01 3.494653e+00 9.593057e-01 5.540555e+01 -1.497721e-01 -9.801929e-02 -2.991179e-03 9.541565e-02 1.110802e-01 5.457682e-02 5.959558e-02 1.201750e-02 3.815437e-03 3.257483e-02 -3.772968e-02 -9.456959e-02 -7.057694e-02 3.075232e-02 1.859505e-02 6.636344e-02 3.684914e-02 5.001014e-02 5.792947e-02 5.270627e-02 7.731810e-03 -3.086417e-03 -3.741889e-02 -4.116262e-02 -4.050901e-02 4.793128e-02
<VARIANCE> 39
 1.551460e+00 2.326514e+00 3.760975e+00 5.969595e+00 7.869171e+00 9.624519e+00 1.088472e+01 1.152697e+01 1.172328e+01 1.220150e+01 1.076840e+01 1.105862e+01 6.808673e-01 1.244846e-01 2.657982e-01 4.109246e-01 5.973696e-01 8.092278e-01 1.118472e+00 1.184427e+00 1.282129e+00 1.266625e+00 1.409889e+00 1.212679e+00 1.260524e+00 4.153712e-02 3.064252e-02 6.016537e-02 8.999896e-02 1.257076e-01 1.666480e-01 2.314316e-01 2.548884e-01 2.709137e-01 2.686896e-01 3.032668e-01 2.555525e-01 2.732674e-01 1.315490e-02
<GCONST> 6.171204e+01
<TRANSP> 5
 0.000000e+00 1.000000e+00 0.000000e+00 0.000000e+00 0.000000e+00
 0.000000e+00 6.236871e-01 3.763129e-01 0.000000e+00 0.000000e+00
 0.000000e+00 0.000000e+00 5.319282e-01 4.680717e-01 0.000000e+00
 0.000000e+00 0.000000e+00 0.000000e+00 9.117188e-01 8.828121e-02
 0.000000e+00 0.000000e+00 0.000000e+00 0.000000e+00 0.000000e+00
<ENDHMM>
~h "r"
<BEGINHMM>
<NUMSTATES> 5
<STATE> 2
<MEAN> 39
 -3.283178e+00 -6.615550e+00 1.571423e+00 -5.085109e+00 -1.144545e-01 -1.531525e+00 -6.641043e+00 -6.882408e+00 1.177745e+01 -1.768921e+00 -1.791034e+00 -5.854498e+00 6.728066e+01 -5.473309e-01 7.656254e-01 -4.253699e-01 5.200605e-01 1.298585e+00 6.022596e-01 1.089860e+00 5.573518e-01 -9.461116e-01 7.271860e-01 -1.145573e-01 4.280649e-01 -1.328211e+00 -1.469266e-01 -1.354011e-03 3.098446e-02 4.920844e-02 -1.643719e-01 -2.024037e-01 2.438478e-01 6.913643e-02 -6.365991e-02 -3.149470e-02 2.197904e-01 1.533730e-01 -5.558246e-02
<VARIANCE> 39
 1.356052e+01 2.515788e+01 1.343342e+01 1.816666e+01 3.031533e+01 2.130238e+01 4.200961e+01 2.299309e+01 3.328915e+01 2.667547e+01 2.072335e+01 2.252209e+01 3.275656e+01 1.057887e+00 1.752997e+00 1.573105e+00 1.900591e+00 1.749686e+00 2.111493e+00 2.578926e+00 2.020920e+00 2.426447e+00 1.569982e+00 2.041038e+00 1.781396e+00 1.610294e+00 1.187669e-01 3.478755e-01 2.537282e-01 3.716046e-01 3.426687e-01 3.381213e-01 4.116863e-01 3.292923e-01 3.677898e-01 2.903361e-01 3.421039e-01 2.989283e-01 1.794298e-01
<GCONST> 1.046129e+02
<STATE> 3
<MEAN> 39
 -9.648886e+00 -3.867730e+00 3.385682e-01 -2.817865e+00 3.544141e+00 -1.697802e+00 1.162714e+00 -3.260860e+00 6.105978e+00 2.160944e+00 1.884643e+00 -2.093557e+00 5.973082e+01 -5.460415e-01 -3.834334e-01 -6.403633e-01 -4.563654e-01 -2.106826e-01 1.305121e-01 7.874277e-01 2.107025e-01 -5.493582e-01 4.544162e-01 3.775477e-01 5.396784e-01 -3.710701e-01 2.626303e-01 -2.033601e-01 4.076129e-02 -2.916176e-01 -3.283277e-01 1.377643e-02 -1.542385e-01 -1.302800e-01 1.292825e-01 -3.006875e-01 -2.617396e-02 -2.165291e-01 3.728755e-01
<VARIANCE> 39
 7.533933e+00 1.375190e+01 7.976824e+00 1.470462e+01 1.915315e+01 1.900037e+01 1.732408e+01 2.173166e+01 1.937631e+01 1.945403e+01 1.818216e+01 2.634848e+01 3.498483e+01 1.006701e+00 8.194830e-01 1.217794e+00 1.344258e+00 1.740786e+00 2.114505e+00 1.710568e+00 2.128664e+00 2.067334e+00 1.701283e+00 2.409162e+00 1.818145e+00 8.521148e-01 1.687707e-01 1.804572e-01 1.703220e-01 2.664496e-01 3.543293e-01 3.478083e-01 4.032597e-01 4.069582e-01 3.593575e-01 4.299006e-01 5.870244e-01 3.704134e-01 1.343949e-01
<GCONST> 9.815443e+01
<STATE> 4
<MEAN> 39
 -1.008041e+01 -7.441102e+00 -2.109992e+00 -8.002415e+00 2.757831e+00 2.683259e+00 3.879023e+00 -4.808609e+00 5.373913e+00 3.635713e+00 6.761072e-01 -5.784540e-01 6.192307e+01 3.121795e-01 -2.334459e-01 -3.615619e-01 -1.173033e+00 -8.568130e-01 1.964149e-01 8.294986e-01 4.428411e-01 -4.435524e-02 -1.873603e-01 -5.390635e-01 1.242093e-01 5.527731e-01 3.330448e-01 2.075747e-01 1.968228e-01 3.669700e-02 -2.817356e-01 -3.077883e-01 -2.416315e-01 3.951289e-03 -7.784520e-03 -4.590063e-01 9.665789e-02 -2.465559e-01 2.025846e-01
<VARIANCE> 39
 1.056436e+01 1.526004e+01 1.259906e+01 3.620916e+01 2.731707e+01 3.539147e+01 2.232880e+01 2.635700e+01 1.972879e+01 2.057989e+01 2.817923e+01 3.812779e+01 3.163134e+01 1.344345e+00 1.714900e+00 1.221464e+00 2.154912e+00 2.004861e+00 2.460228e+00 1.749515e+00 2.184035e+00 2.310396e+00 2.106338e+00 3.516808e+00 2.161834e+00 1.211412e+00 2.336185e-01 4.213125e-01 2.826221e-01 5.334590e-01 5.205285e-01 4.746935e-01 3.752020e-01 5.564218e-01 4.311353e-01 4.433894e-01 7.462957e-01 4.533261e-01 2.811407e-01
<GCONST> 1.099343e+02
<TRANSP> 5
 0.000000e+00 1.000000e+00 0.000000e+00 0.000000e+00 0.000000e+00
 0.000000e+00 7.484325e-01 2.515675e-01 0.000000e+00 0.000000e+00
 0.000000e+00 0.000000e+00 4.360077e-01 5.639923e-01 0.000000e+00
 0.000000e+00 0.000000e+00 0.000000e+00 5.256482e-01 4.743518e-01
 0.000000e+00 0.000000e+00 0.000000e+00 0.000000e+00 0.000000e+00
<ENDHMM>
~h "s"
<BEGINHMM>
<NUMSTATES> 5
<STATE> 2
<MEAN> 39
 -2.001699e+01 3.165116e-01 -6.740801e-01 -2.061997e+00 1.242407e+00 -6.889960e+00 2.838648e+00 -4.675203e+00 4.920396e+00 -2.161054e+00 2.216633e+00 -1.573092e+00 6.741257e+01 -3.685877e+00 8.130630e-01 -1.159632e+00 -6.683071e-01 5.292261e-01 1.087571e+00 7.020318e-01 1.117962e+00 9.470564e-01 -1.810079e-01 -2.048941e-02 1.042405e+00 6.740354e-01 3.651093e-01 -1.238994e-02 5.409855e-02 1.823752e-01 -2.390463e-01 -5.094565e-02 6.935465e-02 -1.744145e-01 -2.386052e-01 1.266488e-01 1.614132e-01 -1.244290e-01 -1.174126e-01
<VARIANCE> 39
 6.978352e+01 1.695512e+01 3.157785e+01 1.752361e+01 1.621965e+01 2.025666e+01 1.581661e+01 1.983317e+01 2.451487e+01 1.376739e+01 1.261201e+01 1.478993e+01 1.387189e+01 4.104439e+00 1.698262e+00 3.318332e+00 1.620430e+00 2.281411e+00 2.183420e+00 1.916943e+00 1.931955e+00 2.668508e+00 1.618178e+00 1.890368e+00 1.803645e+00 9.062536e-01 1.100029e+00 3.605074e-01 6.736370e-01 3.865650e-01 3.911329e-01 5.558724e-01 3.945101e-01 4.186896e-01 4.608257e-01 3.101627e-01 3.597424e-01 3.240125e-01 2.461445e-01
<GCONST> 1.083284e+02
<STATE> 3
<MEAN> 39
 -2.790124e+01 2.028923e+00 -1.989291e+00 -2.595100e+00 3.206534e+00 -4.704736e+00 6.097462e+00 -3.086982e+00 7.778275e+00 -2.257321e+00 3.443163e+00 8.886922e-01 6.773009e+01 5.508411e-01 -1.141776e-01 4.988891e-01 -3.942275e-02 1.972783e-01 3.262646e-02 3.226298e-01 -4.738038e-02 9.761368e-02 -5.505798e-02 1.616598e-01 8.750848e-02 -6.355143e-01 4.113034e-01 -1.762487e-01 1.868400e-02 6.547824e-02 -2.065056e-03 -1.534004e-02 -1.082237e-01 3.588897e-03 -3.301213e-02 6.425624e-02 4.209356e-03 -5.385984e-02 -1.939493e-01
<VARIANCE> 39
 8.032655e+00 8.109789e+00 1.336685e+01 1.096441e+01 1.298488e+01 1.361205e+01 1.540316e+01 1.469660e+01 1.669549e+01 1.509223e+01 1.409952e+01 1.195467e+01 5.996927e+00 1.800786e+00 1.380495e+00 9.965686e-01 1.111116e+00 1.079943e+00 1.483779e+00 1.413121e+00 1.493413e+00 1.539940e+00 1.517962e+00 1.468816e+00 1.188490e+00 5.987216e-01 1.407299e-01 1.581562e-01 2.265494e-01 2.181824e-01 2.224220e-01 3.154791e-01 2.981404e-01 3.261211e-01 3.238686e-01 3.069842e-01 3.022031e-01 2.481935e-01 4.977996e-02
<GCONST> 8.731169e+01
<STATE> 4
<MEAN> 39
 -1.508104e+01 -2.664218e+00 1.304157e+00 -8.715343e-01 4.006047e+00 -3.525768e+00 6.190207e+00 -1.276988e+00 7.479009e+00 -5.993323e-01 4.656808e+00 1.050395e+00 5.810596e+01 1.843930e+00 -2.019728e-01 -3.980603e-01 2.813394e-01 -2.905094e-01 7.886009e-01 -7.535126e-01 4.784716e-01 -7.737518e-01 4.288607e-01 -1.228595e-01 -2.062024e-01 -1.479987e+00 -5.302196e-01 2.786399e-01 -5.826377e-02 -1.971712e-01 -3.564594e-02 4.151644e-03 -1.568307e-02 -1.005832e-01 -7.580334e-02 -8.004417e-02 -8.397674e-02 -3.676471e-02 3.321609e-01
<VARIANCE> 39
 9.216969e+00 7.081812e+00 1.097758e+01 9.758606e+00 1.421671e+01 1.920043e+01 1.690510e+01 1.887597e+01 2.058491e+01 1.716582e+01 1.648405e+01 1.290555e+01 6.395231e+00 1.757606e+00 1.052106e+00 1.144974e+00 1.236925e+00 1.306279e+00 1.888089e+00 1.681685e+00 1.834608e+00 1.904492e+00 1.658059e+00 1.811598e+00 1.452837e+00 8.689702e-01 1.798851e-01 1.867172e-01 2.512087e-01 2.157974e-01 2.738091e-01 4.198085e-01 3.476751e-01 3.627463e-01 4.003047e-01 3.542687e-01 3.674870e-01 2.908404e-01 1.063929e-01
<GCONST> 9.298481e+01
<TRANSP> 5
 0.000000e+00 1.000000e+00 0.000000e+00 0.000000e+00 0.000000e+00
 0.000000e+00 6.309653e-01 3.690347e-01 0.000000e+00 0.000000e+00
 0.000000e+00 0.000000e+00 9.131815e-01 8.681849e-02 0.000000e+00
 0.000000e+00 0.000000e+00 0.000000e+00 7.528231e-01 2.471770e-01
 0.000000e+00 0.000000e+00 0.000000e+00 0.000000e+00 0.000000e+00
<ENDHMM>
~h "t"
<BEGINHMM>
<NUMSTATES> 5
<STATE> 2
<MEAN> 39
 -1.456812e+01 -4.053271e+00 -7.816284e-01 -4.597469e+00 5.011606e+00 -4.522737e+00 4.471918e+00 -2.502072e+00 6.888596e+00 -4.352451e-01 2.911184e+00 5.025151e-01 6.210918e+01 -7.660339e-01 -2.007425e-01 2.850070e-02 -5.076671e-01 1.968013e-01 -7.504687e-01 -1.184631e-02 -1.918115e-02 1.973235e-01 -2.469029e-01 1.314725e-02 2.512901e-01 6.048270e-01 1.022402e-01 -1.194417e-01 1.672800e-01 1.343485e-01 9.877227e-02 2.894994e-02 -1.081799e-01 -2.401789e-02 6.528154e-02 -6.257271e-03 -3.320070e-02 -8.200818e-02 7.803010e-02
<VARIANCE> 39
 2.510964e+01 1.295177e+01 1.977819e+01 2.146855e+01 1.628586e+01 3.759854e+01 2.148515e+01 1.807625e+01 1.603926e+01 1.539623e+01 1.382962e+01 1.354920e+01 3.728469e+01 2.571020e+00 1.513176e+00 2.097389e+00 2.388633e+00 1.931253e+00 4.278539e+00 1.888103e+00 2.521033e+00 1.892974e+00 2.018803e+00 1.694606e+00 1.650722e+00 6.019587e+00 7.568387e-01 3.646557e-01 3.212169e-01 5.516173e-01 3.760984e-01 1.066457e+00 3.490397e-01 5.831589e-01 4.321137e-01 4.078611e-01 3.461674e-01 3.652503e-01 1.798104e+00
<GCONST> 1.123187e+02
<STATE> 3
<MEAN> 39
 -1.420806e+01 -5.998044e+00 1.031237e+00 -3.589777e+00 6.734372e+00 -5.288095e+00 3.390380e+00 -1.241945e+00 7.268198e+00 -1.184488e+00 2.287595e+00 6.875485e-01 6.066469e+01 1.441382e+00 3.212348e-01 -1.304030e-01 8.472982e-01 -4.529531e-01 1.409196e+00 -1.693011e-01 5.232860e-01 -6.095188e-01 3.426998e-01 7.126252e-02 -1.745638e-01 -1.839720e+00 -1.084012e-01 2.560599e-01 -1.892854e-01 -1.231449e-01 -2.899061e-01 2.609624e-02 1.636039e-01 -1.498170e-01 -1.348364e-01 3.635670e-02 1.261686e-01 4.021281e-02 1.006797e-01
<VARIANCE> 39
 1.184543e+01 7.042506e+00 8.112262e+00 1.058256e+01 1.349410e+01 1.979994e+01 1.846145e+01 1.754962e+01 1.931354e+01 1.582393e+01 1.353498e+01 1.414500e+01 1.204023e+01 1.164301e+00 1.402457e+00 9.727581e-01 1.394158e+00 1.440510e+00 1.622039e+00 1.692135e+00 1.605279e+00 1.844825e+00 1.615484e+00 1.642891e+00 1.544350e+00 5.860643e-01 3.677770e-01 2.006975e-01 2.197705e-01 2.752478e-01 2.964432e-01 4.485136e-01 2.968558e-01 3.466536e-01 3.491920e-01 3.768987e-01 3.543164e-01 3.308428e-01 1.996589e-01
<GCONST> 9.403343e+01
<STATE> 4
<MEAN> 39
 -1.230979e+01 -2.851552e+00 2.467207e-01 -2.209876e+00 3.321808e+00 -1.514726e+00 3.753353e+00 -1.103026e+00 3.843225e+00 -3.648043e-01 3.028951e+00 1.146431e-01 5.527962e+01 -3.734442e-02 8.189683e-02 5.865100e-02 5.258092e-02 -1.517130e-01 6.194688e-03 -4.251434e-02 -1.058249e-01 -1.824114e-01 -3.348648e-02 4.186992e-03 -8.213115e-02 -1.284634e-01 -4.598129e-02 -7.305422e-02 3.336523e-02 -2.233216e-02 6.803797e-02 -8.499639e-02 -8.614019e-03 -1.994706e-02 7.307550e-02 -3.342585e-02 -2.056288e-02 -5.395341e-03 1.226039e-01
<VARIANCE> 39
 1.257520e+00 2.692468e+00 3.658315e+00 6.470475e+00 7.606019e+00 9.110994e+00 1.132219e+01 1.054443e+01 1.239036e+01 1.133629e+01 1.149385e+01 1.067498e+01 1.326984e+00 2.432719e-01 3.014512e-01 4.223794e-01 7.169861e-01 8.921861e-01 1.090701e+00 1.297075e+00 1.292068e+00 1.417824e+00 1.217917e+00 1.401901e+00 1.180473e+00 1.163754e-01 4.993203e-02 6.677237e-02 8.706389e-02 1.607474e-01 1.839701e-01 2.401023e-01 2.759250e-01 2.538800e-01 2.857165e-01 2.521771e-01 2.862369e-01 2.373917e-01 4.491401e-02
<GCONST> 6.652713e+01
<TRANSP> 5
 0.000000e+00 1.000000e+00 0.000000e+00 0.000000e+00 0.000000e+00
 0.000000e+00 8.743137e-01 1.256863e-01 0.000000e+00 0.000000e+00
 0.000000e+00 0.000000e+00 7.491047e-01 2.508953e-01 0.000000e+00
 0.000000e+00 0.000000e+00 0.000000e+00 8.945879e-01 1.054121e-01
 0.000000e+00 0.000000e+00 0.000000e+00 0.000000e+00 0.000000e+00
<ENDHMM>
~h "u"
<BEGINHMM>
<NUMSTATES> 5
<STATE> 2
<MEAN> 39
 -4.696579e+00 2.560579e-01 9.816503e+00 4.811576e+00 -1.515223e+00 -9.567244e+00 1.667036e+00 -1.404939e+01 -6.071165e-01 2.995833e-01 1.366307e+00 -4.384609e+00 6.333504e+01 1.092914e+00 -5.224569e-01 -3.894858e-02 -1.433769e-01 -8.787745e-01 -5.025764e-01 -1.023539e+00 -1.916299e+00 7.405054e-02 -1.284909e-01 2.499427e-01 -1.578683e-01 1.369193e+00 -2.927170e-02 -1.471647e-01 -4.234475e-01 -4.770309e-01 -5.050362e-02 3.746972e-01 -1.760359e-01 8.309509e-02 2.016752e-01 -1.100912e-01 3.065473e-01 2.762870e-01 -3.099286e-02
<VARIANCE> 39
 7.805515e+00 1.832856e+01 1.675315e+01 1.408297e+01 1.968292e+01 3.178311e+01 2.708506e+01 4.167049e+01 2.009288e+01 1.236949e+01 1.299951e+01 1.120356e+01 1.508574e+01 7.205350e-01 2.135795e+00 4.403465e+00 3.423949e+00 2.246228e+00 4.290043e+00 3.107103e+00 4.281827e+00 3.051269e+00 1.517133e+00 2.279271e+00 2.000100e+00 9.865706e-01 1.288648e-01 4.212678e-01 3.736239e-01 3.483692e-01 4.823522e-01 5.362570e-01 5.112137e-01 8.348951e-01 4.670233e-01 3.002951e-01 4.138476e-01 2.949365e-01 2.220105e-01
<GCONST> 1.070871e+02
<STATE> 3
<MEAN> 39
 2.042446e+00 -4.014877e+00 2.369401e+00 -6.679676e+00 -7.876814e+00 -2.744098e+00 -8.566599e+00 -2.451515e+01 2.256602e+00 -2.362931e+00 1.180959e+01 -1.099520e-01 7.055719e+01 1.560587e-01 -2.188977e-01 5.233148e-02 -5.793209e-01 -6.181459e-01 2.844704e-02 -8.627118e-01 -2.832612e-01 5.903334e-01 9.068484e-02 6.968330e-01 -1.798957e-01 2.301408e-01 -2.312122e-01 -3.035374e-02 3.414246e-01 4.566577e-01 1.258437e-01 -4.464284e-01 1.399158e-01 4.075743e-01 1.269289e-01 1.808203e-02 -5.850558e-01 -2.718517e-01 -1.474360e-01
<VARIANCE> 39
 1.840458e+00 9.620970e+00 5.682519e+00 1.184489e+01 9.458157e+00 1.361677e+01 1.841404e+01 1.982692e+01 2.622797e+01 1.907253e+01 2.024855e+01 2.109719e+01 4.126832e+00 4.355021e-01 1.168589e+00 1.174139e+00 3.285344e+00 9.838516e-01 4.091621e+00 2.209253e+00 2.086083e+00 4.878199e+00 2.760523e+00 4.446121e+00 3.156485e+00 2.465741e-01 3.947112e-02 2.596329e-01 1.041032e-01 2.164909e-01 2.272702e-01 3.217773e-01 5.343471e-01 3.739958e-01 9.097226e-01 6.516053e-01 4.089206e-01 4.289495e-01 1.155052e-01
<GCONST> 9.362437e+01
<STATE> 4
<MEAN> 39
 -1.125744e+00 -9.204575e+00 8.207621e+00 -5.534438e-01 -1.061293e+01 -1.197374e+01 -1.263483e+01 -1.667762e+01 1.153915e+01 -7.491798e+00 1.985457e+00 -2.571340e+00 7.115366e+01 -3.524032e-01 -1.383231e-02 3.108651e-01 5.463610e-01 3.044766e-02 -4.797294e-01 3.951765e-01 1.274086e+00 7.456184e-02 -1.018024e+00 -1.183952e+00 4.028856e-01 -3.364955e-01 7.358282e-03 2.517980e-01 -1.524795e-01 -1.015165e-01 1.803138e-01 2.009704e-01 1.909020e-01 -5.999811e-03 -3.126111e-01 1.588679e-01 1.473504e-01 5.154997e-02 -1.666915e-01
<VARIANCE> 39
 3.066966e+00 1.188810e+01 1.052161e+01 1.384417e+01 8.776762e+00 1.548171e+01 1.485493e+01 2.931912e+01 1.932566e+01 3.060571e+01 2.454999e+01 1.716562e+01 4.505595e+00 1.702948e-01 1.407272e+00 1.143371e+00 1.017303e+00 9.934135e-01 1.349364e+00 1.202313e+00 1.105082e+00 1.824901e+00 1.963190e+00 1.769311e+00 8.313897e-01 3.658919e-01 4.433351e-02 2.099385e-01 1.817811e-01 1.790976e-01 2.033916e-01 2.079855e-01 2.285919e-01 2.150520e-01 3.113985e-01 4.192477e-01 3.083091e-01 2.265255e-01 5.621319e-02
<GCONST> 8.327756e+01
<TRANSP> 5
 0.000000e+00 1.000000e+00 0.000000e+00 0.000000e+00 0.000000e+00
 0.000000e+00 8.916910e-01 1.083090e-01 0.000000e+00 0.000000e+00
 0.000000e+00 0.000000e+00 8.772430e-01 1.227570e-01 0.000000e+00
 0.000000e+00 0.000000e+00 0.000000e+00 8.906943e-01 1.093057e-01
 0.000000e+00 0.000000e+00 0.000000e+00 0.000000e+00 0.000000e+00
<ENDHMM>
~h "v"
<BEGINHMM>
<NUMSTATES> 5
<STATE> 2
<MEAN> 39
 -6.943729e+00 1.201830e+00 1.822353e+00 -5.062472e+00 -3.115073e-01 -1.164212e+00 3.690767e+00 -3.283595e+00 1.468696e+00 -3.378285e+00 1.601505e+00 1.051903e+00 5.838369e+01 -9.536572e-01 2.184035e-01 7.567134e-01 2.543973e+00 2.248649e+00 -8.155033e-01 -2.470637e-01 8.962108e-01 -2.520015e-01 8.374420e-01 3.132260e-01 -8.328027e-01 -8.256158e-01 9.183137e-02 -2.809867e-01 1.242908e-01 -3.711459e-01 -5.889637e-01 -6.846030e-02 -3.022082e-01 -2.815849e-01 3.097790e-01 -1.144355e-01 -1.183234e-01 -1.047887e-01 3.417643e-01
<VARIANCE> 39
 2.040536e+01 1.104012e+01 6.233116e+00 1.945276e+01 2.164316e+01 1.917550e+01 1.555519e+01 1.739070e+01 1.665485e+01 1.968088e+01 1.568132e+01 1.539847e+01 8.339291e+00 2.915464e+00 1.275885e+00 1.545609e+00 3.694065e+00 4.329111e+00 2.652758e+00 1.768822e+00 2.943570e+00 1.513008e+00 2.801561e+00 1.811355e+00 1.513033e+00 2.054185e+00 1.603062e-01 1.728462e-01 1.937273e-01 4.642235e-01 6.051750e-01 5.093368e-01 3.985575e-01 3.103418e-01 4.413461e-01 3.450348e-01 2.681302e-01 3.334908e-01 1.229517e-01
<GCONST> 1.015862e+02
<STATE> 3
<MEAN> 39
 -7.086967e+00 2.498399e+00 5.997935e+00 1.326913e+00 4.260486e+00 -3.170613e+00 1.420256e+00 -4.077229e+00 9.142997e-01 -3.198896e+00 7.611862e-01 -2.403699e+00 5.849848e+01 -1.357880e-02 -4.981160e-01 8.053728e-01 1.038202e+00 5.113255e-01 -7.671189e-01 -9.044108e-01 -8.530033e-02 1.921735e-01 -1.798241e-02 -1.208915e-01 -5.174738e-01 7.771626e-01 -1.019053e-01 -7.928075e-01 -3.005940e-01 -8.400404e-01 -9.478253e-01 -1.694009e-01 -1.419495e-01 3.830279e-02 4.411460e-01 -2.201586e-02 1.283368e-01 3.568758e-01 5.223053e-01
<VARIANCE> 39
 8.473394e+00 7.866063e+00 1.292987e+01 1.956935e+01 1.759451e+01 2.337034e+01 2.647363e+01 1.793258e+01 1.207660e+01 1.154087e+01 1.280457e+01 1.313483e+01 5.360902e+00 3.556147e+00 2.369795e+00 1.722413e+00 2.712628e+00 2.867778e+00 3.200827e+00 2.922266e+00 3.036714e+00 1.781134e+00 2.624629e+00 1.780232e+00 1.586352e+00 3.047735e+00 2.532362e-01 2.947332e-01 2.361044e-01 3.681292e-01 5.068032e-01 7.232289e-01 5.735959e-01 4.853511e-01 3.205505e-01 3.084778e-01 2.998158e-01 3.013833e-01 2.120737e-01
<GCONST> 1.035124e+02
<STATE> 4
<MEAN> 39
 -9.135592e+00 -2.408661e+00 4.547867e+00 -1.050706e+00 2.500690e+00 -3.337188e+00 1.818377e+00 -2.739891e+00 2.952450e+00 -3.222258e+00 1.038716e+00 -1.629693e+00 6.154002e+01 -3.588747e-01 -2.043178e+00 2.250217e-01 -6.403662e-01 -1.715392e+00 -1.558100e+00 -1.111111e+00 5.139917e-01 1.149380e+00 4.586289e-01 7.138740e-01 4.174272e-01 1.668060e+00 3.706253e-01 -2.247229e-01 3.865188e-02 -6.303410e-01 -1.083506e+00 -2.406569e-01 -3.380914e-01 3.537088e-02 2.513625e-01 -1.130186e-02 2.736065e-01 3.183816e-01 3.407132e-01
<VARIANCE> 39
 1.383218e+01 1.883643e+01 1.680149e+01 1.968132e+01 2.819243e+01 1.916906e+01 2.487261e+01 1.853612e+01 1.275865e+01 1.661496e+01 1.109762e+01 1.350916e+01 2.314866e+01 2.276248e+00 1.973736e+00 1.678233e+00 2.446045e+00 5.505993e+00 3.047952e+00 2.961439e+00 1.693647e+00 1.450365e+00 1.910687e+00 1.577263e+00 1.229570e+00 5.976738e+00 2.387250e-01 3.013147e-01 3.980358e-01 5.432369e-01 4.637489e-01 5.516972e-01 4.624222e-01 6.690627e-01 3.757079e-01 4.254712e-01 4.037963e-01 3.155843e-01 1.885016e-01
<GCONST> 1.075305e+02
<TRANSP> 5
 0.000000e+00 1.000000e+00 0.000000e+00 0.000000e+00 0.000000e+00
 0.000000e+00 3.433789e-01 6.566211e-01 0.000000e+00 0.000000e+00
 0.000000e+00 0.000000e+00 4.610280e-01 5.389720e-01 0.000000e+00
 0.000000e+00 0.000000e+00 0.000000e+00 2.661137e-01 7.338863e-01
 0.000000e+00 0.000000e+00 0.000000e+00 0.000000e+00 0.000000e+00
<ENDHMM>
~h "x"
<BEGINHMM>
<NUMSTATES> 5
<STATE> 2
<MEAN> 39
 -9.327274e+00 -1.384698e+01 3.224328e-01 -3.489599e+00 1.020371e+01 1.059688e+01 -8.364272e-01 -3.966893e+00 9.051215e+00 2.315731e+00 -3.366159e+00 -5.975591e+00 7.107352e+01 -3.353834e+00 -1.265653e-01 1.181258e+00 6.082284e-01 3.184381e+00 -6.920551e-02 -5.132172e-01 7.166790e-01 2.954872e+00 -1.683720e-01 7.701169e-01 1.761034e+00 -1.782230e+00 -3.113436e-02 -3.372473e-01 -6.858217e-01 -3.716383e-01 -4.263929e-01 -3.662670e-01 -2.289915e-01 2.743499e-01 -2.792125e-01 5.256850e-02 2.466929e-01 -3.770750e-01 4.914432e-01
<VARIANCE> 39
 2.500424e+01 5.288999e+00 7.645502e+00 1.017954e+01 3.426328e+01 1.492875e+01 1.810761e+01 1.474107e+01 2.492731e+01 1.752429e+01 1.583398e+01 1.363323e+01 4.559348e+00 6.885008e-01 9.542924e-01 1.765571e+00 1.476079e+00 1.832569e+00 1.580959e+00 1.780466e+00 1.549907e+00 2.012989e+00 2.103818e+00 1.833633e+00 1.722870e+00 6.425065e-01 5.460258e-01 1.951831e-01 1.778591e-01 2.534317e-01 6.407792e-01 3.001211e-01 3.076375e-01 3.150842e-01 4.696481e-01 3.810768e-01 2.967489e-01 3.036440e-01 7.090929e-02
<GCONST> 9.438572e+01
<STATE> 3
<MEAN> 39
 -1.634718e+01 -1.373038e+01 -1.311491e+00 -2.787697e+00 1.443261e+01 5.819920e+00 -2.430743e+00 -1.413989e+00 1.412185e+01 3.572827e+00 3.318509e-01 -3.333261e+00 6.830138e+01 -9.425961e-02 8.177564e-01 -4.179605e-02 9.718387e-02 -1.618821e-01 -1.248537e+00 4.090334e-01 -2.339173e-02 -3.686946e-01 1.389456e-02 7.213416e-01 -5.251996e-02 -3.549074e-01 4.369819e-01 3.562570e-01 7.963892e-02 -1.956107e-02 -4.656684e-01 -8.878388e-02 4.032913e-01 -1.670151e-01 -5.305855e-01 -1.317605e-01 -1.574826e-02 -1.012783e-01 -5.031165e-02
<VARIANCE> 39
 2.789965e+00 6.729283e+00 8.067769e+00 1.080962e+01 1.073721e+01 1.712659e+01 1.543276e+01 1.701151e+01 1.831887e+01 1.953414e+01 1.714543e+01 1.845713e+01 3.623316e+00 9.146709e-01 1.067339e+00 9.695453e-01 1.002805e+00 1.647927e+00 1.717618e+00 2.289365e+00 1.829878e+00 2.804930e+00 2.072498e+00 1.543925e+00 1.805970e+00 2.099935e-01 1.979854e-01 1.562380e-01 1.869313e-01 2.073070e-01 3.242391e-01 3.406644e-01 4.038495e-01 3.266788e-01 3.739807e-01 4.348718e-01 3.232077e-01 4.633670e-01 1.380863e-01
<GCONST> 8.978318e+01
<STATE> 4
<MEAN> 39
 -1.392036e+01 -4.757987e+00 4.613106e-01 -1.957434e+00 9.279762e+00 -1.105625e+00 5.992959e+00 -3.090048e+00 7.370074e+00 1.419617e+00 4.041320e+00 -2.551261e+00 6.405152e+01 8.045794e-01 1.776671e+00 -3.050542e-01 1.618533e-01 -1.764759e+00 -3.015592e-01 1.832351e+00 3.148755e-01 -1.282747e+00 -3.962356e-01 4.399057e-02 1.008244e+00 -2.476022e+00 -2.370936e-02 -5.776826e-01 -3.536551e-01 -1.265913e-01 1.643848e-01 5.674134e-01 -6.684567e-01 3.151779e-01 3.623127e-01 1.485552e-01 -2.993112e-01 3.527991e-02 -2.323820e-01
<VARIANCE> 39
 5.637396e+00 1.144632e+01 1.151588e+01 1.120521e+01 1.447952e+01 2.151295e+01 3.094002e+01 1.812407e+01 1.712124e+01 1.423065e+01 1.427347e+01 1.739005e+01 2.007284e+01 4.826974e-01 1.680825e+00 1.405237e+00 1.220697e+00 1.232690e+00 3.071304e+00 3.737620e+00 2.141415e+00 2.045217e+00 1.997406e+00 1.632255e+00 1.643371e+00 9.131297e-01 1.208470e-01 2.164616e-01 1.942526e-01 2.299277e-01 3.036688e-01 5.227430e-01 6.201062e-01 4.144558e-01 3.829167e-01 3.773712e-01 2.986203e-01 3.949592e-01 4.491589e-01
<GCONST> 9.800574e+01
<TRANSP> 5
 0.000000e+00 1.000000e+00 0.000000e+00 0.000000e+00 0.000000e+00
 0.000000e+00 6.613564e-01 3.386435e-01 0.000000e+00 0.000000e+00
 0.000000e+00 0.000000e+00 8.522400e-01 1.477600e-01 0.000000e+00
 0.000000e+00 0.000000e+00 0.000000e+00 6.937795e-01 3.062205e-01
 0.000000e+00 0.000000e+00 0.000000e+00 0.000000e+00 0.000000e+00
<ENDHMM>
~h "y"
<BEGINHMM>
<NUMSTATES> 5
<STATE> 2
<MEAN> 39
 -4.695600e+00 -1.554169e-01 9.822250e+00 3.722191e+00 -2.318578e+00 -1.108887e+01 2.173221e-01 -2.004611e+01 2.404519e+00 1.700396e+00 -2.600934e+00 -4.581114e+00 6.360718e+01 -2.973337e-01 5.052672e-01 -1.293819e-01 1.061924e-02 6.491327e-01 4.434431e-01 7.545637e-01 1.692331e-01 -8.946899e-01 3.736171e-01 1.661861e-01 -5.372608e-01 -4.702347e-01 6.386024e-02 -4.739039e-01 -1.657156e-01 -2.067157e-01 -9.734390e-02 4.954173e-02 -4.654496e-01 4.239297e-01 2.711471e-01 -4.175379e-01 1.580029e-01 2.056134e-01 3.167765e-01
<VARIANCE> 39
 1.465852e+00 8.479876e+00 6.305818e+00 6.364752e+00 9.907906e+00 1.388454e+01 1.546763e+01 1.761655e+01 1.553519e+01 1.201701e+01 1.390302e+01 1.080456e+01 2.815141e+00 3.530491e-01 1.747668e+00 9.520385e-01 7.668872e-01 1.411980e+00 1.016543e+00 2.287274e+00 2.274663e+00 1.904348e+00 1.702771e+00 1.110053e+00 1.163584e+00 7.047063e-01 1.040612e-01 2.565809e-01 1.632951e-01 1.773985e-01 3.149568e-01 2.273163e-01 3.696200e-01 4.835648e-01 3.546687e-01 2.317531e-01 2.387888e-01 2.198621e-01 8.336886e-02
<GCONST> 8.254002e+01
<STATE> 3
<MEAN> 39
 -7.145118e+00 -4.849761e+00 6.192277e+00 1.426865e+00 1.384250e+00 -8.694381e+00 1.616814e-01 -1.082839e+01 9.510744e-01 -2.326470e+00 -5.472912e-01 -3.743559e+00 6.521584e+01 -2.356084e+00 -2.284917e+00 -7.994455e-01 -1.327973e+00 8.328003e-01 1.266938e+00 1.470421e-01 3.328127e+00 1.024633e+00 -1.304181e+00 6.586327e-01 7.955509e-01 7.514125e-01 -6.706704e-01 9.685379e-02 1.479552e-01 -2.037761e-01 -1.849204e-01 2.352274e-01 1.475198e-01 -1.649328e-01 4.356293e-01 2.884797e-01 1.450204e-02 5.229403e-02 -1.480594e-01
<VARIANCE> 39
 1.440762e+01 4.033322e+01 1.580386e+01 1.471204e+01 1.628325e+01 1.644195e+01 2.119940e+01 3.951546e+01 1.689895e+01 2.210287e+01 1.323386e+01 1.519492e+01 1.033428e+01 2.340544e+00 2.789992e+00 1.350741e+00 1.254087e+00 1.596078e+00 2.252614e+00 2.178296e+00 2.504781e+00 2.278489e+00 2.387623e+00 1.581857e+00 1.474778e+00 7.724335e-01 2.838974e-01 9.899057e-01 2.564669e-01 2.845338e-01 2.992325e-01 3.816224e-01 3.741425e-01 7.445114e-01 4.008794e-01 5.051345e-01 3.138007e-01 3.082311e-01 2.535852e-01
<GCONST> 1.043965e+02
<STATE> 4
<MEAN> 39
 -1.874894e+01 -7.976944e+00 3.332907e+00 -4.074906e+00 3.526284e+00 -3.947333e+00 1.622399e+00 -2.113887e+00 6.176546e+00 -2.494793e+00 2.121846e+00 -6.809892e-01 6.355169e+01 -1.248979e-01 1.850748e-01 -2.061795e-01 -1.995183e-01 6.420118e-02 1.360864e-01 1.767149e-02 3.392999e-01 1.328073e-01 2.442431e-01 1.493171e-01 1.607008e-01 -5.716278e-01 3.781098e-01 1.533330e-01 4.718357e-03 1.639754e-01 -4.874748e-02 -8.512308e-02 -2.351487e-02 -1.899803e-01 -1.614583e-01 3.823883e-02 -5.645701e-02 -5.947575e-02 -9.863874e-02
<VARIANCE> 39
 5.029734e+00 7.440236e+00 7.455463e+00 8.424625e+00 9.475505e+00 1.136206e+01 1.268444e+01 1.337505e+01 1.333485e+01 1.336987e+01 1.332629e+01 1.151322e+01 4.842603e+00 1.942532e+00 7.326719e-01 8.218403e-01 1.015640e+00 1.091890e+00 1.365620e+00 1.457450e+00 1.513230e+00 1.568247e+00 1.453678e+00 1.507092e+00 1.214890e+00 3.880048e-01 1.571835e-01 2.228686e-01 1.536902e-01 1.974165e-01 2.070583e-01 3.201923e-01 2.989714e-01 3.620098e-01 3.236980e-01 3.115471e-01 3.120674e-01 2.405345e-01 7.529719e-02
<GCONST> 8.363753e+01
<TRANSP> 5
 0.000000e+00 1.000000e+00 0.000000e+00 0.000000e+00 0.000000e+00
 0.000000e+00 8.550843e-01 1.449157e-01 0.000000e+00 0.000000e+00
 0.000000e+00 0.000000e+00 7.361228e-01 2.638772e-01 0.000000e+00
 0.000000e+00 0.000000e+00 0.000000e+00 9.092715e-01 9.072851e-02
 0.000000e+00 0.000000e+00 0.000000e+00 0.000000e+00 0.000000e+00
<ENDHMM>
~h "z"
<BEGINHMM>
<NUMSTATES> 5
<STATE> 2
<MEAN> 39
 -1.800165e+01 -3.144512e+00 2.354552e+00 -2.918642e+00 3.542652e+00 -5.186131e+00 5.544770e+00 -2.639682e+00 6.349530e+00 -2.434569e+00 3.192216e+00 1.270785e+00 6.030474e+01 -2.826894e+00 9.400586e-01 -9.520490e-02 -5.771130e-01 2.089443e-01 -4.183895e-01 5.424649e-01 -5.477013e-01 6.751024e-01 -4.477237e-01 9.821947e-02 1.797895e-01 1.859765e+00 -2.257783e-01 4.264309e-01 -3.415851e-01 3.522946e-02 -4.565278e-02 2.317755e-01 -1.265640e-01 5.150555e-02 -1.373404e-01 1.161209e-01 1.574562e-02 -1.237046e-01 9.949855e-02
<VARIANCE> 39
 2.408200e+01 1.007066e+01 8.817858e+00 1.159670e+01 1.108478e+01 1.511063e+01 1.801356e+01 1.658372e+01 1.909152e+01 1.559750e+01 1.325003e+01 1.284563e+01 1.129318e+01 1.379776e+00 1.609372e+00 1.364852e+00 1.147236e+00 1.282514e+00 1.803203e+00 1.804709e+00 1.551510e+00 2.077126e+00 1.695925e+00 1.576400e+00 1.375631e+00 6.306177e-01 4.205802e-01 2.114053e-01 2.209530e-01 2.992333e-01 2.632979e-01 3.799759e-01 3.814917e-01 3.399910e-01 4.221569e-01 3.513865e-01 3.176141e-01 2.790132e-01 1.680562e-01
<GCONST> 9.496410e+01
<STATE> 3
<MEAN> 39
 -2.907259e+01 3.384204e+00 -2.030766e+00 -2.497981e+00 3.670177e+00 -3.857276e+00 6.031084e+00 -3.466381e+00 6.674083e+00 -2.658660e+00 3.628491e+00 8.982964e-01 6.723652e+01 -4.751506e-01 2.374166e-01 -3.544884e-01 4.271640e-01 -6.633022e-02 2.325297e-01 1.065609e-01 7.641686e-02 -7.865882e-03 8.003938e-02 5.759540e-02 -4.966448e-03 4.724361e-01 5.062468e-01 -3.105851e-01 2.708373e-01 7.131113e-02 -2.220267e-02 -7.475152e-02 5.994567e-02 6.110865e-03 1.022876e-02 2.480712e-02 3.822531e-03 3.274470e-02 -2.192300e-01
<VARIANCE> 39
 5.112141e+00 6.704185e+00 7.473604e+00 9.424882e+00 1.061357e+01 1.116859e+01 1.223123e+01 1.347292e+01 1.380545e+01 1.383290e+01 1.360980e+01 1.168296e+01 3.116175e+00 1.067971e+00 1.287804e+00 1.061942e+00 9.824450e-01 1.088646e+00 1.355260e+00 1.461943e+00 1.405307e+00 1.403479e+00 1.456006e+00 1.442990e+00 1.234519e+00 3.146957e-01 1.330409e-01 1.318250e-01 1.849202e-01 2.197903e-01 2.248541e-01 2.584724e-01 2.878089e-01 2.987070e-01 2.976530e-01 3.009294e-01 3.041791e-01 2.468226e-01 5.155108e-02
<GCONST> 8.189733e+01
<STATE> 4
<MEAN> 39
 -2.568123e+01 7.550046e-01 6.401131e-01 -1.019905e-01 3.621653e+00 -3.675834e+00 8.866696e+00 -2.794619e+00 8.017426e+00 -1.703249e+00 4.711529e+00 1.678028e+00 6.773129e+01 3.006014e+00 -8.756347e-01 2.136068e+00 3.519904e-01 -6.515388e-01 -1.093635e+00 -5.726340e-01 -8.271428e-01 1.734026e-02 -3.703229e-01 -1.216184e-02 -4.627278e-01 -6.011767e-02 8.953275e-01 -1.952790e-02 6.278971e-01 -1.562921e-01 -7.023963e-01 -4.523972e-01 -9.756294e-01 -3.612789e-01 -4.888310e-03 -5.861205e-01 9.795099e-03 -4.119564e-01 3.860928e-01
<VARIANCE> 39
 1.362802e+01 1.780201e+01 1.455925e+01 1.433573e+01 1.902341e+01 1.661687e+01 1.952600e+01 1.786180e+01 1.694007e+01 1.480354e+01 1.558589e+01 1.489205e+01 5.528113e+00 3.652670e+00 1.526728e+00 3.589285e+00 1.347046e+00 2.422586e+00 2.118416e+00 3.699899e+00 2.380657e+00 2.191689e+00 2.138335e+00 1.841200e+00 1.927889e+00 1.027849e+00 3.008969e-01 3.183833e-01 7.447782e-01 3.317684e-01 4.801047e-01 4.093618e-01 4.732746e-01 3.717926e-01 5.356733e-01 5.614173e-01 3.855582e-01 4.346006e-01 3.220895e-01
<GCONST> 1.055177e+02
<TRANSP> 5
 0.000000e+00 1.000000e+00 0.000000e+00 0.000000e+00 0.000000e+00
 0.000000e+00 7.511029e-01 2.488972e-01 0.000000e+00 0.000000e+00
 0.000000e+00 0.000000e+00 8.695714e-01 1.304286e-01 0.000000e+00
 0.000000e+00 0.000000e+00 0.000000e+00 6.984642e-01 3.015358e-01
 0.000000e+00 0.000000e+00 0.000000e+00 0.000000e+00 0.000000e+00
<ENDHMM>
~h "OY"
<BEGINHMM>
<NUMSTATES> 5
<STATE> 2
<MEAN> 39
 -1.443007e+00 -7.205895e+00 4.832620e+00 -6.156221e+00 -4.690324e+00 -1.497654e+00 -3.240550e+00 -1.489572e+01 5.988554e+00 6.296394e-01 4.748991e+00 -4.816416e+00 6.929568e+01 6.656581e-01 -1.007897e+00 -1.664889e-01 -8.596558e-01 -7.196635e-01 2.462533e-01 -6.856887e-01 -1.776500e-01 6.734827e-01 1.422600e-01 2.029659e-01 -5.635521e-01 1.110614e+00 -1.388249e-01 -5.737600e-02 -3.905986e-02 1.867086e-02 1.544561e-03 -8.234136e-02 -1.735742e-02 3.473854e-01 1.307239e-01 -8.406630e-02 -6.213632e-02 3.871005e-02 -1.007082e-01
<VARIANCE> 39
 1.394485e+01 4.461996e+01 3.203650e+01 9.213315e+01 2.344452e+01 6.186312e+01 2.526506e+01 3.111740e+01 4.020165e+01 1.856348e+01 2.600560e+01 2.013723e+01 3.525076e+01 7.683544e-01 1.310902e+00 3.248367e+00 5.493637e+00 1.482534e+00 5.988056e+00 2.488128e+00 5.383202e+00 3.434761e+00 2.055691e+00 2.287123e+00 2.307507e+00 1.273729e+00 8.280528e-02 2.690736e-01 5.133748e-01 8.424931e-01 3.070991e-01 8.734096e-01 4.999118e-01 4.567552e-01 7.088071e-01 4.947523e-01 3.642529e-01 4.214534e-01 1.837490e-01
<GCONST> 1.159620e+02
<STATE> 3
<MEAN> 39
 -1.718953e+00 -1.358709e+01 1.076483e+01 -6.136650e+00 -1.453897e+01 -8.457507e+00 -7.399242e+00 -1.191017e+00 1.007612e+01 -7.614357e+00 5.188476e+00 -4.930274e+00 7.399632e+01 -4.813521e-01 9.783348e-01 9.445189e-01 1.226899e+00 -1.723242e-01 -1.240748e+00 3.992638e-01 1.778469e-01 -1.242557e+00 -1.154507e+00 3.669414e-02 8.818923e-01 -7.068092e-01 3.620263e-02 2.824701e-01 -3.278321e-01 -2.254708e-02 4.657360e-01 2.150127e-01 2.860323e-01 -4.864498e-01 -4.367011e-01 3.883431e-01 1.208692e-01 -9.896325e-02 -2.463252e-01
<VARIANCE> 39
 3.895565e+00 1.230923e+01 2.270304e+01 1.477695e+01 2.296222e+01 1.879263e+01 1.077848e+01 2.166388e+01 3.325811e+01 4.401443e+01 1.882644e+01 3.100810e+01 5.206141e+00 1.792921e-01 1.211085e+00 2.497885e+00 9.375891e-01 5.587464e+00 2.491388e+00 1.513895e+00 4.931103e+00 2.919868e+00 4.520609e+00 2.372338e+00 2.415632e+00 8.723502e-01 3.074287e-02 1.221621e-01 2.666602e-01 1.898552e-01 6.682910e-01 3.912202e-01 2.501587e-01 3.589410e-01 4.366324e-01 8.372049e-01 5.621533e-01 7.264863e-01 5.926152e-02
<GCONST> 9.930128e+01
<STATE> 4
<MEAN> 39
 -3.874710e+00 -2.709970e+00 8.608450e+00 1.751056e+00 -4.015327e+00 -1.341231e+01 -1.187694e-01 -9.563446e+00 -4.895320e+00 -2.000292e+00 5.645098e+00 -7.159578e+00 6.460347e+01 -1.709488e-01 1.040543e+00 -8.023750e-01 8.138433e-01 1.728508e+00 -1.703470e-01 1.194573e+00 -1.069822e+00 -1.573042e+00 2.020840e+00 -2.517652e-01 -1.229735e+00 -1.121428e+00 -2.193166e-02 -4.738777e-01 3.241720e-01 -2.914890e-01 -7.162628e-01 3.814328e-01 -3.509191e-01 4.618371e-01 7.953334e-01 -5.781005e-01 -1.114779e-01 3.861854e-01 3.839457e-01
<VARIANCE> 39
 1.932939e+00 9.513604e+00 8.686563e+00 1.056908e+01 1.145766e+01 1.121802e+01 1.837147e+01 1.690926e+01 2.090636e+01 1.861192e+01 1.408736e+01 2.042044e+01 3.125329e+00 1.697581e-01 1.951013e+00 1.188403e+00 1.220870e+00 3.176340e+00 1.199002e+00 1.881845e+00 1.969154e+00 3.964760e+00 2.840601e+00 1.456860e+00 2.250393e+00 9.069666e-01 3.240990e-02 2.344991e-01 1.696474e-01 1.916261e-01 3.223267e-01 1.637295e-01 2.839179e-01 2.358029e-01 3.979631e-01 3.940753e-01 2.721904e-01 3.847771e-01 9.682020e-02
<GCONST> 8.749890e+01
<TRANSP> 5
 0.000000e+00 1.000000e+00 0.000000e+00 0.000000e+00 0.000000e+00
 0.000000e+00 9.361160e-01 6.388403e-02 0.000000e+00 0.000000e+00
 0.000000e+00 0.000000e+00 8.924792e-01 1.075208e-01 0.000000e+00
 0.000000e+00 0.000000e+00 0.000000e+00 7.499900e-01 2.500100e-01
 0.000000e+00 0.000000e+00 0.000000e+00 0.000000e+00 0.000000e+00
<ENDHMM>
~h "aI"
<BEGINHMM>
<NUMSTATES> 5
<STATE> 2
<MEAN> 39
 -4.280369e+00 -1.366155e+01 -3.523250e+00 -8.628078e+00 -1.211077e-01 1.076527e+00 1.546384e+00 -2.814897e+00 4.612373e+00 3.076718e-01 2.361533e+00 -1.356000e+01 7.259491e+01 1.193656e+00 -1.768391e+00 -6.478766e-01 -6.618070e-01 -7.317711e-01 5.579032e-01 -4.113505e-01 7.519724e-01 3.975913e-01 -1.070943e+00 -5.186540e-02 -1.905154e+00 2.202460e+00 -2.855334e-01 1.578181e-01 3.300506e-01 1.607871e-01 -1.303801e-01 -2.221729e-01 -1.063832e-01 1.672151e-01 2.380976e-01 -1.831251e-01 -1.527281e-01 3.014058e-01 -1.041188e-01
<VARIANCE> 39
 2.543129e+01 3.667388e+01 2.011267e+01 1.733347e+01 2.192534e+01 2.058733e+01 2.067199e+01 2.919279e+01 3.435662e+01 2.723982e+01 2.791097e+01 4.856620e+01 6.874419e+01 2.311532e+00 1.767415e+00 2.140279e+00 1.464102e+00 1.978116e+00 1.961544e+00 2.066229e+00 2.104532e+00 2.904855e+00 2.135578e+00 2.477726e+00 3.143368e+00 2.843103e+00 4.522468e-01 4.276072e-01 3.994807e-01 2.680602e-01 2.977166e-01 4.006934e-01 3.806781e-01 3.832085e-01 3.924830e-01 3.621444e-01 4.619411e-01 7.398021e-01 5.837168e-01
<GCONST> 1.139747e+02
<STATE> 3
<MEAN> 39
 -2.650499e+00 -1.755360e+01 8.117359e-01 -8.981943e+00 -7.608835e+00 -3.096542e+00 -1.391206e+00 4.790899e+00 9.538428e+00 -6.445309e+00 6.730364e-02 -1.427841e+01 7.929582e+01 -3.275345e-01 6.255735e-01 1.981100e+00 1.970291e-01 -1.690779e+00 -1.961199e+00 -2.447219e-01 1.229332e+00 1.870333e-01 -5.622064e-01 4.238322e-01 1.539458e+00 -1.873097e-01 -6.604187e-02 3.044930e-01 2.550413e-01 7.449191e-03 -2.575735e-02 -1.323989e-01 2.054541e-02 -3.437210e-01 -4.280056e-01 2.292249e-01 5.095513e-01 2.807842e-01 -2.555984e-01
<VARIANCE> 39
 3.297064e+00 8.533006e+00 2.236532e+01 7.092592e+00 2.521290e+01 3.181055e+01 1.536225e+01 3.035626e+01 4.230505e+01 2.284632e+01 2.081907e+01 2.729987e+01 4.606569e+00 1.665078e-01 7.589119e-01 8.651582e-01 5.997668e-01 8.098769e-01 1.107765e+00 1.000133e+00 1.638183e+00 1.869981e+00 1.185969e+00 3.293019e+00 1.404589e+00 4.257759e-01 5.052641e-02 1.232058e-01 1.437395e-01 1.060870e-01 1.764872e-01 3.079238e-01 2.014527e-01 3.849733e-01 2.746876e-01 1.865153e-01 3.321570e-01 3.222868e-01 9.109472e-02
<GCONST> 8.445820e+01
<STATE> 4
<MEAN> 39
 -5.061133e+00 -8.752610e+00 1.234764e+01 -5.778136e+00 -1.343362e+01 -1.134691e+01 -1.028590e+00 1.133666e+00 2.228047e+00 -7.222986e+00 8.405925e+00 -6.128245e+00 7.322478e+01 -1.404650e-01 1.190657e+00 1.161264e-01 1.025099e+00 7.742462e-01 -1.583501e-02 2.568350e-01 -1.128700e+00 -7.016519e-01 1.711486e-01 2.400490e-02 4.517898e-01 -1.359630e+00 1.311601e-02 -1.477338e-02 -4.232515e-01 1.181619e-01 4.458260e-01 2.335150e-01 1.205749e-01 -6.034876e-02 1.257603e-01 1.682057e-01 -3.864110e-01 -1.798181e-01 -1.854557e-01
<VARIANCE> 39
 3.959852e+00 2.318404e+01 1.229945e+01 1.986230e+01 2.431370e+01 1.761864e+01 2.418018e+01 2.797913e+01 3.697162e+01 2.158574e+01 2.625696e+01 1.276499e+01 2.468324e+01 3.238735e-01 1.065494e+00 2.660011e+00 1.214402e+00 3.173280e+00 1.720110e+00 1.786950e+00 2.251571e+00 2.483704e+00 1.929118e+00 3.346130e+00 1.330658e+00 8.994473e-01 5.777923e-02 2.060342e-01 2.255235e-01 2.291889e-01 3.564828e-01 2.477320e-01 3.383289e-01 3.740453e-01 3.463355e-01 4.186927e-01 3.662671e-01 2.817524e-01 1.094611e-01
<GCONST> 9.782578e+01
<TRANSP> 5
 0.000000e+00 1.000000e+00 0.000000e+00 0.000000e+00 0.000000e+00
 0.000000e+00 8.244907e-01 1.755093e-01 0.000000e+00 0.000000e+00
 0.000000e+00 0.000000e+00 8.323924e-01 1.676076e-01 0.000000e+00
 0.000000e+00 0.000000e+00 0.000000e+00 8.834203e-01 1.165797e-01
 0.000000e+00 0.000000e+00 0.000000e+00 0.000000e+00 0.000000e+00
<ENDHMM>
~h "sh"
<BEGINHMM>
<NUMSTATES> 5
<STATE> 2
<MEAN> 39
 -1.774960e+01 -9.648429e+00 1.015012e+01 -5.661436e+00 1.158808e+00 -1.513565e+00 -1.635120e-01 -3.053423e+00 7.864467e+00 -3.068077e+00 3.702608e+00 -7.565804e-01 6.208588e+01 -2.959510e+00 -1.266072e+00 2.980425e+00 -1.647952e+00 -6.712505e-01 6.889527e-01 2.535383e-01 -7.219234e-01 7.867717e-01 -8.153893e-01 5.307042e-01 -4.322061e-01 2.034332e+00 -1.690841e-01 5.173728e-01 -1.158068e-01 -8.445753e-02 -8.288845e-02 7.346845e-02 2.008968e-01 -2.171598e-01 -2.230848e-01 2.501352e-02 -3.390465e-02 7.149890e-03 8.935794e-02
<VARIANCE> 39
 2.534835e+01 1.323843e+01 3.440008e+01 1.875921e+01 1.263255e+01 1.782740e+01 2.019255e+01 2.113682e+01 2.262196e+01 2.031101e+01 1.456040e+01 1.543521e+01 1.386941e+01 8.369374e-01 2.033104e+00 1.673211e+00 1.357176e+00 1.402753e+00 1.607619e+00 2.536929e+00 1.795916e+00 2.483785e+00 1.736556e+00 1.548429e+00 1.721738e+00 3.942963e-01 3.670689e-01 3.142426e-01 7.480968e-01 3.000643e-01 2.682285e-01 3.053679e-01 4.524879e-01 2.786959e-01 4.802935e-01 3.970735e-01 2.889056e-01 3.711311e-01 1.852523e-01
<GCONST> 1.010014e+02
<STATE> 3
<MEAN> 39
 -2.924915e+01 -7.841559e+00 1.670765e+01 -1.167018e+01 -3.127996e-01 2.774369e+00 1.015252e+00 -6.440876e+00 8.087695e+00 -4.387775e+00 4.474632e+00 -2.350307e+00 6.981059e+01 -5.567847e-01 2.459471e-01 -1.776685e-01 -9.769517e-02 -3.135405e-02 3.784328e-01 -1.445129e-01 -4.952795e-02 -1.560913e-01 1.451509e-01 -1.393871e-01 -1.675887e-01 5.873668e-01 6.422615e-01 -1.461508e-01 -4.030207e-01 3.322891e-01 9.954371e-03 -2.517307e-01 -7.634478e-02 1.784059e-01 -3.256571e-02 9.157240e-02 -3.545962e-02 3.228348e-02 -2.647908e-01
<VARIANCE> 39
 4.801727e+00 7.878418e+00 4.635755e+00 9.517155e+00 1.470967e+01 1.658813e+01 1.961869e+01 1.524027e+01 1.993755e+01 1.637631e+01 1.543025e+01 1.180017e+01 3.795313e+00 1.288352e+00 8.813862e-01 7.810981e-01 1.171172e+00 1.223624e+00 1.610645e+00 1.425555e+00 1.302992e+00 1.361892e+00 1.263791e+00 1.292354e+00 1.343932e+00 3.142980e-01 2.194984e-01 1.406061e-01 1.798566e-01 1.476073e-01 2.370939e-01 3.840471e-01 3.353168e-01 2.431216e-01 2.943477e-01 2.719870e-01 2.588631e-01 3.018347e-01 6.954275e-02
<GCONST> 8.414454e+01
<STATE> 4
<MEAN> 39
 -2.200188e+01 -9.676905e+00 1.076618e+01 -7.899961e+00 -1.439215e+00 4.824045e-01 1.176103e-01 -4.969253e+00 7.099792e+00 -3.081866e+00 3.758133e+00 -3.123637e+00 6.949553e+01 4.750527e+00 -5.703405e-01 -2.737500e+00 8.029162e-01 -3.352315e-01 -1.408041e+00 -1.290941e-01 2.884238e-01 2.359316e-02 7.046471e-01 1.387669e-01 -4.439681e-01 -5.772830e-01 5.087466e-01 3.459853e-04 -2.171894e-01 -3.478987e-01 1.934265e-02 1.213944e-01 -9.317570e-02 -7.407957e-03 2.826511e-01 7.431726e-02 -1.146432e-02 -2.854496e-01 2.488052e-01
<VARIANCE> 39
 5.527630e+01 9.105542e+00 2.511654e+01 1.608358e+01 3.573396e+01 3.256028e+01 1.937886e+01 1.710248e+01 1.992912e+01 1.613284e+01 1.840305e+01 1.822431e+01 9.226226e+00 3.944238e+00 2.209955e+00 1.223586e+00 1.780052e+00 4.348673e+00 2.843674e+00 2.531836e+00 1.927594e+00 2.570318e+00 1.489732e+00 1.892469e+00 3.909558e+00 4.034685e+00 1.155724e+00 2.937662e-01 3.760492e-01 2.250692e-01 1.188120e+00 5.247290e-01 4.173342e-01 4.255301e-01 3.078936e-01 3.253662e-01 3.926703e-01 3.915695e-01 7.808630e-01
<GCONST> 1.121845e+02
<TRANSP> 5
 0.000000e+00 1.000000e+00 0.000000e+00 0.000000e+00 0.000000e+00
 0.000000e+00 7.668204e-01 2.331796e-01 0.000000e+00 0.000000e+00
 0.000000e+00 0.000000e+00 8.682314e-01 1.317685e-01 0.000000e+00
 0.000000e+00 0.000000e+00 0.000000e+00 7.104211e-01 2.895789e-01
 0.000000e+00 0.000000e+00 0.000000e+00 0.000000e+00 0.000000e+00
<ENDHMM>
~h "sp"
<BEGINHMM>
<NUMSTATES> 3
<STATE> 2
~s "silst"
<TRANSP> 3
 0.000000e+00 7.751040e-01 2.248960e-01
 0.000000e+00 8.862931e-01 1.137069e-01
 0.000000e+00 0.000000e+00 0.000000e+00
<ENDHMM>
~h "ts"
<BEGINHMM>
<NUMSTATES> 5
<STATE> 2
<MEAN> 39
 -2.399004e+01 -1.424097e+00 -3.883302e+00 -3.346834e+00 3.385168e+00 -4.087215e+00 4.922345e+00 -3.268238e+00 6.161271e+00 -1.294089e+00 2.937559e+00 1.019996e+00 6.713826e+01 -9.910265e-01 5.375289e-02 6.359265e-02 -1.073134e-01 6.009277e-01 -1.819316e-01 3.397726e-01 1.323636e-01 4.418130e-01 3.212108e-02 1.656487e-01 1.204764e-01 1.333264e+00 3.762389e-01 -5.753362e-02 3.286454e-01 7.922377e-02 1.163784e-01 1.358478e-01 -8.019467e-02 1.686712e-01 -3.926039e-02 4.839119e-02 4.245389e-02 -5.346952e-02 -3.107293e-01
<VARIANCE> 39
 3.308408e+01 1.512264e+01 1.369343e+01 1.257304e+01 1.547124e+01 1.226534e+01 1.563532e+01 1.165563e+01 1.389752e+01 1.178817e+01 1.143905e+01 1.105166e+01 2.862117e+01 3.877933e+00 2.481539e+00 3.162395e+00 1.761343e+00 2.096825e+00 1.565072e+00 1.883508e+00 1.887249e+00 1.550404e+00 1.425657e+00 1.395885e+00 1.253383e+00 2.315819e+00 4.876677e-01 5.090751e-01 3.828969e-01 3.841144e-01 3.941148e-01 3.840272e-01 4.630294e-01 3.273818e-01 3.294356e-01 2.722574e-01 2.715051e-01 2.583871e-01 3.578677e-01
<GCONST> 1.022342e+02
<STATE> 3
<MEAN> 39
 -1.316761e+01 -2.125590e+00 4.220481e+00 -2.212813e+00 4.962261e+00 1.331271e-01 3.149469e+00 -3.185994e+00 4.865601e+00 -2.773535e+00 3.997781e+00 2.390108e-01 6.495197e+01 2.895525e+00 2.037509e-01 4.170253e-01 -8.836406e-01 -2.068065e+00 8.606667e-01 -8.600361e-01 -1.447129e+00 -1.005479e+00 -1.174969e+00 -5.371708e-01 2.130117e-03 -3.026082e-01 3.280610e-02 1.292930e-01 -2.374986e-01 -4.340850e-01 -6.793231e-01 -6.299552e-02 4.065416e-02 -3.026125e-01 -1.893574e-03 -1.908219e-01 -1.807061e-01 2.500474e-02 2.903366e-01
<VARIANCE> 39
 6.017937e+01 2.080141e+01 1.258075e+01 2.983802e+01 4.733056e+01 1.929564e+01 2.361017e+01 5.035480e+01 3.193384e+01 2.899904e+01 1.582390e+01 1.287744e+01 2.310248e+01 1.997507e+00 2.527434e+00 2.586055e+00 6.547759e+00 5.962029e+00 2.097256e+00 2.411664e+00 5.030674e+00 2.969581e+00 3.137042e+00 1.876535e+00 1.507135e+00 4.703398e+00 4.852381e-01 5.591213e-01 4.677749e-01 8.590286e-01 6.045776e-01 4.202212e-01 5.504464e-01 1.043163e+00 7.767307e-01 5.920342e-01 3.314331e-01 3.216824e-01 7.125226e-01
<GCONST> 1.207175e+02
<STATE> 4
<MEAN> 39
 2.077140e+00 2.694357e+00 5.464167e+00 -1.895033e+01 -2.017860e+01 1.468527e+00 6.469472e-01 -1.161970e+01 5.553975e+00 -8.550796e+00 -3.094508e+00 -7.688779e-01 6.704445e+01 -8.450761e-02 2.089131e-01 -9.981930e-02 -3.411975e-02 1.145505e-01 -6.632513e-02 2.084177e-01 3.278007e-01 6.703632e-02 1.790950e-01 -3.646354e-02 6.567006e-02 -3.212197e-01 -2.388271e-01 -1.157818e-06 -8.552510e-03 3.929842e-01 4.697404e-01 -9.208291e-02 3.068499e-02 1.790338e-01 -4.447301e-02 1.612913e-01 1.100708e-01 -1.400770e-02 -1.721448e-01
<VARIANCE> 39
 2.217582e+00 1.008819e+01 1.043379e+01 1.537814e+01 4.092376e+01 2.219786e+01 1.139960e+01 1.349979e+01 2.470871e+01 1.374231e+01 1.302164e+01 1.499098e+01 4.391716e+00 6.135152e-01 8.805828e-01 8.842200e-01 3.263252e+00 7.213416e+00 1.813503e+00 9.933523e-01 1.336158e+00 2.198099e+00 1.411869e+00 1.208791e+00 1.352557e+00 5.318360e-01 1.101582e-01 1.501774e-01 1.470452e-01 2.395164e-01 3.233639e-01 3.444273e-01 1.938047e-01 2.749250e-01 3.046401e-01 3.311814e-01 1.781387e-01 2.431449e-01 9.234831e-02
<GCONST> 8.819323e+01
<TRANSP> 5
 0.000000e+00 1.000000e+00 0.000000e+00 0.000000e+00 0.000000e+00
 0.000000e+00 9.004667e-01 9.953323e-02 0.000000e+00 0.000000e+00
 0.000000e+00 0.000000e+00 8.798861e-01 1.201139e-01 0.000000e+00
 0.000000e+00 0.000000e+00 0.000000e+00 9.441932e-01 5.580675e-02
 0.000000e+00 0.000000e+00 0.000000e+00 0.000000e+00 0.000000e+00
<ENDHMM>
~h "sil"
<BEGINHMM>
<NUMSTATES> 5
<STATE> 2
<MEAN> 39
 -1.246913e+01 -3.091153e+00 3.037732e-01 -2.209724e+00 2.737660e+00 -2.239913e+00 2.834925e+00 -1.578706e+00 3.412739e+00 -5.703286e-01 2.705332e+00 -3.679476e-01 5.511193e+01 -1.227638e-02 3.703091e-02 6.206777e-03 -7.593581e-03 4.636430e-03 2.915042e-02 3.061317e-02 -2.236780e-02 -6.561351e-02 -4.295629e-02 1.374617e-02 1.863359e-02 -2.521095e-02 5.556329e-04 -1.360315e-02 4.705166e-03 -1.699558e-03 6.362179e-03 -1.445141e-03 -5.107842e-04 2.823183e-03 2.030055e-02 1.169053e-02 -5.147120e-04 7.770700e-03 1.735071e-02
<VARIANCE> 39
 1.092470e+00 2.766209e+00 3.593188e+00 5.314344e+00 6.932118e+00 9.654220e+00 1.071216e+01 1.150357e+01 1.250953e+01 1.240921e+01 1.152238e+01 1.051494e+01 6.346930e-01 9.663185e-02 2.281885e-01 4.000521e-01 5.914326e-01 7.900929e-01 1.027491e+00 1.166152e+00 1.292087e+00 1.409604e+00 1.417962e+00 1.352744e+00 1.180896e+00 3.608342e-02 1.980267e-02 4.302688e-02 8.163308e-02 1.210623e-01 1.568838e-01 2.019013e-01 2.333521e-01 2.641778e-01 2.875536e-01 2.854450e-01 2.732688e-01 2.341128e-01 7.050340e-03
<GCONST> 5.879488e+01
<STATE> 3
~s "silst"
<STATE> 4
<MEAN> 39
 -1.469633e+01 -6.052874e+00 1.828441e+00 -2.843291e+00 2.572951e+00 -2.400015e+00 3.135214e+00 -2.408565e+00 4.743796e+00 -2.850116e-01 2.560966e+00 -2.996625e-01 5.822195e+01 -4.090250e-01 -5.608578e-01 1.946048e-01 -1.864372e-02 -1.594109e-01 2.464789e-01 6.668257e-02 -3.340742e-01 2.821242e-01 1.083232e-01 -2.166160e-03 -1.081937e-01 7.169197e-01 1.026865e-01 -1.329837e-02 -7.913069e-02 5.408725e-02 -3.687350e-02 -1.885794e-02 -5.447462e-02 2.560432e-02 5.853096e-03 3.700615e-03 1.599494e-02 -3.663968e-02 5.413503e-02
<VARIANCE> 39
 1.313136e+01 1.573623e+01 1.305167e+01 1.159799e+01 1.368899e+01 2.164939e+01 1.902306e+01 1.739252e+01 1.966410e+01 1.684386e+01 1.416029e+01 1.318292e+01 1.455785e+01 1.695896e+00 2.112883e+00 1.377474e+00 1.369874e+00 1.642085e+00 1.624903e+00 1.730215e+00 1.770865e+00 2.049772e+00 1.867408e+00 1.504788e+00 1.533975e+00 2.191375e+00 1.844428e-01 2.453983e-01 2.550496e-01 2.571305e-01 2.505164e-01 3.118415e-01 3.385399e-01 3.439292e-01 3.626863e-01 3.404148e-01 2.762424e-01 2.833714e-01 2.229715e-01
<GCONST> 9.754750e+01
<TRANSP> 5
 0.000000e+00 1.000000e+00 0.000000e+00 0.000000e+00 0.000000e+00
 0.000000e+00 9.320269e-01 5.029296e-02 1.768017e-02 0.000000e+00
 0.000000e+00 0.000000e+00 5.964788e-01 4.035212e-01 0.000000e+00
 0.000000e+00 6.776753e-02 0.000000e+00 6.272125e-01 3.050201e-01
 0.000000e+00 0.000000e+00 0.000000e+00 0.000000e+00 0.000000e+00
<ENDHMM>
