~o
<STREAMINFO> 1 39
<VECSIZE> 39<NULLD><MFCC_D_A_0><DIAGC>
~s "silst"
<MEAN> 39
 -1.282882e+01 -3.580114e+00 3.470608e-01 -2.622515e+00 3.027783e+00 -2.872487e+00 2.711450e+00 -1.638975e+00 3.259686e+00 -7.109346e-01 2.704816e+00 -1.584063e-01 5.542489e+01 -3.280919e-01 -2.957142e-01 3.572759e-01 -2.486456e-01 -5.876161e-02 2.348667e-01 1.247980e-01 -3.533772e-01 7.279462e-02 1.544599e-01 -7.001524e-02 4.961304e-02 3.832276e-01 -1.691960e-01 -1.893040e-01 1.479429e-01 -4.974032e-02 -4.945196e-02 1.382166e-01 4.322499e-02 -1.354215e-01 8.673149e-02 3.767223e-02 -2.406604e-02 -3.939950e-02 2.340129e-01
<VARIANCE> 39
 2.359348e+00 4.618181e+00 5.605974e+00 7.772040e+00 8.031310e+00 1.397131e+01 1.283065e+01 1.158580e+01 1.446641e+01 1.456455e+01 1.177475e+01 1.079687e+01 1.090926e+00 5.586086e-01 5.279475e-01 1.084540e+00 9.577391e-01 9.367618e-01 1.388377e+00 1.400674e+00 1.693174e+00 1.653544e+00 1.647715e+00 1.518465e+00 1.235551e+00 2.893310e-01 1.287786e-01 1.279289e-01 1.755298e-01 1.928294e-01 1.971315e-01 2.804521e-01 2.747419e-01 3.246458e-01 3.035054e-01 3.403104e-01 3.115173e-01 2.636543e-01 8.779068e-02
<GCONST> 7.817273e+01
~h "@"
<BEGINHMM>
<NUMSTATES> 5
<STATE> 2
<MEAN> 39
 -3.622219e+00 -1.046932e+01 9.424086e+00 -2.823944e+00 -1.160824e+01 -1.392098e+01 -7.760495e+00 -6.301748e+00 7.503921e+00 -1.158919e+01 5.387874e+00 -4.065910e+00 7.336320e+01 2.967173e-01 2.145941e-01 1.379356e-01 2.448822e-01 -4.294432e-01 8.773156e-02 8.395028e-02 1.679573e-01 -1.078431e-01 -3.823124e-01 9.942351e-02 2.295766e-02 -2.613614e-01 -3.457427e-01 3.272898e-01 -1.454037e-01 1.738885e-01 5.758852e-01 2.808498e-01 3.197356e-01 1.454149e-01 -1.522305e-01 3.596274e-01 -2.724481e-01 7.276626e-02 -4.445925e-01
<VARIANCE> 39
 3.294914e+00 2.113651e+01 1.010759e+01 1.395310e+01 2.720850e+01 1.501038e+01 2.964556e+01 3.863377e+01 2.805755e+01 2.186453e+01 2.341032e+01 1.313407e+01 1.625879e+01 1.220874e+00 2.503419e+00 9.652862e-01 1.354856e+00 4.581720e+00 1.920759e+00 2.522285e+00 2.175915e+00 2.335691e+00 2.081760e+00 2.379454e+00 1.143116e+00 2.730697e+00 2.724543e-01 2.125355e-01 2.157305e-01 1.828485e-01 2.217674e-01 2.334207e-01 3.408234e-01 2.851427e-01 2.994889e-01 3.470367e-01 2.498991e-01 2.497561e-01 1.416856e-01
<GCONST> 9.934508e+01
<STATE> 3
<MEAN> 39
 -5.540688e+00 -1.618210e+00 9.009296e+00 2.741478e+00 -2.546360e+00 -9.415535e+00 -1.917080e-01 -3.958278e+00 1.875255e+00 -7.349358e+00 7.903270e-01 -3.907094e+00 6.338583e+01 -8.381923e-01 7.807634e-01 -5.473660e-01 9.168185e-01 2.330581e+00 1.388988e+00 8.042157e-01 4.226919e-01 1.306242e-01 1.496580e+00 -4.705720e-01 6.597182e-01 -1.949208e+00 -2.092608e-01 -4.482761e-01 -3.056255e-01 -4.306581e-01 -2.345103e-01 -1.203114e-03 -4.841726e-02 4.759466e-02 2.968960e-01 1.143383e-01 3.269288e-01 2.358789e-01 1.722142e-01
<VARIANCE> 39
 4.000498e+00 1.032503e+01 9.883850e+00 1.454994e+01 3.384666e+01 2.381351e+01 2.295500e+01 4.431510e+01 2.246308e+01 1.820323e+01 3.831940e+01 1.120559e+01 1.115042e+01 5.717685e-01 2.003339e+00 1.268232e+00 1.532737e+00 2.929812e+00 1.612659e+00 2.457005e+00 2.063960e+00 2.375399e+00 2.098503e+00 2.152287e+00 1.532689e+00 1.522149e+00 7.273655e-02 2.532443e-01 2.014793e-01 2.922203e-01 6.015029e-01 4.271698e-01 3.615631e-01 3.084756e-01 4.860134e-01 2.974998e-01 4.670347e-01 2.190738e-01 1.627135e-01
<GCONST> 9.925962e+01
<STATE> 4
<MEAN> 39
 -1.107113e+01 -2.611570e+00 2.638284e+00 -7.626814e-01 1.395356e+00 -5.119746e+00 2.130904e+00 -1.611516e+00 3.933012e+00 -1.107856e+00 2.997864e+00 4.155872e-01 5.701312e+01 -4.520048e-01 -2.472254e-01 -4.127482e-01 -4.210870e-01 6.674724e-02 2.470875e-01 2.685922e-03 -1.514862e-01 1.332221e-01 3.525808e-01 2.245708e-01 1.755744e-01 -2.163631e-01 3.389073e-02 -2.593494e-02 1.348665e-01 -1.014852e-02 -7.544185e-02 -4.224440e-02 -5.315543e-02 -6.155590e-02 -3.022753e-02 -1.522905e-01 -7.613543e-02 -1.171113e-01 1.988863e-01
<VARIANCE> 39
 6.307438e+00 4.058497e+00 1.189454e+01 1.247592e+01 1.226596e+01 1.556929e+01 1.410471e+01 2.678363e+01 1.406677e+01 1.428074e+01 1.620141e+01 1.318919e+01 6.928450e+00 4.492118e-01 5.622182e-01 1.171349e+00 1.111359e+00 1.187149e+00 1.326619e+00 1.556618e+00 1.601517e+00 1.796374e+00 1.646307e+00 1.705666e+00 1.425575e+00 4.355276e-01 9.999683e-02 1.288959e-01 1.899354e-01 2.366931e-01 3.305431e-01 2.988045e-01 3.496572e-01 3.631940e-01 3.511403e-01 3.001259e-01 3.092225e-01 2.698796e-01 9.787954e-02
<GCONST> 8.621617e+01
<TRANSP> 5
 0.000000e+00 1.000000e+00 0.000000e+00 0.000000e+00 0.000000e+00
 0.000000e+00 7.982184e-01 2.017816e-01 0.000000e+00 0.000000e+00
 0.000000e+00 0.000000e+00 6.437110e-01 3.562889e-01 0.000000e+00
 0.000000e+00 0.000000e+00 0.000000e+00 8.427029e-01 1.572972e-01
 0.000000e+00 0.000000e+00 0.000000e+00 0.000000e+00 0.000000e+00
<ENDHMM>
~h "I"
<BEGINHMM>
<NUMSTATES> 5
<STATE> 2
<MEAN> 39
 -1.504809e+01 -2.171929e+00 1.592004e+01 -1.405499e+00 -3.126023e-01 -5.116697e+00 1.427019e+00 -8.337573e+00 3.757258e+00 -7.243993e+00 2.085396e+00 4.680238e-01 6.711953e+01 3.211719e+00 1.110815e+00 5.205821e+00 7.289619e-01 -2.831311e+00 -3.259795e-01 -3.246818e+00 -1.841146e+00 -7.543934e-01 -4.390818e+00 5.039542e-01 3.239929e-01 9.031626e-01 -2.929921e-01 1.151708e-01 -3.351217e-01 -3.428321e-02 -6.168355e-01 1.077787e-01 -1.903637e-01 2.462756e-01 2.736385e-01 -6.316848e-01 4.329970e-01 1.601714e-01 1.807787e-01
<VARIANCE> 39
 2.789452e+01 2.360338e+01 5.228439e+01 2.449517e+01 3.572595e+01 2.585293e+01 3.955151e+01 2.424282e+01 1.903045e+01 4.265963e+01 1.716869e+01 1.376310e+01 1.157009e+01 1.258041e+00 1.546286e+00 2.439765e+00 2.223371e+00 3.477249e+00 1.847589e+00 2.066403e+00 2.197387e+00 2.004058e+00 3.477029e+00 2.290187e+00 1.965942e+00 7.778759e-01 4.560669e-01 3.040566e-01 9.152278e-01 3.663633e-01 7.080299e-01 4.859248e-01 7.699276e-01 4.809256e-01 3.385611e-01 1.041758e+00 3.243554e-01 2.677319e-01 2.276309e-01
<GCONST> 1.124586e+02
<STATE> 3
<MEAN> 39
 -9.388359e+00 3.011934e-01 2.511145e+01 -5.240744e-01 -1.136628e+01 -5.292048e+00 -5.569191e+00 -1.194899e+01 3.971472e+00 -2.011607e+01 5.969135e+00 2.212573e+00 6.965028e+01 5.566991e-01 6.985170e-02 1.451743e-01 -4.876015e-02 -1.037523e+00 -2.826457e-01 -4.342830e-01 -4.400737e-01 -1.579415e-01 -5.555381e-01 2.830198e-01 1.642632e-01 1.187005e-01 -2.212091e-01 -2.711882e-01 -7.563204e-01 -6.292630e-02 4.370221e-01 -1.210994e-01 3.456399e-01 1.922625e-01 -2.794252e-03 8.454645e-01 -1.962601e-01 -4.213103e-02 -1.331015e-01
<VARIANCE> 39
 4.466162e+00 6.913411e+00 1.211697e+01 8.564086e+00 1.390399e+01 1.196696e+01 1.320603e+01 1.694895e+01 1.648390e+01 1.714554e+01 1.708236e+01 1.670482e+01 3.885866e+00 4.223367e-01 7.930436e-01 2.540517e+00 9.633712e-01 2.936852e+00 1.884111e+00 1.365773e+00 1.490590e+00 1.390108e+00 4.159282e+00 1.467264e+00 9.391426e-01 7.107354e-01 2.053097e-01 9.993191e-02 3.671308e-01 2.089117e-01 4.839985e-01 2.312889e-01 3.774081e-01 3.141904e-01 3.362334e-01 5.412813e-01 2.813399e-01 2.034732e-01 1.154290e-01
<GCONST> 8.938698e+01
<STATE> 4
<MEAN> 39
 -4.594460e+00 -5.788987e+00 1.281351e+01 -3.269483e+00 -1.388528e+01 -1.147211e+01 -8.611489e+00 -1.122652e+01 1.120918e+01 -1.220483e+01 3.751952e+00 9.279448e-01 7.302403e+01 5.377900e-01 -9.696354e-01 -1.810080e+00 -7.235746e-01 8.315946e-01 4.764982e-01 -4.178329e-01 8.046059e-01 1.349969e+00 1.508955e+00 -7.581124e-01 -1.017381e+00 3.844795e-02 -4.557121e-02 1.351883e-01 -3.047960e-02 7.785077e-02 3.602006e-01 4.219134e-01 1.093045e-01 5.876376e-02 -1.604030e-01 3.709899e-02 -1.795784e-01 -1.688384e-01 -2.682607e-01
<VARIANCE> 39
 7.644576e+00 2.356372e+01 6.414222e+01 1.673706e+01 2.204589e+01 2.545963e+01 1.417926e+01 2.150890e+01 6.425365e+01 3.683766e+01 2.155906e+01 2.554743e+01 9.482114e+00 4.772211e-01 1.420153e+00 1.795998e+00 1.238078e+00 2.320088e+00 3.365071e+00 1.256335e+00 1.516629e+00 3.860681e+00 1.750847e+00 1.473563e+00 1.656425e+00 1.087181e+00 5.500782e-02 2.268806e-01 3.858256e-01 2.845880e-01 2.823167e-01 3.666597e-01 2.209421e-01 3.576150e-01 6.067396e-01 3.854061e-01 2.370097e-01 2.966007e-01 6.211244e-02
<GCONST> 9.994109e+01
<TRANSP> 5
 0.000000e+00 1.000000e+00 0.000000e+00 0.000000e+00 0.000000e+00
 0.000000e+00 6.123021e-01 3.876978e-01 0.000000e+00 0.000000e+00
 0.000000e+00 0.000000e+00 8.208461e-01 1.791539e-01 0.000000e+00
 0.000000e+00 0.000000e+00 0.000000e+00 7.344225e-01 2.655775e-01
 0.000000e+00 0.000000e+00 0.000000e+00 0.000000e+00 0.000000e+00
<ENDHMM>
~h "U"
<BEGINHMM>
<NUMSTATES> 5
<STATE> 2
<MEAN> 39
 -5.458309e+00 -1.437809e+00 -7.882905e-01 -1.425426e+01 -4.183156e+00 2.166543e+00 6.205225e+00 -5.605765e+00 4.483051e+00 -2.079385e+00 -3.368185e+00 2.944625e+00 6.396717e+01 2.111732e+00 1.857160e+00 1.768444e+00 -4.627155e-01 -2.912180e+00 -1.055593e+00 -5.818174e-01 -1.392865e+00 -7.518859e-01 -1.746504e+00 -5.839727e-01 -6.249691e-01 1.034554e+00 2.497231e-01 -2.000750e-01 3.915230e-01 -3.638476e-02 -5.972921e-01 1.806946e-01 -1.555458e-01 -5.111111e-01 -2.695716e-01 -6.780934e-02 9.693068e-03 -3.091630e-01 1.214701e-01
<VARIANCE> 39
 2.077725e+01 2.888405e+01 3.002784e+01 1.580805e+01 3.557068e+01 2.468018e+01 1.926244e+01 2.800256e+01 2.859818e+01 2.474161e+01 2.185805e+01 2.248767e+01 1.067846e+01 2.008858e+00 1.786318e+00 3.299838e+00 2.130275e+00 5.111070e+00 1.762654e+00 1.769587e+00 3.479333e+00 2.752684e+00 1.789134e+00 2.785238e+00 1.945650e+00 1.056681e+00 3.965469e-01 6.085448e-01 5.791107e-01 5.477793e-01 8.099230e-01 5.441096e-01 4.089748e-01 5.397593e-01 5.067014e-01 4.355044e-01 6.850943e-01 3.333289e-01 2.179582e-01
<GCONST> 1.136043e+02
<STATE> 3
<MEAN> 39
 3.390041e+00 9.063326e-01 7.786092e+00 -1.796497e+01 -1.995126e+01 3.205051e+00 3.701971e+00 -1.525505e+01 3.235180e-01 -9.383287e+00 -7.212678e+00 -2.787445e+00 6.930984e+01 -2.584898e-01 -4.164606e-01 -1.404897e-01 2.370452e-01 3.349696e-01 -2.688652e-02 -3.484013e-01 -1.842633e-01 -8.893777e-02 -4.683873e-01 8.722362e-02 -3.489513e-01 4.468222e-01 -8.248535e-01 -2.151022e-01 -5.018985e-01 5.710273e-01 1.264906e+00 -2.944388e-01 -3.769879e-03 6.410571e-01 1.857132e-01 3.500882e-01 3.970213e-01 2.176797e-01 -1.920441e-01
<VARIANCE> 39
 2.655997e+00 4.221526e+00 7.460606e+00 6.608026e+00 1.308995e+01 1.357445e+01 1.130414e+01 1.259510e+01 1.400403e+01 1.450202e+01 1.118830e+01 1.022428e+01 2.373988e+00 2.684811e+00 5.642964e-01 1.975766e+00 2.428421e+00 9.952600e+00 2.958846e+00 1.006957e+00 4.047633e+00 1.161437e+00 1.580561e+00 2.182273e+00 1.360141e+00 4.419431e-01 1.574506e-01 1.778853e-01 1.827359e-01 2.141845e-01 2.969563e-01 4.867097e-01 2.194244e-01 2.933922e-01 2.344567e-01 2.937102e-01 3.052852e-01 2.001770e-01 7.516062e-02
<GCONST> 8.714669e+01
<STATE> 4
<MEAN> 39
 -1.021525e+01 -3.833332e+00 2.010719e+00 -6.547299e+00 -1.103306e+00 -3.048045e+00 1.187036e+00 -7.712464e+00 1.218407e+00 -6.609407e+00 -3.819295e-01 -1.708781e+00 6.960477e+01 -4.585244e+00 -1.746538e+00 -9.374467e-01 3.158799e+00 4.098080e+00 -1.352325e+00 -6.716763e-01 1.465563e+00 6.499080e-01 1.979782e+00 1.925394e+00 2.279775e-01 -5.932647e-01 2.689036e-01 6.565276e-02 3.301283e-01 -5.197555e-01 -1.113672e+00 2.671433e-01 -4.551743e-02 -4.691562e-01 1.681497e-01 7.781328e-02 -2.984857e-01 -1.087230e-01 -2.071858e-01
<VARIANCE> 39
 3.931144e+01 1.327096e+01 4.995675e+00 2.778086e+01 4.114975e+01 9.651394e+00 9.044592e+00 1.218748e+01 1.068780e+01 1.706624e+01 1.743261e+01 9.344752e+00 3.801025e+00 9.215268e-01 8.300167e-01 8.693783e-01 1.643730e+00 4.417592e+00 1.436839e+00 1.172441e+00 1.751838e+00 1.405281e+00 1.416100e+00 1.496947e+00 1.117318e+00 3.982427e-01 7.333313e-01 2.811466e-01 1.140114e-01 5.218083e-01 6.991637e-01 2.349332e-01 2.250868e-01 2.607225e-01 2.581747e-01 4.140613e-01 3.847860e-01 2.296241e-01 6.787235e-02
<GCONST> 9.173212e+01
<TRANSP> 5
 0.000000e+00 1.000000e+00 0.000000e+00 0.000000e+00 0.000000e+00
 0.000000e+00 7.913662e-01 2.086338e-01 0.000000e+00 0.000000e+00
 0.000000e+00 0.000000e+00 8.645994e-01 1.354006e-01 0.000000e+00
 0.000000e+00 0.000000e+00 0.000000e+00 7.173177e-01 2.826823e-01
 0.000000e+00 0.000000e+00 0.000000e+00 0.000000e+00 0.000000e+00
<ENDHMM>
~h "a"
<BEGINHMM>
<NUMSTATES> 5
<STATE> 2
<MEAN> 39
 -9.535352e+00 -7.777754e+00 -3.791274e+00 -5.351089e+00 4.184687e+00 1.788931e+00 3.102083e+00 -2.200327e+00 2.198312e+00 4.036580e-01 1.049324e+00 -7.465189e+00 6.141127e+01 1.686477e+00 -2.153635e+00 -1.673030e+00 -1.688270e+00 1.379024e-01 1.766609e+00 -3.600292e-01 -8.638740e-03 -6.521437e-01 -7.114317e-02 -7.132129e-02 -3.100966e+00 3.234445e+00 2.770595e-01 -2.560847e-01 -4.722752e-03 -2.825380e-01 -2.742081e-01 1.863946e-01 -2.302192e-01 6.072143e-02 7.197532e-03 -1.295360e-01 1.507167e-01 -3.347739e-01 5.947683e-01
<VARIANCE> 39
 1.476595e+01 2.874244e+01 2.403826e+01 2.055861e+01 1.301187e+01 2.522970e+01 1.221327e+01 1.822876e+01 2.200254e+01 1.680681e+01 1.964869e+01 5.035698e+01 4.175045e+01 1.607091e+00 2.122809e+00 1.762290e+00 1.921263e+00 2.258054e+00 1.960868e+00 1.779106e+00 2.160067e+00 2.131419e+00 2.381896e+00 2.425378e+00 4.120389e+00 3.320713e+00 3.344427e-01 5.308906e-01 5.486419e-01 4.177664e-01 3.805704e-01 4.372151e-01 3.422361e-01 3.734192e-01 3.733954e-01 3.824643e-01 3.888554e-01 1.041802e+00 6.026520e-01
<GCONST> 1.116711e+02
<STATE> 3
<MEAN> 39
 -1.820326e+00 -1.638790e+01 -7.974418e+00 -1.294784e+01 -1.987761e-01 8.726642e+00 -1.176184e+00 -2.435582e+00 1.581410e+00 -1.915993e+00 2.866493e+00 -1.894185e+01 7.755246e+01 4.018273e-01 -5.670002e-01 -1.418138e-01 -2.255170e-01 -5.978600e-01 3.784126e-01 -6.184293e-01 -9.499177e-02 -3.906794e-02 8.411996e-02 -1.820039e-01 -2.456707e-01 1.248866e+00 -3.359999e-01 3.266469e-01 1.992704e-01 4.574366e-01 2.192939e-01 -2.678843e-01 1.493575e-01 -4.350292e-02 2.071368e-02 2.421478e-01 -2.311570e-01 6.174620e-01 -5.634592e-01
<VARIANCE> 39
 3.030135e+00 9.524144e+00 7.041590e+00 1.186517e+01 1.557154e+01 1.936684e+01 1.229175e+01 1.809061e+01 3.682013e+01 1.821782e+01 2.100628e+01 1.547886e+01 1.056082e+01 8.529142e-01 1.330153e+00 7.306635e-01 1.800987e+00 1.095946e+00 1.040233e+00 8.863409e-01 8.512380e-01 8.837116e-01 1.357175e+00 1.548461e+00 2.069965e+00 1.817265e+00 1.154710e-01 2.444150e-01 1.577172e-01 1.830755e-01 2.045223e-01 1.826828e-01 1.659004e-01 1.703840e-01 2.013632e-01 2.144978e-01 1.907151e-01 2.979162e-01 2.243671e-01
<GCONST> 8.595219e+01
<STATE> 4
<MEAN> 39
 -2.516344e+00 -1.688714e+01 -7.181036e+00 -8.749310e+00 3.830111e-01 9.039225e+00 -2.293470e+00 -3.101218e+00 3.498652e-01 2.325790e+00 -2.689068e+00 -1.381595e+01 7.915891e+01 -7.392806e-01 1.015051e+00 1.259546e+00 1.652028e+00 1.205278e+00 -7.920234e-02 6.178151e-01 -6.705342e-01 1.065329e+00 6.794910e-01 -9.453334e-01 2.096680e+00 -1.358400e+00 -5.776356e-01 2.204578e-01 3.912236e-01 4.311459e-02 6.114036e-01 7.661625e-02 9.456055e-02 6.705444e-02 6.760543e-01 -2.134021e-01 2.727773e-01 2.815715e-01 -5.921988e-01
<VARIANCE> 39
 3.034597e+00 1.326272e+01 8.879941e+00 1.262272e+01 1.333503e+01 2.011493e+01 1.594300e+01 1.815834e+01 2.457305e+01 1.577577e+01 3.475891e+01 1.872988e+01 8.033230e+00 1.030216e+00 1.566451e+00 1.135785e+00 1.045273e+00 1.943472e+00 1.094568e+00 1.002389e+00 1.129314e+00 2.505523e+00 1.256177e+00 1.324126e+00 1.556240e+00 1.581847e+00 2.588117e-01 2.857591e-01 1.465469e-01 2.374069e-01 2.889541e-01 1.846352e-01 2.906859e-01 3.020606e-01 2.307334e-01 2.093313e-01 3.365583e-01 3.144102e-01 1.312023e-01
<GCONST> 9.109750e+01
<TRANSP> 5
 0.000000e+00 1.000000e+00 0.000000e+00 0.000000e+00 0.000000e+00
 0.000000e+00 7.726824e-01 2.273176e-01 0.000000e+00 0.000000e+00
 0.000000e+00 0.000000e+00 8.533179e-01 1.466821e-01 0.000000e+00
 0.000000e+00 0.000000e+00 0.000000e+00 7.234451e-01 2.765548e-01
 0.000000e+00 0.000000e+00 0.000000e+00 0.000000e+00 0.000000e+00
<ENDHMM>
~h "b"
<BEGINHMM>
<NUMSTATES> 5
<STATE> 2
<MEAN> 39
 -6.995298e+00 -3.323580e+00 2.567041e+01 -1.013987e+00 -1.245707e+01 -4.442653e+00 -6.875623e+00 -1.107201e+01 1.648472e+00 -1.678394e+01 5.692598e+00 4.663444e-01 6.952244e+01 1.063092e+00 -3.080919e-01 -2.134894e+00 1.605518e+00 8.195344e-01 -3.059151e-01 3.235093e-01 3.942455e-01 -8.641815e-01 1.686889e+00 -1.105111e+00 -1.196051e-01 -1.685672e+00 -2.011837e-01 7.157821e-01 -1.404278e+00 1.332941e-01 1.382971e+00 -1.051279e-01 6.143438e-01 4.843262e-01 9.236030e-02 7.181857e-01 -2.945333e-01 -2.873355e-01 -6.840270e-01
<VARIANCE> 39
 5.864534e+00 1.902348e+01 2.248913e+01 1.085717e+01 1.941790e+01 1.600057e+01 1.542661e+01 1.982460e+01 2.709568e+01 2.195832e+01 1.423912e+01 1.453321e+01 5.612019e+00 3.018345e-01 2.073459e+00 2.537136e+00 8.994296e-01 4.289709e+00 1.161900e+00 1.135901e+00 1.991644e+00 1.546602e+00 1.720539e+00 1.604601e+00 1.192981e+00 1.121447e+00 5.834779e-02 1.243948e-01 1.640424e-01 2.298526e-01 4.094791e-01 2.687058e-01 2.106742e-01 2.918262e-01 2.655784e-01 2.332018e-01 2.811839e-01 2.154708e-01 3.706546e-02
<GCONST> 8.923899e+01
<STATE> 3
<MEAN> 39
 -4.649138e+00 -2.858840e+00 1.693784e+01 3.475622e+00 -8.513720e+00 -6.928011e+00 -5.635405e+00 -8.221637e+00 5.860134e-01 -1.173503e+01 3.461729e+00 7.926040e-01 6.465324e+01 -5.171123e-03 1.935592e+00 -4.572683e+00 7.629004e-01 4.629188e+00 -7.863460e-03 1.719298e+00 1.254731e+00 -6.207424e-01 3.146816e+00 -1.770206e+00 -1.086819e+00 -3.011540e+00 -5.406047e-01 3.152177e-01 -6.281639e-02 -6.499656e-01 6.948618e-01 -1.173511e-01 4.705452e-01 -4.415657e-02 1.556145e-01 2.013209e-01 2.114383e-01 -1.688426e-01 2.257095e-01
<VARIANCE> 39
 2.645385e+00 2.049626e+01 3.449812e+01 1.022930e+01 3.631142e+01 1.329928e+01 1.709239e+01 2.001703e+01 2.614540e+01 2.961572e+01 1.130472e+01 1.682377e+01 1.236172e+01 4.949735e-01 1.287540e+00 1.726140e+00 1.341056e+00 1.823828e+00 1.614735e+00 1.685079e+00 2.101668e+00 1.760893e+00 1.255179e+00 1.974005e+00 1.548502e+00 3.687646e-01 5.781255e-02 2.982754e-01 5.467516e-01 1.979963e-01 8.742739e-01 2.784674e-01 2.973923e-01 4.844216e-01 3.265156e-01 3.248944e-01 2.668034e-01 2.653174e-01 2.296950e-01
<GCONST> 9.561591e+01
<STATE> 4
<MEAN> 39
 -7.279400e+00 1.375537e+00 8.865541e+00 1.000791e+00 3.517784e+00 -7.781870e+00 1.181257e-01 -7.078421e+00 -5.837117e-02 -3.762408e+00 1.118362e+00 -2.595011e+00 6.072646e+01 1.553250e-02 -3.246962e-01 -7.629754e-01 -7.926007e-02 7.332147e-01 -1.310946e+00 4.444754e-01 -7.555130e-01 6.854647e-02 1.130707e+00 7.043514e-01 -3.750301e-01 4.919830e-01 2.788983e-01 -6.846045e-01 8.587559e-01 8.776899e-02 -1.305014e+00 -1.247261e-01 -6.866496e-01 -4.762380e-01 3.284596e-01 -7.139893e-01 5.448672e-01 6.562939e-02 8.395602e-01
<VARIANCE> 39
 6.972405e+00 1.083612e+01 9.660318e+00 1.189654e+01 1.916976e+01 2.450937e+01 1.842232e+01 2.292894e+01 2.643048e+01 1.535795e+01 1.598534e+01 1.388282e+01 5.643631e+00 1.278229e+00 2.450337e+00 3.561025e+00 1.918767e+00 8.499765e+00 2.375373e+00 4.047923e+00 3.325647e+00 1.872392e+00 3.017248e+00 2.548944e+00 1.643773e+00 2.771036e+00 1.742981e-01 2.710122e-01 4.634493e-01 4.560197e-01 5.729021e-01 5.857627e-01 4.597852e-01 5.976510e-01 3.603451e-01 2.949307e-01 5.113634e-01 3.549409e-01 3.580501e-01
<GCONST> 1.069699e+02
<TRANSP> 5
 0.000000e+00 1.000000e+00 0.000000e+00 0.000000e+00 0.000000e+00
 0.000000e+00 4.149699e-01 5.850300e-01 0.000000e+00 0.000000e+00
 0.000000e+00 0.000000e+00 3.711958e-01 6.288042e-01 0.000000e+00
 0.000000e+00 0.000000e+00 0.000000e+00 7.695484e-01 2.304517e-01
 0.000000e+00 0.000000e+00 0.000000e+00 0.000000e+00 0.000000e+00
<ENDHMM>
~h "d"
<BEGINHMM>
<NUMSTATES> 5
<STATE> 2
<MEAN> 39
 -1.240616e+01 -4.037315e+00 3.756452e-01 -2.048410e+00 2.374806e+00 -5.041894e+00 2.341545e+00 -3.746134e+00 5.405233e+00 -1.520909e+00 2.287800e+00 -1.921160e+00 6.405652e+01 7.314960e-01 -9.519401e-01 -1.113260e-01 -7.735416e-01 -5.591050e-01 -9.574592e-01 -1.031093e+00 -1.528265e+00 1.612638e+00 1.366779e-01 6.454585e-01 -1.381224e+00 3.683126e+00 5.331081e-01 -7.925539e-02 2.120293e-01 -2.729345e-01 -1.655237e-01 2.068509e-01 -3.807828e-01 -3.823216e-01 3.360927e-01 2.109375e-01 2.274204e-01 -5.120975e-01 1.207449e-01
<VARIANCE> 39
 1.248848e+01 2.552134e+01 1.995481e+01 1.535721e+01 1.927466e+01 2.291700e+01 1.960587e+01 1.711449e+01 2.565789e+01 1.561565e+01 1.531840e+01 1.525939e+01 7.133781e+01 3.484102e+00 1.775419e+00 2.289402e+00 1.724434e+00 2.344887e+00 2.642624e+00 3.174887e+00 3.344153e+00 3.112309e+00 1.656031e+00 2.097236e+00 3.412004e+00 4.462410e+00 4.998714e-01 3.294061e-01 4.845005e-01 2.668585e-01 4.309992e-01 7.441527e-01 5.411306e-01 5.292515e-01 5.138220e-01 3.232208e-01 4.151900e-01 5.203635e-01 1.454763e+00
<GCONST> 1.140834e+02
<STATE> 3
<MEAN> 39
 -4.145273e+00 -1.093964e+01 3.432291e-01 -8.309020e+00 -5.646871e-01 -2.580941e+00 -2.507550e+00 -1.005964e+01 1.098372e+01 3.173213e+00 4.571624e+00 -1.223062e+01 7.520138e+01 9.357638e-01 -1.031321e+00 -2.047120e-01 -7.094521e-01 -3.655278e-01 9.795568e-01 -1.750630e-02 1.323090e-01 -3.916618e-01 3.457922e-01 -3.079695e-02 -1.174688e+00 4.343333e-01 -3.917728e-01 3.328106e-02 -2.193551e-01 2.011763e-01 1.685647e-01 1.142005e-01 3.391465e-01 4.550641e-01 -4.471357e-01 -8.783298e-02 -2.740227e-01 3.612899e-01 -3.932562e-01
<VARIANCE> 39
 1.423194e+01 1.855329e+01 1.277284e+01 1.632118e+01 3.396408e+01 2.233467e+01 2.578015e+01 2.913894e+01 4.098461e+01 2.501745e+01 2.822713e+01 2.315449e+01 1.820036e+01 3.061700e+00 1.416486e+00 1.387723e+00 1.904739e+00 3.799707e+00 1.978244e+00 3.395741e+00 3.610826e+00 4.051247e+00 3.545641e+00 3.710540e+00 3.932940e+00 2.117465e+00 6.856833e-01 2.955476e-01 2.386450e-01 4.168486e-01 8.028179e-01 4.632854e-01 6.323280e-01 7.310982e-01 8.978052e-01 5.674516e-01 8.609693e-01 8.549336e-01 8.259938e-01
<GCONST> 1.183846e+02
<STATE> 4
<MEAN> 39
 -3.862751e+00 -1.296456e+01 5.692516e+00 -8.793250e+00 -1.026779e+01 -5.413018e+00 -1.772808e+00 3.465798e-01 4.874679e+00 -4.609141e+00 6.719295e+00 -1.230123e+01 7.624380e+01 -2.915860e-01 6.565332e-01 7.650166e-01 3.941649e-01 -3.372118e-01 -5.291448e-01 1.282508e-01 2.327077e-01 -4.135514e-01 -2.147535e-01 -6.088595e-02 5.757609e-01 -6.193130e-01 -2.868450e-02 1.288599e-01 -4.811750e-02 1.074693e-01 1.573952e-01 -3.557243e-02 9.963170e-02 3.664864e-03 1.398138e-02 1.172018e-01 -8.890962e-02 1.401044e-01 -1.544905e-01
<VARIANCE> 39
 5.705604e+00 2.942511e+01 7.127914e+01 1.134565e+01 3.866182e+01 5.985035e+01 1.600184e+01 3.874959e+01 4.070812e+01 2.581585e+01 4.585915e+01 3.733047e+01 1.491946e+01 2.796046e-01 9.870754e-01 2.081823e+00 6.405870e-01 2.161338e+00 2.875399e+00 1.451862e+00 3.069478e+00 2.316262e+00 1.357254e+00 4.127100e+00 1.871244e+00 6.693363e-01 5.378396e-02 1.639441e-01 2.420415e-01 1.202088e-01 2.368233e-01 3.972202e-01 2.131000e-01 4.634239e-01 3.414441e-01 1.635025e-01 5.918511e-01 3.167666e-01 6.715295e-02
<GCONST> 9.968047e+01
<TRANSP> 5
 0.000000e+00 1.000000e+00 0.000000e+00 0.000000e+00 0.000000e+00
 0.000000e+00 7.901902e-01 2.098098e-01 0.000000e+00 0.000000e+00
 0.000000e+00 0.000000e+00 8.407565e-01 1.592435e-01 0.000000e+00
 0.000000e+00 0.000000e+00 0.000000e+00 8.974798e-01 1.025201e-01
 0.000000e+00 0.000000e+00 0.000000e+00 0.000000e+00 0.000000e+00
<ENDHMM>
~h "e"
<BEGINHMM>
<NUMSTATES> 5
<STATE> 2
<MEAN> 39
 -7.082537e+00 -6.136635e+00 6.728401e+00 -2.506973e+00 -6.129365e+00 -1.196612e+01 -4.146167e+00 -5.235005e+00 1.062154e+01 -4.052015e+00 4.343529e+00 -4.525119e+00 7.299108e+01 2.960133e+00 -2.415183e+00 1.100012e+00 -1.587658e+00 -3.996675e+00 -2.373964e+00 -2.655732e+00 6.249586e-01 1.959581e+00 -6.785529e-01 1.018574e+00 -1.361852e+00 3.208548e+00 -7.459825e-01 5.443922e-02 -1.922907e-01 -2.253946e-01 2.906911e-02 4.870529e-01 5.462379e-01 5.744532e-01 -2.067610e-01 -6.446876e-02 1.808922e-01 1.212242e-01 -1.554442e-01
<VARIANCE> 39
 2.587054e+01 3.205331e+01 1.497731e+01 1.603235e+01 3.667167e+01 2.848949e+01 3.727201e+01 2.156437e+01 3.195998e+01 1.543773e+01 1.767522e+01 3.094878e+01 3.015982e+01 4.634591e+00 1.666485e+00 1.402132e+00 1.778544e+00 2.744661e+00 2.131233e+00 2.709279e+00 3.254945e+00 2.361970e+00 1.874540e+00 1.888732e+00 4.344455e+00 1.914361e+00 5.565414e-01 3.356805e-01 2.222306e-01 3.712033e-01 6.429276e-01 5.005251e-01 6.782439e-01 3.561488e-01 6.353208e-01 2.952395e-01 3.163892e-01 5.637337e-01 6.957572e-01
<GCONST> 1.140879e+02
<STATE> 3
<MEAN> 39
 -3.666040e+00 -1.338546e+01 1.016252e+01 -7.685750e+00 -1.726175e+01 -1.322438e+01 -5.208617e+00 2.215943e+00 1.190049e+01 -6.288906e+00 7.778584e+00 -4.555465e+00 7.992210e+01 -2.365530e-02 -1.351968e-01 2.902568e-01 -8.177570e-02 -9.859129e-01 -7.540853e-02 4.338398e-01 6.809766e-01 -8.931788e-01 -5.158331e-01 8.853657e-01 -3.232092e-02 1.989159e-01 -2.575970e-01 4.896039e-01 -2.393697e-02 4.331866e-01 6.036951e-01 6.611741e-02 2.341248e-01 -3.733150e-01 -6.453105e-01 8.951701e-02 -8.111015e-02 7.629974e-02 -5.534047e-01
<VARIANCE> 39
 2.098432e+00 1.003310e+01 1.650993e+01 8.254753e+00 1.783645e+01 1.475154e+01 1.447804e+01 1.947559e+01 2.874265e+01 1.803062e+01 1.779012e+01 2.753934e+01 4.961074e+00 2.663093e-01 1.264921e+00 8.994465e-01 1.279475e+00 1.376105e+00 9.343596e-01 1.361076e+00 2.012351e+00 3.788075e+00 1.116700e+00 1.333309e+00 9.391980e-01 9.183524e-01 1.483541e-01 1.436456e-01 1.905441e-01 1.980019e-01 3.230411e-01 2.818796e-01 4.840035e-01 2.817868e-01 5.239846e-01 2.730797e-01 2.800783e-01 2.895461e-01 1.543675e-01
<GCONST> 8.895383e+01
<STATE> 4
<MEAN> 39
 -4.666112e+00 -1.027502e+01 1.120832e+01 -3.525908e+00 -1.714672e+01 -1.518432e+01 -2.690167e+00 7.821810e-01 1.089595e+00 -7.715334e+00 1.314042e+01 -7.642894e+00 7.684090e+01 -9.236196e-01 1.706024e+00 5.125038e-01 1.501888e+00 1.919338e+00 -5.042496e-01 1.064905e+00 -6.452565e-01 -2.980362e+00 1.167927e+00 -8.204635e-01 7.051270e-01 -2.671943e+00 -3.257763e-01 3.908562e-01 -4.988376e-01 -2.509367e-01 8.978074e-01 3.798500e-01 2.630000e-02 -1.258062e-01 1.080497e+00 5.934524e-01 -8.879573e-01 5.586106e-01 -8.504486e-01
<VARIANCE> 39
 3.580677e+00 9.027527e+00 1.175349e+01 1.543441e+01 2.533504e+01 2.403654e+01 2.531318e+01 1.417782e+01 9.070523e+01 1.925621e+01 3.042996e+01 2.756411e+01 1.187545e+01 5.081056e-01 1.597255e+00 1.643922e+00 1.762295e+00 3.569721e+00 1.412149e+00 3.335712e+00 3.386468e+00 7.010855e+00 3.413229e+00 3.262430e+00 2.996823e+00 2.110667e+00 7.299279e-02 1.933073e-01 6.894392e-01 3.320819e-01 3.308969e-01 2.929996e-01 4.021245e-01 3.477636e-01 2.152500e+00 4.120355e-01 3.281615e-01 6.018897e-01 1.970926e-01
<GCONST> 1.070177e+02
<TRANSP> 5
 0.000000e+00 1.000000e+00 0.000000e+00 0.000000e+00 0.000000e+00
 0.000000e+00 6.291711e-01 3.708289e-01 0.000000e+00 0.000000e+00
 0.000000e+00 0.000000e+00 8.211155e-01 1.788845e-01 0.000000e+00
 0.000000e+00 0.000000e+00 0.000000e+00 6.145300e-01 3.854701e-01
 0.000000e+00 0.000000e+00 0.000000e+00 0.000000e+00 0.000000e+00
<ENDHMM>
~h "f"
<BEGINHMM>
<NUMSTATES> 5
<STATE> 2
<MEAN> 39
 -1.968665e+01 -6.866733e+00 2.062135e+00 -3.063858e+00 3.167241e+00 -4.266023e+00 2.474437e+00 -2.059142e+00 5.621041e+00 -2.311527e+00 2.563592e+00 -8.694215e-01 6.322224e+01 -2.653756e-01 -3.853093e-01 1.996803e-01 -2.613106e-02 -1.050248e-01 -3.081664e-01 -1.218970e-01 1.414719e-01 2.842964e-01 6.474803e-02 -1.050999e-01 -1.235100e-01 5.178066e-01 4.157943e-01 5.021757e-02 1.713964e-01 -2.360956e-02 -1.588135e-01 -1.028851e-02 -1.344097e-01 -1.387453e-01 -1.525699e-02 -6.363750e-02 -3.281045e-02 -4.577744e-02 5.321461e-02
<VARIANCE> 39
 7.025614e+00 8.731771e+00 6.109365e+00 7.478070e+00 9.147679e+00 1.214893e+01 1.422368e+01 1.542012e+01 1.371394e+01 1.354662e+01 1.230328e+01 1.098495e+01 1.270023e+01 1.472639e+00 7.478963e-01 8.469389e-01 8.876463e-01 1.116611e+00 1.313293e+00 1.383627e+00 1.473300e+00 1.471575e+00 1.516078e+00 1.375945e+00 1.203350e+00 5.770842e-01 3.278649e-01 1.584672e-01 1.973372e-01 2.203473e-01 2.841758e-01 2.743236e-01 3.791218e-01 4.075105e-01 2.921541e-01 3.707746e-01 3.060987e-01 2.491193e-01 1.171558e-01
<GCONST> 8.660016e+01
<STATE> 3
<MEAN> 39
 -6.909202e+00 -8.625425e+00 7.367345e+00 -1.711908e+00 -4.201809e+00 -8.289571e+00 -8.327990e+00 -1.138298e+01 9.085283e+00 -4.037029e+00 2.748748e+00 -1.791248e+00 6.864365e+01 1.557218e+00 9.517998e-02 8.716807e-01 3.692235e-01 -1.147230e+00 -7.081425e-01 -1.043477e+00 -1.622877e+00 2.241300e-01 -3.095565e-01 -3.296730e-01 1.411660e-02 5.781462e-01 -2.474310e-01 1.672413e-01 -5.164289e-02 2.191813e-02 1.673008e-01 3.738968e-02 4.336694e-01 7.975625e-02 -2.214603e-01 1.045296e-02 -1.492439e-01 -1.553098e-02 -1.474395e-01
<VARIANCE> 39
 7.518457e+01 1.004844e+01 1.649637e+01 9.456285e+00 4.003426e+01 1.463730e+01 7.113966e+01 7.959344e+01 1.880349e+01 1.797124e+01 1.207538e+01 1.251285e+01 2.670423e+01 5.761406e+00 1.199812e+00 1.628866e+00 1.377882e+00 2.924660e+00 1.197780e+00 7.348522e+00 5.758924e+00 1.504059e+00 2.102129e+00 1.987317e+00 1.409072e+00 2.069467e+00 7.870442e-01 2.731952e-01 3.302078e-01 2.602195e-01 7.171105e-01 2.293456e-01 1.050927e+00 1.119397e+00 3.825769e-01 5.645477e-01 3.157636e-01 3.098920e-01 4.417252e-01
<GCONST> 1.128358e+02
<STATE> 4
<MEAN> 39
 -1.226627e+01 -7.277767e+00 6.783661e+00 -1.155658e+00 -7.515545e-01 -8.177411e+00 -1.034059e+00 -6.697729e+00 6.193982e+00 -2.193645e+00 -2.776855e-01 -1.596783e+00 6.603299e+01 1.452658e+00 5.755692e-01 1.260157e+00 1.470240e-01 -3.262019e-01 -2.279042e-01 1.291333e-01 -9.519835e-01 -8.092635e-01 -5.845377e-01 -3.483572e-01 -7.373183e-01 1.638222e-01 2.523869e-01 1.908489e-01 1.559946e-01 -7.849448e-02 -3.225705e-01 1.089583e-01 -3.879605e-01 -3.911786e-01 -1.273237e-01 -3.860523e-01 4.224627e-01 -3.781210e-02 1.682166e-01
<VARIANCE> 39
 6.858481e+01 1.580727e+01 1.920860e+01 2.558405e+01 3.253086e+01 3.330087e+01 4.104247e+01 7.446352e+01 2.073964e+01 1.761565e+01 2.276890e+01 1.945071e+01 2.027411e+01 7.718679e+00 2.783358e+00 3.233164e+00 2.306779e+00 5.838269e+00 2.548787e+00 7.768273e+00 3.227665e+00 2.905002e+00 6.146751e+00 2.113387e+00 1.815173e+00 3.623585e+00 5.089922e-01 4.899397e-01 5.493796e-01 4.500011e-01 5.833083e-01 4.194630e-01 4.703098e-01 5.597558e-01 3.918173e-01 7.127489e-01 4.329732e-01 4.908516e-01 2.422216e-01
<GCONST> 1.216211e+02
<TRANSP> 5
 0.000000e+00 1.000000e+00 0.000000e+00 0.000000e+00 0.000000e+00
 0.000000e+00 8.449631e-01 1.550369e-01 0.000000e+00 0.000000e+00
 0.000000e+00 0.000000e+00 6.591600e-01 3.408400e-01 0.000000e+00
 0.000000e+00 0.000000e+00 0.000000e+00 2.915478e-01 7.084522e-01
 0.000000e+00 0.000000e+00 0.000000e+00 0.000000e+00 0.000000e+00
<ENDHMM>
~h "k"
<BEGINHMM>
<NUMSTATES> 5
<STATE> 2
<MEAN> 39
 -9.662023e+00 -4.314369e+00 5.301036e+00 -1.253426e+00 -6.757601e+00 -1.125500e+01 3.658727e+00 9.179528e-01 1.604393e+00 2.261034e+00 8.398725e+00 -2.258634e-02 6.069966e+01 -9.304025e-01 3.404953e-01 -2.566531e+00 -1.774438e-01 2.206309e+00 1.405434e+00 -9.928887e-02 2.721862e-01 2.365091e+00 1.545587e+00 -1.190590e+00 1.559430e+00 -2.103102e+00 1.533074e-02 -5.200530e-01 -2.401808e-01 -1.660299e-01 -1.065485e-01 8.113261e-02 -6.019320e-01 -3.081104e-01 1.011072e-01 -5.396735e-01 1.765019e-01 -5.095067e-01 1.150124e+00
<VARIANCE> 39
 8.057420e+00 6.267812e+00 3.505948e+01 1.631372e+01 2.425401e+01 4.036615e+01 1.582261e+01 3.758765e+01 6.047322e+01 2.794716e+01 2.056930e+01 2.698002e+01 1.838221e+01 8.313327e-01 1.471810e+00 2.486564e+00 1.542839e+00 1.898709e+00 2.666177e+00 2.448626e+00 2.861458e+00 6.873316e+00 3.552387e+00 2.492384e+00 4.311141e+00 5.210304e+00 2.207349e-01 1.850680e-01 8.160110e-01 4.827667e-01 3.883795e-01 5.218221e-01 3.356758e-01 5.136040e-01 2.416499e+00 5.827245e-01 5.102620e-01 8.210997e-01 5.797738e-01
<GCONST> 1.156648e+02
<STATE> 3
<MEAN> 39
 -1.258091e+01 -7.559998e+00 -3.948617e+00 -2.185379e+00 6.042184e-01 -6.057793e+00 -7.884129e-01 -1.681360e+00 5.409929e+00 3.056803e+00 4.998641e+00 -1.684699e-01 6.349519e+01 -1.970611e+00 -9.372306e-01 -8.468198e-01 1.061885e-01 1.297577e+00 -1.679686e-01 -4.587397e-01 -6.608331e-01 4.202373e-01 -2.901093e-01 -7.291709e-01 -6.309460e-01 2.671261e+00 -4.546377e-01 3.365026e-01 8.568847e-01 1.448623e-02 -2.950183e-01 -4.012506e-01 4.717835e-01 1.682586e-01 -5.638541e-02 -2.683642e-01 2.331657e-02 4.165226e-03 1.835788e-01
<VARIANCE> 39
 1.616072e+01 2.697186e+01 7.152100e+01 2.545387e+01 2.305284e+01 3.727475e+01 2.534747e+01 3.206306e+01 3.238408e+01 1.767647e+01 2.131403e+01 1.791883e+01 3.387086e+01 3.179198e+00 2.499813e+00 7.184321e+00 2.473628e+00 2.885789e+00 4.579595e+00 2.948358e+00 3.898795e+00 4.566962e+00 2.427988e+00 2.394031e+00 2.464842e+00 2.417253e+00 4.975870e-01 5.751412e-01 1.046250e+00 4.141162e-01 5.063578e-01 8.928146e-01 5.461228e-01 5.931554e-01 8.633747e-01 4.073461e-01 4.500486e-01 4.977805e-01 1.070431e+00
<GCONST> 1.230914e+02
<STATE> 4
<MEAN> 39
 -1.745203e+01 -7.057306e+00 1.381997e+00 -2.259962e+00 2.321549e+00 -7.987923e+00 2.666806e+00 -2.749530e-01 5.680284e+00 8.397089e-02 2.645076e+00 3.709957e-01 6.538761e+01 -7.534928e-01 7.452399e-01 1.842092e-01 6.659321e-02 8.640017e-02 3.792068e-01 5.238240e-01 -6.624860e-02 2.497562e-01 -4.778547e-01 -4.803927e-01 3.453229e-02 -8.752485e-02 3.562891e-01 2.179117e-01 -3.083039e-02 -2.602562e-02 -2.363836e-01 2.368485e-01 1.560709e-02 -2.539356e-03 -1.401457e-01 2.440597e-02 1.148604e-01 3.197847e-02 -3.762184e-01
<VARIANCE> 39
 3.379335e+01 1.077841e+01 3.076983e+01 2.754350e+01 1.684728e+01 2.419773e+01 2.182812e+01 2.645016e+01 3.290074e+01 2.119022e+01 1.954565e+01 1.864726e+01 3.837043e+01 3.650564e+00 1.352256e+00 3.356855e+00 1.705137e+00 1.611020e+00 2.760327e+00 2.598350e+00 2.178261e+00 2.563719e+00 2.674152e+00 2.172591e+00 1.871331e+00 3.173258e+00 3.714402e-01 2.590846e-01 5.721912e-01 4.039740e-01 3.956336e-01 4.943517e-01 4.450673e-01 4.946260e-01 6.130457e-01 5.394487e-01 4.723169e-01 4.404989e-01 5.672761e-01
<GCONST> 1.136340e+02
<TRANSP> 5
 0.000000e+00 1.000000e+00 0.000000e+00 0.000000e+00 0.000000e+00
 0.000000e+00 7.064058e-01 2.935941e-01 0.000000e+00 0.000000e+00
 0.000000e+00 0.000000e+00 6.857998e-01 3.142002e-01 0.000000e+00
 0.000000e+00 0.000000e+00 0.000000e+00 7.525696e-01 2.474304e-01
 0.000000e+00 0.000000e+00 0.000000e+00 0.000000e+00 0.000000e+00
<ENDHMM>
~h "l"
<BEGINHMM>
<NUMSTATES> 5
<STATE> 2
<MEAN> 39
 -7.100664e+00 -3.448087e+00 1.148947e+01 -5.121336e+00 -7.207860e+00 -1.296798e+01 -9.089100e+00 -8.280279e+00 6.009754e+00 -9.624783e+00 2.168586e+00 -2.329541e+00 7.155034e+01 8.632483e-02 -3.721950e-02 -4.844624e-01 1.118177e-01 -2.015721e-01 -2.766029e-01 4.410113e-01 -2.615094e-01 -4.345871e-01 6.899021e-03 3.553601e-01 -3.167413e-01 6.857502e-02 1.712009e-01 -4.361285e-01 -2.004335e-01 6.504454e-02 -5.873275e-01 -6.221662e-02 4.189868e-01 3.474202e-01 4.869952e-02 1.555194e-01 3.751064e-01 -1.753471e-02 2.916097e-01
<VARIANCE> 39
 1.581688e+01 2.751555e+01 2.375026e+01 2.212620e+01 3.717180e+01 3.349720e+01 4.165261e+01 3.366065e+01 2.120985e+01 3.072666e+01 2.984021e+01 1.846656e+01 1.619429e+01 1.931437e+00 6.074977e+00 3.015243e+00 1.550003e+00 9.440234e+00 3.099149e+00 5.704069e+00 5.121516e+00 1.913455e+00 2.221435e+00 4.762142e+00 1.753252e+00 3.393422e+00 3.035423e-01 8.803215e-01 6.637008e-01 3.338329e-01 1.233375e+00 6.888291e-01 8.240849e-01 7.897367e-01 4.132708e-01 4.330599e-01 7.627324e-01 3.932492e-01 5.468920e-01
<GCONST> 1.225649e+02
<STATE> 3
<MEAN> 39
 -4.950062e+00 -8.049945e+00 8.149668e+00 -2.830395e+00 -1.331580e+01 -1.579153e+01 -1.679898e+00 -7.260175e+00 3.613764e+00 -8.905907e+00 5.005356e+00 -3.829121e+00 7.334239e+01 -1.148366e-01 7.545834e-01 -8.344021e-02 1.903175e-01 6.574854e-01 2.889162e-01 8.861747e-01 3.554594e-01 -8.101332e-01 3.463750e-01 -5.309867e-01 -2.237062e-01 -9.336581e-01 -7.260396e-02 2.560150e-01 2.742124e-02 4.663537e-02 4.439718e-01 2.479182e-01 -1.267204e-01 7.978997e-02 -2.623999e-02 3.580003e-02 -1.081149e-01 3.384634e-02 -3.147804e-01
<VARIANCE> 39
 9.947021e+00 1.294783e+01 8.423732e+00 1.702938e+01 2.908854e+01 2.428112e+01 3.528716e+01 1.479706e+01 2.647064e+01 1.752171e+01 3.674233e+01 1.257494e+01 2.721152e+01 3.860699e-01 1.843150e+00 8.750443e-01 8.082528e-01 1.995128e+00 1.270604e+00 1.229013e+00 1.556086e+00 1.169582e+00 1.277739e+00 1.056924e+00 8.710324e-01 9.508998e-01 9.893346e-02 2.403115e-01 1.853030e-01 2.018928e-01 2.670043e-01 2.398591e-01 2.795264e-01 2.593330e-01 2.165606e-01 2.098752e-01 2.743121e-01 1.778053e-01 7.008614e-02
<GCONST> 8.989169e+01
<STATE> 4
<MEAN> 39
 -1.069853e+01 -2.203940e+00 2.386025e+00 -1.265119e+00 1.188920e+00 -4.935780e+00 8.241186e-01 -3.195462e+00 3.336975e+00 -1.438980e+00 2.082719e+00 -5.329704e-03 5.736605e+01 -3.417120e-01 3.169041e-02 -2.754983e-01 -1.484893e-01 3.608850e-01 4.522788e-01 4.096586e-01 3.014114e-01 -1.318886e-01 2.743994e-01 2.346190e-01 9.750402e-02 -4.310758e-01 4.716194e-02 -9.955657e-02 1.292675e-02 -2.046139e-02 -9.204060e-02 -3.156696e-02 -7.741492e-02 -7.510827e-02 8.184160e-02 -5.689332e-02 -1.218654e-02 -1.204894e-02 1.228251e-01
<VARIANCE> 39
 1.084002e+01 7.140043e+00 1.197925e+01 1.052359e+01 1.989401e+01 2.031391e+01 1.840045e+01 1.773074e+01 1.504687e+01 1.931384e+01 1.783524e+01 1.409671e+01 1.821675e+01 5.829378e-01 8.024688e-01 9.169075e-01 1.126602e+00 1.807529e+00 1.507553e+00 1.631126e+00 1.570656e+00 1.586531e+00 1.780136e+00 1.794267e+00 1.405393e+00 6.815408e-01 9.137971e-02 1.795895e-01 1.687540e-01 2.249081e-01 2.980019e-01 2.895271e-01 3.075644e-01 2.949942e-01 3.178132e-01 3.396235e-01 3.565669e-01 3.219462e-01 8.314422e-02
<GCONST> 9.044029e+01
<TRANSP> 5
 0.000000e+00 1.000000e+00 0.000000e+00 0.000000e+00 0.000000e+00
 0.000000e+00 7.099315e-01 2.900685e-01 0.000000e+00 0.000000e+00
 0.000000e+00 0.000000e+00 7.667981e-01 2.332019e-01 0.000000e+00
 0.000000e+00 0.000000e+00 0.000000e+00 8.779138e-01 1.220862e-01
 0.000000e+00 0.000000e+00 0.000000e+00 0.000000e+00 0.000000e+00
<ENDHMM>
~h "m"
<BEGINHMM>
<NUMSTATES> 5
<STATE> 2
<MEAN> 39
 -1.303197e+01 -1.773663e+00 5.593318e+00 -1.009427e+00 3.686970e+00 -3.124827e+00 4.494441e+00 -3.847023e+00 3.659042e+00 -9.979590e-01 3.765028e+00 2.031508e-01 5.864284e+01 2.059692e+00 7.974113e-01 6.994299e-01 1.718879e+00 1.072602e+00 -7.544416e-01 -7.172425e-01 -2.083125e+00 -7.097957e-01 -5.608155e-01 1.622948e-01 -3.152387e-01 8.167980e-01 3.050842e-01 -4.533390e-01 2.424327e-01 6.930570e-02 -5.696818e-01 -3.802486e-01 -6.023570e-01 -1.044085e+00 8.867034e-02 -3.100962e-01 9.042980e-02 -7.405244e-02 9.445345e-01
<VARIANCE> 39
 1.734087e+01 1.002453e+01 1.311084e+01 1.797662e+01 1.191467e+01 1.546499e+01 2.027028e+01 2.282946e+01 1.592077e+01 1.243855e+01 1.264444e+01 1.419542e+01 7.720059e+00 1.632607e+00 1.229812e+00 2.259823e+00 1.573931e+00 2.818929e+00 2.321104e+00 3.193336e+00 6.120863e+00 2.894577e+00 1.485873e+00 3.260139e+00 1.504478e+00 3.545928e+00 2.769072e-01 3.486040e-01 3.770330e-01 4.791442e-01 5.609170e-01 4.092509e-01 4.605067e-01 5.936041e-01 6.171606e-01 2.767523e-01 6.076108e-01 2.763921e-01 3.060804e-01
<GCONST> 1.057527e+02
<STATE> 3
<MEAN> 39
 -4.174578e+00 -2.555067e+00 7.367145e+00 4.108164e+00 2.878544e+00 -9.075802e+00 -1.325569e+00 -1.697714e+01 4.448103e-01 -4.288122e+00 6.696517e+00 -3.532993e-01 6.591595e+01 1.618553e+00 -1.789506e+00 -7.044547e-01 -1.400226e+00 -1.718620e+00 -8.748317e-02 -1.155217e+00 -1.453780e+00 1.453634e+00 -8.656543e-01 -1.734146e-01 1.089250e-02 2.466476e+00 -3.622502e-01 -6.453149e-01 -4.723883e-01 -1.026876e+00 -5.498753e-01 7.322614e-01 1.444161e-01 1.218909e+00 1.014583e+00 1.284877e-01 -4.444602e-01 -3.206306e-01 1.285562e-01
<VARIANCE> 39
 5.334982e+00 1.563240e+01 1.066023e+01 1.945043e+01 1.895981e+01 2.526100e+01 1.548307e+01 2.557567e+01 4.654650e+01 1.628042e+01 4.529581e+01 1.849918e+01 1.620011e+01 1.439563e+00 2.621003e+00 2.781033e+00 5.966084e+00 2.767686e+00 4.387650e+00 2.568510e+00 7.090683e+00 6.599525e+00 1.383252e+00 3.910327e+00 1.957409e+00 1.874303e+00 1.876152e-01 4.855573e-01 4.125611e-01 4.823553e-01 3.607180e-01 3.613344e-01 3.648827e-01 6.810645e-01 9.110039e-01 2.932231e-01 6.278428e-01 6.453694e-01 3.301550e-01
<GCONST> 1.133734e+02
<STATE> 4
<MEAN> 39
 -2.903704e-01 -1.454683e+01 1.521246e+00 -9.424309e+00 -5.504071e+00 -1.025185e+00 -3.129738e+00 -1.132351e+01 1.596412e+01 -3.709888e+00 2.492459e+00 -9.191300e+00 7.709830e+01 1.969458e-02 -8.240682e-01 2.227738e-01 -5.908933e-01 -7.448559e-01 2.737584e-01 -5.225942e-01 1.091379e+00 1.312105e+00 1.535726e-01 -4.874190e-01 -8.766845e-01 6.362480e-01 -2.866561e-01 5.066412e-01 3.909827e-01 4.806652e-01 3.972619e-01 -3.052642e-01 7.166824e-02 9.599713e-02 -5.622704e-01 8.135531e-04 1.567190e-01 1.664071e-01 -5.127179e-01
<VARIANCE> 39
 4.907559e+00 1.285202e+01 2.079339e+01 2.352006e+01 1.763648e+01 3.736358e+01 2.030135e+01 2.127708e+01 2.226788e+01 1.717733e+01 2.657124e+01 6.584764e+01 1.511384e+01 4.586704e-01 3.766323e+00 2.007313e+00 2.352798e+00 1.944801e+00 1.586314e+00 2.021286e+00 1.927316e+00 4.924254e+00 1.104620e+00 2.058125e+00 3.762390e+00 2.790799e+00 9.891908e-02 2.318567e-01 1.483539e-01 2.939564e-01 3.691816e-01 2.415992e-01 3.653204e-01 4.288785e-01 5.745491e-01 2.426234e-01 3.734209e-01 3.966174e-01 1.990287e-01
<GCONST> 1.033822e+02
<TRANSP> 5
 0.000000e+00 1.000000e+00 0.000000e+00 0.000000e+00 0.000000e+00
 0.000000e+00 6.432244e-01 3.567756e-01 0.000000e+00 0.000000e+00
 0.000000e+00 0.000000e+00 7.133886e-01 2.866114e-01 0.000000e+00
 0.000000e+00 0.000000e+00 0.000000e+00 8.248202e-01 1.751798e-01
 0.000000e+00 0.000000e+00 0.000000e+00 0.000000e+00 0.000000e+00
<ENDHMM>
~h "n"
<BEGINHMM>
<NUMSTATES> 5
<STATE> 2
<MEAN> 39
 -5.894190e+00 -2.746449e+00 8.290749e+00 3.317554e+00 -1.519183e+00 -9.332972e+00 -9.011549e-01 -1.106280e+01 2.963790e-01 -2.784511e+00 2.643559e+00 -4.711676e+00 6.300502e+01 -1.638482e-01 6.997795e-01 -1.580644e-01 2.178891e-01 6.482688e-01 6.878709e-01 3.400723e-01 7.783894e-02 -3.606372e-01 6.082534e-01 -5.243552e-01 -4.874220e-02 -9.568318e-01 -1.504700e-01 1.053312e-02 -1.036352e-01 -3.070985e-01 1.767651e-02 1.554305e-01 1.132602e-01 4.543577e-01 1.287889e-01 -1.018447e-01 1.191992e-01 1.234575e-01 3.718849e-02
<VARIANCE> 39
 1.240394e+01 1.247869e+01 1.477538e+01 1.429779e+01 1.879416e+01 2.405771e+01 2.663724e+01 4.444800e+01 2.322864e+01 1.591698e+01 1.486309e+01 1.447964e+01 1.123376e+01 5.044708e-01 1.255677e+00 9.440895e-01 1.170629e+00 1.692569e+00 1.308527e+00 1.935398e+00 3.661936e+00 2.074171e+00 2.299412e+00 1.141214e+00 1.263506e+00 8.636985e-01 7.420710e-02 3.072144e-01 1.942396e-01 2.423270e-01 3.173451e-01 2.147137e-01 4.204036e-01 3.280928e-01 3.672164e-01 3.593139e-01 2.439078e-01 2.213232e-01 1.786887e-01
<GCONST> 9.497382e+01
<STATE> 3
<MEAN> 39
 -9.621664e+00 -7.727925e-01 5.668484e+00 1.315652e+00 2.752301e+00 -3.790523e+00 2.270122e+00 -4.180807e+00 1.855691e+00 -1.698130e+00 1.220730e+00 -2.801617e+00 5.833475e+01 -6.982706e-01 -1.856585e-01 -9.356051e-01 -7.146694e-01 4.516322e-01 8.683500e-01 6.846167e-01 1.063433e+00 6.807763e-01 3.508240e-01 2.549001e-01 6.709017e-01 -7.164748e-01 -2.825758e-02 -2.569908e-01 -1.445514e-01 -1.902156e-01 -2.659159e-01 -2.004908e-01 -1.591345e-01 -1.075200e-01 1.294664e-01 1.037027e-02 1.828080e-01 8.671995e-02 2.009341e-01
<VARIANCE> 39
 1.529535e+01 1.397353e+01 1.352108e+01 1.316423e+01 2.063485e+01 2.547806e+01 1.815948e+01 2.421046e+01 2.410649e+01 1.443384e+01 1.429501e+01 1.577098e+01 7.505417e+00 1.198153e+00 1.714566e+00 1.376540e+00 1.362934e+00 1.892493e+00 1.934807e+00 2.442072e+00 2.438737e+00 2.252802e+00 1.485023e+00 1.639207e+00 1.332257e+00 7.151400e-01 2.216020e-01 3.970033e-01 2.607734e-01 2.645078e-01 4.097899e-01 3.856515e-01 4.414849e-01 4.682942e-01 5.157517e-01 3.623947e-01 3.649655e-01 2.832786e-01 1.410691e-01
<GCONST> 9.951419e+01
<STATE> 4
<MEAN> 39
 -1.218043e+01 -2.523744e+00 1.085352e+00 -1.913322e+00 2.674615e+00 -2.417502e+00 3.271710e+00 -1.492441e+00 3.713376e+00 -3.340880e-01 2.980752e+00 -8.401807e-02 5.557924e+01 -3.791028e-02 2.748033e-02 6.065092e-03 -4.459215e-03 7.742727e-03 -1.276406e-02 1.884621e-02 -7.011417e-02 -1.436648e-02 2.055164e-03 9.917782e-03 9.932878e-03 2.593020e-02 2.945658e-02 3.762384e-03 1.195377e-01 6.890059e-02 -1.920802e-02 -6.567129e-02 -3.806985e-02 -1.186745e-01 -2.819026e-02 -3.321586e-02 -4.374168e-02 -7.369811e-02 1.373675e-01
<VARIANCE> 39
 3.244867e+00 3.086551e+00 5.430452e+00 6.278473e+00 8.743615e+00 1.156802e+01 1.164389e+01 1.375937e+01 1.315118e+01 1.189336e+01 1.154773e+01 1.177790e+01 2.502268e+00 4.464106e-01 5.422974e-01 9.312376e-01 9.455959e-01 9.747171e-01 1.231279e+00 1.341271e+00 1.620995e+00 1.531478e+00 1.377544e+00 1.362209e+00 1.361702e+00 2.570440e-01 9.596452e-02 1.010742e-01 1.618089e-01 1.674138e-01 2.125934e-01 2.813488e-01 2.845125e-01 3.645113e-01 3.220864e-01 2.877710e-01 2.757839e-01 2.763626e-01 6.017464e-02
<GCONST> 7.641507e+01
<TRANSP> 5
 0.000000e+00 1.000000e+00 0.000000e+00 0.000000e+00 0.000000e+00
 0.000000e+00 6.460139e-01 3.539861e-01 0.000000e+00 0.000000e+00
 0.000000e+00 0.000000e+00 5.716429e-01 4.283571e-01 0.000000e+00
 0.000000e+00 0.000000e+00 0.000000e+00 9.023654e-01 9.763457e-02
 0.000000e+00 0.000000e+00 0.000000e+00 0.000000e+00 0.000000e+00
<ENDHMM>
~h "o"
<BEGINHMM>
<NUMSTATES> 5
<STATE> 2
<MEAN> 39
 -1.139453e+00 -1.865904e+00 2.848402e+00 -1.505124e+01 -1.290502e+01 2.216768e+00 1.566795e+00 -1.255459e+01 4.039832e+00 -6.815116e+00 1.724999e+00 1.850312e+00 6.693095e+01 8.116379e-02 1.914854e-01 -2.296075e-01 -6.349186e-01 -3.395638e-01 2.005649e-01 1.925448e-01 1.450335e-01 8.231345e-02 -3.363840e-01 -1.899183e-01 4.596091e-01 -1.476440e-01 -1.716270e-01 6.402580e-02 1.994705e-02 3.399227e-01 3.648452e-01 -1.207891e-01 -5.952255e-03 1.877351e-01 -5.674869e-02 1.426106e-01 9.610073e-03 -6.215924e-02 -1.498404e-01
<VARIANCE> 39
 3.888956e+01 2.934795e+01 1.620275e+01 6.234334e+01 1.055704e+02 2.381636e+01 1.312454e+01 6.365862e+01 2.887792e+01 2.538905e+01 3.179792e+01 2.736283e+01 4.039036e+01 1.183168e+00 1.298988e+00 9.376168e-01 3.240131e+00 4.965864e+00 1.652592e+00 1.256495e+00 2.550061e+00 2.252671e+00 1.830881e+00 2.254123e+00 2.206645e+00 1.024523e+00 1.727232e-01 1.756078e-01 2.070504e-01 3.171075e-01 4.209958e-01 3.493939e-01 2.010417e-01 4.509172e-01 4.307373e-01 3.881340e-01 4.082823e-01 3.835945e-01 1.590896e-01
<GCONST> 1.090959e+02
<STATE> 3
<MEAN> 39
 -6.945509e+00 -1.316469e+00 2.441520e+00 -5.109678e+00 2.312280e-02 -1.058902e+00 1.680851e+00 -8.224949e+00 2.582642e+00 -4.436263e+00 3.452222e+00 1.795932e+00 6.080244e+01 -8.639527e-01 9.335946e-02 7.985522e-02 1.348758e+00 1.150616e+00 -7.044926e-01 -2.518834e-01 8.349752e-01 -1.237545e-02 1.052201e+00 3.803549e-01 -2.877661e-01 -8.932276e-01 1.971373e-02 -9.015647e-02 -7.270891e-02 -1.768115e-01 -2.613100e-01 -9.080646e-03 5.536687e-02 5.630968e-02 1.500825e-01 7.591182e-02 -4.437758e-02 -5.615268e-02 8.880421e-02
<VARIANCE> 39
 2.494542e+01 1.022160e+01 1.412214e+01 3.383372e+01 2.581133e+01 2.929394e+01 2.463383e+01 5.318003e+01 1.471074e+01 2.771004e+01 1.748921e+01 1.705001e+01 2.124403e+01 9.528588e-01 9.635326e-01 1.517944e+00 3.606509e+00 3.782498e+00 2.436378e+00 2.252236e+00 2.786438e+00 2.123326e+00 2.062599e+00 1.875914e+00 1.634172e+00 8.487666e-01 1.353493e-01 2.557899e-01 2.408949e-01 4.796432e-01 5.053454e-01 4.002670e-01 4.132736e-01 3.696997e-01 4.501703e-01 3.499373e-01 3.535690e-01 3.223275e-01 1.287621e-01
<GCONST> 1.049952e+02
<STATE> 4
<MEAN> 39
 -1.198214e+01 -2.237993e+00 3.788215e-01 -2.979475e+00 1.372376e+00 -3.124694e+00 1.955327e+00 -1.857735e+00 3.445145e+00 3.081236e-03 3.546164e+00 7.735434e-01 5.573475e+01 -2.058151e-01 -1.736429e-01 -3.989105e-02 8.268680e-02 8.822690e-02 -1.128184e-02 1.065031e-01 7.231099e-02 8.893380e-02 2.356776e-02 -8.145282e-02 -1.339056e-01 -8.023775e-03 -9.067032e-03 -7.932254e-02 4.746375e-02 -4.168873e-02 1.933806e-02 5.251362e-02 3.986223e-02 -4.326224e-02 3.640443e-03 -1.018343e-01 -6.051711e-02 -5.853237e-02 1.798850e-01
<VARIANCE> 39
 3.867910e+00 3.424395e+00 4.617289e+00 7.219360e+00 8.932176e+00 1.085806e+01 1.261160e+01 1.341192e+01 1.242359e+01 1.217712e+01 1.193062e+01 1.097906e+01 1.708294e+00 2.917093e-01 4.847237e-01 6.043488e-01 7.519572e-01 9.877227e-01 1.306188e+00 1.465460e+00 1.467768e+00 1.332109e+00 1.506111e+00 1.373730e+00 1.166642e+00 1.844640e-01 8.735823e-02 1.149337e-01 1.579483e-01 1.831519e-01 2.137282e-01 2.831818e-01 3.178623e-01 3.369182e-01 2.699997e-01 3.261295e-01 3.051349e-01 2.901882e-01 9.752762e-02
<GCONST> 7.529151e+01
<TRANSP> 5
 0.000000e+00 1.000000e+00 0.000000e+00 0.000000e+00 0.000000e+00
 0.000000e+00 7.165390e-01 2.834609e-01 0.000000e+00 0.000000e+00
 0.000000e+00 0.000000e+00 5.426707e-01 4.573293e-01 0.000000e+00
 0.000000e+00 0.000000e+00 0.000000e+00 8.635958e-01 1.364042e-01
 0.000000e+00 0.000000e+00 0.000000e+00 0.000000e+00 0.000000e+00
<ENDHMM>
~h "r"
<BEGINHMM>
<NUMSTATES> 5
<STATE> 2
<MEAN> 39
 -3.866514e+00 -5.547626e+00 2.677187e+00 -4.088442e+00 -5.116212e-01 -2.135003e+00 -4.756189e+00 -5.889252e+00 1.014171e+01 -2.023331e+00 -1.169216e+00 -5.241673e+00 6.601418e+01 -5.883262e-01 7.326173e-01 -5.988697e-01 5.234640e-01 1.400758e+00 6.640450e-01 1.037443e+00 5.324389e-01 -5.919636e-01 7.724273e-01 -1.132038e-01 5.041596e-01 -1.448955e+00 -1.514947e-01 -6.565969e-02 6.315987e-03 -4.804837e-02 -1.872594e-01 -1.915027e-01 1.214370e-01 6.736995e-02 -3.746596e-02 -3.990916e-02 2.238736e-01 1.080531e-01 -1.239737e-02
<VARIANCE> 39
 1.461389e+01 2.573054e+01 2.112906e+01 2.071715e+01 3.239524e+01 2.359116e+01 5.595402e+01 2.604770e+01 4.498816e+01 2.420354e+01 2.281232e+01 2.119862e+01 3.338089e+01 9.939808e-01 1.728563e+00 1.720633e+00 1.893035e+00 2.076197e+00 2.046386e+00 2.490170e+00 2.002600e+00 2.817517e+00 1.654036e+00 2.100403e+00 1.755952e+00 1.511260e+00 1.196299e-01 3.505972e-01 2.508292e-01 4.060828e-01 3.771480e-01 3.288671e-01 4.606270e-01 3.677689e-01 3.808413e-01 3.120471e-01 3.398948e-01 3.072091e-01 1.890583e-01
<GCONST> 1.069533e+02
<STATE> 3
<MEAN> 39
 -1.151808e+01 -2.813049e+00 6.413822e-01 -2.434542e+00 2.328005e+00 -2.695264e+00 2.449304e+00 -1.653147e+00 4.398680e+00 4.654773e-01 2.751754e+00 -3.857178e-01 5.626618e+01 -2.768781e-01 -1.529852e-01 -2.161442e-01 -1.964374e-01 -1.834910e-02 9.062987e-02 1.704924e-01 1.839866e-02 -1.591914e-01 2.980949e-02 8.460714e-02 1.362074e-01 -1.340055e-01 7.484372e-02 -2.885031e-02 6.143316e-02 -3.315045e-02 -5.380430e-02 -4.874502e-04 -4.434092e-02 -4.822750e-02 2.983543e-02 -8.353824e-02 -5.719498e-02 -8.799539e-02 1.468480e-01
<VARIANCE> 39
 4.013806e+00 4.860731e+00 5.546333e+00 7.558483e+00 1.041160e+01 1.253603e+01 1.303649e+01 1.437604e+01 1.421236e+01 1.356022e+01 1.246833e+01 1.330622e+01 7.436605e+00 3.791254e-01 4.346227e-01 7.805119e-01 8.546806e-01 1.099752e+00 1.268246e+00 1.429099e+00 1.490813e+00 1.576831e+00 1.474965e+00 1.497118e+00 1.357132e+00 2.867125e-01 7.454222e-02 9.988228e-02 1.295085e-01 1.730220e-01 2.462178e-01 2.562349e-01 3.017340e-01 3.208645e-01 3.093149e-01 3.321028e-01 3.353765e-01 2.862911e-01 6.456602e-02
<GCONST> 7.889701e+01
<STATE> 4
<MEAN> 39
 -1.092674e+01 -6.543012e+00 -1.389255e+00 -6.868033e+00 2.809659e+00 1.973603e+00 4.265314e+00 -3.243613e+00 4.883172e+00 2.445288e+00 1.245692e+00 -1.625978e-01 6.003589e+01 1.171092e-01 -3.128737e-01 -3.539353e-01 -1.022636e+00 -5.458997e-01 1.783264e-01 5.721118e-01 2.256775e-01 6.374240e-02 -1.737873e-01 -6.537725e-01 7.925247e-02 7.034275e-01 2.125581e-01 1.222495e-01 1.036872e-01 3.086099e-02 -2.138348e-01 -3.151610e-01 -1.792276e-01 -4.838915e-03 -2.182072e-02 -3.354417e-01 4.609413e-02 -1.462168e-01 2.943109e-01
<VARIANCE> 39
 1.007594e+01 1.544143e+01 1.302662e+01 3.235347e+01 2.006059e+01 3.255582e+01 1.818066e+01 2.591267e+01 1.767660e+01 2.120194e+01 2.245481e+01 2.712565e+01 2.394380e+01 1.100720e+00 1.622000e+00 1.445276e+00 2.312755e+00 1.796353e+00 2.597965e+00 1.805668e+00 2.250733e+00 2.122685e+00 2.050303e+00 3.099649e+00 2.196239e+00 1.390339e+00 2.004918e-01 4.273535e-01 3.102651e-01 4.293568e-01 4.056465e-01 4.725631e-01 3.230417e-01 4.949806e-01 4.321812e-01 4.570122e-01 5.636407e-01 5.008607e-01 3.489767e-01
<GCONST> 1.074688e+02
<TRANSP> 5
 0.000000e+00 1.000000e+00 0.000000e+00 0.000000e+00 0.000000e+00
 0.000000e+00 7.829393e-01 2.170608e-01 0.000000e+00 0.000000e+00
 0.000000e+00 0.000000e+00 8.592175e-01 1.407825e-01 0.000000e+00
 0.000000e+00 0.000000e+00 0.000000e+00 5.209684e-01 4.790316e-01
 0.000000e+00 0.000000e+00 0.000000e+00 0.000000e+00 0.000000e+00
<ENDHMM>
~h "s"
<BEGINHMM>
<NUMSTATES> 5
<STATE> 2
<MEAN> 39
 -1.868806e+01 5.108789e-01 1.603222e-01 -1.739184e+00 9.140775e-01 -7.237208e+00 2.868197e+00 -5.049012e+00 4.204612e+00 -2.114891e+00 2.250485e+00 -1.800667e+00 6.685971e+01 -3.557417e+00 7.652397e-01 -1.216769e+00 -7.149903e-01 6.927605e-01 1.172509e+00 5.512705e-01 1.146264e+00 1.068384e+00 -2.356995e-01 -2.999635e-02 1.073824e+00 6.151391e-01 2.089370e-01 -3.521610e-02 -2.236187e-02 1.490297e-01 -2.015185e-01 -2.315129e-02 7.458127e-02 -1.330193e-01 -1.706183e-01 1.159538e-01 1.646947e-01 -1.070885e-01 -4.833306e-02
<VARIANCE> 39
 7.975401e+01 1.579752e+01 3.548339e+01 1.764570e+01 1.804788e+01 2.226018e+01 1.539707e+01 2.131738e+01 2.819358e+01 1.346610e+01 1.258651e+01 1.516792e+01 1.501177e+01 4.278672e+00 1.773318e+00 3.252141e+00 1.630725e+00 2.427568e+00 2.182081e+00 2.070002e+00 2.013515e+00 2.624142e+00 1.594678e+00 1.827375e+00 1.693611e+00 9.151551e-01 1.201504e+00 3.536144e-01 6.913828e-01 3.845176e-01 3.987826e-01 5.499053e-01 3.810128e-01 4.290327e-01 4.821195e-01 2.992295e-01 3.514553e-01 3.209461e-01 2.506875e-01
<GCONST> 1.091958e+02
<STATE> 3
<MEAN> 39
 -2.791277e+01 2.052131e+00 -1.980628e+00 -2.610106e+00 3.199060e+00 -4.665180e+00 6.128195e+00 -3.081071e+00 7.791337e+00 -2.262841e+00 3.454967e+00 8.954806e-01 6.770914e+01 5.494533e-01 -1.260880e-01 4.923712e-01 -4.231975e-02 1.938821e-01 2.827164e-02 3.216148e-01 -4.655316e-02 1.004454e-01 -4.972548e-02 1.652434e-01 8.536427e-02 -6.372697e-01 4.115289e-01 -1.760585e-01 2.010356e-02 6.528488e-02 -5.359283e-03 -1.907309e-02 -1.101265e-01 9.822969e-04 -3.745566e-02 6.163938e-02 4.493452e-05 -5.621821e-02 -1.935216e-01
<VARIANCE> 39
 7.983522e+00 7.929839e+00 1.323083e+01 1.084867e+01 1.294258e+01 1.349342e+01 1.534991e+01 1.471411e+01 1.677677e+01 1.510924e+01 1.411681e+01 1.199615e+01 5.975602e+00 1.812503e+00 1.375117e+00 9.909008e-01 1.107961e+00 1.082207e+00 1.476879e+00 1.415127e+00 1.488504e+00 1.539773e+00 1.521970e+00 1.468088e+00 1.190536e+00 6.093782e-01 1.421839e-01 1.566076e-01 2.238316e-01 2.178084e-01 2.233718e-01 3.142484e-01 2.988555e-01 3.242082e-01 3.240861e-01 3.077185e-01 3.014298e-01 2.477801e-01 4.960954e-02
<GCONST> 8.724503e+01
<STATE> 4
<MEAN> 39
 -1.355078e+01 -2.526207e+00 7.932740e-01 -1.530441e+00 3.207289e+00 -2.472187e+00 4.535880e+00 -1.274822e+00 5.083012e+00 -4.467307e-01 3.794818e+00 3.667085e-01 5.623690e+01 5.386790e-01 -1.398988e-01 -7.410856e-02 3.467110e-02 -8.680663e-02 2.222638e-01 -2.769946e-01 9.819469e-02 -3.419491e-01 7.412144e-02 -1.244976e-01 -1.171155e-01 -4.113432e-01 -2.388903e-01 5.741611e-02 -1.130118e-02 -6.400211e-02 7.782793e-03 -3.244235e-02 3.124092e-02 -5.879076e-02 3.354301e-02 -4.835438e-02 -1.688457e-02 -1.871954e-02 2.205199e-01
<VARIANCE> 39
 5.356182e+00 3.987593e+00 6.219208e+00 6.823150e+00 9.449394e+00 1.258828e+01 1.357891e+01 1.399131e+01 1.730729e+01 1.380820e+01 1.331748e+01 1.160513e+01 4.265301e+00 1.523914e+00 5.570136e-01 7.659590e-01 8.814706e-01 1.025498e+00 1.397277e+00 1.467234e+00 1.589688e+00 1.726110e+00 1.600485e+00 1.486154e+00 1.313979e+00 9.227914e-01 1.598726e-01 1.403774e-01 1.682474e-01 1.784475e-01 2.109105e-01 2.778636e-01 2.875621e-01 3.185608e-01 3.531523e-01 3.221372e-01 3.089604e-01 2.769109e-01 8.624094e-02
<GCONST> 8.312211e+01
<TRANSP> 5
 0.000000e+00 1.000000e+00 0.000000e+00 0.000000e+00 0.000000e+00
 0.000000e+00 6.667390e-01 3.332611e-01 0.000000e+00 0.000000e+00
 0.000000e+00 0.000000e+00 9.124525e-01 8.754750e-02 0.000000e+00
 0.000000e+00 0.000000e+00 0.000000e+00 9.208131e-01 7.918688e-02
 0.000000e+00 0.000000e+00 0.000000e+00 0.000000e+00 0.000000e+00
<ENDHMM>
~h "t"
<BEGINHMM>
<NUMSTATES> 5
<STATE> 2
<MEAN> 39
 -1.476051e+01 -4.142318e+00 -7.695658e-01 -4.673970e+00 5.154942e+00 -4.518202e+00 4.526308e+00 -2.427993e+00 6.906465e+00 -4.337506e-01 2.938366e+00 5.049025e-01 6.217442e+01 -6.779343e-01 -2.516883e-01 5.832774e-02 -4.627605e-01 1.920550e-01 -6.897535e-01 -4.544622e-02 -4.536795e-03 1.843152e-01 -2.500388e-01 -1.537718e-02 2.216881e-01 5.667370e-01 1.237917e-01 -1.149077e-01 1.502241e-01 1.354045e-01 8.786474e-02 4.275876e-02 -1.106097e-01 -2.376112e-02 5.502224e-02 -2.329580e-03 -2.913843e-02 -8.408863e-02 6.530408e-02
<VARIANCE> 39
 2.491852e+01 1.292923e+01 1.886534e+01 2.125130e+01 1.563312e+01 3.691607e+01 2.016020e+01 1.832377e+01 1.619903e+01 1.551725e+01 1.394552e+01 1.354963e+01 3.714846e+01 2.664747e+00 1.529682e+00 2.068495e+00 2.432968e+00 1.869361e+00 4.285601e+00 1.883880e+00 2.486924e+00 1.893163e+00 1.989028e+00 1.656685e+00 1.662731e+00 6.004874e+00 7.585843e-01 3.576356e-01 3.228582e-01 5.435390e-01 3.769565e-01 1.047342e+00 3.425465e-01 5.812491e-01 4.290035e-01 4.089516e-01 3.454472e-01 3.557513e-01 1.774389e+00
<GCONST> 1.120260e+02
<STATE> 3
<MEAN> 39
 -1.392892e+01 -6.133161e+00 1.013137e+00 -3.508988e+00 6.724435e+00 -5.113791e+00 3.284042e+00 -1.167158e+00 7.216323e+00 -1.176508e+00 2.282209e+00 6.363583e-01 6.052711e+01 1.470443e+00 3.920618e-01 -1.926516e-01 8.434438e-01 -5.189123e-01 1.448449e+00 -1.298643e-01 5.155282e-01 -6.360424e-01 3.641526e-01 8.626498e-02 -1.548702e-01 -1.851686e+00 -1.592087e-01 2.789436e-01 -1.813113e-01 -1.486900e-01 -2.953565e-01 -2.226465e-03 1.765849e-01 -1.704683e-01 -1.286864e-01 3.457189e-02 1.331119e-01 4.897932e-02 1.335812e-01
<VARIANCE> 39
 1.001477e+01 7.293842e+00 8.276047e+00 1.069095e+01 1.357970e+01 1.957779e+01 1.881826e+01 1.743239e+01 1.961444e+01 1.581471e+01 1.345205e+01 1.414513e+01 1.110597e+01 1.188048e+00 1.269307e+00 9.132463e-01 1.398501e+00 1.402729e+00 1.611395e+00 1.670567e+00 1.675758e+00 1.838240e+00 1.634015e+00 1.683475e+00 1.545935e+00 5.912114e-01 3.193583e-01 1.983416e-01 2.196889e-01 2.765447e-01 3.003023e-01 4.367999e-01 3.035777e-01 3.398538e-01 3.541833e-01 3.759665e-01 3.563905e-01 3.311637e-01 1.771793e-01
<GCONST> 9.350513e+01
<STATE> 4
<MEAN> 39
 -1.242447e+01 -2.905422e+00 3.356610e-01 -2.200054e+00 3.321875e+00 -1.585340e+00 3.720658e+00 -1.186715e+00 3.823418e+00 -4.133002e-01 2.989497e+00 1.870713e-02 5.536697e+01 -4.746585e-02 6.072885e-02 8.322898e-02 6.883521e-02 -1.187793e-01 5.626105e-03 -1.382141e-02 -1.074495e-01 -1.477035e-01 -5.987618e-02 -2.243408e-02 -8.543254e-02 -6.637580e-02 -4.680082e-02 -7.296381e-02 3.249900e-02 -2.705677e-02 6.054721e-02 -8.173368e-02 -1.162038e-03 -2.885246e-02 6.449080e-02 -3.892127e-02 -1.636168e-02 -1.977527e-02 1.461960e-01
<VARIANCE> 39
 1.739518e+00 2.864693e+00 4.018583e+00 6.499121e+00 7.699507e+00 9.309999e+00 1.134133e+01 1.081512e+01 1.243201e+01 1.179172e+01 1.172308e+01 1.070182e+01 1.586757e+00 3.035536e-01 3.701546e-01 5.025721e-01 7.600237e-01 9.059134e-01 1.148785e+00 1.285815e+00 1.368476e+00 1.481479e+00 1.297483e+00 1.423397e+00 1.181612e+00 1.802288e-01 6.539771e-02 8.099522e-02 1.052203e-01 1.639777e-01 1.891993e-01 2.564694e-01 2.721598e-01 2.781922e-01 2.972280e-01 2.677873e-01 2.946758e-01 2.510284e-01 5.842275e-02
<GCONST> 6.994344e+01
<TRANSP> 5
 0.000000e+00 1.000000e+00 0.000000e+00 0.000000e+00 0.000000e+00
 0.000000e+00 8.786779e-01 1.213220e-01 0.000000e+00 0.000000e+00
 0.000000e+00 0.000000e+00 7.295051e-01 2.704949e-01 0.000000e+00
 0.000000e+00 0.000000e+00 0.000000e+00 9.106956e-01 8.930444e-02
 0.000000e+00 0.000000e+00 0.000000e+00 0.000000e+00 0.000000e+00
<ENDHMM>
~h "u"
<BEGINHMM>
<NUMSTATES> 5
<STATE> 2
<MEAN> 39
 -4.526451e+00 2.078009e-01 9.842066e+00 4.809772e+00 -1.658141e+00 -9.697510e+00 1.517968e+00 -1.436971e+01 -6.195771e-01 2.775666e-01 1.372637e+00 -4.434070e+00 6.354343e+01 1.086330e+00 -5.502710e-01 -1.161546e-01 -2.055843e-01 -8.849858e-01 -4.506647e-01 -1.046455e+00 -1.898864e+00 1.051215e-01 -1.404053e-01 2.933153e-01 -1.218454e-01 1.361689e+00 -3.714350e-02 -1.377594e-01 -4.259322e-01 -4.826185e-01 -4.053697e-02 3.946971e-01 -1.662969e-01 1.040577e-01 1.948329e-01 -1.127509e-01 3.148183e-01 2.836187e-01 -4.637430e-02
<VARIANCE> 39
 7.449658e+00 1.870382e+01 1.664503e+01 1.435655e+01 1.921559e+01 3.061036e+01 2.824100e+01 3.977375e+01 2.040152e+01 1.248741e+01 1.312418e+01 1.097206e+01 1.474308e+01 7.138665e-01 2.105457e+00 4.315150e+00 3.471468e+00 2.283688e+00 4.358502e+00 3.145849e+00 4.295760e+00 3.061464e+00 1.541155e+00 2.382436e+00 2.056777e+00 9.899391e-01 1.265502e-01 4.352670e-01 3.741405e-01 3.437484e-01 4.797401e-01 5.141138e-01 5.276480e-01 8.271504e-01 4.863394e-01 3.017341e-01 4.118729e-01 2.913856e-01 2.207540e-01
<GCONST> 1.071101e+02
<STATE> 3
<MEAN> 39
 2.010080e+00 -4.154631e+00 2.501784e+00 -6.624385e+00 -8.026636e+00 -2.975222e+00 -8.841871e+00 -2.443695e+01 2.600185e+00 -2.246179e+00 1.180458e+01 -4.149812e-01 7.062347e+01 1.030095e-01 -2.560537e-01 1.469759e-01 -4.616388e-01 -6.002617e-01 -8.790738e-02 -8.466802e-01 -1.637590e-01 6.638057e-01 5.511203e-02 4.906491e-01 -2.257523e-01 2.106692e-01 -2.213317e-01 -3.374198e-02 3.224200e-01 4.403864e-01 1.250535e-01 -4.217862e-01 1.470985e-01 3.930379e-01 1.046743e-01 -2.224617e-02 -5.795984e-01 -2.265292e-01 -1.383715e-01
<VARIANCE> 39
 1.872153e+00 1.000910e+01 6.180099e+00 1.160259e+01 9.454616e+00 1.484241e+01 1.941620e+01 2.009046e+01 2.844040e+01 1.938821e+01 1.986701e+01 2.316732e+01 4.116755e+00 4.196311e-01 1.171811e+00 1.167871e+00 3.249315e+00 9.507504e-01 4.070752e+00 2.120278e+00 2.160183e+00 4.867680e+00 2.743719e+00 4.847211e+00 3.031476e+00 2.220426e-01 3.870638e-02 2.479882e-01 1.074179e-01 2.203104e-01 2.195712e-01 3.351708e-01 5.179471e-01 3.652599e-01 8.970867e-01 6.788113e-01 3.957652e-01 4.642774e-01 1.069674e-01
<GCONST> 9.383388e+01
<STATE> 4
<MEAN> 39
 -1.080616e+00 -9.261474e+00 8.323069e+00 -5.402335e-01 -1.064198e+01 -1.213597e+01 -1.281765e+01 -1.716908e+01 1.177175e+01 -7.397939e+00 1.867141e+00 -2.407768e+00 7.123431e+01 -3.696069e-01 -1.346529e-01 3.406046e-01 5.805504e-01 -1.518499e-02 -4.568483e-01 3.834946e-01 1.258853e+00 4.820550e-02 -1.205337e+00 -1.126386e+00 5.105167e-01 -2.507682e-01 2.155205e-02 2.159226e-01 -1.793417e-01 -1.163494e-01 1.456077e-01 2.153399e-01 1.848993e-01 -1.474378e-02 -3.079930e-01 1.755995e-01 1.988804e-01 2.823974e-02 -1.388751e-01
<VARIANCE> 39
 2.816516e+00 1.219052e+01 1.024545e+01 1.386281e+01 8.600686e+00 1.597555e+01 1.466647e+01 2.504366e+01 1.999767e+01 2.815970e+01 2.185295e+01 1.618706e+01 4.429770e+00 1.704550e-01 1.200168e+00 1.124934e+00 1.037770e+00 9.758280e-01 1.341607e+00 1.154044e+00 1.132899e+00 1.633709e+00 1.816011e+00 1.770300e+00 7.366295e-01 2.871414e-01 4.330048e-02 1.999871e-01 1.821362e-01 1.871715e-01 1.948135e-01 2.106280e-01 2.320364e-01 2.214787e-01 3.176505e-01 3.780264e-01 3.149499e-01 2.114832e-01 5.124136e-02
<GCONST> 8.181025e+01
<TRANSP> 5
 0.000000e+00 1.000000e+00 0.000000e+00 0.000000e+00 0.000000e+00
 0.000000e+00 8.908474e-01 1.091525e-01 0.000000e+00 0.000000e+00
 0.000000e+00 0.000000e+00 8.814840e-01 1.185160e-01 0.000000e+00
 0.000000e+00 0.000000e+00 0.000000e+00 8.705662e-01 1.294338e-01
 0.000000e+00 0.000000e+00 0.000000e+00 0.000000e+00 0.000000e+00
<ENDHMM>
~h "v"
<BEGINHMM>
<NUMSTATES> 5
<STATE> 2
<MEAN> 39
 -1.089922e+01 -1.390437e+00 7.033226e-01 -3.048309e+00 1.219271e+00 -3.070380e+00 2.417638e+00 -1.821874e+00 3.151631e+00 -5.593789e-01 3.014032e+00 5.703687e-01 5.593671e+01 -4.076269e-01 -2.242250e-01 -1.243804e-02 3.175197e-01 3.138779e-01 -1.208627e-01 -7.824599e-02 1.184852e-01 7.867183e-02 2.450211e-01 1.354748e-01 -1.326814e-01 -2.139289e-01 1.242111e-01 1.009561e-02 5.712650e-02 -1.547981e-01 -1.450228e-01 6.143553e-02 -2.877760e-02 -1.391771e-01 -1.849714e-02 -1.565107e-01 -9.406620e-02 4.001768e-03 1.620850e-01
<VARIANCE> 39
 5.591861e+00 5.458495e+00 4.797291e+00 6.446546e+00 9.052472e+00 9.970590e+00 1.138794e+01 1.119071e+01 1.171663e+01 1.279475e+01 1.162733e+01 1.226185e+01 1.806320e+00 7.325319e-01 6.111709e-01 7.225298e-01 1.199876e+00 1.253538e+00 1.350473e+00 1.309858e+00 1.349082e+00 1.324946e+00 1.699720e+00 1.371676e+00 1.438881e+00 3.412642e-01 6.859117e-02 9.564568e-02 1.355624e-01 3.267089e-01 3.624856e-01 2.600822e-01 2.818996e-01 3.014592e-01 2.824971e-01 3.103850e-01 2.559379e-01 3.183699e-01 5.407386e-02
<GCONST> 7.817546e+01
<STATE> 3
<MEAN> 39
 -8.871505e+00 8.543938e-01 5.089553e+00 1.349440e+00 4.548881e+00 -3.146620e+00 1.528171e+00 -3.594455e+00 1.625287e+00 -2.469689e+00 1.253986e+00 -2.255265e+00 5.773385e+01 4.239782e-01 -2.305707e-01 8.610672e-01 4.696282e-01 1.303646e-01 -5.226659e-01 -8.383839e-01 -5.613465e-01 -4.905518e-02 -5.132778e-01 -3.230073e-01 -3.678641e-01 1.234550e+00 -7.328410e-02 -6.216292e-01 -1.600978e-01 -5.387866e-01 -6.914907e-01 -2.930941e-01 -1.878447e-01 9.403630e-02 3.051846e-01 -2.161985e-03 1.133590e-01 2.624595e-01 5.243881e-01
<VARIANCE> 39
 1.304352e+01 1.181135e+01 1.655420e+01 1.662531e+01 1.399951e+01 2.217286e+01 2.391632e+01 1.687587e+01 1.289917e+01 1.242868e+01 1.242337e+01 1.224482e+01 6.832654e+00 2.406656e+00 2.701726e+00 1.763077e+00 2.120154e+00 2.418591e+00 3.012230e+00 2.529498e+00 2.092132e+00 1.689994e+00 1.679003e+00 1.318602e+00 1.638725e+00 1.829036e+00 2.740571e-01 4.003634e-01 2.801179e-01 3.923019e-01 5.179159e-01 7.131040e-01 5.168594e-01 4.166950e-01 3.364128e-01 3.017364e-01 3.009455e-01 3.119999e-01 2.504214e-01
<GCONST> 1.023667e+02
<STATE> 4
<MEAN> 39
 -1.368037e+01 -2.769886e+00 2.427996e+00 -1.483006e+00 3.299566e+00 -2.813625e+00 3.083042e+00 -2.550873e+00 4.408051e+00 -1.986666e+00 2.095282e+00 -2.235585e-01 6.294778e+01 3.476991e-01 -1.037776e+00 4.283017e-01 -6.126060e-01 -1.357137e+00 -7.383609e-01 -7.713231e-01 -1.001427e-01 4.995614e-01 -1.965368e-01 2.060191e-01 2.871432e-01 1.451044e+00 3.206244e-01 -1.032593e-01 1.077877e-01 -2.693497e-01 -6.758235e-01 -1.576209e-01 -2.461514e-01 7.702416e-02 1.365925e-01 3.552283e-02 1.997667e-01 1.236669e-01 1.292392e-01
<VARIANCE> 39
 5.145922e+01 1.874716e+01 2.752453e+01 2.058530e+01 3.356236e+01 2.280895e+01 2.785178e+01 2.082336e+01 1.995075e+01 1.715892e+01 1.211017e+01 1.483799e+01 3.352690e+01 3.841966e+00 3.392657e+00 2.199910e+00 3.177382e+00 6.224076e+00 3.937011e+00 3.052153e+00 2.864014e+00 2.545681e+00 1.942660e+00 1.604743e+00 1.421712e+00 4.939896e+00 3.344359e-01 4.096347e-01 4.058813e-01 6.187688e-01 8.422923e-01 5.654887e-01 5.060073e-01 5.737945e-01 4.623836e-01 3.995574e-01 3.661163e-01 3.329469e-01 3.572758e-01
<GCONST> 1.161607e+02
<TRANSP> 5
 0.000000e+00 1.000000e+00 0.000000e+00 0.000000e+00 0.000000e+00
 0.000000e+00 8.388263e-01 1.611737e-01 0.000000e+00 0.000000e+00
 0.000000e+00 0.000000e+00 5.421138e-01 4.578862e-01 0.000000e+00
 0.000000e+00 0.000000e+00 0.000000e+00 4.433630e-01 5.566369e-01
 0.000000e+00 0.000000e+00 0.000000e+00 0.000000e+00 0.000000e+00
<ENDHMM>
~h "x"
<BEGINHMM>
<NUMSTATES> 5
<STATE> 2
<MEAN> 39
 -9.278114e+00 -1.384097e+01 2.720246e-01 -3.500976e+00 1.012581e+01 1.058689e+01 -8.201262e-01 -3.983121e+00 8.967544e+00 2.349613e+00 -3.412122e+00 -5.966902e+00 7.111436e+01 -3.338450e+00 -1.098022e-01 1.193291e+00 6.193038e-01 3.182552e+00 -6.782745e-02 -5.049770e-01 7.035273e-01 2.959639e+00 -1.706918e-01 7.666371e-01 1.761035e+00 -1.788751e+00 -3.772590e-02 -3.377401e-01 -6.783148e-01 -3.722150e-01 -4.162412e-01 -3.634452e-01 -2.304386e-01 2.798419e-01 -2.695858e-01 4.891725e-02 2.532150e-01 -3.788393e-01 4.862246e-01
<VARIANCE> 39
 2.525253e+01 5.265279e+00 7.813880e+00 1.016139e+01 3.477425e+01 1.487015e+01 1.801608e+01 1.462446e+01 2.553510e+01 1.763119e+01 1.588637e+01 1.367082e+01 4.682749e+00 7.089136e-01 9.711952e-01 1.780085e+00 1.473373e+00 1.828833e+00 1.573459e+00 1.784415e+00 1.565083e+00 2.004630e+00 2.097131e+00 1.834422e+00 1.718628e+00 6.477237e-01 5.513389e-01 1.944409e-01 1.809730e-01 2.550008e-01 6.495399e-01 3.007583e-01 3.060393e-01 3.146651e-01 4.782662e-01 3.843887e-01 2.990646e-01 3.021642e-01 7.295846e-02
<GCONST> 9.462565e+01
<STATE> 3
<MEAN> 39
 -1.634442e+01 -1.372855e+01 -1.307824e+00 -2.787151e+00 1.443527e+01 5.815886e+00 -2.434833e+00 -1.411323e+00 1.412209e+01 3.570996e+00 3.370749e-01 -3.338379e+00 6.829795e+01 -9.335146e-02 8.188950e-01 -4.163029e-02 9.605627e-02 -1.638856e-01 -1.249197e+00 4.122655e-01 -2.511449e-02 -3.699685e-01 1.323845e-02 7.220059e-01 -5.154341e-02 -3.556753e-01 4.362313e-01 3.562889e-01 7.918359e-02 -1.963508e-02 -4.655417e-01 -8.823571e-02 4.036855e-01 -1.673071e-01 -5.303460e-01 -1.316373e-01 -1.622877e-02 -1.004142e-01 -5.102955e-02
<VARIANCE> 39
 2.787901e+00 6.726249e+00 8.075175e+00 1.080087e+01 1.071900e+01 1.708571e+01 1.545825e+01 1.701825e+01 1.831970e+01 1.952275e+01 1.715139e+01 1.845333e+01 3.617714e+00 9.182472e-01 1.074093e+00 9.678398e-01 1.001692e+00 1.647895e+00 1.718439e+00 2.302408e+00 1.829150e+00 2.797793e+00 2.070165e+00 1.545217e+00 1.808351e+00 2.106876e-01 1.972967e-01 1.559822e-01 1.873569e-01 2.071770e-01 3.239565e-01 3.401258e-01 4.040734e-01 3.264733e-01 3.738071e-01 4.341042e-01 3.235233e-01 4.635932e-01 1.382344e-01
<GCONST> 8.978726e+01
<STATE> 4
<MEAN> 39
 -1.398032e+01 -4.761023e+00 5.323013e-01 -1.935811e+00 9.330779e+00 -1.198907e+00 6.016276e+00 -3.129160e+00 7.386670e+00 1.422634e+00 4.095426e+00 -2.549023e+00 6.423218e+01 7.994850e-01 1.818890e+00 -2.881020e-01 1.715013e-01 -1.786170e+00 -3.411782e-01 1.886850e+00 3.047702e-01 -1.299627e+00 -4.035089e-01 5.844821e-02 1.029646e+00 -2.472198e+00 -1.450242e-02 -5.773582e-01 -3.625878e-01 -1.248970e-01 1.607770e-01 5.880774e-01 -6.726030e-01 3.246559e-01 3.639679e-01 1.520294e-01 -3.100663e-01 3.966026e-02 -2.622344e-01
<VARIANCE> 39
 5.604966e+00 1.161472e+01 1.152926e+01 1.140675e+01 1.453423e+01 2.149682e+01 3.128621e+01 1.829988e+01 1.728014e+01 1.429714e+01 1.419992e+01 1.747648e+01 1.915820e+01 4.865131e-01 1.621979e+00 1.412310e+00 1.226049e+00 1.224984e+00 3.034725e+00 3.623252e+00 2.138295e+00 2.046603e+00 2.014041e+00 1.627045e+00 1.625915e+00 9.211274e-01 1.191831e-01 2.188056e-01 1.922718e-01 2.325164e-01 3.049913e-01 5.160171e-01 6.263551e-01 4.163077e-01 3.834752e-01 3.794918e-01 2.949144e-01 3.972531e-01 4.181964e-01
<GCONST> 9.789174e+01
<TRANSP> 5
 0.000000e+00 1.000000e+00 0.000000e+00 0.000000e+00 0.000000e+00
 0.000000e+00 6.650725e-01 3.349275e-01 0.000000e+00 0.000000e+00
 0.000000e+00 0.000000e+00 8.522479e-01 1.477522e-01 0.000000e+00
 0.000000e+00 0.000000e+00 0.000000e+00 6.862500e-01 3.137500e-01
 0.000000e+00 0.000000e+00 0.000000e+00 0.000000e+00 0.000000e+00
<ENDHMM>
~h "y"
<BEGINHMM>
<NUMSTATES> 5
<STATE> 2
<MEAN> 39
 -4.680122e+00 -1.920161e-01 9.838311e+00 3.726796e+00 -2.337366e+00 -1.114662e+01 1.820407e-01 -2.001070e+01 2.477465e+00 1.626265e+00 -2.614840e+00 -4.516113e+00 6.363861e+01 -3.114768e-01 5.676209e-01 -7.628625e-02 2.747932e-02 6.342407e-01 4.592136e-01 8.061276e-01 5.480913e-02 -8.959616e-01 4.567683e-01 1.486226e-01 -5.730335e-01 -5.047678e-01 9.149971e-02 -4.561183e-01 -1.670735e-01 -2.000923e-01 -1.115178e-01 3.957204e-02 -4.794004e-01 3.965324e-01 2.612179e-01 -4.100843e-01 1.622358e-01 2.039983e-01 3.140325e-01
<VARIANCE> 39
 1.515140e+00 8.697839e+00 6.381598e+00 6.484578e+00 9.900657e+00 1.397479e+01 1.558003e+01 1.751712e+01 1.577833e+01 1.211154e+01 1.409783e+01 1.072117e+01 2.909245e+00 3.574442e-01 1.653706e+00 8.842571e-01 7.599228e-01 1.409670e+00 9.927120e-01 2.262644e+00 1.962341e+00 1.923615e+00 1.553691e+00 1.092229e+00 1.148574e+00 6.907686e-01 8.470175e-02 2.452616e-01 1.643311e-01 1.779931e-01 3.108315e-01 2.231515e-01 3.681524e-01 4.678784e-01 3.553550e-01 2.304314e-01 2.367081e-01 2.177746e-01 8.346173e-02
<GCONST> 8.192745e+01
<STATE> 3
<MEAN> 39
 -6.557202e+00 -4.182822e+00 6.378693e+00 1.878655e+00 1.158129e+00 -8.992889e+00 1.087536e-01 -1.185365e+01 7.340645e-01 -1.894546e+00 -7.587911e-01 -3.966198e+00 6.494640e+01 -2.119203e+00 -2.243302e+00 -8.652029e-01 -1.250948e+00 8.927807e-01 1.168716e+00 8.565746e-02 3.382909e+00 8.560560e-01 -1.397551e+00 6.478799e-01 7.739499e-01 7.543129e-01 -7.259881e-01 -3.048366e-02 1.399197e-01 -2.569543e-01 -1.570907e-01 2.766893e-01 1.436310e-01 -3.588566e-02 4.776832e-01 2.178545e-01 2.896920e-02 7.587230e-02 -8.511122e-02
<VARIANCE> 39
 1.053826e+01 3.846035e+01 1.570665e+01 1.251507e+01 1.684789e+01 1.513532e+01 2.055188e+01 4.408072e+01 1.543551e+01 2.363699e+01 1.216724e+01 1.506337e+01 9.973254e+00 2.507318e+00 2.904757e+00 1.349802e+00 1.305503e+00 1.548470e+00 2.338048e+00 2.170050e+00 2.406735e+00 2.455618e+00 2.210331e+00 1.582793e+00 1.454321e+00 7.720239e-01 2.152773e-01 9.451844e-01 2.498103e-01 2.464676e-01 3.110559e-01 3.467443e-01 3.712133e-01 8.073412e-01 3.649861e-01 5.397351e-01 2.943554e-01 2.984955e-01 2.458824e-01
<GCONST> 1.032105e+02
<STATE> 4
<MEAN> 39
 -1.860993e+01 -7.948366e+00 3.380208e+00 -4.088218e+00 3.473585e+00 -3.923620e+00 1.616238e+00 -2.142846e+00 6.160765e+00 -2.475361e+00 2.112603e+00 -6.791164e-01 6.350153e+01 -1.745609e-01 1.644168e-01 -1.975169e-01 -2.151361e-01 5.971866e-02 1.679906e-01 1.413372e-02 3.663003e-01 1.458994e-01 2.292253e-01 1.561811e-01 1.639635e-01 -5.605471e-01 3.659070e-01 1.656668e-01 4.452602e-03 1.703434e-01 -4.825203e-02 -9.110384e-02 -2.338715e-02 -1.970786e-01 -1.694181e-01 3.706584e-02 -6.130638e-02 -6.334779e-02 -1.059261e-01
<VARIANCE> 39
 5.353449e+00 7.756559e+00 7.664937e+00 8.511237e+00 9.775932e+00 1.145739e+01 1.321379e+01 1.327946e+01 1.321584e+01 1.361960e+01 1.347337e+01 1.150997e+01 5.485472e+00 2.118908e+00 7.822587e-01 8.210427e-01 1.066279e+00 1.112661e+00 1.369473e+00 1.501797e+00 1.539727e+00 1.624708e+00 1.465548e+00 1.515713e+00 1.214368e+00 4.052838e-01 1.595596e-01 2.472412e-01 1.554317e-01 2.073995e-01 2.126526e-01 3.160494e-01 3.110596e-01 3.705264e-01 3.262152e-01 3.176335e-01 3.185678e-01 2.411111e-01 8.416218e-02
<GCONST> 8.477639e+01
<TRANSP> 5
 0.000000e+00 1.000000e+00 0.000000e+00 0.000000e+00 0.000000e+00
 0.000000e+00 8.501155e-01 1.498844e-01 0.000000e+00 0.000000e+00
 0.000000e+00 0.000000e+00 7.401775e-01 2.598225e-01 0.000000e+00
 0.000000e+00 0.000000e+00 0.000000e+00 9.137555e-01 8.624444e-02
 0.000000e+00 0.000000e+00 0.000000e+00 0.000000e+00 0.000000e+00
<ENDHMM>
~h "z"
<BEGINHMM>
<NUMSTATES> 5
<STATE> 2
<MEAN> 39
 -1.560882e+01 -3.103930e+00 2.085993e+00 -2.356129e+00 2.995957e+00 -4.496371e+00 4.897594e+00 -2.060373e+00 5.662970e+00 -1.848341e+00 3.029880e+00 6.738311e-01 5.893641e+01 -2.082810e+00 5.328248e-01 -1.531228e-01 -4.717975e-01 2.919961e-01 -3.120311e-01 4.229237e-01 -3.780850e-01 6.005303e-01 -3.373147e-01 7.024701e-02 2.487303e-01 1.242270e+00 -2.683122e-01 3.015798e-01 -1.756053e-01 -2.210376e-02 -6.467836e-02 9.210762e-02 -5.613425e-02 -3.268660e-03 -8.475806e-02 2.675346e-02 3.121674e-02 -8.934531e-02 1.899413e-01
<VARIANCE> 39
 2.568805e+01 8.582578e+00 9.385768e+00 1.101329e+01 1.176206e+01 1.536849e+01 1.713754e+01 1.579399e+01 1.847352e+01 1.492792e+01 1.301316e+01 1.340149e+01 1.118226e+01 2.355495e+00 1.574138e+00 1.340227e+00 1.097584e+00 1.391665e+00 1.785670e+00 1.805806e+00 1.581457e+00 2.013176e+00 1.683878e+00 1.540624e+00 1.407836e+00 1.554722e+00 3.583151e-01 2.355117e-01 2.508355e-01 2.786211e-01 2.766582e-01 3.791435e-01 3.786975e-01 3.245036e-01 4.041740e-01 3.420562e-01 3.154685e-01 2.748313e-01 1.499266e-01
<GCONST> 9.599094e+01
<STATE> 3
<MEAN> 39
 -2.897218e+01 3.323171e+00 -1.934031e+00 -2.635177e+00 3.669604e+00 -3.958544e+00 5.987658e+00 -3.499146e+00 6.681163e+00 -2.680421e+00 3.597601e+00 8.951062e-01 6.712567e+01 -5.879577e-01 3.259873e-01 -4.235535e-01 4.150221e-01 -5.912403e-02 2.511992e-01 8.039544e-02 7.074453e-02 -1.928871e-02 6.717014e-02 4.873113e-02 -1.959982e-02 5.237011e-01 5.000054e-01 -3.098846e-01 2.429256e-01 8.563510e-02 -1.712064e-02 -5.003418e-02 6.283206e-02 2.062722e-02 1.794060e-03 3.496907e-02 3.544555e-03 3.486498e-02 -2.262819e-01
<VARIANCE> 39
 5.406769e+00 6.823815e+00 7.718190e+00 9.448221e+00 1.045802e+01 1.128962e+01 1.223324e+01 1.329913e+01 1.396527e+01 1.377361e+01 1.355050e+01 1.165506e+01 3.150432e+00 1.116193e+00 1.290113e+00 1.029033e+00 9.804164e-01 1.071181e+00 1.347207e+00 1.432337e+00 1.413716e+00 1.405835e+00 1.456727e+00 1.449606e+00 1.228838e+00 3.389750e-01 1.255498e-01 1.276390e-01 1.826478e-01 2.235516e-01 2.210869e-01 2.643308e-01 2.891562e-01 2.962467e-01 3.043582e-01 3.008043e-01 3.035528e-01 2.451013e-01 5.179423e-02
<GCONST> 8.198638e+01
<STATE> 4
<MEAN> 39
 -2.642123e+01 1.177651e+00 9.528283e-02 -1.846438e-01 3.636778e+00 -3.413524e+00 8.784307e+00 -2.627254e+00 7.975218e+00 -1.712090e+00 4.665211e+00 1.637158e+00 6.794720e+01 2.649642e+00 -8.870203e-01 1.893456e+00 3.679601e-01 -4.781912e-01 -9.159172e-01 -2.451954e-01 -6.528955e-01 5.678824e-02 -1.818287e-01 4.547213e-02 -3.280092e-01 -1.601948e-01 9.416624e-01 -4.164945e-02 6.507370e-01 -1.201522e-01 -6.069125e-01 -4.718780e-01 -8.975368e-01 -3.804711e-01 -2.682461e-02 -5.200602e-01 -1.274546e-02 -3.843491e-01 2.922824e-01
<VARIANCE> 39
 1.137899e+01 1.694567e+01 1.389172e+01 1.413400e+01 1.843985e+01 1.612266e+01 1.884732e+01 1.801572e+01 1.711032e+01 1.508184e+01 1.537108e+01 1.445789e+01 5.020452e+00 3.490454e+00 1.498053e+00 2.998775e+00 1.314753e+00 2.154987e+00 2.021049e+00 3.231771e+00 2.243101e+00 2.003350e+00 1.845123e+00 1.772753e+00 1.749158e+00 7.907319e-01 2.750794e-01 3.081082e-01 7.036831e-01 3.112624e-01 4.756389e-01 3.863516e-01 5.103427e-01 3.598565e-01 5.129414e-01 5.265203e-01 3.758264e-01 4.103934e-01 3.005972e-01
<GCONST> 1.032385e+02
<TRANSP> 5
 0.000000e+00 1.000000e+00 0.000000e+00 0.000000e+00 0.000000e+00
 0.000000e+00 8.183954e-01 1.816046e-01 0.000000e+00 0.000000e+00
 0.000000e+00 0.000000e+00 8.680620e-01 1.319381e-01 0.000000e+00
 0.000000e+00 0.000000e+00 0.000000e+00 6.995184e-01 3.004816e-01
 0.000000e+00 0.000000e+00 0.000000e+00 0.000000e+00 0.000000e+00
<ENDHMM>
~h "OY"
<BEGINHMM>
<NUMSTATES> 5
<STATE> 2
<MEAN> 39
 -1.165477e+00 -7.451344e+00 4.658502e+00 -6.556350e+00 -4.990279e+00 -1.302219e+00 -3.380223e+00 -1.535299e+01 6.098030e+00 6.077445e-01 5.028611e+00 -4.695857e+00 6.969728e+01 6.666411e-01 -1.089601e+00 -3.125241e-01 -1.024271e+00 -7.143066e-01 4.192128e-01 -6.663210e-01 -1.105522e-01 7.236193e-01 1.387464e-01 2.851582e-01 -5.306820e-01 1.114311e+00 -1.468948e-01 -4.630467e-02 -3.180368e-02 3.735591e-02 2.630103e-02 -8.421844e-02 -1.370159e-02 3.748831e-01 1.361079e-01 -7.269834e-02 -8.571633e-02 9.260511e-03 -1.179151e-01
<VARIANCE> 39
 1.241267e+01 4.233217e+01 3.258366e+01 9.280930e+01 2.138957e+01 6.423639e+01 2.448920e+01 2.729351e+01 3.997766e+01 1.858185e+01 2.565630e+01 1.948846e+01 3.133662e+01 7.240964e-01 1.279658e+00 3.072946e+00 5.486744e+00 1.525753e+00 5.908069e+00 2.597937e+00 5.098516e+00 3.489556e+00 2.101566e+00 2.260695e+00 2.384812e+00 1.301249e+00 7.919969e-02 2.682742e-01 5.271854e-01 8.864020e-01 2.993735e-01 9.106975e-01 5.166007e-01 4.228716e-01 7.371102e-01 4.845161e-01 3.691114e-01 4.132197e-01 1.788245e-01
<GCONST> 1.153634e+02
<STATE> 3
<MEAN> 39
 -1.584917e+00 -1.378583e+01 1.043714e+01 -6.465421e+00 -1.437423e+01 -8.062369e+00 -7.429021e+00 -1.413378e+00 1.030897e+01 -7.128151e+00 5.199454e+00 -5.257120e+00 7.412825e+01 -4.889025e-01 8.964024e-01 1.016361e+00 1.235526e+00 -2.723873e-01 -1.307351e+00 3.145848e-01 3.113333e-01 -1.114998e+00 -1.213539e+00 -1.789826e-02 8.581933e-01 -6.385064e-01 3.108499e-02 2.901443e-01 -3.054593e-01 -1.593790e-02 4.423841e-01 1.968139e-01 2.780043e-01 -4.640395e-01 -4.310858e-01 3.231182e-01 1.226118e-01 -4.659206e-02 -2.446335e-01
<VARIANCE> 39
 4.073009e+00 1.165109e+01 2.472821e+01 1.551202e+01 2.405983e+01 2.151621e+01 1.050222e+01 2.331364e+01 3.218441e+01 4.739091e+01 1.872590e+01 3.211424e+01 4.807459e+00 1.732213e-01 1.192309e+00 2.299714e+00 9.316789e-01 5.131008e+00 2.562308e+00 1.556827e+00 4.931631e+00 3.116200e+00 4.115842e+00 2.450471e+00 2.385361e+00 8.190428e-01 3.101348e-02 1.182806e-01 2.779760e-01 1.897230e-01 6.836057e-01 3.960288e-01 2.482623e-01 3.754769e-01 4.331154e-01 8.951329e-01 5.551847e-01 7.576843e-01 5.833140e-02
<GCONST> 9.956751e+01
<STATE> 4
<MEAN> 39
 -3.919954e+00 -2.896030e+00 8.586875e+00 1.743131e+00 -4.114978e+00 -1.317554e+01 -2.118261e-01 -9.507253e+00 -4.745837e+00 -1.936573e+00 5.348685e+00 -7.336015e+00 6.459277e+01 -1.940859e-01 1.007673e+00 -6.861463e-01 7.183037e-01 1.572861e+00 -1.852616e-02 9.189311e-01 -8.642368e-01 -1.140174e+00 1.639448e+00 -4.248893e-01 -8.985174e-01 -1.084934e+00 -4.226676e-02 -3.209814e-01 2.474997e-01 -2.524938e-01 -5.176868e-01 3.454324e-01 -2.972204e-01 4.293582e-01 6.799176e-01 -4.724100e-01 -8.871249e-02 3.404822e-01 2.591891e-01
<VARIANCE> 39
 1.830048e+00 9.623590e+00 8.446711e+00 1.048201e+01 1.169685e+01 1.088483e+01 1.857375e+01 1.701640e+01 2.023650e+01 2.112716e+01 1.363092e+01 2.069816e+01 3.883507e+00 1.622476e-01 1.815094e+00 1.168515e+00 1.231923e+00 3.146125e+00 1.276372e+00 2.022190e+00 2.088557e+00 4.307909e+00 3.180042e+00 1.434743e+00 2.464447e+00 8.537084e-01 3.317127e-02 2.909188e-01 1.794718e-01 1.865375e-01 4.205660e-01 1.595870e-01 2.898621e-01 2.413398e-01 4.143551e-01 4.258851e-01 2.473961e-01 3.682392e-01 1.375570e-01
<GCONST> 8.887077e+01
<TRANSP> 5
 0.000000e+00 1.000000e+00 0.000000e+00 0.000000e+00 0.000000e+00
 0.000000e+00 9.308225e-01 6.917752e-02 0.000000e+00 0.000000e+00
 0.000000e+00 0.000000e+00 8.944553e-01 1.055447e-01 0.000000e+00
 0.000000e+00 0.000000e+00 0.000000e+00 8.058689e-01 1.941311e-01
 0.000000e+00 0.000000e+00 0.000000e+00 0.000000e+00 0.000000e+00
<ENDHMM>
~h "aI"
<BEGINHMM>
<NUMSTATES> 5
<STATE> 2
<MEAN> 39
 -5.485654e+00 -1.253712e+01 -3.132479e+00 -7.923557e+00 3.786102e-01 7.267576e-01 1.604970e+00 -2.323727e+00 4.639913e+00 -2.760712e-02 1.810539e+00 -1.246792e+01 7.108313e+01 1.203678e+00 -1.749394e+00 -5.853326e-01 -6.773632e-01 -7.054268e-01 4.280532e-01 -4.736043e-01 7.155377e-01 5.139832e-01 -9.605793e-01 -1.105676e-01 -1.929748e+00 2.317533e+00 -2.370685e-01 1.426061e-01 3.446974e-01 1.478693e-01 -1.824985e-01 -2.518368e-01 -5.931140e-02 1.682685e-01 1.922714e-01 -2.013064e-01 -8.228973e-02 3.288849e-01 -9.542376e-02
<VARIANCE> 39
 3.193534e+01 4.060735e+01 2.454426e+01 1.829744e+01 2.404102e+01 2.183184e+01 2.163280e+01 3.177225e+01 3.510738e+01 2.730802e+01 2.702151e+01 5.636152e+01 7.633490e+01 2.275986e+00 2.011742e+00 2.426435e+00 1.490122e+00 2.004425e+00 1.999876e+00 2.141791e+00 2.357401e+00 3.005427e+00 2.364477e+00 2.405705e+00 3.521778e+00 3.158536e+00 5.034041e-01 4.647983e-01 4.443785e-01 2.946602e-01 3.042602e-01 3.939747e-01 4.126867e-01 3.980045e-01 4.295038e-01 3.764052e-01 4.881848e-01 8.067977e-01 6.630855e-01
<GCONST> 1.167614e+02
<STATE> 3
<MEAN> 39
 -3.088299e+00 -1.722035e+01 1.127401e+00 -8.728482e+00 -7.293226e+00 -3.680275e+00 -9.883575e-01 4.891046e+00 9.434812e+00 -6.757138e+00 -3.282819e-02 -1.335887e+01 7.874685e+01 -3.247281e-01 5.370712e-01 1.950784e+00 1.798060e-01 -1.680034e+00 -1.858382e+00 -1.673350e-01 1.084912e+00 1.013813e-01 -5.220234e-01 4.328887e-01 1.523089e+00 -1.020100e-01 -7.331797e-02 3.233545e-01 2.335284e-01 3.172511e-02 -3.600136e-05 -9.671876e-02 2.746458e-03 -3.365803e-01 -4.285412e-01 2.474053e-01 4.628399e-01 2.645778e-01 -2.808482e-01
<VARIANCE> 39
 7.381267e+00 1.362410e+01 2.168792e+01 8.120566e+00 2.896519e+01 2.782988e+01 1.714466e+01 2.979253e+01 4.592533e+01 2.246139e+01 2.009841e+01 3.089062e+01 1.892010e+01 1.840388e-01 7.995042e-01 8.960594e-01 6.176065e-01 8.599027e-01 1.111217e+00 1.068207e+00 1.539316e+00 1.815292e+00 1.288385e+00 2.833801e+00 1.363541e+00 4.928657e-01 6.158936e-02 1.321015e-01 1.496631e-01 1.186386e-01 1.754602e-01 2.698806e-01 2.242344e-01 3.333671e-01 2.726786e-01 2.064077e-01 3.101763e-01 3.297023e-01 1.051299e-01
<GCONST> 8.823876e+01
<STATE> 4
<MEAN> 39
 -4.960845e+00 -9.566429e+00 1.197887e+01 -5.910782e+00 -1.367922e+01 -1.163680e+01 -1.389747e+00 1.674838e+00 2.778416e+00 -7.729898e+00 8.021893e+00 -5.777802e+00 7.393148e+01 -7.622381e-02 1.284417e+00 2.387500e-01 1.112185e+00 5.909630e-01 -2.261160e-01 8.508394e-02 -1.373577e+00 -8.502630e-01 2.719176e-02 1.742473e-01 4.133769e-01 -1.304776e+00 3.038923e-02 3.150024e-02 -4.438033e-01 1.775222e-01 5.278035e-01 2.460025e-01 1.643850e-01 -1.409153e-01 8.270141e-02 2.109755e-01 -4.446799e-01 -2.290058e-01 -2.199287e-01
<VARIANCE> 39
 6.210870e+00 2.070082e+01 1.595911e+01 1.732323e+01 2.428468e+01 1.852178e+01 2.276958e+01 2.788906e+01 4.160490e+01 2.183672e+01 2.295458e+01 1.310839e+01 2.294447e+01 3.142417e-01 1.065796e+00 2.562843e+00 1.304683e+00 3.071078e+00 1.553959e+00 1.768542e+00 1.993407e+00 2.283488e+00 1.907681e+00 3.134997e+00 1.296459e+00 9.559209e-01 5.156912e-02 1.804458e-01 2.566865e-01 2.096526e-01 3.419701e-01 2.453950e-01 3.389166e-01 3.565105e-01 3.741807e-01 4.706336e-01 3.258517e-01 2.779846e-01 1.102872e-01
<GCONST> 9.760114e+01
<TRANSP> 5
 0.000000e+00 1.000000e+00 0.000000e+00 0.000000e+00 0.000000e+00
 0.000000e+00 7.962249e-01 2.037751e-01 0.000000e+00 0.000000e+00
 0.000000e+00 0.000000e+00 7.964795e-01 2.035205e-01 0.000000e+00
 0.000000e+00 0.000000e+00 0.000000e+00 8.373314e-01 1.626686e-01
 0.000000e+00 0.000000e+00 0.000000e+00 0.000000e+00 0.000000e+00
<ENDHMM>
~h "sh"
<BEGINHMM>
<NUMSTATES> 5
<STATE> 2
<MEAN> 39
 -1.767274e+01 -9.763001e+00 9.917888e+00 -5.505617e+00 1.324018e+00 -1.553873e+00 -3.225972e-01 -2.837178e+00 7.909080e+00 -3.060211e+00 3.616183e+00 -7.691456e-01 6.193708e+01 -2.966267e+00 -1.319571e+00 3.052219e+00 -1.703831e+00 -6.984923e-01 7.297854e-01 2.175955e-01 -8.067154e-01 8.358023e-01 -8.310643e-01 5.164294e-01 -4.075837e-01 2.079842e+00 -1.821398e-01 5.424816e-01 -8.983190e-02 -9.891168e-02 -9.800190e-02 7.652269e-02 2.171904e-01 -2.257562e-01 -2.329042e-01 1.370497e-02 -1.870039e-02 1.308889e-02 9.748121e-02
<VARIANCE> 39
 2.187934e+01 1.212453e+01 3.358055e+01 1.770628e+01 1.232141e+01 1.780938e+01 1.995406e+01 1.914287e+01 2.269788e+01 1.946619e+01 1.462498e+01 1.542971e+01 1.397112e+01 8.696073e-01 1.915671e+00 1.627347e+00 1.277889e+00 1.397733e+00 1.514884e+00 2.426071e+00 1.470291e+00 2.422499e+00 1.695063e+00 1.527618e+00 1.702175e+00 3.426277e-01 3.357432e-01 2.772928e-01 7.292854e-01 2.898662e-01 2.568265e-01 2.930965e-01 4.552512e-01 2.626761e-01 4.690279e-01 3.898390e-01 2.874071e-01 3.725780e-01 1.804813e-01
<GCONST> 9.940681e+01
<STATE> 3
<MEAN> 39
 -2.917601e+01 -7.897282e+00 1.671276e+01 -1.165331e+01 -3.572486e-01 2.732766e+00 1.035567e+00 -6.432947e+00 8.098644e+00 -4.402947e+00 4.466214e+00 -2.341896e+00 6.974435e+01 -5.806517e-01 2.454567e-01 -1.576248e-01 -1.138116e-01 -4.241123e-02 3.760272e-01 -1.220380e-01 -5.342881e-02 -1.676722e-01 1.230169e-01 -1.309153e-01 -1.711149e-01 5.986104e-01 6.483371e-01 -1.309377e-01 -4.197465e-01 3.345639e-01 1.917506e-02 -2.481476e-01 -7.835725e-02 1.769084e-01 -3.668736e-02 9.900709e-02 -3.944752e-02 2.987917e-02 -2.673055e-01
<VARIANCE> 39
 5.058558e+00 7.986941e+00 4.862060e+00 9.657962e+00 1.476937e+01 1.665133e+01 1.965045e+01 1.532897e+01 1.996525e+01 1.656902e+01 1.543590e+01 1.177163e+01 4.055367e+00 1.386314e+00 8.872753e-01 8.347216e-01 1.212806e+00 1.222373e+00 1.642144e+00 1.453706e+00 1.325988e+00 1.404087e+00 1.306579e+00 1.307924e+00 1.342074e+00 3.447344e-01 2.211370e-01 1.501165e-01 1.933902e-01 1.485942e-01 2.403364e-01 3.846823e-01 3.326300e-01 2.444210e-01 2.969475e-01 2.775150e-01 2.604862e-01 2.994844e-01 7.000061e-02
<GCONST> 8.496727e+01
<STATE> 4
<MEAN> 39
 -2.036292e+01 -1.023753e+01 9.810889e+00 -8.153242e+00 -1.602370e+00 6.558267e-01 -1.733415e-01 -5.012356e+00 7.391102e+00 -2.917794e+00 3.639630e+00 -3.927814e+00 7.012758e+01 4.963893e+00 -8.046239e-01 -2.775492e+00 6.360652e-01 -6.776505e-01 -1.341004e+00 -3.057053e-01 1.884477e-01 1.936301e-01 7.855145e-01 1.163993e-01 -6.598537e-01 -1.643546e-01 3.310263e-01 -8.231411e-03 -1.280435e-01 -3.561968e-01 -1.581153e-02 9.574901e-02 -1.076887e-01 7.729497e-02 2.838428e-01 4.126173e-02 -7.352097e-03 -2.477691e-01 2.436483e-01
<VARIANCE> 39
 8.262925e+01 1.107790e+01 3.434115e+01 1.507885e+01 3.491943e+01 2.922924e+01 1.944703e+01 1.643724e+01 1.959330e+01 1.621758e+01 1.783415e+01 2.030910e+01 1.093849e+01 3.527779e+00 2.309647e+00 1.153744e+00 2.023095e+00 4.452446e+00 2.917037e+00 2.430829e+00 1.892337e+00 2.761047e+00 1.575387e+00 1.889564e+00 4.074629e+00 4.991532e+00 1.488698e+00 2.910106e-01 4.673836e-01 2.051795e-01 1.136996e+00 4.784519e-01 3.837774e-01 4.363216e-01 3.025462e-01 3.360295e-01 3.750304e-01 3.876224e-01 7.538329e-01
<GCONST> 1.135678e+02
<TRANSP> 5
 0.000000e+00 1.000000e+00 0.000000e+00 0.000000e+00 0.000000e+00
 0.000000e+00 7.536267e-01 2.463732e-01 0.000000e+00 0.000000e+00
 0.000000e+00 0.000000e+00 8.718585e-01 1.281414e-01 0.000000e+00
 0.000000e+00 0.000000e+00 0.000000e+00 7.210013e-01 2.789988e-01
 0.000000e+00 0.000000e+00 0.000000e+00 0.000000e+00 0.000000e+00
<ENDHMM>
~h "sp"
<BEGINHMM>
<NUMSTATES> 3
<STATE> 2
~s "silst"
<TRANSP> 3
 0.000000e+00 7.000000e-01 3.000000e-01
 0.000000e+00 9.000000e-01 9.999999e-02
 0.000000e+00 0.000000e+00 0.000000e+00
<ENDHMM>
~h "ts"
<BEGINHMM>
<NUMSTATES> 5
<STATE> 2
<MEAN> 39
 -2.372538e+01 -1.455460e+00 -3.761597e+00 -3.326943e+00 3.367525e+00 -4.056431e+00 4.853206e+00 -3.256970e+00 6.049657e+00 -1.347288e+00 2.935549e+00 9.346834e-01 6.693321e+01 -9.616528e-01 5.314704e-02 5.822442e-02 -9.132560e-02 6.262916e-01 -1.578185e-01 3.283180e-01 1.273997e-01 4.445427e-01 3.781166e-02 1.473095e-01 1.057720e-01 1.254054e+00 3.610124e-01 -6.858750e-02 3.246753e-01 6.498228e-02 1.068070e-01 1.139364e-01 -7.678334e-02 1.653799e-01 -3.212255e-02 4.670176e-02 5.060048e-02 -5.286586e-02 -2.901956e-01
<VARIANCE> 39
 3.690762e+01 1.481033e+01 1.461123e+01 1.225248e+01 1.524414e+01 1.252623e+01 1.511511e+01 1.150050e+01 1.365341e+01 1.199640e+01 1.130349e+01 1.102040e+01 3.001573e+01 3.795068e+00 2.472203e+00 3.082719e+00 1.723452e+00 2.107606e+00 1.600270e+00 1.891808e+00 1.844661e+00 1.559321e+00 1.439291e+00 1.400938e+00 1.266724e+00 2.345334e+00 5.024287e-01 5.107163e-01 3.768382e-01 3.775918e-01 3.885862e-01 3.880036e-01 4.566784e-01 3.236705e-01 3.226489e-01 2.808146e-01 2.674254e-01 2.530049e-01 3.675748e-01
<GCONST> 1.023034e+02
<STATE> 3
<MEAN> 39
 -1.372672e+01 -2.200855e+00 4.258862e+00 -1.893406e+00 5.470964e+00 -1.190900e-01 3.207597e+00 -2.740970e+00 5.083961e+00 -2.491073e+00 4.096229e+00 1.185465e-01 6.477384e+01 2.849872e+00 2.086554e-01 4.114493e-01 -7.570366e-01 -1.883439e+00 8.723094e-01 -8.768856e-01 -1.398691e+00 -1.041110e+00 -1.133645e+00 -5.143343e-01 4.600336e-02 -3.911801e-01 6.908274e-02 1.240294e-01 -2.649081e-01 -4.471302e-01 -7.028502e-01 -6.243027e-02 3.038201e-02 -3.436271e-01 -4.433137e-02 -2.280843e-01 -1.968847e-01 3.390509e-02 3.065000e-01
<VARIANCE> 39
 5.542682e+01 2.128360e+01 1.326485e+01 2.782186e+01 4.107233e+01 1.914259e+01 2.411429e+01 4.748651e+01 3.196347e+01 2.737286e+01 1.581388e+01 1.323779e+01 2.412794e+01 2.270033e+00 2.597817e+00 2.808769e+00 6.345230e+00 5.822252e+00 2.059751e+00 2.461989e+00 5.244712e+00 3.075474e+00 3.247497e+00 1.882357e+00 1.520842e+00 4.765590e+00 4.582556e-01 5.746393e-01 4.781256e-01 8.617319e-01 5.782140e-01 4.261393e-01 5.742258e-01 1.004414e+00 7.847019e-01 5.725983e-01 3.313422e-01 3.246482e-01 7.222337e-01
<GCONST> 1.207578e+02
<STATE> 4
<MEAN> 39
 1.689706e+00 2.767333e+00 5.273030e+00 -1.794253e+01 -1.872727e+01 1.110488e+00 8.910739e-01 -1.115071e+01 5.132448e+00 -8.385582e+00 -2.973902e+00 -6.247477e-01 6.654046e+01 -1.760001e-01 1.914820e-01 -6.874879e-02 1.681785e-01 2.565403e-01 -1.488330e-01 1.976321e-01 4.154913e-01 5.627857e-02 2.641204e-01 1.095261e-02 -3.541283e-03 -4.085966e-01 -2.412423e-01 -2.679674e-02 -4.827813e-03 3.235359e-01 3.696073e-01 -8.168071e-02 2.035302e-02 1.590468e-01 1.144367e-02 1.661486e-01 1.083791e-01 -2.410341e-02 -1.515813e-01
<VARIANCE> 39
 4.698489e+00 9.937431e+00 1.077539e+01 2.430554e+01 6.041381e+01 2.139076e+01 1.193929e+01 1.638898e+01 2.539099e+01 1.438164e+01 1.349112e+01 1.502584e+01 6.914768e+00 9.560750e-01 8.575094e-01 9.395380e-01 4.255795e+00 7.910725e+00 1.921873e+00 1.004450e+00 1.534610e+00 2.166371e+00 1.665119e+00 1.303450e+00 1.390688e+00 7.035665e-01 1.132408e-01 1.587208e-01 1.599904e-01 3.007703e-01 4.379160e-01 3.417081e-01 2.047161e-01 2.872948e-01 3.434768e-01 3.402566e-01 1.796600e-01 2.463043e-01 9.745708e-02
<GCONST> 9.316413e+01
<TRANSP> 5
 0.000000e+00 1.000000e+00 0.000000e+00 0.000000e+00 0.000000e+00
 0.000000e+00 8.950619e-01 1.049382e-01 0.000000e+00 0.000000e+00
 0.000000e+00 0.000000e+00 8.674815e-01 1.325185e-01 0.000000e+00
 0.000000e+00 0.000000e+00 0.000000e+00 9.442546e-01 5.574537e-02
 0.000000e+00 0.000000e+00 0.000000e+00 0.000000e+00 0.000000e+00
<ENDHMM>
~h "sil"
<BEGINHMM>
<NUMSTATES> 5
<STATE> 2
<MEAN> 39
 -1.243350e+01 -3.079319e+00 2.986020e-01 -2.214084e+00 2.702609e+00 -2.270526e+00 2.829671e+00 -1.555996e+00 3.453104e+00 -5.559825e-01 2.701590e+00 -3.372487e-01 5.513093e+01 -1.890388e-02 4.468782e-02 9.882051e-04 -1.720298e-02 1.948402e-03 3.156956e-02 2.558266e-02 -3.495182e-02 -7.219847e-02 -4.127990e-02 2.192038e-02 1.657856e-02 -3.532597e-02 -1.791749e-03 -1.767686e-02 1.180325e-02 -1.793345e-03 8.704440e-03 -1.583350e-03 1.781680e-03 4.862904e-03 1.744297e-02 1.010313e-02 -5.781509e-04 9.195279e-03 2.360347e-02
<VARIANCE> 39
 1.096617e+00 2.750299e+00 3.623264e+00 5.270048e+00 6.938931e+00 9.572116e+00 1.059207e+01 1.152266e+01 1.256371e+01 1.237401e+01 1.153347e+01 1.052124e+01 6.346930e-01 1.017538e-01 2.380539e-01 4.105189e-01 6.005505e-01 7.906331e-01 1.035514e+00 1.164936e+00 1.292727e+00 1.419648e+00 1.418050e+00 1.354981e+00 1.183176e+00 4.246229e-02 2.144998e-02 4.461750e-02 8.560958e-02 1.234577e-01 1.587506e-01 2.048058e-01 2.338431e-01 2.630182e-01 2.897543e-01 2.855377e-01 2.737761e-01 2.351640e-01 8.752031e-03
<GCONST> 5.953295e+01
<STATE> 3
~s "silst"
<STATE> 4
<MEAN> 39
 -1.480984e+01 -6.219130e+00 2.042224e+00 -2.832485e+00 2.429143e+00 -2.009277e+00 3.243633e+00 -2.646351e+00 4.862713e+00 -9.075718e-02 2.563958e+00 -2.025561e-01 5.854413e+01 -4.407811e-01 -6.619173e-01 1.228653e-01 -5.557115e-02 -2.060480e-01 2.355881e-01 4.506848e-02 -3.288285e-01 3.498986e-01 1.397836e-01 2.900879e-02 -9.369848e-02 7.618654e-01 1.110227e-01 3.622066e-03 -1.120003e-01 5.528292e-02 -3.295838e-02 -3.686998e-02 -3.939379e-02 6.310336e-02 1.624776e-03 -6.274343e-03 9.579656e-03 -3.435861e-02 2.853058e-02
<VARIANCE> 39
 1.442191e+01 1.673674e+01 1.408907e+01 1.195517e+01 1.429714e+01 2.029573e+01 1.852238e+01 1.802987e+01 1.930162e+01 1.626682e+01 1.439871e+01 1.318311e+01 1.591681e+01 1.757180e+00 2.158880e+00 1.383857e+00 1.427665e+00 1.712063e+00 1.631512e+00 1.738501e+00 1.856012e+00 2.009671e+00 1.843082e+00 1.501247e+00 1.549706e+00 2.438359e+00 1.824517e-01 2.579775e-01 2.639490e-01 2.720237e-01 2.600076e-01 2.828243e-01 3.331926e-01 3.425093e-01 3.627430e-01 3.264277e-01 2.776321e-01 2.738821e-01 2.368220e-01
<GCONST> 9.817129e+01
<TRANSP> 5
 0.000000e+00 1.000000e+00 0.000000e+00 0.000000e+00 0.000000e+00
 0.000000e+00 9.355425e-01 4.228339e-02 2.217416e-02 0.000000e+00
 0.000000e+00 0.000000e+00 6.507713e-01 3.492287e-01 0.000000e+00
 0.000000e+00 7.462930e-02 0.000000e+00 5.746908e-01 3.506799e-01
 0.000000e+00 0.000000e+00 0.000000e+00 0.000000e+00 0.000000e+00
<ENDHMM>
