~o
<STREAMINFO> 1 39
<VECSIZE> 39<NULLD><MFCC_D_A_0><DIAGC>
~h "@"
<BEGINHMM>
<NUMSTATES> 5
<STATE> 2
<MEAN> 39
 -9.947157e+00 -4.794668e+00 5.829484e+00 -2.476122e+00 -3.053393e+00 -6.634839e+00 -3.864044e-01 -4.514007e+00 4.642551e+00 -4.764420e+00 3.203959e+00 -2.010174e+00 6.541413e+01 -4.915276e-02 1.659923e-02 -5.029662e-02 3.890328e-02 1.173932e-01 6.082273e-02 4.787779e-02 2.751458e-02 -3.484636e-03 6.518731e-02 1.003601e-02 1.456877e-02 -1.207118e-01 -1.288274e-03 1.064138e-03 -3.220832e-03 -7.485206e-03 1.522894e-03 9.820614e-03 3.101311e-03 -3.329136e-03 9.983324e-04 3.663716e-03 -2.383295e-03 4.945776e-04 8.016163e-05
<VARIANCE> 39
 5.672710e+01 3.373884e+01 4.583107e+01 2.968767e+01 7.064622e+01 4.410231e+01 3.953732e+01 4.433301e+01 2.976577e+01 4.260302e+01 2.624642e+01 2.359376e+01 6.198629e+01 2.509702e+00 1.946398e+00 2.534349e+00 1.820414e+00 4.117260e+00 2.225538e+00 2.511249e+00 2.540120e+00 2.341925e+00 2.753806e+00 2.218294e+00 1.720778e+00 2.325258e+00 3.181292e-01 3.221330e-01 3.891973e-01 3.109060e-01 6.225392e-01 3.733187e-01 4.462182e-01 4.309990e-01 4.407477e-01 4.553997e-01 4.166440e-01 3.177231e-01 2.994803e-01
<GCONST> 1.185627e+02
<STATE> 3
<MEAN> 39
 -1.013578e+01 -4.729506e+00 5.614661e+00 -2.390766e+00 -2.606084e+00 -6.328403e+00 -1.856709e-01 -4.439009e+00 4.636430e+00 -4.487234e+00 3.222471e+00 -1.955745e+00 6.496965e+01 -5.096812e-02 1.687087e-02 -5.946159e-02 1.063619e-02 1.161566e-01 9.125740e-02 5.403943e-02 1.263542e-02 1.960149e-03 7.480029e-02 2.245045e-03 1.386427e-02 -1.110173e-01 7.979711e-04 -4.660301e-04 -1.750096e-03 -7.056572e-03 -1.913793e-03 6.618373e-03 4.830484e-04 -4.498975e-03 1.763566e-03 1.597734e-03 -1.596905e-03 -7.533340e-04 4.210517e-03
<VARIANCE> 39
 5.633476e+01 3.293727e+01 4.562111e+01 2.928450e+01 6.686625e+01 4.290612e+01 3.821900e+01 4.534470e+01 2.962342e+01 4.209383e+01 2.552057e+01 2.421284e+01 6.177914e+01 2.385530e+00 1.886932e+00 2.505199e+00 1.836756e+00 3.832333e+00 2.210007e+00 2.467840e+00 2.558117e+00 2.396178e+00 2.695446e+00 2.172151e+00 1.756056e+00 2.321635e+00 2.993215e-01 3.128684e-01 3.850880e-01 3.147488e-01 5.825139e-01 3.721202e-01 4.402007e-01 4.322682e-01 4.535398e-01 4.486011e-01 4.087891e-01 3.232960e-01 2.988305e-01
<GCONST> 1.180640e+02
<STATE> 4
<MEAN> 39
 -1.038663e+01 -4.598963e+00 5.246016e+00 -2.447605e+00 -2.012388e+00 -5.702825e+00 1.458820e-01 -4.487656e+00 4.658379e+00 -4.019461e+00 3.225266e+00 -1.939882e+00 6.448016e+01 -3.573780e-02 7.152769e-03 -6.019054e-02 -2.157165e-02 8.696577e-02 1.022701e-01 4.326760e-02 -1.007480e-02 1.256988e-02 7.029042e-02 -4.299207e-03 5.417282e-03 -7.071052e-02 3.377742e-03 -1.793057e-03 4.940484e-05 -4.655867e-03 -5.397954e-03 9.299791e-04 -2.318236e-03 -3.979290e-03 2.109861e-03 -1.144702e-03 -5.152542e-04 -1.679499e-03 7.096807e-03
<VARIANCE> 39
 5.806979e+01 3.285080e+01 4.651187e+01 3.035175e+01 6.236367e+01 4.109342e+01 3.634903e+01 4.798244e+01 3.014294e+01 4.063095e+01 2.468345e+01 2.588454e+01 6.140794e+01 2.266850e+00 1.817748e+00 2.510822e+00 1.880804e+00 3.466738e+00 2.207309e+00 2.414698e+00 2.636302e+00 2.478818e+00 2.612879e+00 2.117532e+00 1.831392e+00 2.296643e+00 2.776041e-01 3.009008e-01 3.834777e-01 3.218071e-01 5.313387e-01 3.736821e-01 4.342252e-01 4.415876e-01 4.682524e-01 4.401421e-01 3.995005e-01 3.345433e-01 2.973026e-01
<GCONST> 1.177452e+02
<TRANSP> 5
 0.000000e+00 1.000000e+00 0.000000e+00 0.000000e+00 0.000000e+00
 0.000000e+00 7.466304e-01 2.533695e-01 0.000000e+00 0.000000e+00
 0.000000e+00 0.000000e+00 7.466299e-01 2.533701e-01 0.000000e+00
 0.000000e+00 0.000000e+00 0.000000e+00 8.711461e-01 1.288539e-01
 0.000000e+00 0.000000e+00 0.000000e+00 0.000000e+00 0.000000e+00
<ENDHMM>
~h "I"
<BEGINHMM>
<NUMSTATES> 5
<STATE> 2
<MEAN> 39
 -1.172258e+01 -3.348379e+00 5.795725e+00 -2.401845e+00 -1.167088e+00 -4.888213e+00 2.127169e-01 -5.472486e+00 5.075887e+00 -4.240438e+00 2.887582e+00 -1.072706e+00 6.390141e+01 1.258384e-02 1.957347e-02 -5.288358e-03 1.602344e-02 2.049846e-02 1.132821e-02 -3.440149e-03 2.241929e-04 -1.976354e-02 2.537336e-03 -3.575856e-04 -6.014538e-05 -3.569367e-02 6.825228e-04 -8.443388e-04 -1.968601e-03 -1.189534e-04 5.914732e-04 1.822374e-03 1.433111e-03 9.612099e-04 -7.645554e-04 1.750970e-03 5.997645e-04 -1.911291e-03 -1.221843e-03
<VARIANCE> 39
 6.455010e+01 2.763920e+01 7.080438e+01 2.625062e+01 5.761726e+01 3.116926e+01 4.001412e+01 4.633337e+01 3.210255e+01 4.927448e+01 2.176844e+01 2.745736e+01 4.959921e+01 2.099003e+00 1.624940e+00 3.178254e+00 1.740759e+00 3.059763e+00 2.173946e+00 2.381250e+00 2.581548e+00 2.415981e+00 3.075115e+00 1.881217e+00 1.733117e+00 1.934470e+00 2.435613e-01 2.775508e-01 4.270564e-01 3.075465e-01 4.874098e-01 3.782240e-01 4.177721e-01 4.392563e-01 4.306796e-01 5.059819e-01 3.564726e-01 3.112626e-01 2.724782e-01
<GCONST> 1.167359e+02
<STATE> 3
<MEAN> 39
 -1.166737e+01 -3.281017e+00 5.765825e+00 -2.341425e+00 -1.088348e+00 -4.836332e+00 2.050957e-01 -5.469062e+00 4.998831e+00 -4.219749e+00 2.888664e+00 -1.085973e+00 6.376361e+01 1.549248e-02 1.577890e-02 -1.320192e-02 1.541767e-02 2.225760e-02 1.747805e-02 2.144195e-03 3.692866e-03 -2.181152e-02 9.851552e-03 1.363786e-03 -7.265561e-03 -3.950801e-02 8.265558e-04 -1.143502e-03 -1.964464e-03 -1.925105e-04 1.591099e-04 1.328961e-03 1.398828e-03 6.890237e-04 -2.495977e-04 1.903533e-03 2.808997e-04 -1.767873e-03 -6.612088e-04
<VARIANCE> 39
 6.302195e+01 2.718978e+01 7.099617e+01 2.594754e+01 5.688380e+01 3.058576e+01 3.992391e+01 4.614470e+01 3.189512e+01 4.950740e+01 2.141820e+01 2.721304e+01 4.955584e+01 2.044265e+00 1.601759e+00 3.168721e+00 1.716450e+00 3.018191e+00 2.149880e+00 2.380927e+00 2.550324e+00 2.375358e+00 3.073546e+00 1.861364e+00 1.726290e+00 1.887684e+00 2.392301e-01 2.740747e-01 4.243813e-01 3.037307e-01 4.813910e-01 3.743097e-01 4.186125e-01 4.328686e-01 4.228258e-01 5.054796e-01 3.535686e-01 3.097654e-01 2.645806e-01
<GCONST> 1.163227e+02
<STATE> 4
<MEAN> 39
 -1.154068e+01 -3.227432e+00 5.630941e+00 -2.286490e+00 -9.923227e-01 -4.727949e+00 2.162942e-01 -5.460323e+00 4.891512e+00 -4.130379e+00 2.893268e+00 -1.187464e+00 6.357862e+01 1.891996e-02 7.759930e-03 -2.184170e-02 1.217466e-02 2.011648e-02 1.937314e-02 7.507992e-03 6.130100e-03 -1.910610e-02 1.892774e-02 1.322481e-03 -1.463902e-02 -3.584202e-02 6.404271e-04 -1.346394e-03 -1.748653e-03 -5.866807e-04 -2.517161e-04 3.740363e-04 1.039339e-03 5.370211e-04 3.598336e-04 1.705956e-03 -5.977045e-05 -1.278428e-03 2.456359e-04
<VARIANCE> 39
 6.148943e+01 2.695949e+01 7.028806e+01 2.565382e+01 5.595624e+01 3.019019e+01 3.975664e+01 4.637605e+01 3.188409e+01 4.890145e+01 2.110807e+01 2.710774e+01 5.008052e+01 1.964085e+00 1.563756e+00 3.100776e+00 1.666929e+00 2.929175e+00 2.118952e+00 2.367522e+00 2.521421e+00 2.331158e+00 3.004999e+00 1.837394e+00 1.716168e+00 1.795063e+00 2.318945e-01 2.663297e-01 4.132614e-01 2.944412e-01 4.677866e-01 3.676743e-01 4.179751e-01 4.266005e-01 4.132390e-01 4.959494e-01 3.492362e-01 3.066829e-01 2.456167e-01
<GCONST> 1.156132e+02
<TRANSP> 5
 0.000000e+00 1.000000e+00 0.000000e+00 0.000000e+00 0.000000e+00
 0.000000e+00 7.531994e-01 2.468006e-01 0.000000e+00 0.000000e+00
 0.000000e+00 0.000000e+00 7.531976e-01 2.468025e-01 0.000000e+00
 0.000000e+00 0.000000e+00 0.000000e+00 8.790318e-01 1.209682e-01
 0.000000e+00 0.000000e+00 0.000000e+00 0.000000e+00 0.000000e+00
<ENDHMM>
~h "U"
<BEGINHMM>
<NUMSTATES> 5
<STATE> 2
<MEAN> 39
 -7.820211e+00 -3.771442e+00 2.262953e+00 -8.843409e+00 -4.411226e+00 -9.079815e-01 2.265620e+00 -6.882465e+00 3.417078e+00 -3.665193e+00 -7.355849e-01 -6.302503e-01 6.417535e+01 8.197574e-02 -7.306274e-02 1.627636e-01 -4.616241e-02 -2.533477e-01 -2.019255e-01 -1.920189e-01 -1.573027e-01 3.006046e-02 -2.326249e-01 -5.953629e-02 -8.292332e-02 3.999607e-01 -1.762090e-02 -1.059827e-02 3.642552e-03 3.205837e-02 1.750290e-02 -2.484899e-02 -1.687865e-02 1.457260e-02 6.865292e-03 -4.599935e-04 1.590737e-02 -6.124112e-03 -9.014695e-03
<VARIANCE> 39
 6.125054e+01 2.381676e+01 2.591563e+01 5.147975e+01 9.865319e+01 4.401493e+01 2.952379e+01 3.972891e+01 2.111527e+01 3.863484e+01 3.202773e+01 1.883971e+01 4.362068e+01 4.464443e+00 1.814998e+00 2.079355e+00 2.878000e+00 7.049934e+00 2.438502e+00 1.860384e+00 3.107314e+00 1.832258e+00 2.853806e+00 2.675316e+00 1.640170e+00 9.744186e-01 5.373948e-01 2.915381e-01 3.325010e-01 4.166565e-01 9.469076e-01 4.343591e-01 3.463398e-01 5.398408e-01 3.447870e-01 4.629308e-01 4.909844e-01 3.067892e-01 1.452546e-01
<GCONST> 1.180191e+02
<STATE> 3
<MEAN> 39
 -7.684695e+00 -4.146082e+00 2.883026e+00 -8.710689e+00 -5.150863e+00 -1.860779e+00 1.420620e+00 -7.310105e+00 3.598239e+00 -4.500305e+00 -7.947749e-01 -9.801753e-01 6.553997e+01 1.651962e-02 -1.149219e-01 1.673781e-01 7.693923e-02 -1.714151e-01 -2.831217e-01 -2.430022e-01 -9.060965e-02 5.829809e-02 -2.204923e-01 6.397430e-03 -9.659345e-02 3.480477e-01 -1.633230e-02 -1.058377e-02 2.168449e-04 3.198905e-02 2.266361e-02 -1.929998e-02 -1.156067e-02 1.887414e-02 7.625100e-03 4.872064e-03 1.740648e-02 -2.206623e-03 -1.647962e-02
<VARIANCE> 39
 6.738570e+01 2.646178e+01 2.658025e+01 5.293568e+01 1.000129e+02 5.185868e+01 3.455516e+01 3.854185e+01 2.220450e+01 4.035657e+01 3.226456e+01 1.870361e+01 4.191542e+01 5.129763e+00 1.851907e+00 2.136294e+00 2.954961e+00 7.637673e+00 2.471094e+00 1.982889e+00 3.143135e+00 1.796834e+00 3.050252e+00 2.707730e+00 1.613375e+00 1.128255e+00 6.195439e-01 2.955101e-01 3.388121e-01 4.263459e-01 1.013490e+00 4.362245e-01 3.654006e-01 5.385126e-01 3.318485e-01 4.887559e-01 4.905303e-01 3.048133e-01 1.602493e-01
<GCONST> 1.196300e+02
<STATE> 4
<MEAN> 39
 -7.871055e+00 -4.978955e+00 3.755605e+00 -7.685763e+00 -5.570296e+00 -3.723876e+00 -2.430070e-02 -7.351673e+00 4.054798e+00 -5.550034e+00 -3.953772e-01 -1.507263e+00 6.701498e+01 -4.253846e-02 -1.477827e-01 1.518720e-01 2.128362e-01 -4.937898e-02 -3.327353e-01 -2.533468e-01 1.936752e-02 9.342573e-02 -1.727453e-01 8.286458e-02 -8.523894e-02 2.255160e-01 -7.834241e-03 -3.095780e-03 -3.476377e-03 1.944384e-02 1.979856e-02 -3.690726e-03 1.545415e-03 1.795493e-02 4.925289e-03 9.216974e-03 1.107566e-02 3.559580e-03 -2.314888e-02
<VARIANCE> 39
 7.108208e+01 2.900183e+01 2.602495e+01 5.328565e+01 9.655415e+01 6.018234e+01 3.994831e+01 3.584584e+01 2.337986e+01 4.216269e+01 3.175181e+01 1.786487e+01 3.977253e+01 5.652859e+00 1.854100e+00 2.082213e+00 2.819517e+00 7.847538e+00 2.465702e+00 2.167381e+00 2.993832e+00 1.711946e+00 3.297757e+00 2.605441e+00 1.581496e+00 1.401207e+00 6.969399e-01 2.929958e-01 3.260953e-01 4.144536e-01 1.034082e+00 4.221333e-01 3.875006e-01 5.098957e-01 3.096482e-01 5.198066e-01 4.679751e-01 3.054745e-01 1.825255e-01
<GCONST> 1.203181e+02
<TRANSP> 5
 0.000000e+00 1.000000e+00 0.000000e+00 0.000000e+00 0.000000e+00
 0.000000e+00 7.308074e-01 2.691927e-01 0.000000e+00 0.000000e+00
 0.000000e+00 0.000000e+00 7.308077e-01 2.691922e-01 0.000000e+00
 0.000000e+00 0.000000e+00 0.000000e+00 8.511125e-01 1.488874e-01
 0.000000e+00 0.000000e+00 0.000000e+00 0.000000e+00 0.000000e+00
<ENDHMM>
~h "a"
<BEGINHMM>
<NUMSTATES> 5
<STATE> 2
<MEAN> 39
 -1.094711e+01 -6.249349e+00 3.212611e-01 -4.127486e+00 1.892613e+00 -1.335590e+00 1.366235e+00 -3.424448e+00 5.227427e+00 -9.668487e-01 2.546371e+00 -3.922392e+00 6.445715e+01 -3.989756e-02 -4.738641e-03 -2.941254e-02 -1.851458e-03 6.166396e-02 3.380775e-02 2.878465e-02 2.446011e-02 1.838459e-02 2.067786e-02 -6.730667e-03 1.338558e-03 -5.564988e-03 4.704701e-04 1.688498e-03 3.132134e-03 1.181708e-03 -1.609012e-03 -2.118843e-03 -5.410950e-04 -1.595783e-03 -7.001993e-04 -1.313537e-03 2.659222e-04 2.447852e-03 -1.295614e-03
<VARIANCE> 39
 5.396739e+01 4.321432e+01 3.640963e+01 2.759768e+01 5.294353e+01 5.121134e+01 3.121738e+01 3.702073e+01 3.519876e+01 2.722602e+01 2.411942e+01 5.087019e+01 7.264210e+01 2.357364e+00 1.855689e+00 1.821082e+00 1.860811e+00 2.386631e+00 2.326827e+00 2.123904e+00 2.234787e+00 2.680926e+00 2.038515e+00 1.986175e+00 2.778538e+00 2.800065e+00 3.210585e-01 2.910283e-01 3.020039e-01 3.111767e-01 3.744920e-01 4.049531e-01 3.972711e-01 3.980763e-01 4.657791e-01 3.796878e-01 3.645656e-01 4.414776e-01 3.856617e-01
<GCONST> 1.169916e+02
<STATE> 3
<MEAN> 39
 -1.109011e+01 -6.266236e+00 2.243537e-01 -4.128934e+00 2.126232e+00 -1.209505e+00 1.471452e+00 -3.343683e+00 5.297599e+00 -8.938187e-01 2.523373e+00 -3.904744e+00 6.443161e+01 -3.680351e-02 1.557772e-03 -1.696188e-02 2.858773e-03 5.433550e-02 2.454797e-02 2.615933e-02 1.791522e-02 1.567539e-02 1.528102e-02 -5.151550e-03 1.022275e-02 -1.040922e-02 1.344891e-03 1.346565e-03 3.241215e-03 1.250686e-03 -1.982806e-03 -2.301211e-03 -9.155342e-04 -1.736258e-03 -8.313803e-04 -1.371994e-03 3.932851e-04 2.161002e-03 -1.416410e-03
<VARIANCE> 39
 5.380502e+01 4.337992e+01 3.586539e+01 2.728598e+01 5.158519e+01 5.083491e+01 3.085459e+01 3.550241e+01 3.513280e+01 2.684602e+01 2.372256e+01 5.097700e+01 7.236723e+01 2.366037e+00 1.836105e+00 1.800962e+00 1.845975e+00 2.347495e+00 2.329419e+00 2.108464e+00 2.194656e+00 2.668747e+00 2.018022e+00 1.950534e+00 2.775145e+00 2.806746e+00 3.226314e-01 2.859238e-01 2.987594e-01 3.087173e-01 3.695824e-01 4.063650e-01 3.950755e-01 3.951839e-01 4.612803e-01 3.762632e-01 3.584041e-01 4.406879e-01 3.869987e-01
<GCONST> 1.166582e+02
<STATE> 4
<MEAN> 39
 -1.122381e+01 -6.256196e+00 2.075287e-01 -4.075768e+00 2.414434e+00 -1.075261e+00 1.591876e+00 -3.253381e+00 5.337534e+00 -8.393020e-01 2.483973e+00 -3.797946e+00 6.429692e+01 -2.459878e-02 6.496327e-03 -1.937928e-04 8.245974e-03 3.898699e-02 1.025758e-02 1.870828e-02 6.860416e-03 1.200831e-02 6.990587e-03 -1.180593e-03 1.724507e-02 -1.436663e-02 1.991673e-03 9.652817e-04 2.939458e-03 1.044358e-03 -2.468903e-03 -2.472036e-03 -1.199967e-03 -1.599292e-03 -6.996379e-04 -1.347796e-03 5.481418e-04 1.275326e-03 -1.072284e-03
<VARIANCE> 39
 5.215904e+01 4.296970e+01 3.566874e+01 2.706276e+01 5.050795e+01 5.053384e+01 3.055459e+01 3.405363e+01 3.479180e+01 2.641126e+01 2.299502e+01 5.054511e+01 7.166783e+01 2.303220e+00 1.785095e+00 1.780590e+00 1.825341e+00 2.307412e+00 2.349103e+00 2.083349e+00 2.146781e+00 2.659337e+00 1.985198e+00 1.892264e+00 2.729630e+00 2.814239e+00 3.176212e-01 2.765653e-01 2.938021e-01 3.053925e-01 3.641951e-01 4.109341e-01 3.903950e-01 3.915965e-01 4.571718e-01 3.709409e-01 3.488361e-01 4.348566e-01 3.897212e-01
<GCONST> 1.161077e+02
<TRANSP> 5
 0.000000e+00 1.000000e+00 0.000000e+00 0.000000e+00 0.000000e+00
 0.000000e+00 7.560980e-01 2.439020e-01 0.000000e+00 0.000000e+00
 0.000000e+00 0.000000e+00 7.560983e-01 2.439017e-01 0.000000e+00
 0.000000e+00 0.000000e+00 0.000000e+00 8.825364e-01 1.174635e-01
 0.000000e+00 0.000000e+00 0.000000e+00 0.000000e+00 0.000000e+00
<ENDHMM>
~h "b"
<BEGINHMM>
<NUMSTATES> 5
<STATE> 2
<MEAN> 39
 -1.161343e+01 -3.670228e+00 6.474979e+00 -1.974368e+00 -1.394750e+00 -5.000111e+00 1.107545e-01 -4.909000e+00 4.819926e+00 -4.224738e+00 3.633186e+00 -1.985176e+00 6.476749e+01 6.445932e-02 3.490881e-03 1.035607e-02 4.505618e-02 -1.552868e-02 -4.438525e-02 -2.793856e-03 1.849943e-02 -3.769161e-02 1.420078e-02 1.855589e-02 2.732224e-03 -4.532598e-02 -4.280400e-03 1.204807e-03 -4.625919e-03 -1.368793e-03 4.997537e-03 2.261193e-03 4.460704e-03 1.252082e-03 -2.738487e-03 3.692054e-03 -4.967030e-04 1.647921e-03 -5.650200e-03
<VARIANCE> 39
 7.638352e+01 4.069937e+01 6.967426e+01 3.020476e+01 6.123340e+01 3.291397e+01 4.177286e+01 5.064913e+01 3.467180e+01 4.293232e+01 2.414114e+01 2.858135e+01 5.329146e+01 2.524137e+00 1.938816e+00 3.681916e+00 1.633609e+00 3.594428e+00 2.074966e+00 2.666134e+00 2.616811e+00 2.481767e+00 3.007550e+00 2.251848e+00 1.841454e+00 2.217353e+00 2.960875e-01 3.338771e-01 5.199746e-01 2.890455e-01 5.963377e-01 3.573769e-01 4.890060e-01 4.425850e-01 4.631114e-01 5.048764e-01 4.301582e-01 3.326077e-01 3.259084e-01
<GCONST> 1.202132e+02
<STATE> 3
<MEAN> 39
 -1.138785e+01 -3.653029e+00 6.489808e+00 -1.809580e+00 -1.429956e+00 -5.157683e+00 1.234469e-01 -4.831363e+00 4.662460e+00 -4.149843e+00 3.702001e+00 -1.967636e+00 6.456656e+01 4.605449e-02 7.403331e-03 -8.918035e-03 3.801958e-02 4.706027e-03 -3.353097e-02 1.456259e-02 2.344839e-02 -4.654570e-02 2.863039e-02 1.552167e-02 8.578165e-03 -6.582201e-02 -5.400620e-03 8.501773e-04 -5.606472e-03 -2.463381e-03 5.638240e-03 3.756517e-03 4.470913e-03 1.092846e-03 -1.471893e-03 3.677395e-03 -1.582509e-03 1.434117e-03 -4.876542e-03
<VARIANCE> 39
 7.221927e+01 3.938301e+01 6.840722e+01 2.927933e+01 6.092369e+01 3.306211e+01 4.135354e+01 5.190946e+01 3.460830e+01 4.295934e+01 2.497102e+01 2.773020e+01 5.266452e+01 2.357802e+00 1.947974e+00 3.616595e+00 1.633080e+00 3.578303e+00 2.080163e+00 2.671238e+00 2.619349e+00 2.567811e+00 2.995794e+00 2.284661e+00 1.813361e+00 2.260401e+00 2.785718e-01 3.379836e-01 5.185029e-01 2.889841e-01 5.968003e-01 3.596317e-01 4.896400e-01 4.413605e-01 4.839167e-01 5.030414e-01 4.345918e-01 3.290228e-01 3.359734e-01
<GCONST> 1.200708e+02
<STATE> 4
<MEAN> 39
 -1.126463e+01 -3.537932e+00 6.303454e+00 -1.660887e+00 -1.271237e+00 -5.242290e+00 3.005980e-01 -4.787644e+00 4.390934e+00 -3.947697e+00 3.712566e+00 -1.906793e+00 6.415407e+01 2.029591e-02 8.244960e-03 -3.462065e-02 2.232924e-02 2.795549e-02 -1.220626e-02 3.152326e-02 2.616415e-02 -4.583868e-02 4.227400e-02 5.757560e-03 1.261650e-02 -7.922915e-02 -4.670590e-03 3.829244e-04 -5.510170e-03 -2.989457e-03 4.785159e-03 4.503900e-03 3.159611e-03 3.146770e-04 4.303730e-04 2.570546e-03 -2.552195e-03 9.348525e-04 -3.119072e-03
<VARIANCE> 39
 6.727028e+01 3.676205e+01 6.635969e+01 2.821479e+01 5.883011e+01 3.322639e+01 3.977039e+01 5.331651e+01 3.344249e+01 4.246009e+01 2.527064e+01 2.684600e+01 5.167976e+01 2.171550e+00 1.896694e+00 3.463989e+00 1.629514e+00 3.441560e+00 2.083884e+00 2.629555e+00 2.623994e+00 2.608982e+00 2.933619e+00 2.253357e+00 1.771336e+00 2.234031e+00 2.584314e-01 3.311594e-01 5.036432e-01 2.879969e-01 5.773693e-01 3.610443e-01 4.808368e-01 4.391626e-01 4.962359e-01 4.944873e-01 4.269358e-01 3.225036e-01 3.330021e-01
<GCONST> 1.192576e+02
<TRANSP> 5
 0.000000e+00 1.000000e+00 0.000000e+00 0.000000e+00 0.000000e+00
 0.000000e+00 7.513696e-01 2.486304e-01 0.000000e+00 0.000000e+00
 0.000000e+00 0.000000e+00 7.513704e-01 2.486296e-01 0.000000e+00
 0.000000e+00 0.000000e+00 0.000000e+00 8.764685e-01 1.235315e-01
 0.000000e+00 0.000000e+00 0.000000e+00 0.000000e+00 0.000000e+00
<ENDHMM>
~h "d"
<BEGINHMM>
<NUMSTATES> 5
<STATE> 2
<MEAN> 39
 -8.920540e+00 -5.946807e+00 2.917444e+00 -4.360283e+00 -1.739991e+00 -3.893405e+00 8.456985e-01 -3.435819e+00 4.993885e+00 -1.834152e+00 3.428138e+00 -4.486413e+00 6.567770e+01 2.824269e-02 -3.986255e-02 8.898772e-03 -1.736968e-02 -2.673100e-02 -6.541652e-04 -1.533707e-03 2.203219e-02 -1.347969e-03 5.608738e-03 1.575543e-02 -4.906913e-02 4.999660e-02 -7.913907e-04 1.467905e-03 1.716731e-03 7.834255e-04 -9.641302e-04 -8.219382e-04 2.416200e-04 6.837249e-04 -5.726193e-04 -1.139658e-03 -3.943056e-05 1.905436e-03 -1.099323e-03
<VARIANCE> 39
 4.427781e+01 4.156816e+01 4.038175e+01 2.911823e+01 6.172866e+01 3.605093e+01 2.922769e+01 4.242094e+01 3.273909e+01 3.174044e+01 2.643213e+01 4.890486e+01 8.477225e+01 1.634820e+00 1.520190e+00 1.984367e+00 1.573509e+00 2.666573e+00 2.359486e+00 2.110836e+00 2.585009e+00 2.583025e+00 2.101710e+00 2.356121e+00 2.305052e+00 2.509601e+00 2.512603e-01 2.248234e-01 2.802998e-01 2.645374e-01 4.011343e-01 3.942698e-01 3.871337e-01 4.375309e-01 4.439679e-01 3.630032e-01 4.407852e-01 3.905752e-01 3.302295e-01
<GCONST> 1.157470e+02
<STATE> 3
<MEAN> 39
 -8.809007e+00 -6.100290e+00 2.966136e+00 -4.427445e+00 -1.856939e+00 -3.901466e+00 8.385502e-01 -3.343690e+00 4.985148e+00 -1.820074e+00 3.493802e+00 -4.677526e+00 6.587613e+01 2.428541e-02 -3.278745e-02 1.544913e-02 -1.380014e-02 -2.993311e-02 -4.109425e-03 -2.061921e-04 2.444030e-02 -3.715270e-03 8.765313e-04 1.538705e-02 -4.006929e-02 4.380286e-02 -1.458290e-03 2.297114e-03 1.321518e-03 1.159869e-03 -1.447198e-04 -7.194515e-04 5.431764e-04 4.913335e-04 -6.376456e-04 -1.017786e-03 -2.594373e-04 2.903370e-03 -2.637790e-03
<VARIANCE> 39
 4.366898e+01 4.194106e+01 4.116412e+01 2.882507e+01 6.122273e+01 3.589225e+01 2.898323e+01 4.298047e+01 3.280681e+01 3.161206e+01 2.684067e+01 4.973491e+01 8.563010e+01 1.610533e+00 1.513262e+00 2.021493e+00 1.564885e+00 2.668811e+00 2.378783e+00 2.102629e+00 2.617832e+00 2.594083e+00 2.104305e+00 2.385815e+00 2.334117e+00 2.501653e+00 2.483588e-01 2.221736e-01 2.802671e-01 2.637905e-01 4.005698e-01 3.952733e-01 3.848942e-01 4.426309e-01 4.449274e-01 3.620764e-01 4.442520e-01 3.934661e-01 3.268962e-01
<GCONST> 1.158072e+02
<STATE> 4
<MEAN> 39
 -8.719823e+00 -6.221315e+00 3.078476e+00 -4.485868e+00 -2.013672e+00 -3.925408e+00 8.445904e-01 -3.232394e+00 4.952964e+00 -1.846932e+00 3.573619e+00 -4.834746e+00 6.605164e+01 1.543647e-02 -1.837384e-02 2.061204e-02 -7.361887e-03 -2.887852e-02 -7.814741e-03 2.602226e-03 2.369041e-02 -6.701264e-03 -5.199322e-03 1.359057e-02 -2.295078e-02 2.668792e-02 -2.043783e-03 2.951688e-03 5.082454e-04 1.445209e-03 9.370654e-04 -4.329397e-04 8.044954e-04 -1.174014e-04 -5.714152e-04 -7.485945e-04 -5.160358e-04 3.623761e-03 -4.014255e-03
<VARIANCE> 39
 4.344861e+01 4.218046e+01 4.245874e+01 2.866583e+01 6.103243e+01 3.576547e+01 2.883132e+01 4.389101e+01 3.272732e+01 3.142443e+01 2.729366e+01 5.018497e+01 8.589085e+01 1.584285e+00 1.504362e+00 2.077367e+00 1.559736e+00 2.674247e+00 2.392287e+00 2.088665e+00 2.653203e+00 2.593246e+00 2.108927e+00 2.401329e+00 2.344610e+00 2.459637e+00 2.432705e-01 2.195249e-01 2.811735e-01 2.634967e-01 3.988749e-01 3.939301e-01 3.806532e-01 4.484030e-01 4.438842e-01 3.620367e-01 4.430081e-01 3.928574e-01 3.177171e-01
<GCONST> 1.158031e+02
<TRANSP> 5
 0.000000e+00 1.000000e+00 0.000000e+00 0.000000e+00 0.000000e+00
 0.000000e+00 7.596982e-01 2.403018e-01 0.000000e+00 0.000000e+00
 0.000000e+00 0.000000e+00 7.596992e-01 2.403008e-01 0.000000e+00
 0.000000e+00 0.000000e+00 0.000000e+00 8.859479e-01 1.140521e-01
 0.000000e+00 0.000000e+00 0.000000e+00 0.000000e+00 0.000000e+00
<ENDHMM>
~h "e"
<BEGINHMM>
<NUMSTATES> 5
<STATE> 2
<MEAN> 39
 -1.104826e+01 -4.921879e+00 4.135437e+00 -3.224714e+00 -3.355341e+00 -6.908566e+00 3.235283e-01 -3.048406e+00 5.991152e+00 -3.217444e+00 4.150063e+00 -2.050918e+00 6.646050e+01 2.873837e-02 -3.067669e-02 3.534590e-02 -2.732086e-02 -9.941161e-02 -7.633646e-02 -2.976784e-02 -3.068555e-04 2.007868e-02 -3.877361e-02 2.499845e-02 -2.323670e-02 1.171979e-01 -5.674719e-03 4.806107e-03 -5.932014e-03 3.452166e-03 8.727153e-03 3.205972e-03 5.384441e-03 1.040512e-03 -4.995524e-03 2.293261e-03 -1.950828e-03 2.043017e-03 -1.343530e-02
<VARIANCE> 39
 7.036134e+01 3.829122e+01 4.281174e+01 2.466607e+01 8.452983e+01 4.618681e+01 3.867921e+01 3.626781e+01 3.764793e+01 2.981346e+01 2.422315e+01 2.757861e+01 8.354469e+01 2.441972e+00 2.411787e+00 2.168200e+00 1.782294e+00 3.846479e+00 2.420615e+00 2.657936e+00 2.538888e+00 3.281753e+00 2.042872e+00 2.134459e+00 2.002243e+00 3.071011e+00 3.016633e-01 3.592876e-01 3.605378e-01 3.195828e-01 5.615712e-01 4.462973e-01 4.808097e-01 4.523839e-01 6.025707e-01 3.744845e-01 4.051344e-01 3.716673e-01 3.774016e-01
<GCONST> 1.201012e+02
<STATE> 3
<MEAN> 39
 -1.099432e+01 -4.987406e+00 4.202062e+00 -3.289259e+00 -3.637856e+00 -7.157347e+00 2.742286e-01 -3.056484e+00 6.019282e+00 -3.337243e+00 4.230668e+00 -2.128822e+00 6.677084e+01 6.253421e-03 -1.077636e-02 1.100365e-02 -1.061808e-02 -5.856417e-02 -5.826819e-02 -5.599778e-03 3.625221e-03 -6.229866e-05 -2.574554e-02 1.547766e-02 -1.396560e-02 5.818087e-02 -5.822106e-03 5.264613e-03 -5.990043e-03 4.538422e-03 1.056278e-02 4.711278e-03 6.330148e-03 1.140011e-03 -5.525601e-03 3.391439e-03 -2.310272e-03 2.843215e-03 -1.539945e-02
<VARIANCE> 39
 7.094877e+01 3.813905e+01 4.347446e+01 2.450108e+01 8.456443e+01 4.756911e+01 3.904808e+01 3.628780e+01 3.819404e+01 3.083693e+01 2.464278e+01 2.804174e+01 8.215193e+01 2.453848e+00 2.413606e+00 2.226146e+00 1.758062e+00 3.851946e+00 2.447349e+00 2.668346e+00 2.539701e+00 3.284275e+00 2.064399e+00 2.180324e+00 2.019705e+00 3.113400e+00 3.040423e-01 3.617420e-01 3.723509e-01 3.156397e-01 5.655133e-01 4.499086e-01 4.814363e-01 4.517270e-01 6.034281e-01 3.777364e-01 4.133859e-01 3.736228e-01 3.880062e-01
<GCONST> 1.204217e+02
<STATE> 4
<MEAN> 39
 -1.115734e+01 -4.841013e+00 4.070421e+00 -3.213526e+00 -3.657067e+00 -7.307312e+00 4.735497e-01 -3.088604e+00 5.860723e+00 -3.378570e+00 4.280954e+00 -2.144472e+00 6.666338e+01 -2.239899e-02 1.547750e-02 -2.406394e-02 1.390842e-02 1.136364e-02 -1.254278e-02 2.895343e-02 5.797515e-03 -2.149253e-02 3.273881e-03 -1.416939e-04 1.065723e-03 -2.896169e-02 -3.987276e-03 3.757654e-03 -4.374478e-03 3.366848e-03 9.362195e-03 5.978745e-03 4.675748e-03 7.305303e-04 -3.465571e-03 3.732306e-03 -2.162606e-03 2.745710e-03 -1.226145e-02
<VARIANCE> 39
 7.137246e+01 3.631450e+01 4.359718e+01 2.398065e+01 8.185418e+01 4.858194e+01 3.839936e+01 3.592060e+01 3.790407e+01 3.218302e+01 2.501954e+01 2.837519e+01 7.864703e+01 2.480294e+00 2.295439e+00 2.265000e+00 1.707599e+00 3.706066e+00 2.457513e+00 2.606765e+00 2.489730e+00 3.245127e+00 2.100724e+00 2.193052e+00 2.037089e+00 3.049150e+00 3.059118e-01 3.488249e-01 3.776613e-01 3.077068e-01 5.468152e-01 4.464653e-01 4.693206e-01 4.428453e-01 5.996566e-01 3.812994e-01 4.137414e-01 3.748853e-01 3.867986e-01
<GCONST> 1.200861e+02
<TRANSP> 5
 0.000000e+00 1.000000e+00 0.000000e+00 0.000000e+00 0.000000e+00
 0.000000e+00 7.536011e-01 2.463989e-01 0.000000e+00 0.000000e+00
 0.000000e+00 0.000000e+00 7.536014e-01 2.463986e-01 0.000000e+00
 0.000000e+00 0.000000e+00 0.000000e+00 8.794581e-01 1.205419e-01
 0.000000e+00 0.000000e+00 0.000000e+00 0.000000e+00 0.000000e+00
<ENDHMM>
~h "f"
<BEGINHMM>
<NUMSTATES> 5
<STATE> 2
<MEAN> 39
 -1.063925e+01 -4.856112e+00 4.309193e+00 -3.580584e+00 -1.815325e+00 -4.898383e+00 -1.291161e-01 -5.719857e+00 5.175377e+00 -3.666628e+00 1.951851e+00 -1.634691e+00 6.439989e+01 -1.162687e-02 -2.815575e-02 2.961313e-02 5.601846e-02 5.930747e-03 -5.801855e-02 -5.078470e-02 9.497542e-03 2.391609e-02 -2.637662e-02 2.404317e-02 -8.098273e-03 2.061234e-02 8.135218e-04 1.058137e-03 -1.223011e-03 8.940613e-04 2.196722e-03 2.206560e-03 2.274159e-03 1.939311e-03 -5.725042e-05 2.429461e-03 9.649357e-04 1.063938e-03 -4.611016e-03
<VARIANCE> 39
 6.325919e+01 2.710646e+01 3.935508e+01 3.229470e+01 6.636386e+01 3.739713e+01 4.054781e+01 5.284230e+01 2.746323e+01 3.829351e+01 2.416788e+01 2.401171e+01 4.823658e+01 2.937680e+00 1.621740e+00 1.948680e+00 1.787405e+00 3.536806e+00 2.046165e+00 2.469351e+00 2.851712e+00 2.167389e+00 2.558206e+00 1.925517e+00 1.689019e+00 1.549940e+00 3.596820e-01 2.617098e-01 2.840734e-01 2.938045e-01 5.014880e-01 3.452356e-01 4.232135e-01 4.728031e-01 3.896913e-01 4.374318e-01 3.590894e-01 3.096870e-01 1.964646e-01
<GCONST> 1.152246e+02
<STATE> 3
<MEAN> 39
 -1.067129e+01 -4.946463e+00 4.408081e+00 -3.373599e+00 -1.778547e+00 -5.085772e+00 -2.935230e-01 -5.671811e+00 5.262398e+00 -3.745247e+00 2.044016e+00 -1.654186e+00 6.443630e+01 -6.859505e-03 -2.120556e-02 2.420307e-02 5.385760e-02 1.193968e-02 -4.477379e-02 -3.898756e-02 1.402194e-02 2.160292e-02 -1.686190e-02 2.509443e-02 -3.962308e-03 3.668067e-03 9.335825e-04 2.137038e-03 -1.625413e-03 -1.428202e-03 1.724751e-03 4.395481e-03 3.712968e-03 1.014970e-03 -8.535450e-04 2.737222e-03 -1.820890e-05 1.168598e-03 -4.535281e-03
<VARIANCE> 39
 6.249042e+01 2.720184e+01 3.960052e+01 3.044857e+01 6.506725e+01 3.696738e+01 4.093010e+01 5.275169e+01 2.745835e+01 3.896853e+01 2.351816e+01 2.405945e+01 4.907866e+01 2.884125e+00 1.620083e+00 1.943275e+00 1.757555e+00 3.442496e+00 2.032949e+00 2.486168e+00 2.829589e+00 2.169716e+00 2.568174e+00 1.902538e+00 1.696925e+00 1.584028e+00 3.547027e-01 2.610913e-01 2.828688e-01 2.904199e-01 4.884219e-01 3.413004e-01 4.246363e-01 4.687663e-01 3.897858e-01 4.382205e-01 3.552381e-01 3.114620e-01 1.988973e-01
<GCONST> 1.150289e+02
<STATE> 4
<MEAN> 39
 -1.074545e+01 -4.963194e+00 4.462173e+00 -3.107153e+00 -1.580918e+00 -5.158259e+00 -3.557106e-01 -5.566840e+00 5.352355e+00 -3.689034e+00 2.202745e+00 -1.657319e+00 6.426543e+01 -2.224351e-03 -6.127496e-03 1.179605e-02 3.322697e-02 1.681246e-02 -1.203972e-02 -1.389804e-02 1.230122e-02 1.285551e-02 -2.767577e-04 1.979026e-02 8.274614e-04 -1.523104e-02 -9.048740e-05 1.942172e-03 -1.865663e-03 -3.257948e-03 1.276325e-03 5.262636e-03 3.908718e-03 -1.059981e-04 -1.124870e-03 2.776609e-03 -5.072104e-04 7.089605e-04 -2.726096e-03
<VARIANCE> 39
 6.105135e+01 2.729408e+01 4.065831e+01 2.800889e+01 6.205067e+01 3.569227e+01 4.087352e+01 5.334086e+01 2.774908e+01 3.905815e+01 2.260562e+01 2.470782e+01 5.000927e+01 2.665091e+00 1.613337e+00 1.947310e+00 1.704277e+00 3.161237e+00 2.004691e+00 2.488101e+00 2.805821e+00 2.205902e+00 2.523221e+00 1.857046e+00 1.720763e+00 1.628564e+00 3.280108e-01 2.598667e-01 2.824863e-01 2.845380e-01 4.522318e-01 3.362811e-01 4.247529e-01 4.644132e-01 3.963085e-01 4.315014e-01 3.474823e-01 3.146140e-01 2.025248e-01
<GCONST> 1.144968e+02
<TRANSP> 5
 0.000000e+00 1.000000e+00 0.000000e+00 0.000000e+00 0.000000e+00
 0.000000e+00 7.519225e-01 2.480775e-01 0.000000e+00 0.000000e+00
 0.000000e+00 0.000000e+00 7.519229e-01 2.480772e-01 0.000000e+00
 0.000000e+00 0.000000e+00 0.000000e+00 8.776436e-01 1.223564e-01
 0.000000e+00 0.000000e+00 0.000000e+00 0.000000e+00 0.000000e+00
<ENDHMM>
~h "k"
<BEGINHMM>
<NUMSTATES> 5
<STATE> 2
<MEAN> 39
 -1.277844e+01 -4.498707e+00 2.621842e+00 -2.918128e+00 -1.209771e+00 -5.572035e+00 1.494085e+00 -2.804873e+00 5.636919e+00 -2.156284e+00 4.052913e+00 -1.481992e+00 6.400127e+01 -4.411885e-02 4.459758e-02 -5.757466e-02 1.391474e-03 6.639976e-02 6.195028e-02 5.180263e-02 -3.452506e-03 -1.630604e-02 3.405340e-02 -2.764783e-02 1.730651e-02 -9.125093e-02 4.232269e-03 -1.233410e-03 2.464368e-03 -1.823542e-03 -3.132538e-03 2.394766e-03 -2.817329e-03 -3.420493e-03 2.847044e-03 -1.344732e-03 2.129117e-04 -4.440727e-03 4.040597e-03
<VARIANCE> 39
 6.648209e+01 2.977429e+01 4.267164e+01 2.266919e+01 5.463070e+01 3.613340e+01 3.088094e+01 4.035120e+01 3.644580e+01 3.514827e+01 2.713512e+01 3.203617e+01 6.338619e+01 2.797556e+00 1.841016e+00 2.640228e+00 1.791500e+00 2.867824e+00 2.341780e+00 2.375660e+00 2.472701e+00 3.771263e+00 2.717156e+00 2.311809e+00 2.343492e+00 2.990459e+00 3.440384e-01 3.013570e-01 4.484641e-01 3.306350e-01 4.185021e-01 4.234704e-01 4.407056e-01 4.353008e-01 7.374336e-01 4.667802e-01 4.352598e-01 4.324586e-01 4.474220e-01
<GCONST> 1.198130e+02
<STATE> 3
<MEAN> 39
 -1.291529e+01 -4.342600e+00 2.418503e+00 -2.921430e+00 -9.737918e-01 -5.327490e+00 1.668516e+00 -2.837479e+00 5.589580e+00 -2.037356e+00 3.943238e+00 -1.437238e+00 6.367851e+01 -2.700190e-02 3.866820e-02 -4.663986e-02 -4.134390e-03 5.359111e-02 6.832746e-02 4.030290e-02 -1.484209e-02 -6.503089e-03 2.847644e-02 -2.585228e-02 1.496224e-03 -7.517298e-02 4.038029e-03 -2.183691e-03 3.768336e-03 -1.019396e-03 -3.613562e-03 2.520143e-04 -2.762864e-03 -1.994476e-03 2.146133e-03 -9.449137e-04 8.048228e-04 -3.537037e-03 5.130925e-03
<VARIANCE> 39
 6.499174e+01 2.878078e+01 4.181475e+01 2.221846e+01 5.288718e+01 3.491481e+01 2.971687e+01 3.874375e+01 3.549872e+01 3.430086e+01 2.603474e+01 3.197683e+01 6.432856e+01 2.751351e+00 1.768593e+00 2.529166e+00 1.748293e+00 2.754095e+00 2.267533e+00 2.329783e+00 2.427458e+00 3.630446e+00 2.661782e+00 2.232599e+00 2.321047e+00 2.824861e+00 3.384770e-01 2.895689e-01 4.257492e-01 3.229527e-01 4.043883e-01 4.100466e-01 4.356670e-01 4.293896e-01 7.074621e-01 4.574164e-01 4.215600e-01 4.281088e-01 4.208773e-01
<GCONST> 1.187076e+02
<STATE> 4
<MEAN> 39
 -1.306173e+01 -4.132540e+00 2.213558e+00 -2.926852e+00 -7.740635e-01 -5.050224e+00 1.842262e+00 -2.934332e+00 5.596827e+00 -1.908001e+00 3.855509e+00 -1.465379e+00 6.343812e+01 -2.893765e-03 2.468530e-02 -2.651475e-02 -6.217090e-03 3.573646e-02 6.314290e-02 2.334155e-02 -2.131338e-02 4.495103e-04 2.064825e-02 -2.252342e-02 -1.104996e-02 -5.122048e-02 2.464314e-03 -3.295670e-03 4.720346e-03 -4.701686e-04 -3.174006e-03 -1.481040e-03 -2.230656e-03 -1.145506e-03 1.420080e-03 -6.429647e-04 4.241506e-04 -1.851275e-03 5.625056e-03
<VARIANCE> 39
 6.537038e+01 2.807242e+01 4.080382e+01 2.199874e+01 5.212041e+01 3.404242e+01 2.904035e+01 3.694943e+01 3.502332e+01 3.285859e+01 2.494525e+01 3.186386e+01 6.536761e+01 2.726432e+00 1.683535e+00 2.398050e+00 1.696885e+00 2.635231e+00 2.177429e+00 2.287346e+00 2.366194e+00 3.484614e+00 2.562299e+00 2.129762e+00 2.281658e+00 2.630183e+00 3.332278e-01 2.738172e-01 3.958859e-01 3.126120e-01 3.883511e-01 3.921849e-01 4.301366e-01 4.212343e-01 6.729695e-01 4.422995e-01 4.024979e-01 4.206086e-01 3.861632e-01
<GCONST> 1.174448e+02
<TRANSP> 5
 0.000000e+00 1.000000e+00 0.000000e+00 0.000000e+00 0.000000e+00
 0.000000e+00 7.457229e-01 2.542771e-01 0.000000e+00 0.000000e+00
 0.000000e+00 0.000000e+00 7.457235e-01 2.542765e-01 0.000000e+00
 0.000000e+00 0.000000e+00 0.000000e+00 8.704100e-01 1.295899e-01
 0.000000e+00 0.000000e+00 0.000000e+00 0.000000e+00 0.000000e+00
<ENDHMM>
~h "l"
<BEGINHMM>
<NUMSTATES> 5
<STATE> 2
<MEAN> 39
 -8.163462e+00 -5.258270e+00 5.136762e+00 -2.931746e+00 -4.184825e+00 -6.997019e+00 -1.081888e+00 -5.587206e+00 4.955837e+00 -3.791321e+00 3.433960e+00 -2.037937e+00 6.608118e+01 -1.383856e-02 5.119821e-03 -5.347731e-02 -9.990335e-03 3.482106e-02 4.628667e-02 5.023695e-02 -4.908135e-03 -2.350391e-03 2.469738e-02 -6.510512e-03 -2.181142e-02 -2.193265e-02 -2.039968e-03 1.361039e-03 -3.202444e-03 1.114032e-03 6.522319e-03 5.604985e-03 1.913200e-03 8.279464e-04 5.312990e-04 2.486467e-03 -1.600800e-03 1.062907e-03 -5.950673e-03
<VARIANCE> 39
 4.505415e+01 3.296024e+01 3.632308e+01 2.686291e+01 7.467221e+01 4.770492e+01 4.580151e+01 6.363417e+01 3.454725e+01 3.586485e+01 2.646453e+01 2.745206e+01 7.671343e+01 1.616988e+00 2.168659e+00 1.921261e+00 1.849940e+00 3.512954e+00 2.350831e+00 2.657145e+00 2.887185e+00 2.452449e+00 2.207933e+00 2.363057e+00 1.945641e+00 2.354097e+00 2.155793e-01 3.515840e-01 3.200398e-01 3.146403e-01 5.369418e-01 4.096287e-01 4.749026e-01 4.695225e-01 4.365025e-01 3.822217e-01 4.427006e-01 3.519106e-01 2.851899e-01
<GCONST> 1.180170e+02
<STATE> 3
<MEAN> 39
 -8.252818e+00 -5.223151e+00 4.892210e+00 -2.959436e+00 -3.973161e+00 -6.752880e+00 -8.624070e-01 -5.586681e+00 4.951331e+00 -3.664519e+00 3.388109e+00 -2.108653e+00 6.592906e+01 -2.137784e-02 8.772492e-03 -6.284280e-02 -7.094368e-03 5.730212e-02 6.602088e-02 5.395153e-02 -8.173137e-04 1.689816e-03 3.329248e-02 -1.194005e-02 -1.737791e-02 -3.973398e-02 -2.026452e-03 9.152161e-04 -1.918689e-03 8.408426e-04 5.432879e-03 4.430219e-03 3.964432e-04 1.034218e-03 1.080922e-03 1.979439e-03 -1.322073e-03 1.324464e-03 -4.204511e-03
<VARIANCE> 39
 4.677782e+01 3.317484e+01 3.642772e+01 2.737115e+01 7.284939e+01 4.802370e+01 4.479341e+01 6.282516e+01 3.551113e+01 3.574947e+01 2.645971e+01 2.885360e+01 7.541955e+01 1.658438e+00 2.125881e+00 1.946152e+00 1.873833e+00 3.396730e+00 2.334607e+00 2.630496e+00 2.886790e+00 2.509644e+00 2.215628e+00 2.351576e+00 1.996557e+00 2.331015e+00 2.179403e-01 3.455173e-01 3.216971e-01 3.189837e-01 5.186524e-01 4.049870e-01 4.733685e-01 4.693221e-01 4.471137e-01 3.832629e-01 4.411090e-01 3.579266e-01 2.848063e-01
<GCONST> 1.181058e+02
<STATE> 4
<MEAN> 39
 -8.497820e+00 -5.076848e+00 4.426235e+00 -2.945066e+00 -3.404713e+00 -6.208274e+00 -5.182588e-01 -5.565534e+00 4.927020e+00 -3.383163e+00 3.284952e+00 -2.168133e+00 6.547710e+01 -3.226456e-02 8.720989e-03 -6.388906e-02 -7.449130e-03 7.599451e-02 8.283318e-02 4.820771e-02 7.253689e-03 9.178900e-03 3.933877e-02 -1.748166e-02 -1.123855e-02 -4.695276e-02 -1.524143e-03 6.467028e-05 2.285808e-04 6.906766e-05 2.450173e-03 1.769510e-03 -1.157160e-03 8.255316e-04 1.087320e-03 7.419536e-04 -7.737493e-04 8.533131e-04 -7.976189e-04
<VARIANCE> 39
 5.027809e+01 3.357199e+01 3.699600e+01 2.823663e+01 6.931844e+01 4.749435e+01 4.301640e+01 6.144734e+01 3.611929e+01 3.530045e+01 2.614822e+01 3.070908e+01 7.288013e+01 1.716888e+00 2.008043e+00 1.980240e+00 1.899420e+00 3.159390e+00 2.311482e+00 2.547545e+00 2.812576e+00 2.580807e+00 2.230352e+00 2.274381e+00 2.046709e+00 2.254370e+00 2.196903e-01 3.253076e-01 3.203906e-01 3.221553e-01 4.800499e-01 3.963718e-01 4.616348e-01 4.566836e-01 4.617638e-01 3.866182e-01 4.249819e-01 3.625951e-01 2.763312e-01
<GCONST> 1.177831e+02
<TRANSP> 5
 0.000000e+00 1.000000e+00 0.000000e+00 0.000000e+00 0.000000e+00
 0.000000e+00 7.528588e-01 2.471413e-01 0.000000e+00 0.000000e+00
 0.000000e+00 0.000000e+00 7.528580e-01 2.471420e-01 0.000000e+00
 0.000000e+00 0.000000e+00 0.000000e+00 8.785490e-01 1.214510e-01
 0.000000e+00 0.000000e+00 0.000000e+00 0.000000e+00 0.000000e+00
<ENDHMM>
~h "m"
<BEGINHMM>
<NUMSTATES> 5
<STATE> 2
<MEAN> 39
 -1.058993e+01 -5.978903e+00 5.256573e+00 -3.666534e+00 -1.213194e+00 -4.930593e+00 9.252881e-02 -6.289013e+00 6.562500e+00 -3.687321e+00 3.134685e+00 -1.815876e+00 6.546365e+01 1.231180e-01 -4.209462e-02 -2.876416e-02 1.616780e-02 2.857307e-02 -9.313280e-03 -1.792062e-02 -1.619948e-02 4.736522e-02 6.349257e-02 2.695755e-03 -3.838466e-02 -1.240858e-02 1.126681e-03 -4.689279e-03 -6.760854e-03 -8.385721e-03 -2.907769e-03 1.090905e-03 -2.606654e-03 7.058146e-03 2.534177e-03 5.484333e-04 -5.591100e-04 -4.668988e-03 4.437176e-03
<VARIANCE> 39
 7.776768e+01 3.286329e+01 3.941158e+01 3.576776e+01 4.403491e+01 3.890218e+01 3.341565e+01 4.736349e+01 3.776349e+01 2.970309e+01 2.473152e+01 3.255516e+01 6.366742e+01 3.092460e+00 2.388438e+00 2.288201e+00 2.788542e+00 3.734797e+00 2.598227e+00 2.468312e+00 3.613447e+00 3.360879e+00 2.246378e+00 2.387465e+00 2.146460e+00 3.400947e+00 3.329162e-01 3.962860e-01 3.807045e-01 4.735138e-01 6.275159e-01 4.648446e-01 4.275013e-01 6.501971e-01 6.197363e-01 3.945735e-01 4.601114e-01 3.838164e-01 4.693181e-01
<GCONST> 1.224980e+02
<STATE> 3
<MEAN> 39
 -1.014018e+01 -6.154856e+00 5.106631e+00 -3.659309e+00 -1.129091e+00 -4.964007e+00 1.616997e-02 -6.308642e+00 6.741422e+00 -3.451232e+00 3.142747e+00 -1.972145e+00 6.544710e+01 1.161119e-01 -5.723064e-02 -4.872348e-02 -1.421840e-02 1.970041e-02 -5.574588e-03 -2.512725e-02 1.456656e-02 5.395041e-02 6.321791e-02 1.853073e-03 -5.251729e-02 8.119052e-05 -6.420712e-03 -2.403505e-03 -4.328613e-03 -7.429645e-03 -9.639949e-04 1.290902e-03 -2.146518e-04 1.023573e-02 2.920758e-04 -2.310261e-04 -4.636243e-05 -2.112624e-03 7.989124e-04
<VARIANCE> 39
 7.250233e+01 3.346255e+01 3.797943e+01 3.534936e+01 4.221342e+01 3.811745e+01 3.277435e+01 4.867755e+01 4.158167e+01 2.873534e+01 2.488771e+01 3.499192e+01 6.643597e+01 2.843515e+00 2.477406e+00 2.399105e+00 2.849607e+00 3.594846e+00 2.629675e+00 2.483158e+00 3.708820e+00 3.654719e+00 2.261204e+00 2.426279e+00 2.197525e+00 3.625374e+00 3.051176e-01 4.116526e-01 4.081873e-01 4.897241e-01 6.119199e-01 4.777233e-01 4.300175e-01 6.642268e-01 6.718881e-01 4.039417e-01 4.704584e-01 3.910958e-01 5.077154e-01
<GCONST> 1.230557e+02
<STATE> 4
<MEAN> 39
 -9.679003e+00 -6.428512e+00 4.807420e+00 -3.805640e+00 -1.040015e+00 -5.052840e+00 -9.161231e-02 -6.100188e+00 6.924228e+00 -3.150820e+00 3.158226e+00 -2.192421e+00 6.539816e+01 7.262117e-02 -6.074498e-02 -5.861895e-02 -4.273065e-02 1.737758e-02 -1.157315e-03 -2.188526e-02 6.315161e-02 4.570536e-02 5.724769e-02 2.297092e-03 -5.266776e-02 -5.409906e-03 -1.200165e-02 1.971901e-03 -7.313851e-04 -2.880841e-03 1.264763e-03 1.015291e-03 2.653097e-03 1.089748e-02 -3.589389e-03 -1.327904e-03 -3.275487e-04 2.394782e-03 -5.448573e-03
<VARIANCE> 39
 6.501260e+01 3.394547e+01 3.670985e+01 3.475167e+01 4.013914e+01 3.734237e+01 3.130304e+01 4.957934e+01 4.583498e+01 2.814899e+01 2.513175e+01 3.762978e+01 7.011787e+01 2.536861e+00 2.530836e+00 2.597710e+00 2.893581e+00 3.363963e+00 2.670897e+00 2.469245e+00 3.737923e+00 3.962610e+00 2.339767e+00 2.480548e+00 2.256820e+00 3.840968e+00 2.738941e-01 4.185970e-01 4.545352e-01 5.034042e-01 5.783756e-01 4.925817e-01 4.306973e-01 6.657523e-01 7.293434e-01 4.258284e-01 4.846852e-01 3.989961e-01 5.484672e-01
<GCONST> 1.234834e+02
<TRANSP> 5
 0.000000e+00 1.000000e+00 0.000000e+00 0.000000e+00 0.000000e+00
 0.000000e+00 7.261137e-01 2.738864e-01 0.000000e+00 0.000000e+00
 0.000000e+00 0.000000e+00 7.261141e-01 2.738859e-01 0.000000e+00
 0.000000e+00 0.000000e+00 0.000000e+00 8.463048e-01 1.536952e-01
 0.000000e+00 0.000000e+00 0.000000e+00 0.000000e+00 0.000000e+00
<ENDHMM>
~h "n"
<BEGINHMM>
<NUMSTATES> 5
<STATE> 2
<MEAN> 39
 -9.756276e+00 -4.493549e+00 3.843072e+00 -2.584990e+00 -1.078643e+00 -4.686523e+00 3.735179e-01 -5.464349e+00 4.651031e+00 -2.399348e+00 3.009008e+00 -2.551683e+00 6.385455e+01 -1.277015e-02 8.031268e-03 -2.162042e-02 -2.405718e-03 1.842818e-02 9.720749e-03 6.131155e-03 3.373660e-03 -3.360490e-03 1.072953e-02 1.117242e-04 1.005227e-02 -2.230631e-02 -1.286420e-03 2.453219e-04 -1.929556e-04 -5.069526e-04 -2.261100e-04 5.183024e-05 4.705648e-04 5.851943e-04 -2.910105e-05 -5.518392e-04 3.134792e-04 2.717545e-04 -9.866649e-05
<VARIANCE> 39
 6.181072e+01 3.413538e+01 4.015741e+01 2.978009e+01 5.374560e+01 3.776845e+01 3.750940e+01 5.969375e+01 3.377530e+01 3.021127e+01 2.203546e+01 3.028535e+01 5.826334e+01 1.833692e+00 1.623646e+00 2.106975e+00 1.903255e+00 2.473860e+00 2.338694e+00 2.278679e+00 2.876277e+00 2.554564e+00 2.271739e+00 1.885996e+00 1.999947e+00 1.785937e+00 2.171591e-01 2.538774e-01 3.102398e-01 3.062924e-01 3.913634e-01 3.807725e-01 4.093404e-01 4.518831e-01 4.525306e-01 4.094537e-01 3.533336e-01 3.530234e-01 2.159317e-01
<GCONST> 1.148822e+02
<STATE> 3
<MEAN> 39
 -9.814801e+00 -4.460504e+00 3.758290e+00 -2.597126e+00 -1.008484e+00 -4.649771e+00 3.996782e-01 -5.448689e+00 4.639353e+00 -2.361201e+00 3.011067e+00 -2.509939e+00 6.376902e+01 -1.734067e-02 8.632135e-03 -2.210246e-02 -4.252394e-03 1.722449e-02 9.818797e-03 7.731264e-03 5.970349e-03 -3.192433e-03 8.453688e-03 1.119155e-03 1.080812e-02 -2.255404e-02 -9.216394e-04 9.315490e-06 2.469458e-04 -2.585012e-04 -5.903296e-04 -2.139785e-04 2.307676e-04 6.916425e-04 5.849874e-05 -6.840976e-04 1.923031e-04 1.628522e-05 4.431195e-05
<VARIANCE> 39
 6.211586e+01 3.371791e+01 3.956964e+01 2.944235e+01 5.347805e+01 3.765210e+01 3.750031e+01 5.971132e+01 3.342251e+01 2.983955e+01 2.203443e+01 3.013560e+01 5.793712e+01 1.830459e+00 1.601455e+00 2.074306e+00 1.888713e+00 2.448228e+00 2.328070e+00 2.253772e+00 2.852516e+00 2.543930e+00 2.255414e+00 1.883393e+00 1.989285e+00 1.767478e+00 2.160827e-01 2.505169e-01 3.059281e-01 3.040996e-01 3.871769e-01 3.793123e-01 4.042382e-01 4.483615e-01 4.513030e-01 4.077063e-01 3.524264e-01 3.517011e-01 2.134384e-01
<GCONST> 1.146062e+02
<STATE> 4
<MEAN> 39
 -9.921502e+00 -4.405910e+00 3.657195e+00 -2.633720e+00 -9.481439e-01 -4.618312e+00 4.372247e-01 -5.432887e+00 4.612217e+00 -2.337870e+00 3.031280e+00 -2.455067e+00 6.367194e+01 -2.016140e-02 7.688359e-03 -1.938993e-02 -5.217806e-03 1.352763e-02 8.410622e-03 8.012674e-03 9.242440e-03 -1.557509e-03 4.948011e-03 1.207142e-03 1.032444e-02 -2.031249e-02 -5.514864e-04 -1.717578e-04 6.543382e-04 -1.212348e-05 -6.971141e-04 -2.519629e-04 3.702974e-05 6.407412e-04 1.961555e-04 -5.071615e-04 2.009999e-06 -1.410167e-04 1.645001e-04
<VARIANCE> 39
 6.268684e+01 3.326268e+01 3.910669e+01 2.911914e+01 5.349886e+01 3.755132e+01 3.757413e+01 5.973730e+01 3.291062e+01 2.959594e+01 2.206246e+01 3.012964e+01 5.758848e+01 1.834019e+00 1.572521e+00 2.041400e+00 1.865384e+00 2.420337e+00 2.310955e+00 2.219259e+00 2.818701e+00 2.533743e+00 2.242980e+00 1.880107e+00 1.980999e+00 1.746867e+00 2.159952e-01 2.459010e-01 3.016567e-01 3.004355e-01 3.819652e-01 3.769988e-01 3.974486e-01 4.439991e-01 4.500408e-01 4.063005e-01 3.505930e-01 3.503366e-01 2.111072e-01
<GCONST> 1.143145e+02
<TRANSP> 5
 0.000000e+00 1.000000e+00 0.000000e+00 0.000000e+00 0.000000e+00
 0.000000e+00 7.577402e-01 2.422598e-01 0.000000e+00 0.000000e+00
 0.000000e+00 0.000000e+00 7.577439e-01 2.422562e-01 0.000000e+00
 0.000000e+00 0.000000e+00 0.000000e+00 8.839623e-01 1.160376e-01
 0.000000e+00 0.000000e+00 0.000000e+00 0.000000e+00 0.000000e+00
<ENDHMM>
~h "o"
<BEGINHMM>
<NUMSTATES> 5
<STATE> 2
<MEAN> 39
 -9.408552e+00 -2.357899e+00 2.579658e+00 -6.313187e+00 -3.340850e+00 -2.347459e+00 1.678962e+00 -5.487522e+00 4.548615e+00 -3.213075e+00 2.172074e+00 -7.751549e-01 6.347528e+01 -1.196023e-02 -2.364778e-02 8.486677e-03 1.890642e-02 2.824340e-02 -1.627289e-03 -5.693875e-03 1.148230e-02 -2.374083e-03 1.373823e-02 1.448830e-02 -9.877251e-03 -1.250489e-02 -5.003933e-03 -2.369327e-03 1.281376e-03 4.136258e-03 3.689288e-03 -2.516209e-03 -1.126556e-03 2.685562e-03 9.438298e-04 1.044412e-03 8.054323e-04 -2.052985e-03 4.115468e-04
<VARIANCE> 39
 8.348052e+01 3.047783e+01 2.981380e+01 5.860065e+01 1.033877e+02 3.102637e+01 2.351957e+01 5.042603e+01 2.560430e+01 2.994131e+01 2.403374e+01 2.746535e+01 4.950491e+01 2.538167e+00 1.437713e+00 1.758279e+00 2.674649e+00 3.881219e+00 2.014603e+00 1.841992e+00 2.759513e+00 2.294946e+00 2.179461e+00 1.763150e+00 1.863842e+00 1.922116e+00 2.622422e-01 2.482465e-01 2.804520e-01 3.978125e-01 4.679149e-01 3.600860e-01 3.472359e-01 4.631707e-01 4.193521e-01 3.930603e-01 3.273007e-01 3.493275e-01 2.641419e-01
<GCONST> 1.153148e+02
<STATE> 3
<MEAN> 39
 -9.486600e+00 -2.470886e+00 2.621248e+00 -6.205998e+00 -3.204112e+00 -2.378040e+00 1.644214e+00 -5.417762e+00 4.546427e+00 -3.151410e+00 2.236556e+00 -8.298944e-01 6.342817e+01 -3.081922e-02 -3.313011e-02 1.346235e-02 3.366828e-02 4.134145e-02 -1.088895e-02 -1.044557e-02 2.083558e-02 1.530932e-03 1.756435e-02 1.777724e-02 -1.783861e-02 -9.604312e-03 -4.437000e-03 -2.368164e-03 1.597805e-03 3.187965e-03 2.400090e-03 -2.219583e-03 -1.253419e-03 2.017115e-03 1.051789e-03 6.280424e-04 5.519209e-04 -2.097531e-03 1.209152e-03
<VARIANCE> 39
 8.219145e+01 3.106846e+01 3.097684e+01 5.694363e+01 1.000267e+02 3.125281e+01 2.370020e+01 4.978362e+01 2.585296e+01 3.019411e+01 2.398693e+01 2.825768e+01 5.046318e+01 2.500495e+00 1.440807e+00 1.786008e+00 2.608168e+00 3.779096e+00 2.022645e+00 1.848316e+00 2.725865e+00 2.300675e+00 2.188084e+00 1.768072e+00 1.876377e+00 1.909955e+00 2.609372e-01 2.473804e-01 2.813807e-01 3.887514e-01 4.612305e-01 3.605114e-01 3.477208e-01 4.586595e-01 4.198408e-01 3.942133e-01 3.288923e-01 3.501529e-01 2.598927e-01
<GCONST> 1.152618e+02
<STATE> 4
<MEAN> 39
 -9.735530e+00 -2.647318e+00 2.682082e+00 -5.952571e+00 -2.960067e+00 -2.515256e+00 1.579217e+00 -5.203248e+00 4.577582e+00 -3.043869e+00 2.326291e+00 -9.886754e-01 6.337954e+01 -4.575938e-02 -4.333639e-02 1.922179e-02 4.557750e-02 4.825259e-02 -2.138285e-02 -1.721667e-02 2.715482e-02 6.139520e-03 1.855754e-02 2.062096e-02 -2.613605e-02 -8.652743e-04 -2.672475e-03 -1.797013e-03 1.590327e-03 1.479274e-03 4.146727e-04 -1.424725e-03 -8.323328e-04 8.181130e-04 9.179509e-04 -1.181324e-04 2.432487e-05 -1.644946e-03 2.033685e-03
<VARIANCE> 39
 8.066663e+01 3.197720e+01 3.297372e+01 5.399120e+01 9.542159e+01 3.185622e+01 2.430683e+01 4.805651e+01 2.639526e+01 3.043591e+01 2.387049e+01 2.934049e+01 5.209694e+01 2.461617e+00 1.445477e+00 1.834658e+00 2.473177e+00 3.618115e+00 2.033511e+00 1.864056e+00 2.662719e+00 2.314814e+00 2.191216e+00 1.769027e+00 1.887911e+00 1.900414e+00 2.608196e-01 2.464594e-01 2.844665e-01 3.722558e-01 4.495804e-01 3.608969e-01 3.495477e-01 4.508299e-01 4.210814e-01 3.945695e-01 3.290534e-01 3.499429e-01 2.549554e-01
<GCONST> 1.151652e+02
<TRANSP> 5
 0.000000e+00 1.000000e+00 0.000000e+00 0.000000e+00 0.000000e+00
 0.000000e+00 7.560059e-01 2.439941e-01 0.000000e+00 0.000000e+00
 0.000000e+00 0.000000e+00 7.560058e-01 2.439942e-01 0.000000e+00
 0.000000e+00 0.000000e+00 0.000000e+00 8.821846e-01 1.178154e-01
 0.000000e+00 0.000000e+00 0.000000e+00 0.000000e+00 0.000000e+00
<ENDHMM>
~h "r"
<BEGINHMM>
<NUMSTATES> 5
<STATE> 2
<MEAN> 39
 -9.433034e+00 -5.013259e+00 2.777805e+00 -4.383505e+00 -1.138479e+00 -2.988294e+00 1.024710e+00 -3.891561e+00 5.173977e+00 -2.040036e+00 2.479176e+00 -2.439842e+00 6.306655e+01 2.243709e-02 2.492009e-02 9.807417e-04 -6.805465e-02 -5.864829e-02 2.262169e-02 3.286331e-02 -1.242608e-02 -3.922158e-02 -2.022782e-02 -3.513284e-02 2.368226e-02 2.760965e-02 2.721539e-04 1.018469e-03 1.946174e-03 -1.465416e-06 -3.625134e-03 -3.057970e-03 -1.670303e-03 -5.393644e-03 -2.205078e-03 -4.237905e-03 -5.389753e-04 3.301200e-04 3.487830e-03
<VARIANCE> 39
 4.076732e+01 2.994514e+01 4.312284e+01 2.977055e+01 5.765644e+01 3.329031e+01 3.191589e+01 4.108912e+01 3.288815e+01 3.461780e+01 2.529631e+01 3.712165e+01 6.909091e+01 1.482402e+00 1.456794e+00 2.070953e+00 1.651318e+00 2.719961e+00 2.227021e+00 1.947394e+00 2.448976e+00 2.402213e+00 2.255152e+00 2.057764e+00 1.960390e+00 1.728890e+00 1.965732e-01 2.263687e-01 2.933682e-01 2.775065e-01 4.027578e-01 3.850013e-01 3.508877e-01 4.263418e-01 4.249169e-01 3.958709e-01 3.896575e-01 3.431238e-01 2.158014e-01
<GCONST> 1.130808e+02
<STATE> 3
<MEAN> 39
 -9.343998e+00 -4.918399e+00 2.796420e+00 -4.640318e+00 -1.391513e+00 -2.940630e+00 1.129429e+00 -3.973199e+00 5.016538e+00 -2.148391e+00 2.341404e+00 -2.362865e+00 6.320657e+01 1.942256e-02 2.831830e-02 9.309776e-03 -6.427389e-02 -7.021716e-02 6.385020e-03 2.438170e-02 -2.795086e-02 -4.360205e-02 -3.592484e-02 -3.767498e-02 2.269602e-02 3.867811e-02 -6.511185e-04 6.016070e-05 2.301716e-03 1.534744e-03 -2.527451e-03 -4.295264e-03 -3.068041e-03 -4.320501e-03 -1.062655e-04 -3.964768e-03 -5.342626e-04 -1.140189e-03 3.710570e-03
<VARIANCE> 39
 4.247515e+01 2.997328e+01 4.274633e+01 3.216168e+01 6.082925e+01 3.449595e+01 3.183343e+01 4.235835e+01 3.198831e+01 3.476245e+01 2.646311e+01 3.684769e+01 6.745470e+01 1.648672e+00 1.474277e+00 2.101677e+00 1.716568e+00 2.965444e+00 2.266536e+00 1.944667e+00 2.496052e+00 2.370394e+00 2.292335e+00 2.102254e+00 1.958009e+00 1.728091e+00 2.150301e-01 2.292154e-01 2.986640e-01 2.849935e-01 4.329422e-01 3.912912e-01 3.504355e-01 4.331987e-01 4.201497e-01 3.998889e-01 3.955486e-01 3.421550e-01 2.165244e-01
<GCONST> 1.138787e+02
<STATE> 4
<MEAN> 39
 -9.253587e+00 -4.844182e+00 3.014288e+00 -4.827582e+00 -1.848703e+00 -3.147410e+00 1.047814e+00 -4.186358e+00 4.859627e+00 -2.469948e+00 2.245920e+00 -2.408700e+00 6.367759e+01 1.455750e-03 2.149780e-02 1.961640e-02 -3.007479e-02 -6.050546e-02 -2.442002e-02 5.028974e-05 -3.168058e-02 -3.374340e-02 -4.620729e-02 -2.687379e-02 1.140926e-02 4.032368e-02 -3.122034e-03 -1.818305e-03 2.144844e-03 5.404463e-03 1.378675e-03 -4.502677e-03 -4.401513e-03 -1.610740e-03 2.049920e-03 -1.753639e-03 1.590054e-03 -1.982563e-03 1.474174e-03
<VARIANCE> 39
 4.655947e+01 3.075867e+01 4.322029e+01 3.472349e+01 6.518495e+01 3.617598e+01 3.250605e+01 4.456153e+01 3.138081e+01 3.578123e+01 2.783201e+01 3.664500e+01 6.641299e+01 1.924218e+00 1.494254e+00 2.153731e+00 1.792492e+00 3.275566e+00 2.292853e+00 1.972960e+00 2.548248e+00 2.347090e+00 2.359617e+00 2.146921e+00 1.952917e+00 1.739927e+00 2.462055e-01 2.316423e-01 3.038448e-01 2.935905e-01 4.690277e-01 3.918768e-01 3.545680e-01 4.390296e-01 4.139815e-01 4.075164e-01 3.986109e-01 3.405032e-01 2.178843e-01
<GCONST> 1.150504e+02
<TRANSP> 5
 0.000000e+00 1.000000e+00 0.000000e+00 0.000000e+00 0.000000e+00
 0.000000e+00 7.479064e-01 2.520936e-01 0.000000e+00 0.000000e+00
 0.000000e+00 0.000000e+00 7.479050e-01 2.520950e-01 0.000000e+00
 0.000000e+00 0.000000e+00 0.000000e+00 8.730878e-01 1.269122e-01
 0.000000e+00 0.000000e+00 0.000000e+00 0.000000e+00 0.000000e+00
<ENDHMM>
~h "s"
<BEGINHMM>
<NUMSTATES> 5
<STATE> 2
<MEAN> 39
 -1.344202e+01 -3.708371e+00 1.868335e+00 -2.982750e+00 -5.262085e-01 -4.877230e+00 2.238320e+00 -3.231951e+00 5.344011e+00 -2.322318e+00 3.608063e+00 -2.377092e+00 6.468001e+01 9.834720e-03 7.611567e-03 3.569964e-03 1.451124e-03 2.620169e-02 2.713386e-02 2.286111e-03 -1.377437e-02 -2.832224e-03 7.673235e-03 -8.226452e-03 1.320595e-02 -4.211568e-02 4.359096e-03 -2.271314e-03 1.223566e-03 -5.450009e-04 -1.420411e-03 7.923269e-04 -1.941526e-03 -8.236656e-04 -4.160372e-04 -4.598927e-04 -1.434306e-04 -1.126766e-03 2.333994e-04
<VARIANCE> 39
 8.678941e+01 3.642451e+01 3.933545e+01 2.454310e+01 5.532998e+01 3.787023e+01 3.063650e+01 4.055714e+01 3.345646e+01 2.817461e+01 2.362326e+01 3.589882e+01 6.156068e+01 3.107145e+00 1.691930e+00 2.281959e+00 1.716645e+00 2.499393e+00 2.181032e+00 2.142430e+00 2.439456e+00 3.001684e+00 2.166069e+00 1.947681e+00 2.244348e+00 2.447076e+00 3.525169e-01 2.508048e-01 3.490411e-01 3.002898e-01 3.680190e-01 3.747239e-01 3.958168e-01 4.155810e-01 5.572125e-01 3.963702e-01 3.608732e-01 3.931074e-01 3.064716e-01
<GCONST> 1.165960e+02
<STATE> 3
<MEAN> 39
 -1.337725e+01 -3.690909e+00 1.887261e+00 -2.982236e+00 -4.286414e-01 -4.759833e+00 2.232901e+00 -3.294681e+00 5.332284e+00 -2.292092e+00 3.573628e+00 -2.331201e+00 6.451254e+01 2.646347e-02 -1.317582e-03 8.169203e-03 -1.060829e-03 1.993390e-02 2.962748e-02 -5.506271e-03 -1.671099e-02 -4.299279e-03 5.638448e-03 -8.806906e-03 8.238818e-03 -4.005471e-02 3.863968e-03 -2.300000e-03 1.155404e-03 -8.182394e-04 -1.868405e-03 2.450696e-04 -1.998730e-03 -7.944751e-04 -1.642117e-04 -6.025936e-04 -9.362519e-05 -1.503228e-03 1.252555e-03
<VARIANCE> 39
 8.552155e+01 3.596502e+01 3.895341e+01 2.474026e+01 5.483746e+01 3.754913e+01 3.087708e+01 4.090515e+01 3.307019e+01 2.812080e+01 2.328937e+01 3.559716e+01 6.147154e+01 3.027630e+00 1.663857e+00 2.239381e+00 1.715432e+00 2.462169e+00 2.164671e+00 2.131322e+00 2.442917e+00 2.960841e+00 2.157269e+00 1.927008e+00 2.213427e+00 2.393364e+00 3.444000e-01 2.475199e-01 3.429661e-01 2.995032e-01 3.643907e-01 3.724264e-01 3.932905e-01 4.169439e-01 5.485587e-01 3.955800e-01 3.580580e-01 3.877155e-01 2.981561e-01
<GCONST> 1.162324e+02
<STATE> 4
<MEAN> 39
 -1.316995e+01 -3.728138e+00 1.970131e+00 -3.004941e+00 -3.594133e-01 -4.601160e+00 2.158933e+00 -3.410749e+00 5.299957e+00 -2.277538e+00 3.520319e+00 -2.288714e+00 6.430368e+01 4.150639e-02 -1.072270e-02 1.220074e-02 -5.578562e-03 1.019821e-02 2.964388e-02 -1.520737e-02 -1.982421e-02 -4.696614e-03 2.695228e-03 -9.423518e-03 1.109564e-03 -3.223392e-02 2.239874e-03 -1.812623e-03 1.056908e-03 -8.551065e-04 -1.943755e-03 -3.862085e-04 -1.512315e-03 -7.073033e-04 1.050829e-04 -6.435251e-04 -6.992860e-05 -1.394207e-03 2.067842e-03
<VARIANCE> 39
 8.326012e+01 3.539840e+01 3.891096e+01 2.519498e+01 5.488119e+01 3.751930e+01 3.139708e+01 4.191714e+01 3.266480e+01 2.826715e+01 2.300262e+01 3.529575e+01 6.139660e+01 2.892418e+00 1.623786e+00 2.194247e+00 1.715986e+00 2.431914e+00 2.151135e+00 2.119430e+00 2.454466e+00 2.909596e+00 2.153734e+00 1.904711e+00 2.175305e+00 2.325464e+00 3.312238e-01 2.430472e-01 3.353318e-01 2.982554e-01 3.611595e-01 3.698451e-01 3.902189e-01 4.193367e-01 5.373866e-01 3.954506e-01 3.545376e-01 3.809133e-01 2.886164e-01
<GCONST> 1.158493e+02
<TRANSP> 5
 0.000000e+00 1.000000e+00 0.000000e+00 0.000000e+00 0.000000e+00
 0.000000e+00 7.569278e-01 2.430722e-01 0.000000e+00 0.000000e+00
 0.000000e+00 0.000000e+00 7.569284e-01 2.430716e-01 0.000000e+00
 0.000000e+00 0.000000e+00 0.000000e+00 8.831937e-01 1.168063e-01
 0.000000e+00 0.000000e+00 0.000000e+00 0.000000e+00 0.000000e+00
<ENDHMM>
~h "t"
<BEGINHMM>
<NUMSTATES> 5
<STATE> 2
<MEAN> 39
 -1.123056e+01 -5.768286e+00 1.043807e+00 -3.764915e+00 2.428120e+00 -1.911778e+00 1.504434e+00 -3.325587e+00 5.227317e+00 -1.141230e+00 2.538494e+00 -2.724795e+00 6.309953e+01 -3.936798e-03 4.572858e-02 8.722074e-03 9.621254e-03 -6.921107e-03 -1.853583e-05 2.237801e-02 -2.708012e-03 -1.940170e-02 -4.945484e-03 2.656863e-02 2.178439e-02 -5.385085e-02 1.375102e-03 1.805158e-04 3.077489e-03 -2.300673e-04 -4.411618e-03 -2.182053e-03 -1.009410e-03 -2.392500e-03 7.649405e-05 -1.677384e-03 -7.558792e-05 7.234187e-05 2.895740e-03
<VARIANCE> 39
 4.180418e+01 3.533109e+01 3.454466e+01 2.639356e+01 4.742640e+01 4.696258e+01 2.992662e+01 3.422038e+01 3.103687e+01 2.644720e+01 2.076185e+01 4.175438e+01 6.608652e+01 1.970677e+00 1.567238e+00 1.683805e+00 1.781677e+00 2.296917e+00 2.359468e+00 2.035273e+00 2.145565e+00 2.478589e+00 1.977166e+00 1.814979e+00 2.284188e+00 2.677449e+00 2.869850e-01 2.527905e-01 2.735566e-01 3.039387e-01 3.690750e-01 4.241259e-01 3.798761e-01 3.954593e-01 4.334109e-01 3.703457e-01 3.433725e-01 3.855416e-01 4.045171e-01
<GCONST> 1.138660e+02
<STATE> 3
<MEAN> 39
 -1.123701e+01 -5.586706e+00 1.111605e+00 -3.719861e+00 2.365209e+00 -1.945205e+00 1.574617e+00 -3.356196e+00 5.156991e+00 -1.177981e+00 2.637017e+00 -2.637125e+00 6.291296e+01 1.280161e-03 4.587395e-02 2.027535e-02 9.650616e-03 -2.267732e-02 -9.525964e-03 1.715180e-02 -1.047048e-02 -1.901825e-02 -1.105810e-02 2.572709e-02 2.166490e-02 -4.306551e-02 9.464295e-04 -5.360353e-04 3.168408e-03 1.218475e-04 -3.546114e-03 -2.482563e-03 -1.661247e-03 -2.027429e-03 1.701274e-04 -1.607509e-03 -7.083642e-04 -2.846662e-04 3.227746e-03
<VARIANCE> 39
 4.176436e+01 3.457934e+01 3.463128e+01 2.634629e+01 4.710722e+01 4.490182e+01 2.987343e+01 3.505631e+01 3.047956e+01 2.632683e+01 2.060951e+01 4.058904e+01 6.571332e+01 1.920833e+00 1.522187e+00 1.687273e+00 1.750697e+00 2.255452e+00 2.330900e+00 2.018291e+00 2.154167e+00 2.451753e+00 1.961078e+00 1.809709e+00 2.232271e+00 2.547693e+00 2.804277e-01 2.443312e-01 2.721117e-01 2.976569e-01 3.620956e-01 4.192472e-01 3.769682e-01 3.958092e-01 4.316467e-01 3.659492e-01 3.433866e-01 3.789560e-01 3.830604e-01
<GCONST> 1.133428e+02
<STATE> 4
<MEAN> 39
 -1.121349e+01 -5.399689e+00 1.269638e+00 -3.647680e+00 2.197129e+00 -2.042409e+00 1.621165e+00 -3.458364e+00 5.085526e+00 -1.254871e+00 2.740383e+00 -2.606670e+00 6.285206e+01 4.676383e-03 4.121311e-02 3.625685e-02 1.248708e-02 -3.815623e-02 -2.602967e-02 4.822838e-03 -1.731965e-02 -1.679963e-02 -1.756827e-02 2.003264e-02 1.932310e-02 -2.756139e-02 -8.038633e-04 -1.785342e-03 3.009169e-03 3.193964e-04 -2.114835e-03 -2.027729e-03 -1.701445e-03 -1.679976e-03 2.918831e-04 -7.417042e-04 -1.459740e-03 -7.028356e-04 3.142265e-03
<VARIANCE> 39
 4.310767e+01 3.414264e+01 3.586570e+01 2.632149e+01 4.790323e+01 4.335128e+01 3.054036e+01 3.692695e+01 3.020207e+01 2.647440e+01 2.060781e+01 3.977436e+01 6.541910e+01 1.892543e+00 1.488089e+00 1.724963e+00 1.715733e+00 2.233755e+00 2.305853e+00 2.023178e+00 2.187137e+00 2.446779e+00 1.956687e+00 1.817698e+00 2.186400e+00 2.403651e+00 2.750173e-01 2.373743e-01 2.748932e-01 2.898182e-01 3.575211e-01 4.128716e-01 3.769057e-01 3.988060e-01 4.332753e-01 3.624712e-01 3.448379e-01 3.725933e-01 3.566840e-01
<GCONST> 1.131304e+02
<TRANSP> 5
 0.000000e+00 1.000000e+00 0.000000e+00 0.000000e+00 0.000000e+00
 0.000000e+00 7.533899e-01 2.466101e-01 0.000000e+00 0.000000e+00
 0.000000e+00 0.000000e+00 7.533882e-01 2.466118e-01 0.000000e+00
 0.000000e+00 0.000000e+00 0.000000e+00 8.796657e-01 1.203343e-01
 0.000000e+00 0.000000e+00 0.000000e+00 0.000000e+00 0.000000e+00
<ENDHMM>
~h "u"
<BEGINHMM>
<NUMSTATES> 5
<STATE> 2
<MEAN> 39
 -7.823014e+00 -4.246046e+00 3.708834e+00 -1.932466e+00 -1.845767e+00 -5.259909e+00 -1.606225e+00 -8.160592e+00 4.731071e+00 -2.405092e+00 3.197377e+00 -1.884271e+00 6.377092e+01 -3.731272e-04 -2.029739e-02 -2.610508e-02 -1.670755e-02 3.555900e-03 1.546387e-02 -1.234608e-02 6.661563e-03 7.673895e-03 8.963928e-03 -1.368388e-03 -6.799605e-03 1.224549e-02 -3.495392e-03 7.219413e-07 -1.516425e-03 -1.099457e-03 1.437288e-03 5.394812e-05 2.925357e-03 5.123355e-03 4.869903e-04 -3.119921e-04 -7.741141e-04 -1.300814e-03 1.398296e-04
<VARIANCE> 39
 5.263317e+01 2.785869e+01 3.266511e+01 2.716849e+01 5.094228e+01 3.848172e+01 5.142775e+01 8.294810e+01 3.397041e+01 2.953395e+01 3.001443e+01 2.873869e+01 5.587788e+01 1.538686e+00 1.614633e+00 1.933523e+00 1.967220e+00 2.349093e+00 2.452807e+00 2.461709e+00 2.978420e+00 2.621110e+00 2.236096e+00 2.435115e+00 2.047584e+00 1.747230e+00 1.932118e-01 2.763536e-01 3.063059e-01 3.279669e-01 3.670642e-01 4.109473e-01 4.239362e-01 4.485088e-01 4.787064e-01 3.995946e-01 4.249247e-01 3.630068e-01 2.218588e-01
<GCONST> 1.155036e+02
<STATE> 3
<MEAN> 39
 -7.850090e+00 -4.326957e+00 3.601898e+00 -2.004683e+00 -1.825210e+00 -5.203643e+00 -1.638028e+00 -8.093380e+00 4.763363e+00 -2.377282e+00 3.182508e+00 -1.913457e+00 6.381791e+01 -1.480113e-02 -1.919957e-02 -3.181666e-02 -2.046984e-02 1.025589e-02 1.648779e-02 5.692047e-04 2.725122e-02 8.957913e-03 8.293877e-03 -4.210540e-03 -1.148771e-02 1.114039e-02 -3.805178e-03 7.023569e-04 -1.407308e-03 -7.973027e-04 1.768375e-03 6.274090e-05 3.507164e-03 4.978186e-03 2.279645e-04 -1.792126e-04 -6.270453e-04 -1.065073e-03 -4.647222e-04
<VARIANCE> 39
 5.324694e+01 2.860042e+01 3.296795e+01 2.721427e+01 5.082928e+01 3.848278e+01 5.108416e+01 8.222667e+01 3.402564e+01 2.933145e+01 3.005806e+01 2.965138e+01 5.652567e+01 1.573031e+00 1.640127e+00 1.928559e+00 1.956738e+00 2.342865e+00 2.426019e+00 2.459169e+00 2.950500e+00 2.628551e+00 2.243824e+00 2.440430e+00 2.071614e+00 1.771905e+00 1.979297e-01 2.797462e-01 3.064924e-01 3.264932e-01 3.655353e-01 4.070209e-01 4.242311e-01 4.444990e-01 4.804567e-01 4.012476e-01 4.254385e-01 3.656392e-01 2.273156e-01
<GCONST> 1.156645e+02
<STATE> 4
<MEAN> 39
 -8.021230e+00 -4.368070e+00 3.449926e+00 -2.102335e+00 -1.738117e+00 -5.156542e+00 -1.549826e+00 -7.828436e+00 4.775379e+00 -2.352807e+00 3.127373e+00 -1.941146e+00 6.378919e+01 -3.359430e-02 -1.411569e-02 -3.442873e-02 -2.235786e-02 1.896676e-02 1.818730e-02 1.905183e-02 5.114724e-02 7.474754e-03 7.203164e-03 -7.344213e-03 -1.328916e-02 5.092063e-03 -3.405187e-03 1.216368e-03 -8.404719e-04 -3.699904e-04 1.597173e-03 3.284256e-04 3.399746e-03 3.532648e-03 -1.708197e-04 2.413947e-06 -2.327399e-04 -4.490085e-04 -8.934997e-04
<VARIANCE> 39
 5.440317e+01 2.939314e+01 3.329932e+01 2.693214e+01 5.084092e+01 3.849261e+01 5.018505e+01 7.996791e+01 3.391064e+01 2.910388e+01 2.950283e+01 3.057912e+01 5.756017e+01 1.591430e+00 1.639308e+00 1.898986e+00 1.900326e+00 2.300136e+00 2.370871e+00 2.412329e+00 2.828287e+00 2.606111e+00 2.224481e+00 2.363602e+00 2.068843e+00 1.763150e+00 1.984079e-01 2.760065e-01 3.016174e-01 3.159971e-01 3.587831e-01 3.968683e-01 4.172345e-01 4.297144e-01 4.749133e-01 3.980927e-01 4.103113e-01 3.635853e-01 2.247734e-01
<GCONST> 1.152682e+02
<TRANSP> 5
 0.000000e+00 1.000000e+00 0.000000e+00 0.000000e+00 0.000000e+00
 0.000000e+00 7.566094e-01 2.433906e-01 0.000000e+00 0.000000e+00
 0.000000e+00 0.000000e+00 7.566091e-01 2.433909e-01 0.000000e+00
 0.000000e+00 0.000000e+00 0.000000e+00 8.831319e-01 1.168681e-01
 0.000000e+00 0.000000e+00 0.000000e+00 0.000000e+00 0.000000e+00
<ENDHMM>
~h "v"
<BEGINHMM>
<NUMSTATES> 5
<STATE> 2
<MEAN> 39
 -9.996696e+00 -3.179504e+00 3.121622e+00 -4.535870e+00 -2.457751e+00 -3.794737e+00 1.266369e+00 -3.516650e+00 4.670846e+00 -2.849871e+00 2.342425e+00 -9.667270e-01 6.267243e+01 1.000821e-01 -3.998227e-02 1.257044e-01 -3.982195e-02 -1.707082e-01 -9.572174e-02 -7.141715e-02 -7.125160e-03 2.396776e-02 -6.979343e-02 1.712394e-02 -1.834223e-02 1.947494e-01 1.122817e-03 -5.246042e-03 2.695437e-03 -1.270298e-03 -5.906925e-03 -6.071308e-03 -4.779678e-03 3.578541e-04 2.609988e-03 -2.085183e-03 1.447643e-03 -1.187012e-03 8.685562e-03
<VARIANCE> 39
 5.850703e+01 3.065245e+01 3.173639e+01 4.398895e+01 1.009973e+02 3.450214e+01 2.800680e+01 3.556758e+01 2.415270e+01 2.643458e+01 2.015878e+01 1.960772e+01 6.760147e+01 1.876937e+00 1.729712e+00 1.506839e+00 2.068913e+00 3.989697e+00 2.007159e+00 2.078403e+00 2.330167e+00 2.082049e+00 1.893690e+00 1.618472e+00 1.547229e+00 2.059307e+00 2.133057e-01 2.860101e-01 2.483077e-01 3.364214e-01 5.262728e-01 3.772795e-01 3.932902e-01 4.172774e-01 3.777008e-01 3.542497e-01 3.065069e-01 3.016171e-01 2.497954e-01
<GCONST> 1.126247e+02
<STATE> 3
<MEAN> 39
 -9.586140e+00 -3.382002e+00 3.633045e+00 -4.726517e+00 -3.211689e+00 -4.226698e+00 9.423273e-01 -3.548591e+00 4.787227e+00 -3.152814e+00 2.437741e+00 -1.051784e+00 6.353275e+01 9.760454e-02 -5.317779e-02 1.236036e-01 -4.435160e-02 -1.827265e-01 -1.094427e-01 -8.072218e-02 -6.796133e-03 2.876692e-02 -7.353339e-02 2.591437e-02 -2.138667e-02 2.115207e-01 -1.306281e-03 -2.638638e-03 -1.333282e-03 -8.203737e-04 -1.763233e-03 -2.833834e-03 -1.604100e-03 -7.222386e-05 7.435748e-04 -7.145632e-04 2.259670e-03 -8.753448e-04 2.910448e-03
<VARIANCE> 39
 5.895071e+01 3.402516e+01 3.430722e+01 4.476108e+01 1.069499e+02 3.863465e+01 3.020686e+01 3.680836e+01 2.511234e+01 2.740023e+01 2.101309e+01 2.006724e+01 7.372620e+01 1.898431e+00 1.908885e+00 1.558990e+00 2.125323e+00 4.292867e+00 2.079246e+00 2.164337e+00 2.431679e+00 2.114996e+00 1.917359e+00 1.691675e+00 1.561891e+00 2.223472e+00 2.197220e-01 3.091158e-01 2.583579e-01 3.436764e-01 5.673822e-01 3.913965e-01 4.075837e-01 4.322847e-01 3.798638e-01 3.570486e-01 3.209273e-01 3.038383e-01 2.662417e-01
<GCONST> 1.143416e+02
<STATE> 4
<MEAN> 39
 -9.075416e+00 -3.686031e+00 4.290031e+00 -5.036514e+00 -4.369346e+00 -4.982286e+00 4.846438e-01 -3.665465e+00 4.914206e+00 -3.678833e+00 2.681129e+00 -1.254710e+00 6.485905e+01 6.374417e-02 -4.173313e-02 8.153290e-02 -3.070780e-02 -1.384503e-01 -9.757966e-02 -5.876236e-02 -1.139856e-02 1.290501e-02 -6.252261e-02 3.207862e-02 -2.473340e-02 1.576260e-01 -4.848646e-03 1.448680e-03 -5.455792e-03 2.512729e-03 6.721968e-03 1.421143e-03 2.952993e-03 -6.287457e-04 -2.272958e-03 1.549807e-03 7.939569e-04 -6.301363e-04 -7.143881e-03
<VARIANCE> 39
 5.925018e+01 3.756107e+01 3.708949e+01 4.456926e+01 1.111570e+02 4.580274e+01 3.321123e+01 3.871165e+01 2.648917e+01 2.944242e+01 2.274788e+01 2.126246e+01 7.940686e+01 1.918574e+00 2.089351e+00 1.629539e+00 2.140834e+00 4.554189e+00 2.152933e+00 2.277778e+00 2.560672e+00 2.137017e+00 1.941700e+00 1.833272e+00 1.584038e+00 2.377922e+00 2.271086e-01 3.331420e-01 2.740880e-01 3.436606e-01 6.081797e-01 4.032970e-01 4.248904e-01 4.490395e-01 3.799932e-01 3.577013e-01 3.482170e-01 3.052372e-01 2.849438e-01
<GCONST> 1.162458e+02
<TRANSP> 5
 0.000000e+00 1.000000e+00 0.000000e+00 0.000000e+00 0.000000e+00
 0.000000e+00 7.577110e-01 2.422890e-01 0.000000e+00 0.000000e+00
 0.000000e+00 0.000000e+00 7.577108e-01 2.422892e-01 0.000000e+00
 0.000000e+00 0.000000e+00 0.000000e+00 8.837827e-01 1.162173e-01
 0.000000e+00 0.000000e+00 0.000000e+00 0.000000e+00 0.000000e+00
<ENDHMM>
~h "x"
<BEGINHMM>
<NUMSTATES> 5
<STATE> 2
<MEAN> 39
 -1.111073e+01 -6.434297e+00 3.605604e-01 -3.982659e+00 2.753659e+00 -8.249146e-01 1.634118e+00 -3.128999e+00 5.241820e+00 -7.744934e-01 2.344832e+00 -3.682199e+00 6.404894e+01 -1.279728e-02 7.324583e-03 1.161326e-02 9.558398e-03 1.822133e-02 -5.860443e-03 5.527869e-03 -4.925076e-03 1.533662e-02 -6.097280e-04 3.408334e-03 1.667899e-02 -6.732685e-03 1.408088e-04 2.502883e-03 2.269907e-03 9.736075e-04 -2.753847e-03 -3.249109e-03 -4.479062e-04 -7.009161e-04 -6.898745e-04 -1.392664e-03 5.319018e-04 1.289818e-03 -1.208381e-03
<VARIANCE> 39
 4.581392e+01 4.160452e+01 3.652926e+01 2.704555e+01 5.109095e+01 5.144569e+01 3.023926e+01 3.315305e+01 3.433611e+01 2.687519e+01 2.210045e+01 4.953328e+01 7.120979e+01 2.070613e+00 1.692106e+00 1.763130e+00 1.788522e+00 2.298106e+00 2.402214e+00 2.059387e+00 2.066764e+00 2.647687e+00 1.966162e+00 1.833153e+00 2.636206e+00 2.866510e+00 2.982505e-01 2.629672e-01 2.856154e-01 2.974705e-01 3.630810e-01 4.205090e-01 3.855216e-01 3.812065e-01 4.493041e-01 3.682374e-01 3.397697e-01 4.234222e-01 4.022302e-01
<GCONST> 1.153820e+02
<STATE> 3
<MEAN> 39
 -1.115857e+01 -6.388437e+00 4.240819e-01 -3.937742e+00 2.807604e+00 -8.723546e-01 1.654455e+00 -3.156541e+00 5.298921e+00 -7.868270e-01 2.364056e+00 -3.607398e+00 6.401442e+01 -1.193069e-02 1.718335e-02 2.057713e-02 1.329755e-02 6.850970e-03 -1.875567e-02 3.556670e-03 -7.772364e-03 1.211452e-02 -6.129615e-03 5.491379e-03 2.150933e-02 -1.154943e-02 3.946218e-04 2.328341e-03 2.063479e-03 7.903010e-04 -2.848621e-03 -2.991769e-03 -5.019053e-04 -6.440778e-04 -9.145763e-04 -1.392085e-03 5.672068e-04 9.980085e-04 -1.073529e-03
<VARIANCE> 39
 4.553387e+01 4.126329e+01 3.689288e+01 2.678790e+01 5.101975e+01 5.085320e+01 3.047135e+01 3.326297e+01 3.417451e+01 2.703904e+01 2.192039e+01 4.903295e+01 7.043517e+01 2.072446e+00 1.681385e+00 1.771653e+00 1.777777e+00 2.302396e+00 2.417949e+00 2.073816e+00 2.084094e+00 2.647236e+00 1.973510e+00 1.832382e+00 2.605499e+00 2.852119e+00 3.004149e-01 2.617403e-01 2.863985e-01 2.967488e-01 3.640306e-01 4.252113e-01 3.883027e-01 3.853201e-01 4.498343e-01 3.685400e-01 3.402108e-01 4.202829e-01 4.046158e-01
<GCONST> 1.153777e+02
<STATE> 4
<MEAN> 39
 -1.120260e+01 -6.243953e+00 5.767664e-01 -3.848715e+00 2.776963e+00 -1.037594e+00 1.669573e+00 -3.231605e+00 5.343864e+00 -8.578829e-01 2.417457e+00 -3.476016e+00 6.393232e+01 -7.821495e-03 2.700777e-02 3.067829e-02 1.610174e-02 -9.468252e-03 -3.327969e-02 2.217914e-05 -1.203884e-02 6.153379e-03 -1.268556e-02 8.252863e-03 2.446960e-02 -1.513789e-02 7.282305e-04 1.697968e-03 1.644660e-03 4.400269e-04 -2.730793e-03 -2.284860e-03 -6.486623e-04 -5.395765e-04 -9.965966e-04 -1.142651e-03 5.237773e-04 4.915877e-04 -5.457441e-04
<VARIANCE> 39
 4.561273e+01 4.054094e+01 3.761035e+01 2.655731e+01 5.132728e+01 4.995077e+01 3.098734e+01 3.399213e+01 3.373325e+01 2.715813e+01 2.161804e+01 4.800358e+01 6.925464e+01 2.071190e+00 1.661276e+00 1.791400e+00 1.763536e+00 2.308592e+00 2.431597e+00 2.094035e+00 2.122579e+00 2.639455e+00 1.981281e+00 1.830349e+00 2.548952e+00 2.805464e+00 3.018048e-01 2.593075e-01 2.882661e-01 2.957231e-01 3.650545e-01 4.292524e-01 3.916645e-01 3.923467e-01 4.508586e-01 3.686247e-01 3.406195e-01 4.142751e-01 4.026843e-01
<GCONST> 1.153484e+02
<TRANSP> 5
 0.000000e+00 1.000000e+00 0.000000e+00 0.000000e+00 0.000000e+00
 0.000000e+00 7.597959e-01 2.402041e-01 0.000000e+00 0.000000e+00
 0.000000e+00 0.000000e+00 7.597955e-01 2.402044e-01 0.000000e+00
 0.000000e+00 0.000000e+00 0.000000e+00 8.861803e-01 1.138197e-01
 0.000000e+00 0.000000e+00 0.000000e+00 0.000000e+00 0.000000e+00
<ENDHMM>
~h "y"
<BEGINHMM>
<NUMSTATES> 5
<STATE> 2
<MEAN> 39
 -1.146135e+01 -4.894764e+00 3.909889e+00 -2.561500e+00 -1.601849e-01 -5.049464e+00 2.936545e-01 -5.863913e+00 5.334143e+00 -2.266321e+00 2.259240e+00 -1.716482e+00 6.329501e+01 -3.152640e-03 -2.510227e-03 1.671886e-03 4.680371e-03 7.583688e-03 7.743123e-04 -3.322081e-03 -1.013737e-02 -3.013186e-03 9.652572e-03 -6.234377e-03 -4.071421e-04 -6.524137e-03 -4.038399e-04 3.393451e-04 -8.489536e-04 -7.230864e-04 1.031614e-04 6.707155e-04 7.214391e-04 1.545293e-03 -3.204069e-04 -1.583075e-04 3.796809e-04 -1.866712e-04 -1.803114e-04
<VARIANCE> 39
 6.047253e+01 2.576500e+01 3.091089e+01 2.449573e+01 4.630389e+01 2.963346e+01 4.011356e+01 6.489529e+01 2.592740e+01 2.489427e+01 1.995421e+01 2.378948e+01 4.189944e+01 2.498807e+00 1.584893e+00 1.535205e+00 1.470525e+00 2.254563e+00 1.778293e+00 2.823001e+00 3.191524e+00 2.255297e+00 2.045180e+00 1.696233e+00 1.648269e+00 1.488645e+00 3.054208e-01 2.651633e-01 2.417599e-01 2.555317e-01 3.532259e-01 3.108092e-01 4.778002e-01 5.189723e-01 4.167857e-01 3.782093e-01 3.250144e-01 3.011137e-01 2.011407e-01
<GCONST> 1.111701e+02
<STATE> 3
<MEAN> 39
 -1.147272e+01 -4.903487e+00 3.911622e+00 -2.548252e+00 -1.335666e-01 -5.044547e+00 2.834899e-01 -5.896837e+00 5.319152e+00 -2.230670e+00 2.237835e+00 -1.720932e+00 6.327142e+01 -4.731536e-03 -1.120256e-03 -1.846007e-03 1.753779e-03 7.821959e-03 3.499767e-03 -5.005859e-04 -3.988743e-03 -4.170417e-03 8.774901e-03 -4.557554e-03 -1.084808e-03 -7.081815e-03 -4.962628e-04 2.943185e-04 -1.019807e-03 -8.344147e-04 1.046375e-04 7.481453e-04 7.152715e-04 1.625513e-03 -2.322907e-04 -2.814214e-04 4.597578e-04 -1.168801e-04 -1.567726e-04
<VARIANCE> 39
 6.025615e+01 2.571594e+01 3.074473e+01 2.441260e+01 4.568848e+01 2.944165e+01 4.002328e+01 6.518721e+01 2.576732e+01 2.470159e+01 1.997777e+01 2.374829e+01 4.163097e+01 2.495582e+00 1.595126e+00 1.531121e+00 1.470871e+00 2.242511e+00 1.776332e+00 2.820024e+00 3.189099e+00 2.248736e+00 2.043411e+00 1.701303e+00 1.650506e+00 1.486323e+00 3.052973e-01 2.669608e-01 2.415263e-01 2.558710e-01 3.519946e-01 3.109756e-01 4.774527e-01 5.186768e-01 4.164813e-01 3.784457e-01 3.262960e-01 3.018789e-01 2.013394e-01
<GCONST> 1.111205e+02
<STATE> 4
<MEAN> 39
 -1.147754e+01 -4.904020e+00 3.862071e+00 -2.580962e+00 -1.081756e-01 -4.995882e+00 2.988318e-01 -5.888837e+00 5.273826e+00 -2.191112e+00 2.225385e+00 -1.745001e+00 6.323943e+01 -5.226193e-03 7.477598e-04 -6.558973e-03 -2.237465e-03 6.200783e-03 6.654356e-03 2.948796e-03 3.755084e-03 -5.242770e-03 6.137019e-03 -1.419274e-03 -1.871785e-03 -6.322693e-03 -2.851512e-04 2.989481e-04 -9.410005e-04 -7.046241e-04 -5.020716e-05 7.128697e-04 6.045590e-04 1.410156e-03 -9.736431e-05 -3.814983e-04 5.055398e-04 -2.597407e-05 -7.660448e-05
<VARIANCE> 39
 5.996087e+01 2.587883e+01 3.072134e+01 2.443476e+01 4.538977e+01 2.945005e+01 3.962298e+01 6.502556e+01 2.562009e+01 2.461045e+01 2.008568e+01 2.412507e+01 4.184685e+01 2.469332e+00 1.602365e+00 1.537615e+00 1.475265e+00 2.230921e+00 1.777153e+00 2.792271e+00 3.157052e+00 2.242060e+00 2.040429e+00 1.706088e+00 1.658209e+00 1.491297e+00 3.025861e-01 2.676983e-01 2.425951e-01 2.565846e-01 3.498962e-01 3.107159e-01 4.738615e-01 5.139734e-01 4.160826e-01 3.785193e-01 3.266846e-01 3.025598e-01 2.020197e-01
<GCONST> 1.110865e+02
<TRANSP> 5
 0.000000e+00 1.000000e+00 0.000000e+00 0.000000e+00 0.000000e+00
 0.000000e+00 7.577293e-01 2.422707e-01 0.000000e+00 0.000000e+00
 0.000000e+00 0.000000e+00 7.577300e-01 2.422699e-01 0.000000e+00
 0.000000e+00 0.000000e+00 0.000000e+00 8.840099e-01 1.159901e-01
 0.000000e+00 0.000000e+00 0.000000e+00 0.000000e+00 0.000000e+00
<ENDHMM>
~h "z"
<BEGINHMM>
<NUMSTATES> 5
<STATE> 2
<MEAN> 39
 -1.304091e+01 -2.976499e+00 3.602489e+00 -2.405715e+00 -8.852397e-01 -5.233005e+00 1.518770e+00 -4.454961e+00 5.097384e+00 -3.060393e+00 3.637135e+00 -1.642124e+00 6.443141e+01 -4.328062e-02 2.163862e-02 1.188297e-03 1.943559e-02 1.752711e-02 -2.667964e-03 1.665040e-02 4.093184e-03 1.284586e-03 -3.434269e-03 1.318333e-02 1.521211e-02 -9.287983e-03 1.327285e-03 -8.747006e-04 6.244695e-04 6.691904e-06 -6.993221e-04 -3.455527e-05 -8.633934e-04 -3.111219e-04 -5.187815e-05 -1.243250e-04 -1.002732e-05 -4.907004e-04 8.679898e-04
<VARIANCE> 39
 8.361382e+01 3.053180e+01 5.327711e+01 2.698407e+01 6.071890e+01 3.708256e+01 3.470314e+01 4.386454e+01 3.297615e+01 3.538730e+01 2.406171e+01 2.900692e+01 5.420194e+01 2.907467e+00 1.643725e+00 2.700847e+00 1.665886e+00 3.005026e+00 2.212402e+00 2.417169e+00 2.420549e+00 2.991523e+00 2.509196e+00 1.950877e+00 1.923851e+00 2.243652e+00 3.320571e-01 2.637787e-01 3.894361e-01 2.979807e-01 4.532506e-01 3.860444e-01 4.352677e-01 4.185332e-01 5.546812e-01 4.341910e-01 3.625131e-01 3.516009e-01 3.028583e-01
<GCONST> 1.176060e+02
<STATE> 3
<MEAN> 39
 -1.320277e+01 -2.897835e+00 3.610366e+00 -2.328851e+00 -8.218646e-01 -5.245389e+00 1.578143e+00 -4.439517e+00 5.101774e+00 -3.073717e+00 3.689546e+00 -1.586094e+00 6.440081e+01 -3.717271e-02 1.810390e-02 3.648120e-03 1.934063e-02 1.468147e-02 -2.693163e-03 1.306871e-02 2.634517e-03 8.927440e-04 -3.911943e-03 1.277281e-02 1.303713e-02 -6.113732e-03 1.840345e-03 -9.300997e-04 6.785340e-04 -3.122363e-05 -7.687302e-04 3.908208e-05 -9.795621e-04 -4.280584e-04 -1.767501e-04 -1.001438e-04 -1.883717e-04 -6.077804e-04 6.791748e-04
<VARIANCE> 39
 8.381474e+01 3.010780e+01 5.443721e+01 2.657231e+01 5.997595e+01 3.669098e+01 3.454972e+01 4.341599e+01 3.299832e+01 3.574044e+01 2.402658e+01 2.876846e+01 5.378974e+01 2.944727e+00 1.642965e+00 2.765217e+00 1.659286e+00 3.014629e+00 2.216452e+00 2.436996e+00 2.413846e+00 3.020168e+00 2.544546e+00 1.950668e+00 1.927735e+00 2.258837e+00 3.352875e-01 2.642243e-01 3.976524e-01 2.984487e-01 4.558420e-01 3.877345e-01 4.391162e-01 4.183837e-01 5.625063e-01 4.394528e-01 3.628360e-01 3.530187e-01 3.063346e-01
<GCONST> 1.177254e+02
<STATE> 4
<MEAN> 39
 -1.333870e+01 -2.840289e+00 3.608216e+00 -2.250639e+00 -7.507974e-01 -5.253088e+00 1.631278e+00 -4.433342e+00 5.102584e+00 -3.062423e+00 3.754824e+00 -1.538262e+00 6.434369e+01 -2.487030e-02 1.222843e-02 5.930074e-03 1.777230e-02 1.045299e-02 -2.023347e-03 7.549386e-03 8.308448e-04 -3.716711e-04 -3.261688e-03 1.023997e-02 8.862126e-03 -3.644368e-03 2.195406e-03 -8.936531e-04 5.072277e-04 -1.240546e-04 -5.820747e-04 2.499354e-04 -9.126690e-04 -4.145075e-04 -2.935168e-04 9.481513e-05 -4.605392e-04 -6.491613e-04 1.517269e-04
<VARIANCE> 39
 8.356104e+01 2.962502e+01 5.575313e+01 2.616608e+01 5.915121e+01 3.640696e+01 3.429772e+01 4.327359e+01 3.309840e+01 3.613345e+01 2.400036e+01 2.861325e+01 5.353600e+01 2.965193e+00 1.640097e+00 2.829771e+00 1.650653e+00 3.017872e+00 2.224012e+00 2.453834e+00 2.416945e+00 3.057484e+00 2.576861e+00 1.950099e+00 1.938820e+00 2.276175e+00 3.369484e-01 2.646033e-01 4.063615e-01 2.983973e-01 4.577678e-01 3.898691e-01 4.426993e-01 4.196231e-01 5.725048e-01 4.442504e-01 3.630339e-01 3.555863e-01 3.105652e-01
<GCONST> 1.178575e+02
<TRANSP> 5
 0.000000e+00 1.000000e+00 0.000000e+00 0.000000e+00 0.000000e+00
 0.000000e+00 7.559637e-01 2.440363e-01 0.000000e+00 0.000000e+00
 0.000000e+00 0.000000e+00 7.559612e-01 2.440388e-01 0.000000e+00
 0.000000e+00 0.000000e+00 0.000000e+00 8.819124e-01 1.180877e-01
 0.000000e+00 0.000000e+00 0.000000e+00 0.000000e+00 0.000000e+00
<ENDHMM>
~h "OY"
<BEGINHMM>
<NUMSTATES> 5
<STATE> 2
<MEAN> 39
 -7.832852e+00 -5.284025e+00 4.152056e+00 -3.132768e+00 -2.193485e+00 -4.429181e+00 -2.409649e-01 -5.756780e+00 4.539835e+00 -1.802870e+00 3.579015e+00 -3.118504e+00 6.414970e+01 -1.631359e-02 4.900815e-03 5.820808e-03 1.181530e-02 1.243992e-02 -8.943543e-04 6.559531e-03 2.301094e-02 -6.935245e-03 -7.499441e-03 -2.619195e-03 6.116877e-04 -9.966995e-03 -3.594571e-03 2.231503e-03 -1.283581e-03 6.037454e-04 2.556919e-03 -2.387933e-04 1.730707e-03 2.331166e-03 -1.345437e-03 1.266328e-04 -2.530025e-04 6.524463e-04 -2.873475e-03
<VARIANCE> 39
 4.893637e+01 3.737381e+01 3.723639e+01 3.785153e+01 5.815920e+01 4.324674e+01 3.384996e+01 5.561322e+01 3.932154e+01 2.952336e+01 2.042076e+01 3.023058e+01 6.361587e+01 1.295896e+00 1.619893e+00 2.127078e+00 2.408418e+00 2.546069e+00 2.860357e+00 2.089064e+00 3.130015e+00 2.966968e+00 2.506544e+00 1.863251e+00 2.238495e+00 1.725440e+00 1.547071e-01 2.302256e-01 3.107781e-01 3.482159e-01 3.984305e-01 4.394405e-01 3.825612e-01 4.634939e-01 5.015602e-01 4.533230e-01 3.536644e-01 3.975734e-01 1.960043e-01
<GCONST> 1.155605e+02
<STATE> 3
<MEAN> 39
 -7.924226e+00 -5.249465e+00 4.170250e+00 -3.078753e+00 -2.127295e+00 -4.434899e+00 -2.014445e-01 -5.651428e+00 4.506262e+00 -1.835273e+00 3.563617e+00 -3.108221e+00 6.409425e+01 -3.054564e-02 1.376539e-02 1.498366e-04 1.366929e-02 2.278028e-02 -1.243759e-03 1.341919e-02 3.130630e-02 -1.175232e-02 -6.508166e-03 -3.737447e-03 3.432338e-03 -2.130124e-02 -3.195295e-03 1.921435e-03 -1.693296e-03 -5.552303e-05 2.288997e-03 1.422569e-04 1.544770e-03 1.484750e-03 -1.018852e-03 3.582289e-04 -1.757056e-04 6.608678e-04 -2.505991e-03
<VARIANCE> 39
 4.904854e+01 3.713341e+01 3.745729e+01 3.739917e+01 5.834237e+01 4.299525e+01 3.368076e+01 5.466253e+01 3.942255e+01 2.966418e+01 2.034661e+01 3.037903e+01 6.320565e+01 1.305683e+00 1.618419e+00 2.109479e+00 2.359479e+00 2.558589e+00 2.818691e+00 2.083503e+00 3.088764e+00 2.970845e+00 2.508319e+00 1.860396e+00 2.243728e+00 1.721163e+00 1.564604e-01 2.314996e-01 3.070744e-01 3.420402e-01 3.999623e-01 4.332011e-01 3.816283e-01 4.603948e-01 5.002744e-01 4.535297e-01 3.539344e-01 3.986447e-01 1.972982e-01
<GCONST> 1.154550e+02
<STATE> 4
<MEAN> 39
 -8.168078e+00 -5.129242e+00 4.150266e+00 -3.011755e+00 -1.963904e+00 -4.441194e+00 -9.269577e-02 -5.487129e+00 4.432271e+00 -1.874748e+00 3.530873e+00 -3.063037e+00 6.394651e+01 -4.443407e-02 2.188092e-02 -7.357524e-03 1.226506e-02 3.161974e-02 -1.393610e-04 2.003529e-02 3.425425e-02 -1.312403e-02 -5.228872e-03 -5.531513e-03 7.833278e-03 -2.951669e-02 -2.069714e-03 1.074431e-03 -1.668051e-03 -8.214160e-04 1.250557e-03 4.206784e-04 9.422115e-04 2.825179e-04 -1.945909e-04 3.446798e-04 -9.475987e-05 5.562924e-04 -1.292369e-03
<VARIANCE> 39
 4.968493e+01 3.634495e+01 3.789667e+01 3.638388e+01 5.841124e+01 4.249335e+01 3.348176e+01 5.352282e+01 3.887569e+01 2.990816e+01 2.031058e+01 3.053275e+01 6.235654e+01 1.339173e+00 1.601981e+00 2.086466e+00 2.272155e+00 2.561544e+00 2.746006e+00 2.070375e+00 3.022599e+00 2.955523e+00 2.499368e+00 1.858542e+00 2.239178e+00 1.713111e+00 1.612764e-01 2.323971e-01 3.024732e-01 3.322689e-01 3.999701e-01 4.237486e-01 3.793808e-01 4.565150e-01 4.982984e-01 4.518143e-01 3.540658e-01 3.979301e-01 1.997550e-01
<GCONST> 1.152310e+02
<TRANSP> 5
 0.000000e+00 1.000000e+00 0.000000e+00 0.000000e+00 0.000000e+00
 0.000000e+00 7.598632e-01 2.401368e-01 0.000000e+00 0.000000e+00
 0.000000e+00 0.000000e+00 7.598627e-01 2.401373e-01 0.000000e+00
 0.000000e+00 0.000000e+00 0.000000e+00 8.863071e-01 1.136930e-01
 0.000000e+00 0.000000e+00 0.000000e+00 0.000000e+00 0.000000e+00
<ENDHMM>
~h "aI"
<BEGINHMM>
<NUMSTATES> 5
<STATE> 2
<MEAN> 39
 -9.781879e+00 -6.155584e+00 3.679993e+00 -4.232587e+00 -2.231282e+00 -4.329028e+00 7.760246e-01 -3.010630e+00 5.322033e+00 -2.795559e+00 3.251290e+00 -4.112226e+00 6.607906e+01 4.507388e-03 5.018113e-03 -2.589579e-03 1.165837e-02 -3.335775e-03 -1.317044e-02 -7.362282e-03 1.262004e-02 1.551638e-02 -2.890457e-03 6.674126e-04 7.060605e-03 -1.033302e-03 -9.505340e-04 3.863014e-03 -7.480230e-04 2.027806e-03 1.750002e-03 -1.339298e-03 7.621142e-04 -1.896595e-03 -2.402152e-03 -1.253117e-04 -1.476359e-04 3.889571e-03 -4.443241e-03
<VARIANCE> 39
 6.612202e+01 4.499785e+01 4.515889e+01 2.927537e+01 6.132666e+01 3.817050e+01 3.248486e+01 4.505457e+01 3.814371e+01 3.174866e+01 2.548987e+01 4.361705e+01 7.760306e+01 2.312097e+00 1.902889e+00 2.525270e+00 1.807780e+00 2.885309e+00 2.257094e+00 2.186928e+00 2.697734e+00 2.757060e+00 2.263763e+00 2.254179e+00 2.468519e+00 2.542156e+00 2.871503e-01 2.790321e-01 3.600374e-01 3.061040e-01 4.263450e-01 3.642896e-01 4.127009e-01 4.497625e-01 4.853456e-01 3.981220e-01 4.244483e-01 4.126861e-01 3.091555e-01
<GCONST> 1.186672e+02
<STATE> 3
<MEAN> 39
 -9.782828e+00 -6.105208e+00 3.669808e+00 -4.170811e+00 -2.231570e+00 -4.391544e+00 7.585830e-01 -2.974117e+00 5.364698e+00 -2.811128e+00 3.252873e+00 -4.053693e+00 6.604286e+01 -1.815449e-03 2.071871e-02 -5.585839e-03 1.931054e-02 5.258476e-03 -1.700691e-02 -2.824582e-03 5.093038e-03 5.503830e-03 -2.174170e-03 7.169957e-04 2.249227e-02 -1.967797e-02 -2.474303e-03 3.911435e-03 -5.658012e-04 1.672725e-03 2.596057e-03 -5.346963e-04 1.823380e-03 -1.517281e-03 -2.968518e-03 4.734975e-04 3.575768e-04 3.823011e-03 -4.837671e-03
<VARIANCE> 39
 6.683925e+01 4.523055e+01 4.515998e+01 2.903481e+01 6.196022e+01 3.826476e+01 3.306814e+01 4.497038e+01 3.849455e+01 3.135751e+01 2.554536e+01 4.283596e+01 7.671380e+01 2.300283e+00 1.914421e+00 2.532205e+00 1.822614e+00 2.907737e+00 2.244326e+00 2.182784e+00 2.678277e+00 2.777306e+00 2.255933e+00 2.254137e+00 2.446950e+00 2.540845e+00 2.830313e-01 2.812982e-01 3.640850e-01 3.086725e-01 4.303962e-01 3.614178e-01 4.113454e-01 4.453483e-01 4.909497e-01 3.990215e-01 4.242914e-01 4.110346e-01 3.107441e-01
<GCONST> 1.186883e+02
<STATE> 4
<MEAN> 39
 -9.924664e+00 -5.841782e+00 3.588557e+00 -4.024136e+00 -2.104811e+00 -4.475514e+00 8.635848e-01 -2.987527e+00 5.260875e+00 -2.820205e+00 3.266833e+00 -3.865564e+00 6.580085e+01 -2.003873e-02 3.943276e-02 -7.841008e-03 2.607581e-02 2.033941e-02 -1.597301e-02 8.708116e-03 -3.873143e-03 -8.303249e-03 1.241857e-03 2.823702e-03 3.992795e-02 -4.300896e-02 -3.585530e-03 2.884398e-03 -3.779249e-04 8.504178e-04 2.935121e-03 5.994704e-04 2.433377e-03 -1.026224e-03 -2.637038e-03 9.842855e-04 6.216689e-04 2.693389e-03 -4.075283e-03
<VARIANCE> 39
 6.746307e+01 4.476129e+01 4.504824e+01 2.866752e+01 6.231284e+01 3.835567e+01 3.330063e+01 4.526879e+01 3.761796e+01 3.103496e+01 2.539322e+01 4.172261e+01 7.462504e+01 2.248229e+00 1.874682e+00 2.489583e+00 1.822100e+00 2.883889e+00 2.224079e+00 2.150664e+00 2.626433e+00 2.742520e+00 2.242928e+00 2.219057e+00 2.373909e+00 2.486864e+00 2.733283e-01 2.768112e-01 3.615128e-01 3.078858e-01 4.282696e-01 3.588027e-01 4.029659e-01 4.343906e-01 4.882138e-01 3.998323e-01 4.159921e-01 4.012935e-01 3.054694e-01
<GCONST> 1.182189e+02
<TRANSP> 5
 0.000000e+00 1.000000e+00 0.000000e+00 0.000000e+00 0.000000e+00
 0.000000e+00 7.544706e-01 2.455293e-01 0.000000e+00 0.000000e+00
 0.000000e+00 0.000000e+00 7.544696e-01 2.455303e-01 0.000000e+00
 0.000000e+00 0.000000e+00 0.000000e+00 8.801868e-01 1.198132e-01
 0.000000e+00 0.000000e+00 0.000000e+00 0.000000e+00 0.000000e+00
<ENDHMM>
~h "sh"
<BEGINHMM>
<NUMSTATES> 5
<STATE> 2
<MEAN> 39
 -1.310082e+01 -6.802863e+00 7.787001e+00 -5.540166e+00 -2.421813e+00 -3.250187e+00 -6.259573e-01 -5.690473e+00 6.879824e+00 -4.585815e+00 2.581806e+00 -9.815034e-01 6.591512e+01 -1.969568e-01 -9.439901e-02 1.223497e-01 -6.440189e-02 2.632342e-02 5.924122e-02 -2.705589e-02 7.937359e-02 1.102869e-01 8.788088e-02 4.391443e-02 -6.739305e-02 7.548416e-02 2.638504e-02 -5.923721e-03 -7.261947e-03 3.164212e-03 -1.512648e-02 -1.632529e-02 -1.240478e-02 -2.710336e-03 2.922968e-03 -3.839420e-03 -2.054450e-03 -4.347668e-03 1.495978e-02
<VARIANCE> 39
 1.097661e+02 3.003755e+01 4.383331e+01 4.144390e+01 5.189216e+01 4.603447e+01 3.080072e+01 4.584079e+01 2.645599e+01 3.052306e+01 2.127404e+01 2.839846e+01 5.181917e+01 4.570450e+00 1.976268e+00 3.027491e+00 2.463693e+00 3.731547e+00 2.409631e+00 2.250110e+00 2.836452e+00 2.117394e+00 2.354601e+00 1.946886e+00 1.980691e+00 2.622013e+00 4.789564e-01 3.328693e-01 4.303073e-01 3.655201e-01 5.720770e-01 3.879247e-01 4.086194e-01 4.930043e-01 3.956234e-01 4.000860e-01 3.714463e-01 3.596458e-01 3.576335e-01
<GCONST> 1.198617e+02
<STATE> 3
<MEAN> 39
 -1.367283e+01 -7.200750e+00 8.198046e+00 -5.776705e+00 -2.422120e+00 -3.122339e+00 -8.046943e-01 -5.407130e+00 7.308877e+00 -4.280977e+00 2.736780e+00 -1.263019e+00 6.630687e+01 -8.374001e-02 -1.111220e-01 8.903459e-02 -4.536593e-02 -3.183986e-02 -7.718341e-03 -7.223259e-02 7.213118e-02 1.166180e-01 7.002365e-02 3.351190e-02 -7.928355e-02 1.227635e-01 3.265672e-02 -2.200950e-03 -1.097067e-02 6.925908e-03 -1.459581e-02 -1.880662e-02 -1.129963e-02 -2.432068e-04 3.761033e-06 -4.744417e-03 -3.198393e-03 -1.681436e-03 8.079221e-03
<VARIANCE> 39
 1.134493e+02 3.135431e+01 4.505824e+01 3.998569e+01 5.067863e+01 4.565414e+01 3.214115e+01 4.471698e+01 2.813312e+01 2.776887e+01 2.159493e+01 3.076116e+01 5.346749e+01 4.937250e+00 2.079263e+00 3.218256e+00 2.427191e+00 3.779493e+00 2.478817e+00 2.320644e+00 2.913675e+00 2.246406e+00 2.260153e+00 2.013547e+00 2.097587e+00 2.863118e+00 5.135308e-01 3.554620e-01 4.569703e-01 3.684573e-01 5.981276e-01 4.005919e-01 4.219927e-01 5.189598e-01 4.131183e-01 3.923549e-01 3.844406e-01 3.780782e-01 4.175226e-01
<GCONST> 1.211051e+02
<STATE> 4
<MEAN> 39
 -1.370056e+01 -7.770135e+00 8.449214e+00 -5.978893e+00 -2.724384e+00 -3.401706e+00 -1.272460e+00 -4.995220e+00 7.841222e+00 -3.978312e+00 2.864080e+00 -1.686234e+00 6.697623e+01 7.650730e-02 -1.090927e-01 2.890348e-02 -5.158674e-03 -9.413432e-02 -9.648156e-02 -1.136604e-01 7.977786e-02 1.025671e-01 4.685100e-02 1.928907e-02 -7.805239e-02 1.364824e-01 2.892026e-02 3.659562e-03 -1.276455e-02 9.184957e-03 -8.844846e-03 -1.639384e-02 -5.485853e-03 3.519529e-03 -5.525515e-03 -3.595244e-03 -1.999672e-03 2.091438e-03 -4.291312e-03
<VARIANCE> 39
 1.161447e+02 3.353279e+01 4.517156e+01 3.819847e+01 5.266636e+01 4.675218e+01 3.426881e+01 4.466814e+01 3.048227e+01 2.472494e+01 2.277126e+01 3.367231e+01 5.628351e+01 5.219017e+00 2.274396e+00 3.402714e+00 2.379540e+00 3.991617e+00 2.522745e+00 2.426450e+00 3.038526e+00 2.432201e+00 2.183594e+00 2.167583e+00 2.256319e+00 3.245156e+00 5.509920e-01 3.911836e-01 4.912607e-01 3.753330e-01 6.476254e-01 4.104911e-01 4.431252e-01 5.520398e-01 4.384665e-01 3.891297e-01 4.124214e-01 4.046473e-01 5.068501e-01
<GCONST> 1.229483e+02
<TRANSP> 5
 0.000000e+00 1.000000e+00 0.000000e+00 0.000000e+00 0.000000e+00
 0.000000e+00 7.337942e-01 2.662058e-01 0.000000e+00 0.000000e+00
 0.000000e+00 0.000000e+00 7.337946e-01 2.662054e-01 0.000000e+00
 0.000000e+00 0.000000e+00 0.000000e+00 8.547300e-01 1.452700e-01
 0.000000e+00 0.000000e+00 0.000000e+00 0.000000e+00 0.000000e+00
<ENDHMM>
~h "ts"
<BEGINHMM>
<NUMSTATES> 5
<STATE> 2
<MEAN> 39
 -1.063227e+01 -2.113954e+00 2.411103e+00 -5.411069e+00 -2.675373e+00 -2.952636e+00 1.834985e+00 -4.704014e+00 4.715426e+00 -3.080094e+00 2.170278e+00 -1.063003e+00 6.346429e+01 2.954018e-02 3.021366e-02 -8.590270e-03 -5.216236e-02 -3.269104e-02 3.900997e-02 1.139948e-02 -1.795238e-02 2.329803e-03 -4.424573e-03 -2.256101e-02 1.283152e-02 -7.850942e-03 2.252829e-03 -9.644798e-04 1.498523e-03 8.097058e-05 -1.853611e-03 -1.240638e-03 -1.087545e-03 -1.917750e-04 -2.865271e-04 -5.697230e-04 3.210358e-04 -7.822994e-04 6.239084e-04
<VARIANCE> 39
 8.661069e+01 2.761699e+01 3.106259e+01 5.310388e+01 1.029292e+02 3.139392e+01 2.577432e+01 4.140727e+01 2.608035e+01 2.920722e+01 2.301667e+01 2.489341e+01 4.942929e+01 2.732550e+00 1.464642e+00 1.769887e+00 2.413403e+00 3.850652e+00 1.941719e+00 1.931383e+00 2.538938e+00 2.324004e+00 2.103473e+00 1.654037e+00 1.713332e+00 2.096196e+00 2.845170e-01 2.641495e-01 2.886502e-01 3.832967e-01 4.752685e-01 3.533303e-01 3.666102e-01 4.421422e-01 4.211183e-01 3.819678e-01 3.002955e-01 3.235751e-01 2.929334e-01
<GCONST> 1.148352e+02
<STATE> 3
<MEAN> 39
 -1.049552e+01 -1.999024e+00 2.388452e+00 -5.621038e+00 -2.824539e+00 -2.807338e+00 1.871617e+00 -4.777595e+00 4.721229e+00 -3.103673e+00 2.082580e+00 -1.016248e+00 6.343698e+01 3.702316e-02 2.568419e-02 -3.177142e-03 -5.023604e-02 -3.828006e-02 3.335877e-02 7.143209e-03 -1.775556e-02 9.782924e-04 -5.974404e-03 -2.054721e-02 9.626430e-03 -6.313103e-03 1.364511e-03 -1.285635e-03 1.130745e-03 9.037900e-04 -7.624766e-04 -1.498018e-03 -1.012441e-03 3.062267e-04 -3.929953e-04 -2.119119e-04 6.502183e-04 -7.551360e-04 7.846855e-05
<VARIANCE> 39
 8.779387e+01 2.739098e+01 3.038178e+01 5.489445e+01 1.060359e+02 3.076005e+01 2.507542e+01 4.154654e+01 2.595419e+01 2.913885e+01 2.308956e+01 2.464664e+01 4.859779e+01 2.744985e+00 1.449868e+00 1.757638e+00 2.471714e+00 3.929861e+00 1.935919e+00 1.909246e+00 2.545390e+00 2.322253e+00 2.112011e+00 1.645994e+00 1.709229e+00 2.074987e+00 2.837155e-01 2.620901e-01 2.871841e-01 3.892668e-01 4.781179e-01 3.523180e-01 3.634048e-01 4.428269e-01 4.211514e-01 3.836487e-01 2.985866e-01 3.231178e-01 2.918415e-01
<GCONST> 1.148005e+02
<STATE> 4
<MEAN> 39
 -1.028327e+01 -1.898367e+00 2.370552e+00 -5.886015e+00 -3.023830e+00 -2.640227e+00 1.897119e+00 -4.866934e+00 4.713974e+00 -3.135754e+00 1.984425e+00 -9.850351e-01 6.339003e+01 3.810024e-02 1.573808e-02 1.563953e-03 -3.921431e-02 -3.591686e-02 2.226233e-02 1.443368e-03 -1.302763e-02 -1.381905e-03 -5.097830e-03 -1.410630e-02 4.970166e-03 -6.538697e-03 -1.826365e-04 -1.687914e-03 5.045944e-04 2.004768e-03 1.046332e-03 -1.581417e-03 -8.204348e-04 9.155279e-04 -3.882622e-04 3.435551e-04 1.027032e-03 -7.088543e-04 -3.657951e-04
<VARIANCE> 39
 8.849968e+01 2.745524e+01 2.962848e+01 5.681467e+01 1.091591e+02 3.033247e+01 2.426043e+01 4.177594e+01 2.588766e+01 2.908727e+01 2.319796e+01 2.466176e+01 4.792745e+01 2.720725e+00 1.429199e+00 1.733535e+00 2.523169e+00 3.979410e+00 1.938070e+00 1.881830e+00 2.547547e+00 2.319018e+00 2.120350e+00 1.636536e+00 1.710233e+00 2.025898e+00 2.795166e-01 2.580041e-01 2.830814e-01 3.922669e-01 4.759659e-01 3.520165e-01 3.590920e-01 4.425737e-01 4.201942e-01 3.851243e-01 2.966607e-01 3.230614e-01 2.852769e-01
<GCONST> 1.146687e+02
<TRANSP> 5
 0.000000e+00 1.000000e+00 0.000000e+00 0.000000e+00 0.000000e+00
 0.000000e+00 7.595291e-01 2.404709e-01 0.000000e+00 0.000000e+00
 0.000000e+00 0.000000e+00 7.595301e-01 2.404699e-01 0.000000e+00
 0.000000e+00 0.000000e+00 0.000000e+00 8.858777e-01 1.141224e-01
 0.000000e+00 0.000000e+00 0.000000e+00 0.000000e+00 0.000000e+00
<ENDHMM>
~h "sil"
<BEGINHMM>
<NUMSTATES> 5
<STATE> 2
<MEAN> 39
 -1.235328e+01 -3.696362e+00 5.807734e-01 -2.296928e+00 2.519799e+00 -2.568185e+00 2.509403e+00 -1.685862e+00 3.934812e+00 -4.493177e-01 2.637037e+00 -4.357289e-01 5.621296e+01 -8.288391e-03 5.644665e-02 2.909224e-02 -4.002988e-02 -1.095225e-02 6.512029e-02 6.073624e-02 -7.765625e-02 -1.101610e-01 -7.465144e-02 7.660213e-03 5.459886e-02 -2.279814e-02 -1.373866e-02 -2.380881e-02 8.463081e-03 -1.979687e-02 -2.064194e-02 -2.199484e-03 -4.596086e-03 -7.773956e-03 2.664081e-02 2.419181e-02 -1.355697e-02 -1.417172e-02 3.116482e-02
<VARIANCE> 39
 7.848539e+00 7.653847e+00 8.835962e+00 9.794553e+00 1.601337e+01 1.448895e+01 1.427041e+01 1.488490e+01 1.569903e+01 1.471629e+01 1.324223e+01 1.212696e+01 1.161281e+01 4.388638e-01 5.199286e-01 7.469918e-01 8.822153e-01 1.257917e+00 1.330887e+00 1.368672e+00 1.507807e+00 1.701168e+00 1.602835e+00 1.531922e+00 1.343091e+00 4.338092e-01 6.440204e-02 9.069207e-02 1.284682e-01 1.554965e-01 1.985701e-01 2.261026e-01 2.391910e-01 2.727545e-01 3.181481e-01 2.952148e-01 2.746273e-01 2.407741e-01 6.388149e-02
<GCONST> 8.152544e+01
<STATE> 3
<MEAN> 39
 -1.238245e+01 -3.587218e+00 7.432312e-01 -2.532319e+00 2.363671e+00 -2.369619e+00 2.694715e+00 -1.910495e+00 3.704538e+00 -5.530668e-01 2.584893e+00 -3.254597e-01 5.627008e+01 -7.332658e-02 -5.552423e-02 9.298129e-02 -7.839511e-02 -8.391140e-02 6.267767e-02 5.365108e-02 -9.019572e-02 -2.316743e-03 -6.056845e-03 -3.497290e-02 1.094165e-02 1.278099e-01 -2.837361e-02 -4.655821e-02 1.780193e-02 -4.619444e-03 -2.418768e-02 2.097450e-03 -1.587927e-03 -4.971129e-03 3.850135e-02 1.430633e-02 -7.651931e-03 -1.056465e-02 5.875754e-02
<VARIANCE> 39
 8.265617e+00 7.974376e+00 9.859567e+00 1.105412e+01 1.800042e+01 1.434747e+01 1.439781e+01 1.508869e+01 1.502724e+01 1.451958e+01 1.352759e+01 1.192121e+01 1.311247e+01 6.061938e-01 7.451079e-01 8.140019e-01 9.270920e-01 1.351362e+00 1.319415e+00 1.382978e+00 1.529452e+00 1.655554e+00 1.563580e+00 1.501931e+00 1.278018e+00 6.845179e-01 8.924811e-02 1.222536e-01 1.498234e-01 1.769838e-01 2.372638e-01 2.601126e-01 2.735085e-01 3.093763e-01 3.370919e-01 3.164463e-01 3.057692e-01 2.599275e-01 8.603226e-02
<GCONST> 8.538291e+01
<STATE> 4
<MEAN> 39
 -1.241842e+01 -4.106971e+00 1.589149e+00 -3.005565e+00 1.409757e+00 -2.410202e+00 2.674151e+00 -2.336794e+00 3.909873e+00 -7.927489e-01 2.406128e+00 -3.944795e-01 5.771860e+01 -1.515886e-01 -2.461222e-01 1.794510e-01 -8.539996e-02 -2.072783e-01 4.201834e-02 1.496268e-02 -1.410293e-01 1.190005e-01 -2.338717e-02 -4.609565e-02 -2.194451e-02 4.027480e-01 -1.272059e-02 -4.861919e-02 1.090019e-04 5.131569e-03 -2.334050e-02 -5.670076e-03 -1.252408e-02 -3.255109e-03 3.207842e-02 -5.335927e-03 5.962828e-03 -5.072689e-03 5.853600e-02
<VARIANCE> 39
 1.675677e+01 1.447246e+01 1.601853e+01 1.578267e+01 3.294934e+01 2.031957e+01 1.817062e+01 1.807684e+01 1.677763e+01 1.709365e+01 1.530890e+01 1.239273e+01 3.254795e+01 1.058514e+00 1.388315e+00 1.045902e+00 1.127517e+00 2.012984e+00 1.549328e+00 1.591077e+00 1.776601e+00 1.752455e+00 1.641447e+00 1.582126e+00 1.352081e+00 1.334033e+00 1.340187e-01 1.738646e-01 1.788777e-01 1.986061e-01 3.135991e-01 2.862661e-01 2.953236e-01 3.386793e-01 3.190162e-01 3.017139e-01 3.074511e-01 2.559865e-01 1.256963e-01
<GCONST> 9.545419e+01
<TRANSP> 5
 0.000000e+00 1.000000e+00 0.000000e+00 0.000000e+00 0.000000e+00
 0.000000e+00 7.426914e-01 2.573086e-01 0.000000e+00 0.000000e+00
 0.000000e+00 0.000000e+00 7.426930e-01 2.573070e-01 0.000000e+00
 0.000000e+00 0.000000e+00 0.000000e+00 8.663796e-01 1.336205e-01
 0.000000e+00 0.000000e+00 0.000000e+00 0.000000e+00 0.000000e+00
<ENDHMM>
