~o
<STREAMINFO> 1 39
<VECSIZE> 39<NULLD><MFCC_D_A_0><DIAGC>
~h "proto"
<BEGINHMM>
<NUMSTATES> 5
<STATE> 2
<MEAN> 39
 -1.061202e+01 -4.498824e+00 3.497632e+00 -3.380531e+00 -1.321348e+00 -4.402275e+00 7.560810e-01 -4.446109e+00 4.962472e+00 -2.731885e+00 2.926441e+00 -2.069535e+00 6.390606e+01 -9.122388e-03 -5.726180e-03 5.880990e-03 -1.963527e-03 -3.915777e-03 2.883471e-03 3.374989e-03 -5.055552e-03 1.526850e-03 -1.166016e-03 -1.214667e-04 8.827362e-04 9.294874e-03 -1.652430e-03 -2.538422e-03 8.575962e-05 1.113185e-04 -7.696410e-04 1.665567e-05 -3.255656e-04 -2.050193e-04 1.873526e-03 7.245348e-04 -7.890851e-05 -5.289887e-04 2.289657e-03
<VARIANCE> 39
 6.185010e+01 3.296984e+01 4.256831e+01 3.109239e+01 6.467604e+01 3.963379e+01 3.520526e+01 4.789775e+01 3.155114e+01 3.345355e+01 2.391282e+01 3.095029e+01 6.346930e+01 2.203317e+00 1.684965e+00 2.128575e+00 1.816909e+00 3.011999e+00 2.194392e+00 2.237974e+00 2.583707e+00 2.540447e+00 2.305993e+00 1.988313e+00 1.956076e+00 2.085162e+00 2.680787e-01 2.672160e-01 3.224836e-01 3.040591e-01 4.477011e-01 3.769107e-01 4.045506e-01 4.364600e-01 4.602400e-01 4.064713e-01 3.725047e-01 3.491107e-01 2.696099e-01
<GCONST> 1.161539e+02
<STATE> 3
<MEAN> 39
 -1.061202e+01 -4.498824e+00 3.497632e+00 -3.380531e+00 -1.321348e+00 -4.402275e+00 7.560810e-01 -4.446109e+00 4.962472e+00 -2.731885e+00 2.926441e+00 -2.069535e+00 6.390606e+01 -9.122388e-03 -5.726180e-03 5.880990e-03 -1.963527e-03 -3.915777e-03 2.883471e-03 3.374989e-03 -5.055552e-03 1.526850e-03 -1.166016e-03 -1.214667e-04 8.827362e-04 9.294874e-03 -1.652430e-03 -2.538422e-03 8.575962e-05 1.113185e-04 -7.696410e-04 1.665567e-05 -3.255656e-04 -2.050193e-04 1.873526e-03 7.245348e-04 -7.890851e-05 -5.289887e-04 2.289657e-03
<VARIANCE> 39
 6.185010e+01 3.296984e+01 4.256831e+01 3.109239e+01 6.467604e+01 3.963379e+01 3.520526e+01 4.789775e+01 3.155114e+01 3.345355e+01 2.391282e+01 3.095029e+01 6.346930e+01 2.203317e+00 1.684965e+00 2.128575e+00 1.816909e+00 3.011999e+00 2.194392e+00 2.237974e+00 2.583707e+00 2.540447e+00 2.305993e+00 1.988313e+00 1.956076e+00 2.085162e+00 2.680787e-01 2.672160e-01 3.224836e-01 3.040591e-01 4.477011e-01 3.769107e-01 4.045506e-01 4.364600e-01 4.602400e-01 4.064713e-01 3.725047e-01 3.491107e-01 2.696099e-01
<GCONST> 1.161539e+02
<STATE> 4
<MEAN> 39
 -1.061202e+01 -4.498824e+00 3.497632e+00 -3.380531e+00 -1.321348e+00 -4.402275e+00 7.560810e-01 -4.446109e+00 4.962472e+00 -2.731885e+00 2.926441e+00 -2.069535e+00 6.390606e+01 -9.122388e-03 -5.726180e-03 5.880990e-03 -1.963527e-03 -3.915777e-03 2.883471e-03 3.374989e-03 -5.055552e-03 1.526850e-03 -1.166016e-03 -1.214667e-04 8.827362e-04 9.294874e-03 -1.652430e-03 -2.538422e-03 8.575962e-05 1.113185e-04 -7.696410e-04 1.665567e-05 -3.255656e-04 -2.050193e-04 1.873526e-03 7.245348e-04 -7.890851e-05 -5.289887e-04 2.289657e-03
<VARIANCE> 39
 6.185010e+01 3.296984e+01 4.256831e+01 3.109239e+01 6.467604e+01 3.963379e+01 3.520526e+01 4.789775e+01 3.155114e+01 3.345355e+01 2.391282e+01 3.095029e+01 6.346930e+01 2.203317e+00 1.684965e+00 2.128575e+00 1.816909e+00 3.011999e+00 2.194392e+00 2.237974e+00 2.583707e+00 2.540447e+00 2.305993e+00 1.988313e+00 1.956076e+00 2.085162e+00 2.680787e-01 2.672160e-01 3.224836e-01 3.040591e-01 4.477011e-01 3.769107e-01 4.045506e-01 4.364600e-01 4.602400e-01 4.064713e-01 3.725047e-01 3.491107e-01 2.696099e-01
<GCONST> 1.161539e+02
<TRANSP> 5
 0.000000e+00 1.000000e+00 0.000000e+00 0.000000e+00 0.000000e+00
 0.000000e+00 6.000000e-01 4.000000e-01 0.000000e+00 0.000000e+00
 0.000000e+00 0.000000e+00 6.000000e-01 4.000000e-01 0.000000e+00
 0.000000e+00 0.000000e+00 0.000000e+00 7.000000e-01 3.000000e-01
 0.000000e+00 0.000000e+00 0.000000e+00 0.000000e+00 0.000000e+00
<ENDHMM>
