~o
<STREAMINFO> 1 39
<VECSIZE> 39<NULLD><MFCC_D_A_0><DIAGC>
~h "@"
<BEGINHMM>
<NUMSTATES> 5
<STATE> 2
<MEAN> 39
 -4.899435e+00 -7.724554e+00 9.187081e+00 -1.661792e+00 -8.550818e+00 -1.242599e+01 -5.095905e+00 -5.494262e+00 5.626135e+00 -1.023249e+01 3.500417e+00 -3.669722e+00 7.035552e+01 2.031287e-01 2.893318e-01 3.540599e-02 2.683297e-01 2.434678e-01 1.553507e-01 1.710864e-01 2.270092e-01 -1.963941e-02 3.043833e-02 -2.768094e-02 1.330323e-02 -4.387549e-01 -1.992248e-01 9.507232e-02 -7.837538e-02 8.557913e-02 2.048707e-01 1.646571e-01 1.415938e-01 2.593432e-02 -3.988289e-02 2.010430e-01 -2.380103e-02 7.494266e-02 -1.897005e-01
<VARIANCE> 39
 1.095243e+01 3.629174e+01 1.100686e+01 1.655601e+01 5.930209e+01 2.211082e+01 3.889679e+01 2.873923e+01 3.286923e+01 2.920070e+01 2.513317e+01 1.318402e+01 3.739147e+01 1.865364e+00 2.696506e+00 1.461864e+00 1.624675e+00 6.521033e+00 2.577280e+00 2.696192e+00 2.278145e+00 1.730930e+00 3.079114e+00 2.603844e+00 1.349069e+00 3.538703e+00 2.706434e-01 3.842479e-01 2.974358e-01 2.728169e-01 7.711310e-01 3.114623e-01 4.537604e-01 3.690184e-01 3.035173e-01 4.341173e-01 3.892972e-01 2.530843e-01 3.387656e-01
<GCONST> 1.112527e+02
<STATE> 3
<MEAN> 39
 -6.237998e+00 -3.360910e+00 8.298043e+00 9.844709e-01 -2.773592e+00 -9.265805e+00 -1.122871e+00 -4.014112e+00 3.511920e+00 -6.829726e+00 2.138185e+00 -3.045246e+00 6.431696e+01 -4.904974e-01 3.742493e-01 -4.101582e-01 4.616277e-01 1.144715e+00 6.303064e-01 4.782510e-01 2.146396e-01 -5.044033e-02 9.642894e-01 5.424159e-02 2.834395e-01 -1.103256e+00 -7.598203e-02 -1.565374e-01 -7.717773e-02 -1.224390e-01 -1.890228e-01 1.082857e-02 -5.261605e-02 -7.807259e-02 2.515980e-02 2.138705e-02 1.310973e-01 8.994955e-02 4.464725e-02
<VARIANCE> 39
 1.070426e+01 2.593521e+01 1.431162e+01 2.040619e+01 5.132104e+01 2.411363e+01 3.137240e+01 4.175175e+01 2.897788e+01 2.793456e+01 3.096952e+01 1.409980e+01 3.404213e+01 9.672331e-01 2.105240e+00 1.253701e+00 1.908886e+00 4.239372e+00 2.389822e+00 2.301839e+00 2.460773e+00 2.170833e+00 2.270702e+00 2.250501e+00 1.497040e+00 2.175586e+00 1.447085e-01 3.676305e-01 2.688130e-01 4.004810e-01 7.196903e-01 3.854264e-01 4.122537e-01 3.710305e-01 3.925550e-01 3.886544e-01 4.124216e-01 2.495703e-01 2.569266e-01
<GCONST> 1.089674e+02
<STATE> 4
<MEAN> 39
 -9.827280e+00 -2.629367e+00 4.604929e+00 4.202355e-01 9.473947e-01 -6.022369e+00 1.221182e+00 -2.856875e+00 3.452395e+00 -2.560098e+00 2.780169e+00 -8.055697e-01 5.916634e+01 -4.085027e-01 -1.575816e-01 -3.702578e-01 -1.729664e-01 2.576327e-01 3.596532e-01 8.518620e-02 -9.556734e-02 6.035268e-02 4.760237e-01 2.818977e-01 1.862631e-01 -3.724329e-01 2.144580e-02 -5.884687e-02 8.372207e-02 -8.627719e-02 -1.128881e-01 -1.440180e-02 -7.299424e-02 -7.135648e-02 1.638162e-02 -1.237912e-01 -2.181856e-02 -4.975871e-02 1.508562e-01
<VARIANCE> 39
 1.364668e+01 1.159484e+01 2.244757e+01 1.760330e+01 2.361026e+01 2.193900e+01 2.082181e+01 3.866996e+01 1.937686e+01 1.886927e+01 2.218182e+01 1.588830e+01 2.429310e+01 8.983037e-01 1.179252e+00 1.526710e+00 1.655008e+00 2.034688e+00 1.696389e+00 2.012729e+00 2.397505e+00 2.318085e+00 1.899449e+00 1.738667e+00 1.531418e+00 1.234553e+00 1.455197e-01 2.415745e-01 2.920462e-01 3.297394e-01 4.367844e-01 3.425275e-01 3.837630e-01 4.211666e-01 4.257189e-01 3.432762e-01 3.558566e-01 2.850402e-01 1.776586e-01
<GCONST> 1.017379e+02
<TRANSP> 5
 0.000000e+00 1.000000e+00 0.000000e+00 0.000000e+00 0.000000e+00
 0.000000e+00 7.498000e-01 2.502000e-01 0.000000e+00 0.000000e+00
 0.000000e+00 0.000000e+00 5.860525e-01 4.139475e-01 0.000000e+00
 0.000000e+00 0.000000e+00 0.000000e+00 7.563598e-01 2.436402e-01
 0.000000e+00 0.000000e+00 0.000000e+00 0.000000e+00 0.000000e+00
<ENDHMM>
~h "I"
<BEGINHMM>
<NUMSTATES> 5
<STATE> 2
<MEAN> 39
 -1.477279e+01 -2.774301e+00 1.590226e+01 -2.062296e+00 -4.080410e+00 -5.012108e+00 -5.587465e-01 -7.812994e+00 4.623353e+00 -1.030538e+01 3.564587e+00 1.255775e+00 6.751473e+01 1.576768e+00 4.685552e-01 2.468034e+00 3.139428e-01 -1.623322e+00 -1.742573e-01 -1.437565e+00 -1.034111e+00 -1.434832e-01 -2.059299e+00 2.748562e-01 2.113943e-01 5.174609e-01 -6.617206e-02 4.922329e-02 -2.236803e-01 -1.374569e-02 -8.514315e-02 5.020591e-02 -9.368695e-03 9.106050e-02 8.719817e-02 -6.952188e-02 7.208290e-02 3.721937e-02 -1.658121e-02
<VARIANCE> 39
 4.349628e+01 2.354085e+01 9.679175e+01 2.045096e+01 5.551029e+01 2.119720e+01 4.208040e+01 3.519967e+01 1.912675e+01 8.099094e+01 1.734871e+01 1.526104e+01 1.282473e+01 2.658770e+00 1.804944e+00 7.802687e+00 1.962449e+00 4.132714e+00 2.024433e+00 3.669345e+00 2.522983e+00 2.001884e+00 7.805588e+00 1.833906e+00 1.530106e+00 1.050829e+00 4.980723e-01 3.327738e-01 1.085693e+00 3.694600e-01 7.533957e-01 3.916507e-01 7.034221e-01 4.822158e-01 3.596194e-01 1.437930e+00 3.756939e-01 2.739776e-01 2.157479e-01
<GCONST> 1.190436e+02
<STATE> 3
<MEAN> 39
 -1.033243e+01 -1.149093e+00 2.021270e+01 -1.071154e+00 -9.531908e+00 -6.388208e+00 -4.506840e+00 -1.067632e+01 4.992330e+00 -1.594324e+01 4.738495e+00 2.084281e+00 6.929638e+01 8.070099e-01 1.698578e-02 2.703349e-01 -2.669568e-02 -8.388665e-01 -2.418666e-01 -6.309407e-01 -2.808194e-01 1.790670e-01 -5.706061e-01 1.563464e-01 5.103784e-02 2.048843e-01 -1.534050e-01 -1.483216e-01 -4.950952e-01 -7.342443e-02 2.797425e-01 2.425646e-02 2.110430e-01 1.725936e-01 6.350131e-02 4.745312e-01 -8.963916e-02 -6.726724e-02 -9.721097e-02
<VARIANCE> 39
 3.178124e+01 1.514954e+01 7.714706e+01 1.255132e+01 4.798790e+01 2.346996e+01 2.799260e+01 2.699740e+01 2.521345e+01 5.956104e+01 1.802183e+01 1.721238e+01 1.194697e+01 1.226644e+00 1.479711e+00 6.250642e+00 1.468028e+00 3.707310e+00 2.158992e+00 2.513251e+00 2.228554e+00 2.406638e+00 6.690802e+00 1.598129e+00 1.348298e+00 1.027934e+00 2.591675e-01 1.931407e-01 6.061600e-01 2.414667e-01 5.401959e-01 3.529325e-01 4.304976e-01 3.698869e-01 3.932329e-01 8.602489e-01 3.147751e-01 2.547996e-01 1.417547e-01
<GCONST> 1.101342e+02
<STATE> 4
<MEAN> 39
 -8.030037e+00 -2.388009e+00 1.573544e+01 -1.807236e+00 -9.952808e+00 -7.792613e+00 -5.367465e+00 -1.024699e+01 6.572653e+00 -1.318804e+01 4.162458e+00 1.415883e+00 6.921496e+01 4.434233e-01 -5.538870e-01 -1.048695e+00 -2.654577e-01 2.313240e-01 -5.150281e-02 -1.627744e-01 3.016484e-01 4.973440e-01 9.142819e-01 -3.058431e-01 -3.610380e-01 -7.473148e-02 -6.629908e-03 -6.519714e-02 -1.487353e-01 2.737459e-02 1.888143e-01 1.112632e-01 6.662083e-02 6.745882e-02 -4.407050e-03 1.793665e-01 -1.103788e-01 -1.113074e-01 -8.897789e-02
<VARIANCE> 39
 2.857731e+01 2.012396e+01 9.275468e+01 1.310773e+01 5.534510e+01 3.172052e+01 3.245212e+01 3.009945e+01 4.523380e+01 6.373809e+01 1.988188e+01 2.007667e+01 2.896164e+01 7.250903e-01 1.371375e+00 3.032305e+00 1.475843e+00 2.614797e+00 2.407428e+00 1.732842e+00 1.986185e+00 3.469525e+00 2.776464e+00 1.526477e+00 1.665281e+00 9.826137e-01 1.109675e-01 2.210667e-01 4.515740e-01 2.649713e-01 4.258235e-01 4.109071e-01 3.104308e-01 3.566967e-01 4.427394e-01 5.184360e-01 2.708910e-01 2.674499e-01 1.284713e-01
<GCONST> 1.086376e+02
<TRANSP> 5
 0.000000e+00 1.000000e+00 0.000000e+00 0.000000e+00 0.000000e+00
 0.000000e+00 7.499908e-01 2.500093e-01 0.000000e+00 0.000000e+00
 0.000000e+00 0.000000e+00 7.256818e-01 2.743182e-01 0.000000e+00
 0.000000e+00 0.000000e+00 0.000000e+00 7.844281e-01 2.155720e-01
 0.000000e+00 0.000000e+00 0.000000e+00 0.000000e+00 0.000000e+00
<ENDHMM>
~h "U"
<BEGINHMM>
<NUMSTATES> 5
<STATE> 2
<MEAN> 39
 -3.616645e+00 -1.581297e+00 8.252212e-01 -1.525470e+01 -7.514062e+00 2.844132e+00 5.920955e+00 -7.702244e+00 3.172448e+00 -2.926989e+00 -4.244900e+00 1.704369e+00 6.510018e+01 1.561033e+00 1.158076e+00 1.261465e+00 -5.917807e-01 -2.354470e+00 -4.311957e-01 -3.094919e-01 -1.139910e+00 -5.213211e-01 -1.381343e+00 -6.898179e-01 -6.304486e-01 8.420112e-01 3.753172e-02 -1.145480e-01 1.581911e-01 1.325722e-01 -1.111556e-01 5.946641e-02 -1.343895e-01 -2.207785e-01 -9.406778e-02 -3.105286e-02 1.361826e-01 -1.591225e-01 1.842494e-03
<VARIANCE> 39
 3.536129e+01 2.627712e+01 3.368934e+01 1.522145e+01 7.907355e+01 2.288927e+01 1.641018e+01 4.079000e+01 2.670470e+01 2.883413e+01 2.307759e+01 2.320855e+01 1.306510e+01 2.126361e+00 2.461238e+00 2.882935e+00 1.989226e+00 5.044650e+00 2.584515e+00 1.649498e+00 3.433098e+00 2.398492e+00 1.932832e+00 2.599570e+00 1.886136e+00 8.525574e-01 4.893543e-01 4.887442e-01 6.027417e-01 4.733058e-01 1.209795e+00 5.611737e-01 3.504645e-01 6.999406e-01 4.865801e-01 4.002010e-01 6.054062e-01 3.619010e-01 1.984236e-01
<GCONST> 1.156770e+02
<STATE> 3
<MEAN> 39
 2.091526e+00 9.226965e-01 7.137468e+00 -1.722370e+01 -1.799540e+01 2.661079e+00 3.768953e+00 -1.405915e+01 7.323892e-01 -8.801940e+00 -6.650082e+00 -2.286577e+00 6.876518e+01 -5.023654e-02 -1.882485e-01 2.304806e-01 2.408940e-01 -1.125070e-01 -1.352034e-01 -4.374028e-01 -3.940967e-01 -1.725671e-01 -6.322287e-01 6.445099e-02 -3.674837e-01 5.085519e-01 -6.531872e-01 -2.502697e-01 -4.281105e-01 4.279067e-01 9.663219e-01 -2.079499e-01 -1.689268e-02 4.946004e-01 1.520351e-01 3.077174e-01 3.023234e-01 1.550851e-01 -1.457894e-01
<VARIANCE> 39
 1.615344e+01 7.447134e+00 1.429867e+01 1.392691e+01 4.684603e+01 1.747037e+01 1.243595e+01 2.431686e+01 1.569653e+01 1.674016e+01 1.501872e+01 1.284960e+01 5.656461e+00 4.217356e+00 1.251184e+00 2.812827e+00 2.794721e+00 1.141462e+01 2.678684e+00 1.133728e+00 4.277175e+00 1.412816e+00 1.926856e+00 2.326587e+00 1.389302e+00 6.911978e-01 2.883017e-01 2.328487e-01 2.822592e-01 3.580761e-01 9.090139e-01 5.617032e-01 2.468662e-01 4.858693e-01 2.475166e-01 2.954970e-01 3.891472e-01 2.425664e-01 1.068639e-01
<GCONST> 1.022787e+02
<STATE> 4
<MEAN> 39
 -1.042693e+01 -5.803803e+00 4.048735e+00 -6.263658e+00 -3.384633e+00 -5.345237e+00 -1.517155e+00 -8.128631e+00 3.594537e+00 -6.076296e+00 -1.775910e-01 -2.987345e+00 7.000873e+01 -1.204028e+00 -9.782404e-01 -1.473980e-01 1.284308e+00 1.212016e+00 -1.204342e+00 -8.552674e-01 6.231132e-01 5.235909e-01 3.238591e-01 9.521412e-01 -9.114697e-03 1.725997e-01 1.080642e-01 1.967493e-02 8.554378e-02 -1.329781e-01 -3.660620e-01 4.551777e-02 1.811463e-02 -1.090889e-01 3.897151e-02 -2.199935e-03 -4.277759e-02 3.879845e-02 -4.343246e-02
<VARIANCE> 39
 8.489296e+01 2.408515e+01 1.586901e+01 4.149452e+01 8.529926e+01 4.183657e+01 3.126192e+01 2.330515e+01 1.909674e+01 3.394739e+01 2.487282e+01 1.259822e+01 1.060703e+01 1.149862e+01 1.215056e+00 1.990283e+00 3.615721e+00 1.203026e+01 1.639859e+00 2.067203e+00 2.588336e+00 1.290012e+00 4.761508e+00 2.603460e+00 1.399996e+00 1.173112e+00 1.292425e+00 2.610467e-01 2.586006e-01 5.451030e-01 1.423156e+00 3.505308e-01 4.330018e-01 4.268864e-01 2.431522e-01 6.993948e-01 5.187717e-01 2.792044e-01 1.682980e-01
<GCONST> 1.167672e+02
<TRANSP> 5
 0.000000e+00 1.000000e+00 0.000000e+00 0.000000e+00 0.000000e+00
 0.000000e+00 8.275315e-01 1.724685e-01 0.000000e+00 0.000000e+00
 0.000000e+00 0.000000e+00 8.139464e-01 1.860535e-01 0.000000e+00
 0.000000e+00 0.000000e+00 0.000000e+00 8.915679e-01 1.084321e-01
 0.000000e+00 0.000000e+00 0.000000e+00 0.000000e+00 0.000000e+00
<ENDHMM>
~h "a"
<BEGINHMM>
<NUMSTATES> 5
<STATE> 2
<MEAN> 39
 -8.464565e+00 -8.460157e+00 -3.237405e+00 -6.099124e+00 2.447384e+00 1.719249e+00 1.557134e+00 -2.422511e+00 3.061128e+00 -4.007013e-01 2.104801e+00 -7.860215e+00 6.385442e+01 7.302110e-01 -1.134884e+00 -7.713847e-01 -8.497824e-01 -3.848663e-02 9.054291e-01 -2.668331e-01 -9.145542e-03 -1.701245e-01 2.480843e-02 9.568745e-03 -1.477797e+00 1.657428e+00 4.500617e-02 -3.190314e-02 3.137023e-02 -2.490855e-02 -3.715159e-02 3.391676e-02 -3.304153e-02 9.959374e-03 -3.407847e-02 -2.552106e-03 1.230750e-02 -5.585714e-02 1.413794e-01
<VARIANCE> 39
 2.444792e+01 4.348983e+01 2.512691e+01 3.091453e+01 1.724221e+01 3.634188e+01 2.014674e+01 1.833029e+01 2.710402e+01 1.861901e+01 2.028552e+01 7.655305e+01 9.239796e+01 1.864554e+00 2.561087e+00 2.079777e+00 2.411745e+00 1.914035e+00 2.183698e+00 1.801371e+00 1.917374e+00 1.881265e+00 1.922191e+00 2.100858e+00 5.003541e+00 4.235850e+00 3.402745e-01 5.002151e-01 4.150806e-01 4.266544e-01 3.585417e-01 4.005421e-01 3.581026e-01 3.576427e-01 3.288145e-01 3.713712e-01 3.741389e-01 9.020252e-01 7.032059e-01
<GCONST> 1.156398e+02
<STATE> 3
<MEAN> 39
 -5.703542e+00 -1.230072e+01 -5.268775e+00 -8.618052e+00 1.739973e+00 5.181756e+00 2.633503e-01 -2.513687e+00 2.441090e+00 -3.141403e-01 1.855013e+00 -1.242926e+01 7.039143e+01 3.087889e-01 -5.713278e-01 -2.119313e-01 -2.596551e-01 2.637576e-03 5.405198e-01 -2.498674e-01 -7.451623e-02 6.702932e-02 1.035326e-01 -1.315380e-01 -4.791485e-01 1.020622e+00 -1.568705e-01 1.432072e-01 1.330001e-01 1.542747e-01 7.377999e-02 -1.061284e-01 1.794720e-02 -1.494941e-03 8.140629e-02 2.572739e-02 -4.352301e-02 2.557633e-01 -1.965122e-01
<VARIANCE> 39
 2.618947e+01 4.174646e+01 2.248911e+01 3.160274e+01 2.164654e+01 4.109306e+01 1.841303e+01 1.769193e+01 3.266938e+01 1.958298e+01 2.655619e+01 7.664022e+01 9.657571e+01 2.220847e+00 2.388634e+00 1.826489e+00 2.538254e+00 2.146617e+00 1.822826e+00 1.458939e+00 1.394363e+00 2.012808e+00 1.727355e+00 1.887571e+00 5.192724e+00 4.331495e+00 3.108533e-01 3.497974e-01 2.885649e-01 3.355874e-01 3.554389e-01 2.930237e-01 2.775098e-01 2.785869e-01 3.275625e-01 3.251805e-01 3.332380e-01 6.593799e-01 4.875178e-01
<GCONST> 1.128900e+02
<STATE> 4
<MEAN> 39
 -6.984728e+00 -1.223453e+01 -4.166833e+00 -7.200038e+00 3.213529e+00 5.824436e+00 -1.275302e-01 -2.505449e+00 3.664990e+00 5.340611e-01 5.688714e-01 -1.005872e+01 7.009757e+01 -3.692866e-01 -1.275726e-01 1.839061e-01 2.358535e-01 5.093133e-01 1.625194e-01 -1.208597e-01 -1.608304e-02 4.632606e-01 1.915509e-01 -1.910868e-01 3.467845e-01 1.181060e-01 -1.118357e-01 6.172274e-02 3.722143e-02 4.799553e-02 7.209668e-02 -6.676424e-02 2.353463e-02 2.703466e-02 5.646926e-02 6.622774e-03 1.839235e-02 9.238298e-02 -1.134726e-01
<VARIANCE> 39
 3.409745e+01 4.147259e+01 2.210566e+01 2.916801e+01 3.354957e+01 4.029401e+01 1.868532e+01 1.687275e+01 3.914803e+01 1.926193e+01 2.695494e+01 7.293024e+01 9.506319e+01 2.701814e+00 1.883177e+00 1.717979e+00 2.051562e+00 2.742537e+00 1.636778e+00 1.463498e+00 1.428709e+00 2.813576e+00 1.636423e+00 1.891477e+00 4.249269e+00 3.418217e+00 3.525033e-01 2.899890e-01 2.884076e-01 2.953793e-01 4.146639e-01 2.659045e-01 2.769820e-01 2.829109e-01 4.269521e-01 3.147375e-01 3.334202e-01 5.553362e-01 3.634336e-01
<GCONST> 1.128922e+02
<TRANSP> 5
 0.000000e+00 1.000000e+00 0.000000e+00 0.000000e+00 0.000000e+00
 0.000000e+00 7.976404e-01 2.023596e-01 0.000000e+00 0.000000e+00
 0.000000e+00 0.000000e+00 8.025975e-01 1.974025e-01 0.000000e+00
 0.000000e+00 0.000000e+00 0.000000e+00 8.991512e-01 1.008487e-01
 0.000000e+00 0.000000e+00 0.000000e+00 0.000000e+00 0.000000e+00
<ENDHMM>
~h "b"
<BEGINHMM>
<NUMSTATES> 5
<STATE> 2
<MEAN> 39
 -1.070926e+01 -1.743952e+00 1.892495e+01 -3.930373e-02 -7.504073e+00 -5.482305e+00 -2.925878e+00 -8.656343e+00 3.708446e+00 -1.302968e+01 5.644970e+00 1.431144e-01 6.906267e+01 1.300696e+00 1.089695e-01 5.033080e-01 6.381336e-01 8.103301e-02 -7.218105e-02 -5.506944e-01 -2.329725e-01 -7.832903e-01 -2.676185e-03 -3.239243e-01 -2.953814e-01 -8.857702e-01 -1.491662e-01 2.400447e-01 -6.258760e-01 -7.888397e-03 4.732001e-01 1.964449e-02 1.955719e-01 2.045591e-01 4.617935e-02 2.796811e-01 -1.555896e-01 -1.531616e-01 -2.263306e-01
<VARIANCE> 39
 5.091775e+01 3.153728e+01 9.725229e+01 1.684565e+01 7.432427e+01 1.698524e+01 5.803740e+01 3.133184e+01 3.008239e+01 5.912637e+01 2.227979e+01 1.581087e+01 1.430071e+01 2.059862e+00 2.145318e+00 1.339136e+01 1.667356e+00 8.393006e+00 1.516549e+00 4.711224e+00 2.781807e+00 1.725070e+00 7.566437e+00 2.893513e+00 1.352118e+00 2.158350e+00 3.005478e-01 3.530195e-01 1.257154e+00 3.075156e-01 1.440063e+00 3.299145e-01 9.174973e-01 4.790974e-01 3.695858e-01 9.584144e-01 5.787392e-01 3.073008e-01 3.105166e-01
<GCONST> 1.228318e+02
<STATE> 3
<MEAN> 39
 -6.854194e+00 -1.310782e+00 1.769670e+01 1.078284e+00 -6.393911e+00 -5.672369e+00 -4.421262e+00 -8.230684e+00 1.720703e+00 -1.180139e+01 4.029696e+00 -1.120205e+00 6.559253e+01 2.544765e-01 6.130567e-01 -2.048198e+00 4.070241e-01 2.019207e+00 -1.947359e-01 7.394033e-01 3.537948e-01 -5.065436e-01 1.644666e+00 -7.690684e-01 -4.408592e-01 -1.435808e+00 -1.900087e-01 -3.101817e-02 -1.787623e-01 -1.819628e-01 1.916239e-01 -1.760846e-01 1.603186e-01 -2.566287e-02 1.446014e-01 1.518635e-01 1.412028e-01 -1.491548e-02 1.934731e-01
<VARIANCE> 39
 1.076817e+01 2.321356e+01 7.538580e+01 1.405433e+01 6.323065e+01 1.689915e+01 2.467129e+01 2.589363e+01 2.835847e+01 5.631342e+01 2.703426e+01 1.870400e+01 2.388108e+01 1.084348e+00 2.808307e+00 7.514174e+00 1.798327e+00 8.798463e+00 1.883959e+00 3.636695e+00 2.457794e+00 1.898350e+00 4.684830e+00 3.131915e+00 1.647300e+00 2.854125e+00 1.985516e-01 6.305593e-01 1.328786e+00 3.709959e-01 1.868917e+00 3.517633e-01 7.095835e-01 5.319011e-01 3.692962e-01 7.726858e-01 6.651568e-01 3.329475e-01 6.388030e-01
<GCONST> 1.205743e+02
<STATE> 4
<MEAN> 39
 -6.671636e+00 -3.895043e-01 1.143321e+01 1.590670e+00 -3.303750e-01 -6.806382e+00 -2.009040e+00 -8.471077e+00 8.384255e-01 -6.306086e+00 2.401349e+00 -2.116120e+00 6.252140e+01 -3.594637e-03 -1.869622e-01 -1.160740e+00 -4.231482e-02 1.063723e+00 -6.985922e-01 3.530577e-01 -5.169749e-02 6.302716e-02 1.074184e+00 1.823444e-01 -3.156672e-01 -9.882503e-02 4.140309e-02 -3.463569e-01 4.875001e-01 -1.001482e-01 -5.788401e-01 -1.619341e-01 -2.839605e-01 -1.602598e-01 1.914389e-01 -3.412868e-01 3.531490e-01 8.728839e-03 5.248421e-01
<VARIANCE> 39
 7.560350e+00 2.100089e+01 4.106546e+01 1.374325e+01 4.477292e+01 1.925288e+01 2.419538e+01 3.475569e+01 2.732898e+01 3.381370e+01 2.022823e+01 1.445173e+01 1.717969e+01 9.955197e-01 2.868837e+00 5.320582e+00 1.797489e+00 8.492870e+00 2.380695e+00 3.966494e+00 2.942236e+00 2.189513e+00 3.749659e+00 3.149869e+00 1.588425e+00 3.651400e+00 2.138172e-01 5.347672e-01 8.914337e-01 3.900217e-01 1.440555e+00 4.404626e-01 6.952246e-01 6.164526e-01 4.015476e-01 5.700634e-01 5.630004e-01 3.094076e-01 5.970269e-01
<GCONST> 1.174412e+02
<TRANSP> 5
 0.000000e+00 1.000000e+00 0.000000e+00 0.000000e+00 0.000000e+00
 0.000000e+00 6.459525e-01 3.540475e-01 0.000000e+00 0.000000e+00
 0.000000e+00 0.000000e+00 6.405309e-01 3.594691e-01 0.000000e+00
 0.000000e+00 0.000000e+00 0.000000e+00 6.777097e-01 3.222903e-01
 0.000000e+00 0.000000e+00 0.000000e+00 0.000000e+00 0.000000e+00
<ENDHMM>
~h "d"
<BEGINHMM>
<NUMSTATES> 5
<STATE> 2
<MEAN> 39
 -9.855353e+00 -5.831597e+00 5.088387e-01 -4.472947e+00 1.177039e+00 -3.713519e+00 5.936444e-01 -5.202291e+00 7.198778e+00 6.879187e-01 3.188806e+00 -4.131688e+00 6.479116e+01 5.014612e-01 -7.566981e-01 -1.490982e-01 -5.583137e-01 -2.706972e-01 1.102523e-02 -4.003180e-01 -5.641294e-01 5.090574e-01 2.848195e-01 1.335122e-01 -8.811055e-01 1.578076e+00 1.024746e-01 -3.435992e-02 1.895109e-02 -1.542933e-02 -2.511287e-02 5.146988e-02 -1.950721e-02 -2.326996e-02 -5.844814e-02 8.448629e-03 1.002663e-02 -1.151732e-01 6.704074e-02
<VARIANCE> 39
 2.097333e+01 2.142102e+01 9.715817e+00 1.755626e+01 1.994470e+01 1.945747e+01 2.560311e+01 3.302641e+01 3.376337e+01 2.111987e+01 1.922217e+01 4.237949e+01 9.322903e+01 2.440340e+00 1.224855e+00 1.359260e+00 1.511963e+00 2.355361e+00 2.493735e+00 2.955715e+00 3.511257e+00 3.693817e+00 2.061649e+00 2.488536e+00 3.396609e+00 5.727726e+00 5.436791e-01 2.219486e-01 2.869426e-01 2.935007e-01 4.747036e-01 4.975874e-01 5.936722e-01 6.883378e-01 6.656934e-01 3.897103e-01 5.671927e-01 6.924232e-01 1.079285e+00
<GCONST> 1.161334e+02
<STATE> 3
<MEAN> 39
 -5.912417e+00 -1.032306e+01 -4.086196e-01 -7.336586e+00 -2.576238e-01 -2.449318e+00 -9.062196e-01 -7.127000e+00 8.299500e+00 2.421293e+00 3.417701e+00 -1.012173e+01 7.266676e+01 6.844379e-01 -8.196136e-01 -2.502139e-01 -4.601140e-01 -2.990272e-01 3.705176e-01 -4.717030e-02 1.192736e-01 -1.913116e-01 1.520259e-01 3.747927e-02 -9.718799e-01 9.444161e-01 -4.607426e-02 2.096115e-02 -1.750401e-02 5.805416e-02 9.602912e-03 4.045156e-02 8.595091e-02 1.809374e-01 -1.309980e-01 -1.025223e-01 -3.058562e-02 6.318182e-02 -1.676052e-01
<VARIANCE> 39
 2.476107e+01 2.914734e+01 1.293352e+01 1.883162e+01 2.576470e+01 2.591268e+01 2.417693e+01 3.511449e+01 3.597883e+01 2.633893e+01 2.513385e+01 4.841187e+01 5.837782e+01 2.392505e+00 1.371562e+00 1.344609e+00 1.580775e+00 2.729974e+00 2.488088e+00 3.023666e+00 3.925863e+00 4.087941e+00 2.815850e+00 3.239286e+00 3.686369e+00 4.159383e+00 5.555558e-01 2.641743e-01 2.626630e-01 3.206212e-01 5.441790e-01 5.066935e-01 5.584759e-01 6.401997e-01 7.122481e-01 4.605913e-01 7.282348e-01 7.774422e-01 7.829208e-01
<GCONST> 1.190693e+02
<STATE> 4
<MEAN> 39
 -3.918097e+00 -1.233131e+01 4.442204e+00 -8.241585e+00 -8.146561e+00 -5.377170e+00 -7.698883e-01 -4.368292e-01 4.391772e+00 -2.965270e+00 5.587572e+00 -1.193070e+01 7.538885e+01 -1.127786e-01 3.685794e-01 5.059003e-01 2.540692e-01 -2.839857e-01 -2.793901e-01 1.601498e-01 2.478422e-01 -3.008112e-01 -2.640867e-01 8.397768e-02 3.405716e-01 -4.102625e-01 -4.564449e-02 6.931369e-02 -2.477757e-02 4.335686e-02 8.779223e-02 1.841473e-02 1.423106e-02 -3.021387e-02 3.475615e-02 4.184807e-02 -2.781845e-02 7.901380e-02 -1.018395e-01
<VARIANCE> 39
 8.110393e+00 3.390819e+01 6.529688e+01 1.503758e+01 4.825155e+01 5.109338e+01 1.820958e+01 4.117556e+01 3.682796e+01 3.302044e+01 4.080718e+01 3.923886e+01 2.784033e+01 6.139644e-01 1.614989e+00 2.426134e+00 9.719579e-01 2.582750e+00 3.026696e+00 1.568145e+00 2.964065e+00 2.373466e+00 1.693916e+00 3.759878e+00 2.498933e+00 1.427986e+00 1.132342e-01 2.026551e-01 2.330528e-01 1.616949e-01 2.913806e-01 3.780082e-01 2.562796e-01 4.542292e-01 3.722203e-01 2.428559e-01 6.114931e-01 3.603138e-01 1.530659e-01
<GCONST> 1.076491e+02
<TRANSP> 5
 0.000000e+00 1.000000e+00 0.000000e+00 0.000000e+00 0.000000e+00
 0.000000e+00 8.127731e-01 1.872269e-01 0.000000e+00 0.000000e+00
 0.000000e+00 0.000000e+00 8.005572e-01 1.994428e-01 0.000000e+00
 0.000000e+00 0.000000e+00 0.000000e+00 9.517190e-01 4.828102e-02
 0.000000e+00 0.000000e+00 0.000000e+00 0.000000e+00 0.000000e+00
<ENDHMM>
~h "e"
<BEGINHMM>
<NUMSTATES> 5
<STATE> 2
<MEAN> 39
 -7.187268e+00 -7.497310e+00 7.111310e+00 -3.453177e+00 -7.624025e+00 -1.128840e+01 -3.215544e+00 -3.040618e+00 1.061232e+01 -4.294441e+00 4.837355e+00 -4.027107e+00 7.389320e+01 2.118823e+00 -1.827717e+00 7.395890e-01 -1.143301e+00 -2.964581e+00 -1.642053e+00 -1.620256e+00 5.351782e-01 1.297928e+00 -6.091801e-01 8.217701e-01 -9.644544e-01 2.313845e+00 -4.820051e-01 1.209706e-01 -1.249791e-01 -9.011123e-02 5.391340e-02 2.702848e-01 3.188789e-01 2.247311e-01 -2.468779e-01 -5.390326e-02 1.247674e-01 9.568099e-02 -1.826975e-01
<VARIANCE> 39
 3.865112e+01 4.477270e+01 2.151114e+01 2.064483e+01 7.202903e+01 3.230177e+01 4.279472e+01 2.689647e+01 3.231429e+01 1.638611e+01 1.813360e+01 3.049002e+01 3.928483e+01 5.531872e+00 2.553272e+00 1.426926e+00 1.937601e+00 4.525973e+00 3.201535e+00 4.950635e+00 2.897848e+00 3.475992e+00 1.636843e+00 1.796427e+00 3.598174e+00 3.548738e+00 6.583709e-01 4.370882e-01 2.855060e-01 4.490141e-01 8.861321e-01 5.892071e-01 8.513734e-01 5.057852e-01 6.968254e-01 2.958479e-01 3.665340e-01 5.129114e-01 6.755918e-01
<GCONST> 1.217264e+02
<STATE> 3
<MEAN> 39
 -4.379218e+00 -1.115898e+01 8.832286e+00 -6.425458e+00 -1.467110e+01 -1.385843e+01 -5.093982e+00 -5.404133e-01 1.182497e+01 -6.836294e+00 7.672919e+00 -5.503415e+00 7.826445e+01 2.726957e-01 -4.302232e-01 4.524060e-01 -3.361075e-01 -1.140486e+00 -4.593289e-01 3.177495e-02 5.818239e-01 -7.269216e-01 -4.243270e-01 7.979404e-01 -2.495349e-01 4.627144e-01 -3.892962e-01 3.922217e-01 -3.774440e-02 3.175867e-01 5.080448e-01 2.382997e-01 3.829174e-01 -1.079447e-01 -5.885077e-01 1.549183e-01 -6.385291e-02 1.844641e-01 -5.382507e-01
<VARIANCE> 39
 7.557409e+00 2.571875e+01 2.063277e+01 1.387633e+01 4.128242e+01 1.984804e+01 2.037126e+01 2.533947e+01 4.040941e+01 1.916626e+01 2.272244e+01 3.055420e+01 1.636632e+01 1.886109e+00 3.330230e+00 1.293806e+00 2.185344e+00 5.622033e+00 1.779476e+00 3.158583e+00 2.605817e+00 5.804614e+00 1.585440e+00 2.245131e+00 1.820144e+00 3.431011e+00 3.674038e-01 3.676735e-01 2.666778e-01 3.408350e-01 6.802419e-01 3.970757e-01 5.784966e-01 4.394399e-01 8.132777e-01 3.043722e-01 4.330501e-01 4.008513e-01 3.771849e-01
<GCONST> 1.124965e+02
<STATE> 4
<MEAN> 39
 -5.167777e+00 -9.901228e+00 1.002335e+01 -5.116872e+00 -1.509993e+01 -1.515256e+01 -2.664930e+00 -7.840445e-02 4.701486e+00 -7.027914e+00 1.035009e+01 -6.337043e+00 7.644331e+01 -4.818562e-01 6.631312e-01 3.073310e-01 7.715064e-01 5.420306e-01 -1.152227e-01 8.536355e-01 -5.916500e-02 -2.071571e+00 5.637856e-01 9.707458e-02 2.834892e-01 -1.287207e+00 -1.500719e-01 2.189907e-01 -2.731380e-01 7.753921e-02 4.508501e-01 1.930671e-01 4.573948e-02 -1.099061e-01 3.673948e-01 3.239586e-01 -3.613189e-01 2.729472e-01 -4.806004e-01
<VARIANCE> 39
 7.769378e+00 2.515833e+01 1.923965e+01 1.940146e+01 3.984790e+01 2.562170e+01 2.584355e+01 2.233103e+01 8.799074e+01 2.499262e+01 3.951786e+01 3.178618e+01 2.733190e+01 8.537613e-01 2.531327e+00 2.064779e+00 2.023539e+00 5.056119e+00 1.549912e+00 2.667545e+00 2.205082e+00 8.184909e+00 2.522963e+00 3.351122e+00 2.406510e+00 4.094535e+00 1.778777e-01 4.166723e-01 4.723513e-01 4.041530e-01 7.500178e-01 3.827126e-01 4.601097e-01 3.549050e-01 2.061115e+00 4.071856e-01 6.211823e-01 5.359186e-01 5.463610e-01
<GCONST> 1.176591e+02
<TRANSP> 5
 0.000000e+00 1.000000e+00 0.000000e+00 0.000000e+00 0.000000e+00
 0.000000e+00 6.473454e-01 3.526546e-01 0.000000e+00 0.000000e+00
 0.000000e+00 0.000000e+00 7.204223e-01 2.795778e-01 0.000000e+00
 0.000000e+00 0.000000e+00 0.000000e+00 7.085295e-01 2.914705e-01
 0.000000e+00 0.000000e+00 0.000000e+00 0.000000e+00 0.000000e+00
<ENDHMM>
~h "f"
<BEGINHMM>
<NUMSTATES> 5
<STATE> 2
<MEAN> 39
 -1.383940e+01 -5.734472e+00 3.359585e+00 -2.249404e+00 6.260154e-01 -5.534492e+00 8.134975e-02 -4.394312e+00 5.475392e+00 -2.869958e+00 2.284928e+00 -1.195086e+00 6.335292e+01 -9.359962e-02 -1.867682e-01 1.462382e-01 3.566116e-02 -2.127068e-01 -1.825824e-01 -2.466093e-01 -1.110425e-01 2.174670e-01 1.186818e-02 2.269618e-02 3.009258e-02 1.027707e-01 1.604282e-01 8.931406e-02 7.503671e-02 -6.986985e-02 -9.452602e-02 1.813589e-02 -2.415304e-03 -4.788640e-02 -3.849915e-02 -7.137901e-02 -4.885260e-02 -2.289195e-02 7.760338e-02
<VARIANCE> 39
 5.094846e+01 1.963979e+01 1.838598e+01 1.250685e+01 3.538160e+01 2.499817e+01 4.282791e+01 3.353668e+01 1.967988e+01 2.360872e+01 1.584586e+01 1.305240e+01 3.804935e+01 3.300599e+00 1.242985e+00 1.510114e+00 1.263494e+00 2.268965e+00 1.577545e+00 2.705259e+00 2.994417e+00 1.716119e+00 1.916787e+00 1.553640e+00 1.396328e+00 1.202125e+00 4.868384e-01 2.504946e-01 2.516520e-01 2.802655e-01 4.612973e-01 3.038659e-01 4.670726e-01 4.995423e-01 3.199019e-01 4.127431e-01 3.497657e-01 2.670201e-01 1.719444e-01
<GCONST> 1.064321e+02
<STATE> 3
<MEAN> 39
 -1.306184e+01 -6.103930e+00 4.097378e+00 -2.166869e+00 -3.605036e-01 -6.130189e+00 -9.923747e-01 -5.104429e+00 5.989689e+00 -3.273897e+00 2.381116e+00 -1.236998e+00 6.417455e+01 9.180620e-02 -7.463562e-02 2.497839e-01 -6.983094e-03 -2.414972e-01 -1.831064e-01 -1.917204e-01 -9.791414e-02 1.270925e-01 -1.130285e-01 -4.475412e-02 -5.357196e-03 2.207815e-01 9.483146e-02 5.896550e-02 5.672574e-02 -2.813991e-02 -9.876757e-03 1.817176e-02 3.223858e-02 4.852443e-03 -6.084246e-02 -5.733238e-02 -3.048076e-02 -4.034819e-02 3.564843e-02
<VARIANCE> 39
 6.161890e+01 1.926528e+01 2.009777e+01 1.231973e+01 4.271988e+01 2.606823e+01 5.365935e+01 4.297856e+01 1.898854e+01 2.682297e+01 1.565246e+01 1.329369e+01 4.130792e+01 3.332842e+00 1.246450e+00 1.542000e+00 1.189279e+00 2.356976e+00 1.577124e+00 2.931640e+00 3.049864e+00 1.659140e+00 2.023021e+00 1.514889e+00 1.347411e+00 1.298945e+00 4.943403e-01 2.487103e-01 2.602507e-01 2.426455e-01 4.195127e-01 2.897759e-01 4.895414e-01 5.131462e-01 3.047442e-01 4.348487e-01 3.187350e-01 2.744064e-01 1.825864e-01
<GCONST> 1.075341e+02
<STATE> 4
<MEAN> 39
 -1.386401e+01 -5.762499e+00 4.175212e+00 -1.995438e+00 8.383823e-02 -5.857001e+00 -1.537013e-02 -4.459024e+00 5.712265e+00 -3.151845e+00 2.173638e+00 -8.723669e-01 6.340088e+01 3.164690e-03 -2.033172e-02 2.792177e-01 4.800041e-03 -8.766744e-02 -7.327040e-02 1.174606e-01 -6.384113e-02 -7.367792e-02 -7.677591e-02 -1.132961e-01 -8.199467e-02 1.777874e-01 1.284831e-01 2.387639e-02 1.027214e-01 -7.330699e-03 -6.038745e-02 2.242056e-02 -1.891310e-02 -8.533781e-02 -6.299464e-02 -6.219947e-02 2.153466e-02 -4.624446e-02 3.769629e-02
<VARIANCE> 39
 5.702725e+01 1.730224e+01 1.917432e+01 1.287291e+01 3.757360e+01 2.551241e+01 4.538296e+01 4.469175e+01 1.852656e+01 2.666104e+01 1.618330e+01 1.342046e+01 3.532367e+01 2.698111e+00 1.413260e+00 1.560411e+00 1.254448e+00 2.015144e+00 1.662724e+00 2.589042e+00 2.313693e+00 1.710641e+00 2.363870e+00 1.607195e+00 1.409265e+00 1.231853e+00 3.243750e-01 2.435645e-01 2.755189e-01 2.509901e-01 3.694083e-01 3.017896e-01 4.330743e-01 4.505391e-01 3.297367e-01 4.729845e-01 3.249643e-01 2.951081e-01 1.518746e-01
<GCONST> 1.060160e+02
<TRANSP> 5
 0.000000e+00 1.000000e+00 0.000000e+00 0.000000e+00 0.000000e+00
 0.000000e+00 4.742398e-01 5.257602e-01 0.000000e+00 0.000000e+00
 0.000000e+00 0.000000e+00 4.945700e-01 5.054300e-01 0.000000e+00
 0.000000e+00 0.000000e+00 0.000000e+00 6.790674e-01 3.209327e-01
 0.000000e+00 0.000000e+00 0.000000e+00 0.000000e+00 0.000000e+00
<ENDHMM>
~h "k"
<BEGINHMM>
<NUMSTATES> 5
<STATE> 2
<MEAN> 39
 -1.047694e+01 -6.425046e+00 3.699586e+00 -1.907663e+00 -4.668930e+00 -9.763316e+00 1.526802e+00 6.745081e-01 2.657620e+00 1.225087e+00 7.744718e+00 -1.394916e+00 6.356579e+01 -1.100037e+00 2.155686e-01 -1.573077e+00 9.503939e-02 1.520029e+00 6.765254e-01 2.377009e-01 -2.862859e-02 9.106029e-01 1.017455e+00 -8.786506e-01 8.950565e-01 -8.554304e-01 -6.657574e-02 -1.481244e-01 -6.519751e-02 -1.380656e-01 -6.467009e-02 4.790485e-02 -1.738270e-01 -1.421607e-01 2.828746e-01 -2.521949e-01 -2.140951e-02 -1.864269e-01 4.941538e-01
<VARIANCE> 39
 1.935277e+01 1.739322e+01 6.721114e+01 1.928576e+01 4.516068e+01 4.312934e+01 2.738206e+01 3.380093e+01 6.234442e+01 3.369369e+01 3.685420e+01 3.211726e+01 4.241714e+01 1.703478e+00 2.636663e+00 5.914366e+00 2.120362e+00 2.705811e+00 3.743994e+00 3.238748e+00 3.146701e+00 9.137995e+00 4.252898e+00 3.003125e+00 4.363301e+00 8.842889e+00 3.652236e-01 5.144401e-01 1.278656e+00 4.546041e-01 4.741869e-01 7.052211e-01 6.392280e-01 5.493225e-01 2.127048e+00 7.313569e-01 6.485483e-01 8.283442e-01 1.229938e+00
<GCONST> 1.302939e+02
<STATE> 3
<MEAN> 39
 -1.516805e+01 -6.434829e+00 -6.838869e-01 -2.108606e+00 1.395588e-01 -7.735263e+00 1.767777e+00 -6.652859e-01 5.669312e+00 2.221988e+00 4.713702e+00 1.136053e-01 6.442677e+01 -1.282670e+00 8.627851e-02 -5.075271e-01 1.617439e-02 7.966418e-01 2.879725e-01 -1.093291e-03 -4.648585e-01 6.225106e-01 -4.103746e-01 -6.219257e-01 -4.181225e-02 8.763002e-01 3.921485e-02 1.139798e-01 2.509448e-01 3.003856e-02 -2.340649e-01 -6.197624e-02 8.044658e-02 1.429868e-02 -1.292809e-01 -2.325729e-01 4.318834e-02 -1.069330e-01 8.344073e-02
<VARIANCE> 39
 3.344679e+01 1.447553e+01 5.296392e+01 2.302273e+01 2.378751e+01 2.824763e+01 2.478770e+01 3.034954e+01 3.611211e+01 2.157201e+01 2.225320e+01 1.961199e+01 3.822820e+01 4.120111e+00 1.901178e+00 5.224021e+00 1.754391e+00 2.660964e+00 3.405186e+00 2.919705e+00 2.765099e+00 4.154448e+00 2.861803e+00 2.194530e+00 2.435368e+00 4.782148e+00 6.062669e-01 3.858332e-01 9.678164e-01 3.739776e-01 4.299712e-01 7.135409e-01 6.069414e-01 5.992799e-01 8.556508e-01 5.162585e-01 4.528641e-01 5.622566e-01 1.127205e+00
<GCONST> 1.220349e+02
<STATE> 4
<MEAN> 39
 -1.790714e+01 -5.361331e+00 -5.042223e-01 -2.200913e+00 1.505536e+00 -6.612998e+00 2.778766e+00 -1.778018e+00 6.760167e+00 5.319756e-01 3.137726e+00 -1.400736e-01 6.588403e+01 -5.455341e-01 3.727850e-01 -9.322041e-02 -2.198447e-02 7.760444e-02 3.814133e-01 1.735695e-01 -2.515638e-01 3.338106e-01 -5.108262e-01 -3.915837e-01 -1.655576e-01 4.424741e-01 2.362815e-01 7.398170e-02 6.794772e-02 -2.962719e-02 -1.893655e-01 6.972560e-02 1.449898e-02 3.563611e-02 -9.665287e-02 1.479460e-02 1.075407e-01 -3.246910e-02 -1.260424e-01
<VARIANCE> 39
 5.084108e+01 1.463482e+01 3.551123e+01 2.209170e+01 1.823865e+01 2.229146e+01 2.294156e+01 2.641348e+01 3.263106e+01 2.226119e+01 1.814679e+01 2.278633e+01 4.418937e+01 4.685631e+00 1.919677e+00 2.833128e+00 1.584188e+00 2.261260e+00 2.488972e+00 2.761080e+00 2.434918e+00 3.073652e+00 2.530066e+00 2.098661e+00 2.128247e+00 3.535173e+00 5.117988e-01 2.896558e-01 5.838661e-01 3.137304e-01 3.962341e-01 4.951760e-01 5.260640e-01 4.648702e-01 5.968300e-01 4.916462e-01 4.134900e-01 4.431030e-01 6.027237e-01
<GCONST> 1.158395e+02
<TRANSP> 5
 0.000000e+00 1.000000e+00 0.000000e+00 0.000000e+00 0.000000e+00
 0.000000e+00 8.282137e-01 1.717863e-01 0.000000e+00 0.000000e+00
 0.000000e+00 0.000000e+00 6.480023e-01 3.519977e-01 0.000000e+00
 0.000000e+00 0.000000e+00 0.000000e+00 6.959972e-01 3.040028e-01
 0.000000e+00 0.000000e+00 0.000000e+00 0.000000e+00 0.000000e+00
<ENDHMM>
~h "l"
<BEGINHMM>
<NUMSTATES> 5
<STATE> 2
<MEAN> 39
 -4.886165e+00 -8.312291e+00 9.901820e+00 -4.176017e+00 -1.201992e+01 -1.310367e+01 -7.034807e+00 -6.573033e+00 7.598485e+00 -8.946584e+00 4.113773e+00 -2.931808e+00 7.404599e+01 -1.832511e-02 2.376449e-01 -1.205771e-01 2.092179e-01 -4.522685e-03 -1.872358e-01 4.193629e-01 -1.627489e-02 -4.257840e-01 -1.766333e-01 -2.464538e-02 -6.108952e-02 -2.612982e-01 -8.285498e-03 7.517649e-02 -6.096916e-02 -1.103075e-03 9.574287e-02 6.186020e-02 1.007521e-01 2.286902e-02 -7.068736e-02 1.234223e-01 1.739517e-02 -2.144658e-02 -9.813700e-02
<VARIANCE> 39
 1.286896e+01 3.583662e+01 2.064371e+01 2.123899e+01 4.655240e+01 2.929010e+01 4.549591e+01 6.015450e+01 3.375437e+01 2.631030e+01 3.095867e+01 1.804266e+01 3.213967e+01 9.686832e-01 3.547249e+00 1.860760e+00 1.055067e+00 4.958739e+00 2.072788e+00 3.381877e+00 3.821266e+00 1.610520e+00 1.882008e+00 2.844013e+00 1.406993e+00 2.060858e+00 1.674153e-01 6.162950e-01 3.846350e-01 2.205225e-01 8.929777e-01 4.485963e-01 6.021491e-01 6.390508e-01 3.085742e-01 3.313747e-01 5.759189e-01 2.714948e-01 3.257434e-01
<GCONST> 1.137619e+02
<STATE> 3
<MEAN> 39
 -4.823338e+00 -6.982177e+00 7.862135e+00 -1.874694e+00 -1.000372e+01 -1.278106e+01 -2.986327e+00 -7.459374e+00 5.377040e+00 -7.669759e+00 2.999441e+00 -3.348524e+00 7.043879e+01 -9.971870e-02 6.470616e-01 -2.162214e-01 1.773387e-01 7.396972e-01 4.324024e-01 6.911665e-01 3.154525e-01 -6.574490e-01 3.850047e-01 -2.493942e-01 -9.267623e-02 -8.899740e-01 -7.090368e-02 2.870250e-02 -6.894149e-02 -4.494055e-02 1.976803e-01 1.849671e-01 -1.113271e-02 6.267139e-02 3.301069e-02 7.490155e-02 4.266120e-04 4.440779e-02 -1.218219e-01
<VARIANCE> 39
 1.374401e+01 2.677092e+01 1.527224e+01 2.112936e+01 4.929865e+01 3.919504e+01 4.188631e+01 3.826133e+01 4.142407e+01 2.567045e+01 3.495950e+01 1.866669e+01 4.688153e+01 1.056432e+00 2.398831e+00 1.547132e+00 1.609023e+00 3.480251e+00 1.991187e+00 2.654479e+00 3.153485e+00 2.056058e+00 1.838893e+00 2.065997e+00 1.622467e+00 1.719478e+00 1.249262e-01 4.319935e-01 2.841625e-01 3.168969e-01 4.791228e-01 3.556804e-01 4.947160e-01 4.897839e-01 3.734749e-01 2.984208e-01 3.987118e-01 3.164505e-01 2.173057e-01
<GCONST> 1.102849e+02
<STATE> 4
<MEAN> 39
 -6.622647e+00 -4.218753e+00 5.990940e+00 -1.243533e+00 -4.799521e+00 -9.262986e+00 -6.213899e-01 -6.014809e+00 3.460222e+00 -4.999929e+00 1.958989e+00 -2.421510e+00 6.485946e+01 -3.285529e-01 3.451445e-01 -4.564373e-01 -1.529838e-01 9.312558e-01 9.310483e-01 5.267733e-01 4.859377e-01 -2.461895e-01 4.727695e-01 -3.751410e-02 1.927675e-01 -9.136860e-01 -1.687633e-02 -9.559737e-02 -4.401903e-02 -1.923710e-02 -3.976168e-02 4.780164e-02 -7.201845e-02 2.600501e-02 1.565874e-01 -2.404959e-02 7.826813e-03 7.603308e-02 3.525397e-02
<VARIANCE> 39
 2.013728e+01 2.145294e+01 1.755758e+01 2.037134e+01 5.797891e+01 4.016284e+01 3.226888e+01 4.791015e+01 3.146171e+01 2.876815e+01 2.889367e+01 2.359807e+01 5.603694e+01 1.084634e+00 2.000469e+00 1.454047e+00 2.466848e+00 2.633006e+00 1.929517e+00 2.650045e+00 2.403737e+00 2.476051e+00 2.017953e+00 2.344064e+00 2.190498e+00 1.665247e+00 1.429427e-01 3.473366e-01 2.581192e-01 3.815759e-01 4.548639e-01 3.701676e-01 4.680712e-01 4.557320e-01 4.400589e-01 3.368632e-01 4.356495e-01 3.924297e-01 2.156781e-01
<GCONST> 1.115079e+02
<TRANSP> 5
 0.000000e+00 1.000000e+00 0.000000e+00 0.000000e+00 0.000000e+00
 0.000000e+00 8.543444e-01 1.456556e-01 0.000000e+00 0.000000e+00
 0.000000e+00 0.000000e+00 6.898555e-01 3.101445e-01 0.000000e+00
 0.000000e+00 0.000000e+00 0.000000e+00 6.498294e-01 3.501706e-01
 0.000000e+00 0.000000e+00 0.000000e+00 0.000000e+00 0.000000e+00
<ENDHMM>
~h "m"
<BEGINHMM>
<NUMSTATES> 5
<STATE> 2
<MEAN> 39
 -1.098590e+01 -3.541445e+00 6.166490e+00 -7.800426e-01 1.687340e+00 -5.448492e+00 2.195866e+00 -7.208649e+00 4.636194e+00 -2.109107e+00 3.586524e+00 3.841796e-01 6.235673e+01 1.814710e+00 1.864793e-01 3.009720e-01 1.023467e+00 3.790152e-01 -7.212554e-01 -7.010309e-01 -1.619980e+00 -7.342803e-02 -4.892351e-01 -5.837478e-02 -7.095120e-02 8.206373e-01 6.114808e-02 -3.079488e-01 1.139291e-01 -1.413879e-01 -4.020196e-01 -3.106679e-02 -2.850202e-01 -4.225096e-01 1.718570e-01 -1.796045e-01 1.942377e-03 -3.079582e-02 5.187214e-01
<VARIANCE> 39
 3.565178e+01 1.786149e+01 1.758299e+01 3.091063e+01 3.178174e+01 3.288221e+01 3.080857e+01 5.443711e+01 2.857775e+01 1.623804e+01 2.132871e+01 1.601391e+01 3.603843e+01 2.485511e+00 2.357084e+00 2.221144e+00 2.951965e+00 4.898458e+00 2.966072e+00 3.191221e+00 6.936935e+00 3.269728e+00 1.666850e+00 3.028251e+00 1.632803e+00 4.398894e+00 4.449728e-01 4.622667e-01 3.897415e-01 6.801790e-01 8.106725e-01 6.406433e-01 5.730513e-01 1.448407e+00 6.593950e-01 3.295293e-01 5.509983e-01 3.436711e-01 7.270249e-01
<GCONST> 1.213036e+02
<STATE> 3
<MEAN> 39
 -5.193008e+00 -4.754189e+00 7.183017e+00 1.215833e+00 -9.731365e-01 -8.192101e+00 -1.795017e+00 -1.289929e+01 5.819673e+00 -4.045877e+00 2.631296e+00 5.039080e-01 6.659279e+01 1.227975e+00 -6.790665e-01 1.170835e-01 -1.597049e-01 -8.654795e-01 -4.434049e-01 -1.002046e+00 -1.188479e+00 3.486996e-01 -5.208340e-01 1.764815e-01 -9.418447e-02 1.377586e+00 -2.921462e-01 -2.368686e-01 -2.165092e-01 -5.020104e-01 -1.796509e-01 2.519830e-01 1.032352e-01 4.396816e-01 2.585504e-01 5.867009e-02 -3.291239e-03 -1.046480e-01 1.070783e-02
<VARIANCE> 39
 2.294964e+01 3.084376e+01 1.492159e+01 3.243589e+01 5.745704e+01 3.983056e+01 3.470082e+01 5.610641e+01 5.984037e+01 1.769074e+01 4.282042e+01 1.897047e+01 4.292304e+01 2.928324e+00 3.507704e+00 2.330801e+00 4.553223e+00 5.278313e+00 3.206099e+00 2.849600e+00 8.969586e+00 5.414149e+00 1.826535e+00 3.428271e+00 1.824613e+00 4.409485e+00 2.841493e-01 7.780151e-01 4.584807e-01 8.171033e-01 1.098109e+00 6.110524e-01 4.846130e-01 1.489107e+00 1.119335e+00 3.204184e-01 5.967315e-01 4.314148e-01 7.561738e-01
<GCONST> 1.276468e+02
<STATE> 4
<MEAN> 39
 -4.062646e+00 -9.301740e+00 3.997350e+00 -5.356347e+00 -3.307612e+00 -5.422407e+00 -2.683550e+00 -9.662591e+00 9.852363e+00 -3.706970e+00 3.928391e+00 -4.342299e+00 7.059754e+01 -3.292921e-01 -7.882881e-01 -4.379599e-01 -1.084939e+00 -1.925848e-01 3.533408e-01 5.050136e-02 8.411593e-01 7.524770e-01 1.015502e-01 -1.820840e-01 -5.798151e-01 6.144621e-01 -1.909321e-01 7.316452e-02 4.706545e-02 8.298821e-02 1.226113e-01 -2.275023e-02 1.246083e-01 1.784538e-01 -4.061123e-02 2.847158e-02 -7.690313e-02 -3.425651e-02 -1.535656e-01
<VARIANCE> 39
 2.803986e+01 4.094251e+01 3.398460e+01 4.763535e+01 3.595035e+01 4.317757e+01 2.557066e+01 5.334107e+01 7.831600e+01 2.497993e+01 3.403910e+01 5.083744e+01 6.021282e+01 1.887509e+00 4.988215e+00 3.947709e+00 4.542871e+00 4.106318e+00 3.120267e+00 2.578760e+00 3.771513e+00 8.341256e+00 2.295053e+00 3.492418e+00 3.837657e+00 6.672982e+00 1.683645e-01 7.180725e-01 7.449680e-01 8.861025e-01 6.200220e-01 6.543475e-01 4.416642e-01 8.052958e-01 1.406407e+00 4.571551e-01 6.847546e-01 5.956540e-01 8.797268e-01
<GCONST> 1.312801e+02
<TRANSP> 5
 0.000000e+00 1.000000e+00 0.000000e+00 0.000000e+00 0.000000e+00
 0.000000e+00 6.229623e-01 3.770377e-01 0.000000e+00 0.000000e+00
 0.000000e+00 0.000000e+00 6.626479e-01 3.373521e-01 0.000000e+00
 0.000000e+00 0.000000e+00 0.000000e+00 8.761576e-01 1.238424e-01
 0.000000e+00 0.000000e+00 0.000000e+00 0.000000e+00 0.000000e+00
<ENDHMM>
~h "n"
<BEGINHMM>
<NUMSTATES> 5
<STATE> 2
<MEAN> 39
 -7.984530e+00 -2.445394e+00 5.696057e+00 1.086093e+00 1.787780e-01 -6.619947e+00 3.748893e-01 -6.807181e+00 2.359199e+00 -2.306302e+00 2.827893e+00 -2.794535e+00 6.089025e+01 -1.347093e-01 1.803734e-01 -2.394871e-01 1.615743e-01 3.140951e-01 2.748899e-01 2.318947e-01 -2.721179e-01 -6.466156e-02 4.438616e-01 -1.720284e-01 8.397289e-02 -4.746714e-01 -4.308030e-02 -4.279659e-02 2.742690e-02 -1.207357e-01 -7.434936e-02 7.602720e-03 5.018557e-02 9.529597e-02 -2.105909e-02 5.623025e-03 1.901017e-02 8.198503e-03 5.870713e-02
<VARIANCE> 39
 1.900050e+01 1.366077e+01 2.310225e+01 1.876790e+01 2.467227e+01 3.388004e+01 2.791335e+01 5.513630e+01 2.606738e+01 2.003088e+01 1.577947e+01 1.766639e+01 2.866022e+01 7.382269e-01 1.420415e+00 1.485851e+00 1.714412e+00 1.909837e+00 1.937612e+00 2.285881e+00 3.738088e+00 2.324661e+00 2.049044e+00 1.556204e+00 1.487666e+00 1.301385e+00 9.353641e-02 2.464124e-01 2.216404e-01 2.687121e-01 3.280258e-01 3.199642e-01 4.053610e-01 4.682821e-01 4.032060e-01 3.704499e-01 3.019345e-01 2.643858e-01 1.407525e-01
<GCONST> 1.028228e+02
<STATE> 3
<MEAN> 39
 -9.093833e+00 -2.113144e+00 4.569402e+00 5.960075e-01 1.003839e+00 -5.274621e+00 1.478392e+00 -5.918765e+00 2.336087e+00 -1.201446e+00 2.605459e+00 -2.179752e+00 5.917000e+01 -1.966828e-01 1.032326e-01 -2.016859e-01 -9.606328e-02 1.533707e-01 2.378214e-01 2.854313e-01 3.426265e-02 -4.617826e-02 2.920318e-01 -6.522532e-02 1.043785e-01 -2.932835e-01 -2.745775e-02 -2.432369e-02 7.041767e-03 -7.648820e-02 -2.715608e-02 -7.005854e-03 -2.486735e-02 9.287705e-02 4.318601e-02 -7.549273e-02 1.933759e-02 1.653857e-02 7.433351e-02
<VARIANCE> 39
 1.864504e+01 1.137635e+01 2.267870e+01 1.758422e+01 1.951700e+01 2.994122e+01 2.330643e+01 4.953424e+01 2.535527e+01 1.506624e+01 1.415370e+01 1.785845e+01 2.134476e+01 6.265337e-01 1.155982e+00 1.257396e+00 1.277282e+00 1.450456e+00 1.769834e+00 1.980843e+00 2.996796e+00 1.988094e+00 1.723698e+00 1.437352e+00 1.401592e+00 8.469023e-01 1.009889e-01 2.267615e-01 2.148041e-01 2.453467e-01 2.902380e-01 3.095284e-01 3.871647e-01 4.871584e-01 3.977693e-01 3.423362e-01 2.895714e-01 2.721460e-01 1.084301e-01
<GCONST> 9.807047e+01
<STATE> 4
<MEAN> 39
 -1.105194e+01 -2.137084e+00 2.735879e+00 -7.243830e-01 2.082990e+00 -3.484796e+00 2.833935e+00 -3.521136e+00 2.951354e+00 -5.647151e-01 2.668929e+00 -1.022194e+00 5.701986e+01 -3.607466e-02 6.075912e-02 3.535677e-02 -3.014189e-04 2.855883e-02 -1.174595e-02 8.866255e-02 -7.803029e-02 -1.771590e-02 5.847168e-02 -4.768426e-02 -6.509603e-03 5.913269e-02 -1.885096e-03 -2.490621e-02 1.087068e-02 -1.140736e-02 -1.506677e-02 -2.967171e-02 -5.069352e-02 -4.618460e-02 2.581425e-02 -3.508744e-02 -2.661785e-03 -1.831260e-02 1.025993e-01
<VARIANCE> 39
 1.303934e+01 7.828994e+00 1.690386e+01 1.271247e+01 1.375394e+01 2.119647e+01 1.576550e+01 3.318055e+01 1.891355e+01 1.292443e+01 1.258863e+01 1.481240e+01 1.212810e+01 7.356025e-01 8.397163e-01 1.291253e+00 1.135918e+00 1.266208e+00 1.683731e+00 1.606594e+00 2.546211e+00 1.704766e+00 1.421927e+00 1.375206e+00 1.419969e+00 6.453061e-01 1.349526e-01 1.725612e-01 2.196328e-01 2.131235e-01 2.593701e-01 3.247797e-01 3.291687e-01 4.425020e-01 3.564631e-01 3.032992e-01 2.847044e-01 2.831065e-01 9.065363e-02
<GCONST> 9.164893e+01
<TRANSP> 5
 0.000000e+00 1.000000e+00 0.000000e+00 0.000000e+00 0.000000e+00
 0.000000e+00 6.210663e-01 3.789337e-01 0.000000e+00 0.000000e+00
 0.000000e+00 0.000000e+00 6.529266e-01 3.470735e-01 0.000000e+00
 0.000000e+00 0.000000e+00 0.000000e+00 8.608666e-01 1.391334e-01
 0.000000e+00 0.000000e+00 0.000000e+00 0.000000e+00 0.000000e+00
<ENDHMM>
~h "o"
<BEGINHMM>
<NUMSTATES> 5
<STATE> 2
<MEAN> 39
 -1.986608e+00 1.968245e-01 3.813717e+00 -1.469987e+01 -1.344832e+01 1.350367e+00 1.505416e+00 -1.083234e+01 4.759223e+00 -6.764773e+00 -9.562514e-02 4.921964e-01 6.635355e+01 2.759451e-01 2.489041e-01 -8.215235e-02 -3.217438e-01 -2.584026e-01 1.143362e-01 1.563541e-01 -5.941727e-02 -9.024301e-02 -2.124537e-01 -1.734455e-01 1.343650e-01 -9.611332e-02 -1.385595e-01 -4.078972e-02 -1.679595e-02 1.676030e-01 2.172181e-01 -7.211612e-02 6.294815e-03 1.096962e-01 3.046344e-03 7.507792e-02 4.921766e-02 -2.351071e-02 -5.098780e-02
<VARIANCE> 39
 6.306355e+01 2.116069e+01 1.585854e+01 6.981998e+01 1.415954e+02 2.181768e+01 1.257858e+01 4.445392e+01 2.702611e+01 2.518933e+01 2.739318e+01 2.092277e+01 2.401176e+01 2.678770e+00 1.240148e+00 1.115463e+00 3.903516e+00 6.779446e+00 1.895399e+00 1.152769e+00 3.293690e+00 2.452780e+00 2.248123e+00 1.785088e+00 1.662821e+00 1.308864e+00 2.120991e-01 2.084688e-01 1.902196e-01 4.786648e-01 5.528651e-01 3.321049e-01 2.074623e-01 4.894898e-01 4.182712e-01 3.847110e-01 2.742019e-01 3.304560e-01 2.245369e-01
<GCONST> 1.107029e+02
<STATE> 3
<MEAN> 39
 -5.620849e+00 1.390947e-01 2.008637e+00 -9.852067e+00 -5.871356e+00 -1.510097e-01 2.691326e+00 -7.426277e+00 3.559426e+00 -5.072165e+00 1.262603e+00 1.569176e+00 6.215703e+01 -7.758924e-01 -6.995334e-02 -1.551498e-01 1.028379e+00 1.315352e+00 -3.038241e-01 7.132884e-02 6.428933e-01 -1.529803e-01 4.330722e-01 2.807322e-01 -4.333648e-02 -5.333425e-01 -3.357768e-02 -7.891714e-02 1.465065e-02 1.448136e-02 -4.351713e-02 -5.145544e-02 -5.727432e-02 1.873205e-02 6.369215e-02 7.605745e-02 1.662541e-02 -8.299305e-02 1.167994e-02
<VARIANCE> 39
 5.835574e+01 1.443148e+01 1.330147e+01 6.683733e+01 1.051424e+02 2.701635e+01 1.487441e+01 4.361691e+01 1.972918e+01 2.972903e+01 2.482931e+01 1.752071e+01 3.013467e+01 1.111115e+00 1.048038e+00 1.181002e+00 3.339427e+00 4.236855e+00 2.040091e+00 1.394748e+00 2.334924e+00 2.203760e+00 2.230559e+00 1.724955e+00 1.858915e+00 1.227861e+00 1.709614e-01 2.039300e-01 2.309837e-01 5.186369e-01 5.716102e-01 3.649826e-01 2.707015e-01 4.007449e-01 4.225143e-01 3.925956e-01 3.149844e-01 3.839684e-01 1.719775e-01
<GCONST> 1.083744e+02
<STATE> 4
<MEAN> 39
 -1.084312e+01 -1.393192e+00 8.773409e-01 -4.057390e+00 7.349913e-01 -2.498185e+00 2.215871e+00 -3.264414e+00 3.396898e+00 -1.199049e+00 3.278253e+00 1.034170e+00 5.785433e+01 -5.402481e-01 -2.655781e-01 -8.412762e-02 3.446389e-01 3.896403e-01 -2.224491e-01 -8.261111e-03 3.394398e-01 1.265399e-01 3.326504e-01 9.077968e-02 -1.755151e-01 -1.528962e-01 4.448347e-02 -7.810441e-02 2.555447e-02 -1.155898e-01 -1.155225e-01 2.958507e-02 -7.640175e-03 -8.293247e-02 4.092670e-02 -6.062430e-02 -3.789101e-02 -4.413824e-02 1.580759e-01
<VARIANCE> 39
 2.852657e+01 8.901234e+00 1.056888e+01 1.888944e+01 2.324036e+01 1.519693e+01 1.548283e+01 2.486489e+01 1.598292e+01 2.011499e+01 1.534759e+01 1.471033e+01 1.608763e+01 1.013583e+00 8.587589e-01 1.078773e+00 1.991937e+00 2.231260e+00 1.667745e+00 1.612177e+00 2.001235e+00 1.743944e+00 2.000777e+00 1.566849e+00 1.735263e+00 9.648089e-01 1.526686e-01 1.942648e-01 2.303420e-01 3.449792e-01 3.687867e-01 3.112915e-01 3.275124e-01 3.760447e-01 3.651943e-01 3.790028e-01 3.152591e-01 3.733025e-01 1.387535e-01
<GCONST> 9.722545e+01
<TRANSP> 5
 0.000000e+00 1.000000e+00 0.000000e+00 0.000000e+00 0.000000e+00
 0.000000e+00 8.597873e-01 1.402127e-01 0.000000e+00 0.000000e+00
 0.000000e+00 0.000000e+00 7.015336e-01 2.984664e-01 0.000000e+00
 0.000000e+00 0.000000e+00 0.000000e+00 7.913933e-01 2.086067e-01
 0.000000e+00 0.000000e+00 0.000000e+00 0.000000e+00 0.000000e+00
<ENDHMM>
~h "r"
<BEGINHMM>
<NUMSTATES> 5
<STATE> 2
<MEAN> 39
 -8.692983e+00 -4.054093e+00 1.680876e+00 -3.249125e+00 1.061589e-01 -3.158614e+00 -1.970369e-01 -3.065849e+00 6.739878e+00 -1.118301e+00 1.479028e+00 -2.286016e+00 6.020600e+01 -3.095075e-01 1.124340e-01 -3.204226e-01 -3.338006e-02 5.032883e-01 3.923978e-01 3.036387e-01 1.644695e-01 -1.832140e-01 2.751802e-01 -5.116141e-02 1.491746e-01 -5.546380e-01 -2.509934e-03 2.401279e-02 7.765365e-02 2.833067e-03 -8.389805e-02 -7.512254e-02 -4.164217e-03 -3.168373e-03 -4.962189e-02 -7.640315e-02 1.883535e-02 2.572990e-02 4.227752e-02
<VARIANCE> 39
 2.050505e+01 1.748987e+01 1.478706e+01 1.526194e+01 2.940889e+01 2.022275e+01 4.186740e+01 2.167896e+01 4.139631e+01 2.007977e+01 2.090133e+01 2.329082e+01 4.902696e+01 5.303978e-01 1.002066e+00 1.064683e+00 1.308715e+00 1.773376e+00 1.665453e+00 1.727707e+00 1.570846e+00 1.934368e+00 1.537179e+00 1.788654e+00 1.684636e+00 9.010831e-01 7.748016e-02 1.815420e-01 1.645151e-01 2.300074e-01 2.755985e-01 2.814213e-01 3.054639e-01 3.147430e-01 3.454407e-01 3.022636e-01 3.408612e-01 2.851867e-01 8.975726e-02
<GCONST> 9.741239e+01
<STATE> 3
<MEAN> 39
 -1.008461e+01 -4.592544e+00 1.089522e+00 -4.061127e+00 1.355612e+00 -1.212920e+00 2.109565e+00 -2.771404e+00 5.364059e+00 5.054606e-03 2.233864e+00 -1.242621e+00 5.941071e+01 -1.803556e-01 9.589741e-02 -8.077642e-02 -2.127675e-01 1.139588e-01 1.647019e-01 2.437754e-01 1.375265e-01 -3.842376e-02 -4.883797e-03 -2.768135e-01 2.104581e-01 -1.237917e-01 4.330591e-03 5.507129e-02 4.346950e-02 3.487762e-02 -7.862455e-02 -1.495327e-01 -3.074029e-02 2.837400e-02 -2.943230e-02 -1.239084e-01 -2.720055e-02 -1.067533e-02 6.128952e-02
<VARIANCE> 39
 1.882364e+01 1.659481e+01 1.893610e+01 2.123766e+01 2.986336e+01 2.709725e+01 2.901336e+01 2.128189e+01 3.027662e+01 1.849463e+01 2.042147e+01 2.440985e+01 3.999810e+01 6.448162e-01 8.229340e-01 1.036205e+00 1.519586e+00 1.718680e+00 1.623005e+00 1.770942e+00 1.721727e+00 1.734192e+00 1.614428e+00 1.956163e+00 1.564483e+00 9.742092e-01 9.657591e-02 1.847614e-01 1.846761e-01 2.319773e-01 3.073543e-01 3.285702e-01 3.118439e-01 3.477398e-01 3.221507e-01 3.291258e-01 3.588485e-01 3.044479e-01 1.013628e-01
<GCONST> 9.841323e+01
<STATE> 4
<MEAN> 39
 -9.859483e+00 -5.024914e+00 1.112100e+00 -5.155857e+00 1.057624e+00 -8.001921e-01 2.191567e+00 -2.803446e+00 5.712067e+00 -1.557732e-01 1.590956e+00 -1.006684e+00 6.060104e+01 -2.059391e-01 2.668211e-01 2.279154e-02 -1.060084e-01 -1.374890e-02 -1.780135e-01 2.378640e-01 2.184459e-01 -1.367067e-01 -2.754700e-01 -3.384545e-01 2.090873e-01 9.800022e-03 4.329019e-03 6.678770e-02 3.629678e-02 6.386847e-02 -9.895684e-02 -1.876433e-01 -3.208064e-02 -7.524006e-02 -7.484549e-02 -1.271475e-01 5.939956e-02 -8.617447e-02 1.540174e-01
<VARIANCE> 39
 2.187452e+01 1.741162e+01 2.697709e+01 2.973095e+01 3.526308e+01 3.097318e+01 3.689937e+01 2.396593e+01 3.388414e+01 2.071482e+01 2.295238e+01 2.803953e+01 4.116485e+01 1.218568e+00 1.287163e+00 1.546968e+00 1.990299e+00 2.359767e+00 1.988091e+00 1.909645e+00 2.146293e+00 2.015473e+00 1.784935e+00 2.266791e+00 1.809103e+00 1.592693e+00 2.016938e-01 2.754313e-01 3.096367e-01 3.216668e-01 3.943062e-01 3.777786e-01 3.743032e-01 4.356371e-01 3.933876e-01 3.818918e-01 3.792395e-01 3.523135e-01 2.501580e-01
<GCONST> 1.083052e+02
<TRANSP> 5
 0.000000e+00 1.000000e+00 0.000000e+00 0.000000e+00 0.000000e+00
 0.000000e+00 8.826322e-01 1.173678e-01 0.000000e+00 0.000000e+00
 0.000000e+00 0.000000e+00 6.065303e-01 3.934697e-01 0.000000e+00
 0.000000e+00 0.000000e+00 0.000000e+00 4.663950e-01 5.336050e-01
 0.000000e+00 0.000000e+00 0.000000e+00 0.000000e+00 0.000000e+00
<ENDHMM>
~h "s"
<BEGINHMM>
<NUMSTATES> 5
<STATE> 2
<MEAN> 39
 -2.256148e+01 1.052414e+00 -1.166176e+00 -1.567802e+00 1.635943e+00 -6.030950e+00 4.018055e+00 -3.926576e+00 5.643542e+00 -1.853603e+00 2.723497e+00 -6.705105e-01 6.739908e+01 -1.738119e+00 5.462664e-01 -4.204178e-01 -4.076505e-01 5.081522e-01 7.166139e-01 4.034577e-01 5.480670e-01 5.632503e-01 -1.789673e-01 1.705529e-02 5.690713e-01 5.071379e-02 1.985038e-01 -1.173801e-01 1.798208e-02 5.533636e-02 -8.737275e-02 -4.704732e-02 5.082745e-03 -8.023253e-02 -3.296182e-02 6.778234e-02 1.035007e-01 -6.887808e-02 -5.550530e-02
<VARIANCE> 39
 8.094756e+01 1.354405e+01 2.793379e+01 1.322493e+01 1.655476e+01 2.069943e+01 1.619578e+01 1.938597e+01 2.824084e+01 1.452038e+01 1.431595e+01 1.720241e+01 1.396609e+01 5.925014e+00 1.631425e+00 2.829958e+00 1.471070e+00 1.877800e+00 2.092769e+00 1.793471e+00 2.094579e+00 2.464718e+00 1.544817e+00 1.748544e+00 1.663017e+00 1.062925e+00 7.422330e-01 2.664389e-01 4.258403e-01 2.771284e-01 3.337651e-01 4.062718e-01 3.545636e-01 3.696844e-01 4.142240e-01 3.059042e-01 3.425616e-01 2.976138e-01 1.748574e-01
<GCONST> 1.053062e+02
<STATE> 3
<MEAN> 39
 -2.535714e+01 1.448175e+00 -1.494364e+00 -2.279952e+00 3.035139e+00 -4.384017e+00 5.680789e+00 -2.860686e+00 7.245307e+00 -1.939261e+00 3.492212e+00 6.640304e-01 6.608209e+01 2.228506e-01 -7.368828e-02 1.852752e-01 -6.262329e-02 1.688115e-01 1.757283e-01 2.106798e-01 9.037644e-02 1.041886e-01 3.224509e-03 1.299400e-01 1.177971e-01 -5.203265e-01 2.882894e-01 -1.047682e-01 5.612261e-02 3.832470e-02 -3.348908e-02 -5.574749e-02 -6.237235e-02 -3.402492e-02 -6.213485e-02 2.758981e-02 -5.877917e-03 -5.866187e-02 -9.752134e-02
<VARIANCE> 39
 3.738445e+01 1.184774e+01 1.516559e+01 1.129941e+01 1.309537e+01 1.427619e+01 1.535321e+01 1.536270e+01 1.802396e+01 1.533259e+01 1.437588e+01 1.233906e+01 1.995402e+01 3.780069e+00 1.289603e+00 1.577870e+00 1.163732e+00 1.220138e+00 1.639274e+00 1.579051e+00 1.656020e+00 1.813874e+00 1.520265e+00 1.522956e+00 1.299094e+00 1.015835e+00 3.285548e-01 2.206208e-01 2.769097e-01 2.430987e-01 2.499299e-01 3.355872e-01 3.174469e-01 3.396709e-01 3.524047e-01 3.082260e-01 3.152659e-01 2.598907e-01 1.103186e-01
<GCONST> 9.600606e+01
<STATE> 4
<MEAN> 39
 -1.816714e+01 -1.330835e+00 2.288120e-01 -2.162538e+00 3.469467e+00 -3.284796e+00 5.187991e+00 -2.070655e+00 6.054643e+00 -1.266417e+00 3.665367e+00 3.973107e-01 6.021974e+01 4.643950e-01 -2.026028e-01 9.984756e-02 -5.969238e-03 1.805536e-02 9.171142e-02 -9.386461e-02 2.172812e-02 -8.527321e-02 4.193832e-02 -1.270614e-02 -8.720502e-02 -2.485448e-01 7.690124e-03 -5.477802e-03 -1.053842e-02 -5.055118e-03 -1.642947e-02 1.774565e-03 -2.823057e-02 -2.591906e-02 -1.504082e-02 -1.084108e-02 -1.252908e-02 -3.290920e-02 5.804482e-02
<VARIANCE> 39
 4.869169e+01 1.199398e+01 1.126118e+01 9.785298e+00 1.200403e+01 1.455834e+01 1.598659e+01 1.633741e+01 1.921542e+01 1.534156e+01 1.347890e+01 1.225749e+01 3.192085e+01 2.399342e+00 1.015779e+00 1.205753e+00 1.111394e+00 1.201073e+00 1.548123e+00 1.629885e+00 1.756765e+00 1.906171e+00 1.600751e+00 1.482897e+00 1.395045e+00 1.623345e+00 2.977077e-01 1.991923e-01 2.344704e-01 2.296757e-01 2.423859e-01 3.160206e-01 3.224935e-01 3.635604e-01 3.684518e-01 3.253412e-01 3.030106e-01 2.830470e-01 1.789731e-01
<GCONST> 9.616031e+01
<TRANSP> 5
 0.000000e+00 1.000000e+00 0.000000e+00 0.000000e+00 0.000000e+00
 0.000000e+00 8.119006e-01 1.880994e-01 0.000000e+00 0.000000e+00
 0.000000e+00 0.000000e+00 8.194001e-01 1.805999e-01 0.000000e+00
 0.000000e+00 0.000000e+00 0.000000e+00 9.424357e-01 5.756428e-02
 0.000000e+00 0.000000e+00 0.000000e+00 0.000000e+00 0.000000e+00
<ENDHMM>
~h "t"
<BEGINHMM>
<NUMSTATES> 5
<STATE> 2
<MEAN> 39
 -1.442789e+01 -4.573582e+00 -5.148059e-01 -3.959586e+00 5.991348e+00 -4.103093e+00 4.564172e+00 -2.155989e+00 6.972946e+00 -4.677888e-01 2.801447e+00 2.623221e-01 6.140450e+01 5.838078e-02 4.790234e-02 2.015726e-02 -6.148577e-02 -2.331959e-01 -1.731070e-01 2.552914e-02 9.998056e-02 -1.562998e-01 -1.287607e-01 4.148085e-02 2.141084e-01 -3.274397e-01 3.352884e-02 -3.710949e-02 2.743807e-02 3.838743e-02 3.436238e-02 1.091620e-01 -7.118826e-02 9.777666e-03 3.153352e-02 2.797556e-02 -8.024294e-03 -4.932879e-02 1.716526e-02
<VARIANCE> 39
 1.778686e+01 1.083493e+01 1.198691e+01 1.643498e+01 1.525313e+01 3.177888e+01 1.764869e+01 1.702680e+01 1.644771e+01 1.514064e+01 1.331224e+01 1.426211e+01 2.960556e+01 2.665241e+00 1.462263e+00 1.397205e+00 2.184955e+00 1.798692e+00 4.093618e+00 1.902656e+00 2.272465e+00 1.922323e+00 1.897076e+00 1.676468e+00 1.641623e+00 5.096239e+00 5.291625e-01 3.023727e-01 2.654978e-01 4.316682e-01 3.510829e-01 8.383463e-01 3.904144e-01 5.012553e-01 3.816372e-01 3.851432e-01 3.523472e-01 3.393936e-01 1.125528e+00
<GCONST> 1.073582e+02
<STATE> 3
<MEAN> 39
 -1.357164e+01 -4.096296e+00 1.768893e-01 -3.305606e+00 5.075556e+00 -3.569904e+00 4.067630e+00 -1.582521e+00 5.911259e+00 -7.132244e-01 2.859948e+00 5.811383e-01 5.905811e+01 2.036958e-01 1.170948e-01 7.233608e-02 1.421822e-01 -2.032001e-01 2.514326e-01 -7.800505e-02 1.262074e-01 -2.479137e-01 1.169429e-02 3.122242e-02 1.310518e-02 -5.188092e-01 -1.255725e-02 1.440611e-02 -2.184089e-03 8.531584e-03 -1.195059e-02 2.217751e-02 8.136843e-04 -1.863020e-02 -9.812919e-03 4.776841e-03 -1.908553e-03 -3.059067e-02 1.381452e-02
<VARIANCE> 39
 1.264577e+01 8.799932e+00 8.785910e+00 1.423408e+01 1.339137e+01 2.239429e+01 1.530350e+01 1.544231e+01 1.713013e+01 1.359502e+01 1.309554e+01 1.230421e+01 2.341469e+01 1.682348e+00 1.007107e+00 9.511588e-01 1.657814e+00 1.426280e+00 2.624700e+00 1.492354e+00 1.700683e+00 1.691231e+00 1.579418e+00 1.542812e+00 1.438082e+00 2.536904e+00 3.568890e-01 2.047586e-01 1.903441e-01 3.366100e-01 2.924242e-01 5.222057e-01 3.092409e-01 3.611146e-01 3.311517e-01 3.274117e-01 3.384184e-01 3.013111e-01 5.158915e-01
<GCONST> 9.741518e+01
<STATE> 4
<MEAN> 39
 -1.315355e+01 -3.313983e+00 7.444240e-01 -2.283584e+00 3.747736e+00 -2.161007e+00 3.665085e+00 -1.371233e+00 4.231006e+00 -7.717841e-01 2.858652e+00 -1.408270e-01 5.672960e+01 -2.069545e-02 -2.964861e-02 6.188886e-02 3.848921e-02 -8.230212e-02 3.650801e-02 -3.690933e-02 -7.857060e-02 -5.317782e-02 -4.138404e-02 -3.144676e-02 -1.389466e-01 1.338861e-01 5.553328e-03 -2.007752e-02 1.185027e-02 -1.824986e-02 -1.306073e-02 -3.348696e-02 -4.946326e-03 -5.911339e-02 2.844458e-02 -5.904969e-03 -4.051696e-03 -4.565405e-02 1.260883e-01
<VARIANCE> 39
 8.699396e+00 7.388793e+00 7.369062e+00 9.045853e+00 9.447575e+00 1.266447e+01 1.337941e+01 1.290145e+01 1.502881e+01 1.294232e+01 1.277947e+01 1.246991e+01 1.301857e+01 9.277620e-01 8.197084e-01 8.562936e-01 9.773681e-01 1.025940e+00 1.544467e+00 1.442003e+00 1.503231e+00 1.611565e+00 1.373075e+00 1.440313e+00 1.354669e+00 1.260046e+00 1.744119e-01 1.518563e-01 1.807217e-01 2.015132e-01 2.188717e-01 3.195902e-01 3.038347e-01 3.247779e-01 3.168210e-01 2.823147e-01 3.064572e-01 2.791489e-01 1.738190e-01
<GCONST> 8.681728e+01
<TRANSP> 5
 0.000000e+00 1.000000e+00 0.000000e+00 0.000000e+00 0.000000e+00
 0.000000e+00 7.747046e-01 2.252954e-01 0.000000e+00 0.000000e+00
 0.000000e+00 0.000000e+00 7.733780e-01 2.266220e-01 0.000000e+00
 0.000000e+00 0.000000e+00 0.000000e+00 9.243599e-01 7.564005e-02
 0.000000e+00 0.000000e+00 0.000000e+00 0.000000e+00 0.000000e+00
<ENDHMM>
~h "u"
<BEGINHMM>
<NUMSTATES> 5
<STATE> 2
<MEAN> 39
 -2.000931e+00 -2.113501e+00 6.390202e+00 1.162559e-01 -4.288969e+00 -7.671489e+00 -3.026010e+00 -1.823220e+01 1.205398e+00 -1.145657e+00 4.939888e+00 -2.357266e+00 6.652692e+01 5.853274e-01 -4.665527e-01 -4.199139e-01 -6.659214e-01 -5.791054e-01 2.471816e-01 -9.402958e-01 -9.777988e-01 3.282285e-01 -2.166199e-01 5.362476e-01 1.682086e-01 7.278150e-01 -6.430438e-02 -3.607090e-02 -7.431269e-02 -1.005560e-01 1.125146e-02 1.119880e-01 -3.183880e-02 1.457422e-01 9.816243e-02 -3.056429e-02 3.674327e-02 3.971795e-02 -6.686175e-02
<VARIANCE> 39
 1.782777e+01 1.855058e+01 2.447811e+01 4.267572e+01 2.386353e+01 3.740963e+01 5.031695e+01 5.692076e+01 3.098965e+01 1.982484e+01 3.861093e+01 1.997114e+01 2.120143e+01 7.412306e-01 1.813671e+00 2.476092e+00 3.311477e+00 1.728813e+00 3.800851e+00 3.068388e+00 3.696149e+00 3.323875e+00 2.172638e+00 3.384684e+00 2.317483e+00 1.058071e+00 1.052761e-01 3.964968e-01 4.190135e-01 5.560826e-01 3.560658e-01 6.199249e-01 6.247814e-01 6.321164e-01 6.998824e-01 4.354805e-01 5.776930e-01 4.230871e-01 1.777770e-01
<GCONST> 1.147140e+02
<STATE> 3
<MEAN> 39
 -6.764142e-02 -4.866620e+00 4.715780e+00 -3.534689e+00 -7.343855e+00 -6.045425e+00 -8.425467e+00 -2.095176e+01 4.606514e+00 -2.566414e+00 7.379013e+00 -1.854224e+00 6.936024e+01 5.867008e-02 -4.004496e-01 1.141607e-02 -1.808612e-01 -3.729879e-01 -1.776879e-01 -6.412468e-01 5.117263e-02 6.492986e-01 -2.591855e-01 -2.036267e-02 -4.543363e-02 2.348286e-01 -1.006692e-01 2.236847e-02 8.717462e-02 1.301252e-01 5.704623e-02 -1.075452e-01 1.077173e-01 2.027251e-01 1.069561e-03 -5.630867e-02 -1.740445e-01 -6.088736e-03 -9.163725e-02
<VARIANCE> 39
 1.293728e+01 1.601875e+01 1.704437e+01 2.996709e+01 1.991537e+01 3.469168e+01 3.791727e+01 5.128154e+01 4.078034e+01 2.379868e+01 5.028491e+01 2.287207e+01 1.594687e+01 7.090307e-01 1.529381e+00 1.808440e+00 3.035951e+00 1.480869e+00 3.304045e+00 2.886497e+00 3.208034e+00 3.960129e+00 2.933790e+00 4.808331e+00 2.528885e+00 8.523175e-01 7.419309e-02 2.978370e-01 2.589609e-01 4.141737e-01 2.674363e-01 4.762176e-01 5.109320e-01 4.500388e-01 7.634824e-01 5.913312e-01 6.768540e-01 4.605184e-01 1.152520e-01
<GCONST> 1.107437e+02
<STATE> 4
<MEAN> 39
 -4.922747e+00 -4.878634e+00 4.298036e+00 -1.798625e+00 -4.385535e+00 -7.261053e+00 -6.161552e+00 -1.190901e+01 6.423183e+00 -3.272480e+00 3.478360e+00 -1.393902e+00 6.418970e+01 -3.529068e-01 -1.143245e-01 7.760121e-02 2.041514e-01 1.104100e-01 -1.589918e-01 1.863632e-01 6.795056e-01 1.500867e-01 -2.791112e-01 -4.056657e-01 1.049319e-01 -2.749664e-01 -1.513072e-02 2.317699e-02 -5.098711e-03 8.740584e-03 2.885444e-02 2.412378e-02 6.018439e-02 3.552990e-02 -7.289003e-02 -1.562574e-02 -1.920664e-03 3.340932e-02 -2.465905e-02
<VARIANCE> 39
 3.309900e+01 1.719070e+01 1.640660e+01 1.649696e+01 4.093962e+01 3.039009e+01 5.530022e+01 8.677122e+01 3.281096e+01 2.517122e+01 3.699107e+01 1.849008e+01 5.618452e+01 3.857957e-01 1.143470e+00 1.067876e+00 1.385555e+00 1.412359e+00 1.941817e+00 1.788468e+00 1.812598e+00 2.449585e+00 2.471643e+00 2.732709e+00 1.444550e+00 5.818444e-01 6.018607e-02 1.872893e-01 1.642484e-01 2.282730e-01 2.472697e-01 2.924430e-01 3.103445e-01 2.936362e-01 4.167645e-01 4.185743e-01 4.531011e-01 2.750810e-01 6.503232e-02
<GCONST> 1.015354e+02
<TRANSP> 5
 0.000000e+00 1.000000e+00 0.000000e+00 0.000000e+00 0.000000e+00
 0.000000e+00 8.901364e-01 1.098636e-01 0.000000e+00 0.000000e+00
 0.000000e+00 0.000000e+00 8.468434e-01 1.531566e-01 0.000000e+00
 0.000000e+00 0.000000e+00 0.000000e+00 8.951135e-01 1.048865e-01
 0.000000e+00 0.000000e+00 0.000000e+00 0.000000e+00 0.000000e+00
<ENDHMM>
~h "v"
<BEGINHMM>
<NUMSTATES> 5
<STATE> 2
<MEAN> 39
 -1.150343e+01 -1.681064e+00 1.021740e+00 -2.830351e+00 1.411059e+00 -3.192332e+00 2.205748e+00 -2.184167e+00 3.214084e+00 -7.865983e-01 2.807530e+00 3.696552e-01 5.653860e+01 -1.006585e-01 -1.416785e-01 9.343024e-02 1.169608e-01 8.654624e-02 -1.285313e-01 -1.688930e-01 -5.736548e-02 4.690774e-02 7.014165e-03 -1.806896e-03 -8.130802e-02 9.387291e-02 4.765783e-02 -3.131047e-02 1.305065e-02 -7.215491e-02 -8.589414e-02 1.028867e-02 -1.958454e-02 -3.014135e-02 2.285162e-02 -5.452818e-02 -2.768593e-02 1.180783e-02 1.152502e-01
<VARIANCE> 39
 1.354063e+01 7.377376e+00 9.017299e+00 1.342246e+01 2.235495e+01 1.186394e+01 1.451997e+01 1.372578e+01 1.287720e+01 1.392901e+01 1.159097e+01 1.155629e+01 1.028068e+01 8.319971e-01 7.385991e-01 9.348664e-01 1.054946e+00 1.360916e+00 1.465967e+00 1.662570e+00 1.429887e+00 1.314323e+00 1.491262e+00 1.230081e+00 1.254649e+00 6.657305e-01 1.020482e-01 1.595691e-01 1.385197e-01 2.374756e-01 3.185256e-01 3.331302e-01 3.353976e-01 2.831235e-01 2.698886e-01 3.041337e-01 2.489096e-01 2.616182e-01 1.046551e-01
<GCONST> 8.650749e+01
<STATE> 3
<MEAN> 39
 -1.072494e+01 -1.099354e+00 3.500902e+00 -1.922875e+00 1.630098e+00 -3.608963e+00 1.504516e+00 -3.709597e+00 3.395136e+00 -2.317407e+00 1.850474e+00 -1.048580e+00 6.027701e+01 3.373971e-01 -4.641359e-01 4.809452e-01 -1.223688e-01 -4.872180e-01 -4.849277e-01 -6.769951e-01 -2.319476e-01 2.762949e-01 -2.586839e-01 -1.100954e-01 -1.392510e-01 1.071067e+00 -8.126392e-02 -2.962398e-01 -8.330746e-02 -2.343384e-01 -3.892252e-01 -7.798618e-02 -4.383314e-02 1.190260e-01 1.808252e-01 3.614381e-02 1.039014e-01 1.267869e-01 2.398646e-01
<VARIANCE> 39
 4.660111e+01 1.958696e+01 2.362339e+01 3.850284e+01 7.018412e+01 2.051501e+01 2.378857e+01 2.302842e+01 1.769117e+01 1.747159e+01 1.489279e+01 1.339557e+01 3.121054e+01 1.996713e+00 1.948644e+00 1.658897e+00 1.851710e+00 3.412141e+00 3.030098e+00 2.654686e+00 2.006337e+00 1.579036e+00 1.434203e+00 1.325265e+00 1.281957e+00 3.144809e+00 2.559876e-01 5.486122e-01 2.634029e-01 4.296486e-01 7.510107e-01 5.805206e-01 5.104142e-01 4.078816e-01 3.617693e-01 3.081364e-01 2.840024e-01 2.633414e-01 3.440120e-01
<GCONST> 1.099423e+02
<STATE> 4
<MEAN> 39
 -9.047373e+00 -4.705709e+00 6.394941e+00 -3.643385e+00 -3.072795e+00 -5.605938e+00 -7.415788e-01 -2.198913e+00 5.023093e+00 -2.980179e+00 2.548015e+00 -1.177148e+00 6.688645e+01 3.673882e-01 -8.970011e-01 4.064979e-01 -6.009022e-01 -1.421929e+00 -4.072412e-01 -5.247880e-01 2.355109e-01 4.876402e-01 -1.458284e-01 2.071802e-01 9.741321e-02 1.271050e+00 2.443123e-02 -3.077782e-02 -6.260427e-02 -1.289058e-01 -2.672832e-01 9.025988e-03 3.929893e-02 3.913004e-02 5.412650e-02 -1.330846e-02 8.793245e-02 8.640379e-02 2.710878e-02
<VARIANCE> 39
 5.175369e+01 4.456487e+01 3.702066e+01 4.468817e+01 1.331018e+02 3.666813e+01 3.295037e+01 3.645372e+01 1.803196e+01 1.743980e+01 1.921280e+01 1.372437e+01 7.411697e+01 2.200634e+00 3.478797e+00 1.825732e+00 2.444329e+00 5.852209e+00 3.651437e+00 3.058663e+00 2.511477e+00 1.816408e+00 1.571484e+00 1.558805e+00 1.305756e+00 4.519271e+00 2.526853e-01 5.874237e-01 3.349260e-01 4.905191e-01 9.927295e-01 6.275407e-01 5.210133e-01 6.058509e-01 3.635253e-01 3.439091e-01 3.453426e-01 2.880336e-01 4.346640e-01
<GCONST> 1.193866e+02
<TRANSP> 5
 0.000000e+00 1.000000e+00 0.000000e+00 0.000000e+00 0.000000e+00
 0.000000e+00 8.458303e-01 1.541697e-01 0.000000e+00 0.000000e+00
 0.000000e+00 0.000000e+00 4.184364e-01 5.815636e-01 0.000000e+00
 0.000000e+00 0.000000e+00 0.000000e+00 5.508578e-01 4.491422e-01
 0.000000e+00 0.000000e+00 0.000000e+00 0.000000e+00 0.000000e+00
<ENDHMM>
~h "x"
<BEGINHMM>
<NUMSTATES> 5
<STATE> 2
<MEAN> 39
 -1.082128e+01 -1.321659e+01 -2.598746e+00 -5.026522e+00 8.421533e+00 6.882477e+00 -9.325761e-01 -2.133617e+00 7.591889e+00 2.293941e+00 -8.122838e-01 -6.626359e+00 7.013060e+01 -6.716313e-01 3.054549e-01 2.660778e-01 3.945605e-01 6.343567e-01 -3.868416e-01 8.306706e-02 8.064596e-02 6.294751e-01 1.275322e-01 1.897379e-01 6.100019e-01 -5.330014e-01 1.015578e-01 8.398986e-02 -3.179136e-02 -4.600759e-02 -1.253093e-01 -8.156532e-02 7.270823e-02 -1.333292e-02 -1.329572e-01 -4.065417e-02 6.355423e-02 -6.821030e-02 -2.452145e-02
<VARIANCE> 39
 3.866063e+01 2.556525e+01 1.759905e+01 2.370699e+01 4.826531e+01 3.068318e+01 2.014130e+01 1.534811e+01 5.698262e+01 1.871332e+01 2.169227e+01 4.606865e+01 5.283486e+01 2.405507e+00 1.504589e+00 1.544451e+00 1.581520e+00 3.178533e+00 1.966892e+00 1.872730e+00 1.513534e+00 3.634415e+00 1.723387e+00 1.854396e+00 2.641575e+00 2.208170e+00 3.783511e-01 2.554860e-01 2.936952e-01 2.588975e-01 5.184412e-01 3.443355e-01 3.565852e-01 2.957368e-01 5.519952e-01 3.517786e-01 3.165382e-01 4.159023e-01 3.236408e-01
<GCONST> 1.110769e+02
<STATE> 3
<MEAN> 39
 -1.371223e+01 -1.131533e+01 -1.411030e+00 -3.310568e+00 1.107950e+01 4.660883e+00 1.160225e-01 -1.996070e+00 1.033439e+01 2.627128e+00 5.441242e-01 -3.933501e+00 6.757131e+01 -3.208740e-01 7.404349e-01 1.307121e-01 1.569341e-01 6.763386e-03 -7.862620e-01 4.756227e-01 3.102534e-02 2.619837e-03 -1.088086e-01 4.398762e-01 4.235966e-01 -7.290768e-01 1.235403e-01 6.720789e-02 -3.870547e-02 -7.135092e-02 -1.996681e-01 -4.750009e-02 9.055056e-02 -3.207315e-02 -1.857852e-01 -6.212179e-02 -3.952539e-03 -5.106977e-02 1.454287e-02
<VARIANCE> 39
 2.155587e+01 2.677083e+01 1.243284e+01 1.445296e+01 3.278318e+01 3.509213e+01 2.927809e+01 1.672232e+01 3.911680e+01 1.875698e+01 2.089293e+01 2.665401e+01 3.314363e+01 2.154725e+00 1.678771e+00 1.399600e+00 1.368597e+00 3.255733e+00 2.523283e+00 2.770020e+00 1.818952e+00 3.842550e+00 1.950178e+00 1.723893e+00 2.289453e+00 2.234926e+00 3.412522e-01 3.110916e-01 2.805429e-01 2.408400e-01 4.733618e-01 5.295873e-01 5.398960e-01 3.740443e-01 5.463865e-01 3.945260e-01 3.306779e-01 4.231180e-01 4.657467e-01
<GCONST> 1.105530e+02
<STATE> 4
<MEAN> 39
 -1.476577e+01 -6.875518e+00 -1.146559e+00 -3.225188e+00 9.175707e+00 -2.387770e-01 3.684110e+00 -2.192503e+00 8.994729e+00 1.328082e+00 2.466126e+00 -1.633647e+00 6.432340e+01 -4.538887e-02 6.615022e-01 4.711029e-02 -1.065874e-01 -5.021302e-01 -8.047716e-01 5.335718e-01 -4.963911e-02 -3.665615e-01 -2.910343e-01 1.852170e-01 3.420540e-01 -4.448571e-01 4.099848e-02 -7.323491e-02 4.616232e-03 -3.394461e-03 -1.502384e-02 7.146557e-02 -6.151723e-02 1.437226e-02 -1.851212e-03 -2.203886e-03 -5.275352e-02 -6.358815e-03 7.603479e-03
<VARIANCE> 39
 1.775201e+01 2.693198e+01 1.414507e+01 1.393877e+01 2.564587e+01 4.340550e+01 3.313861e+01 1.868916e+01 2.652432e+01 1.840444e+01 1.617894e+01 2.099695e+01 3.349280e+01 2.535243e+00 2.113205e+00 1.635559e+00 1.575454e+00 2.369516e+00 3.860227e+00 3.264242e+00 2.380602e+00 2.868990e+00 1.962058e+00 1.676742e+00 1.988466e+00 4.672002e+00 5.061376e-01 3.805674e-01 3.239631e-01 3.110571e-01 4.147836e-01 8.566669e-01 6.399248e-01 5.233834e-01 5.096849e-01 4.028851e-01 3.287126e-01 4.101916e-01 9.798305e-01
<GCONST> 1.137897e+02
<TRANSP> 5
 0.000000e+00 1.000000e+00 0.000000e+00 0.000000e+00 0.000000e+00
 0.000000e+00 7.866800e-01 2.133200e-01 0.000000e+00 0.000000e+00
 0.000000e+00 0.000000e+00 7.635060e-01 2.364940e-01 0.000000e+00
 0.000000e+00 0.000000e+00 0.000000e+00 8.617073e-01 1.382927e-01
 0.000000e+00 0.000000e+00 0.000000e+00 0.000000e+00 0.000000e+00
<ENDHMM>
~h "y"
<BEGINHMM>
<NUMSTATES> 5
<STATE> 2
<MEAN> 39
 -1.166034e+01 -3.581991e+00 3.379772e+00 -1.319815e+00 1.362946e+00 -4.984390e+00 1.110888e+00 -5.601173e+00 4.764693e+00 -9.363294e-01 1.640708e+00 -1.026488e+00 5.981000e+01 -2.922387e-01 -4.540337e-02 -8.526872e-02 -8.359040e-02 1.494716e-01 1.054242e-01 2.029710e-01 1.348018e-01 -1.065179e-01 5.981285e-02 4.179770e-02 -2.343164e-02 -5.718470e-02 9.298471e-03 -5.257349e-02 3.075022e-02 -2.392319e-02 -3.559914e-02 -8.428729e-03 -6.569246e-02 5.653928e-04 4.533133e-02 -6.795634e-02 1.217916e-02 1.525755e-03 8.617890e-02
<VARIANCE> 39
 3.298626e+01 1.414282e+01 1.744233e+01 1.348429e+01 1.815477e+01 2.112377e+01 2.618520e+01 6.559103e+01 1.814375e+01 1.507787e+01 1.670521e+01 1.407907e+01 2.271578e+01 1.310269e+00 1.211212e+00 8.191693e-01 9.473764e-01 1.330322e+00 1.325587e+00 2.559423e+00 2.539946e+00 1.940045e+00 1.645012e+00 1.427786e+00 1.304178e+00 7.444738e-01 1.780313e-01 2.144834e-01 1.454523e-01 1.815109e-01 2.465650e-01 2.437509e-01 4.323886e-01 4.245919e-01 3.663004e-01 3.151974e-01 2.805196e-01 2.509311e-01 9.353335e-02
<GCONST> 9.642210e+01
<STATE> 3
<MEAN> 39
 -1.236572e+01 -4.748470e+00 3.758626e+00 -1.678915e+00 1.243810e+00 -5.243163e+00 4.430234e-01 -5.947844e+00 5.162587e+00 -1.501494e+00 1.687772e+00 -1.227432e+00 6.137288e+01 -1.646482e-01 -1.533178e-01 -1.009830e-02 -8.313088e-02 3.111625e-02 2.353949e-02 -4.006533e-02 7.264407e-02 4.052716e-02 -7.063698e-02 4.069328e-02 4.874910e-03 1.269607e-01 4.319455e-03 -1.352129e-02 8.363132e-03 -1.422657e-03 -1.285951e-02 -8.621125e-03 -2.423931e-02 -4.164460e-03 2.009678e-02 -1.516194e-02 -1.445777e-04 2.813354e-03 2.272053e-02
<VARIANCE> 39
 4.377193e+01 1.709503e+01 1.666977e+01 1.281228e+01 2.084494e+01 2.069787e+01 3.488451e+01 6.787801e+01 1.949594e+01 1.602680e+01 1.568510e+01 1.365721e+01 2.775809e+01 2.441694e+00 1.400273e+00 9.169813e-01 1.017003e+00 1.577050e+00 1.364125e+00 2.854427e+00 3.506736e+00 1.831872e+00 1.682398e+00 1.430862e+00 1.263223e+00 8.838806e-01 3.003765e-01 2.531018e-01 1.567774e-01 1.871630e-01 2.766025e-01 2.449340e-01 4.835817e-01 5.464017e-01 3.602486e-01 3.285382e-01 2.771012e-01 2.450113e-01 1.369233e-01
<GCONST> 1.008136e+02
<STATE> 4
<MEAN> 39
 -1.274245e+01 -5.386148e+00 3.933302e+00 -1.876052e+00 1.318496e+00 -5.304542e+00 1.825522e-01 -5.993989e+00 5.199243e+00 -1.714152e+00 1.642661e+00 -1.271621e+00 6.191280e+01 -1.927294e-02 7.672059e-03 -3.940501e-02 -1.960782e-02 1.004825e-02 4.290508e-02 2.866868e-02 6.393194e-02 -4.296966e-03 8.476462e-04 3.371120e-02 1.676682e-02 -5.357438e-02 5.795570e-03 6.519577e-03 8.563557e-04 5.639520e-03 -4.123870e-03 -3.187433e-03 2.268777e-03 -7.212422e-03 -1.451241e-03 2.324985e-03 8.545194e-04 6.375666e-04 8.838741e-04
<VARIANCE> 39
 4.537098e+01 1.636545e+01 1.679593e+01 1.342177e+01 2.284156e+01 2.140815e+01 3.669156e+01 6.840055e+01 1.948334e+01 1.638314e+01 1.559578e+01 1.352609e+01 2.755007e+01 2.484452e+00 1.421888e+00 9.670868e-01 1.068117e+00 1.661472e+00 1.402025e+00 2.935050e+00 3.487952e+00 1.867473e+00 1.784093e+00 1.462125e+00 1.278574e+00 1.045287e+00 3.108482e-01 2.502179e-01 1.742951e-01 1.996742e-01 2.891560e-01 2.602224e-01 5.009828e-01 5.570428e-01 3.594940e-01 3.492328e-01 2.865964e-01 2.471965e-01 1.565422e-01
<GCONST> 1.021465e+02
<TRANSP> 5
 0.000000e+00 1.000000e+00 0.000000e+00 0.000000e+00 0.000000e+00
 0.000000e+00 8.478304e-01 1.521697e-01 0.000000e+00 0.000000e+00
 0.000000e+00 0.000000e+00 8.597407e-01 1.402593e-01 0.000000e+00
 0.000000e+00 0.000000e+00 0.000000e+00 9.767219e-01 2.327815e-02
 0.000000e+00 0.000000e+00 0.000000e+00 0.000000e+00 0.000000e+00
<ENDHMM>
~h "z"
<BEGINHMM>
<NUMSTATES> 5
<STATE> 2
<MEAN> 39
 -2.007206e+01 -6.412610e-01 1.022181e+00 -2.558390e+00 3.444824e+00 -4.539683e+00 4.931322e+00 -2.771588e+00 5.756334e+00 -2.022411e+00 3.420874e+00 9.773768e-01 6.166445e+01 -1.622563e+00 5.557192e-01 -3.023112e-01 -1.195112e-01 1.143080e-01 -6.111639e-02 3.258007e-01 -1.783719e-01 3.220188e-01 -1.343505e-01 1.102520e-01 1.284521e-01 1.018544e+00 5.122709e-02 5.817181e-02 -5.905986e-02 4.182006e-02 -6.320036e-02 5.890528e-02 -4.630155e-02 1.366601e-02 -3.927366e-02 6.128074e-03 -2.355688e-02 -5.607230e-02 9.832675e-03
<VARIANCE> 39
 5.789768e+01 1.558408e+01 1.183416e+01 1.061205e+01 1.202817e+01 1.380074e+01 1.790053e+01 1.571006e+01 1.772846e+01 1.492245e+01 1.322667e+01 1.287877e+01 2.300838e+01 2.503174e+00 1.519224e+00 1.288326e+00 1.275038e+00 1.241501e+00 1.701238e+00 1.693783e+00 1.591377e+00 1.874675e+00 1.683472e+00 1.474353e+00 1.346884e+00 1.127508e+00 4.371268e-01 2.794723e-01 2.752796e-01 2.708228e-01 2.620674e-01 3.600211e-01 3.517852e-01 3.219701e-01 3.764986e-01 3.353669e-01 2.943670e-01 2.706741e-01 1.650859e-01
<GCONST> 9.780671e+01
<STATE> 3
<MEAN> 39
 -2.494538e+01 1.384728e+00 -4.628995e-01 -2.532488e+00 3.611974e+00 -4.182902e+00 5.793140e+00 -3.106135e+00 6.450931e+00 -2.315143e+00 3.634042e+00 1.054989e+00 6.481128e+01 -8.923628e-01 4.000509e-01 -2.515316e-01 1.474170e-01 -2.877839e-02 6.520292e-02 1.824848e-01 -8.209259e-02 1.467430e-01 -4.199113e-02 6.904636e-02 8.144888e-05 7.215126e-01 3.555761e-01 -1.151593e-01 1.215152e-01 6.369635e-02 -6.730332e-02 -2.745301e-02 -7.435933e-02 -3.330490e-03 -2.821856e-02 5.389699e-03 -4.422162e-03 -4.422152e-02 -1.018652e-01
<VARIANCE> 39
 4.456715e+01 1.553617e+01 1.194888e+01 1.072954e+01 1.210889e+01 1.362491e+01 1.649568e+01 1.527422e+01 1.651601e+01 1.431982e+01 1.383607e+01 1.250637e+01 1.883819e+01 3.043755e+00 1.539720e+00 1.496837e+00 1.213453e+00 1.206595e+00 1.601978e+00 1.666691e+00 1.551441e+00 1.711873e+00 1.604495e+00 1.492756e+00 1.302282e+00 8.896217e-01 3.447691e-01 2.468712e-01 3.056937e-01 2.449623e-01 2.644707e-01 3.442357e-01 3.792780e-01 3.085412e-01 3.599336e-01 3.433022e-01 3.092796e-01 2.800676e-01 1.316447e-01
<GCONST> 9.640797e+01
<STATE> 4
<MEAN> 39
 -2.640367e+01 1.858429e+00 -5.123821e-01 -1.399281e+00 3.466832e+00 -3.978431e+00 6.771102e+00 -3.309755e+00 6.961251e+00 -2.243877e+00 3.969730e+00 1.133667e+00 6.679120e+01 9.501724e-01 -2.728038e-01 7.833771e-01 2.995340e-01 -3.788701e-01 -3.883628e-01 -2.001452e-01 -3.197598e-01 9.897409e-02 -2.065670e-01 4.761909e-02 -1.785990e-01 3.560560e-01 5.500543e-01 -1.419465e-01 3.404993e-01 -4.544991e-02 -2.762823e-01 -1.967515e-01 -3.166116e-01 -1.132950e-01 3.087365e-02 -1.982417e-01 1.899624e-02 -1.391457e-01 8.219441e-02
<VARIANCE> 39
 2.929728e+01 1.369128e+01 1.580101e+01 1.199845e+01 1.390275e+01 1.474690e+01 1.820445e+01 1.668190e+01 1.663521e+01 1.480594e+01 1.478647e+01 1.365171e+01 1.119265e+01 5.725462e+00 1.593621e+00 3.572476e+00 1.204920e+00 1.895539e+00 2.102498e+00 2.739039e+00 1.924074e+00 1.980896e+00 2.093711e+00 1.625237e+00 1.734313e+00 8.834171e-01 3.632471e-01 2.211019e-01 4.332834e-01 2.720298e-01 4.035750e-01 3.779733e-01 5.708382e-01 3.562530e-01 4.075526e-01 4.772747e-01 3.431013e-01 3.831446e-01 2.385782e-01
<GCONST> 1.030024e+02
<TRANSP> 5
 0.000000e+00 1.000000e+00 0.000000e+00 0.000000e+00 0.000000e+00
 0.000000e+00 7.088730e-01 2.911270e-01 0.000000e+00 0.000000e+00
 0.000000e+00 0.000000e+00 7.262656e-01 2.737343e-01 0.000000e+00
 0.000000e+00 0.000000e+00 0.000000e+00 8.452716e-01 1.547284e-01
 0.000000e+00 0.000000e+00 0.000000e+00 0.000000e+00 0.000000e+00
<ENDHMM>
~h "OY"
<BEGINHMM>
<NUMSTATES> 5
<STATE> 2
<MEAN> 39
 -1.108985e+00 -9.087715e+00 5.133919e+00 -7.092720e+00 -6.516580e+00 -2.267935e+00 -4.423603e+00 -1.283152e+01 7.362065e+00 -2.831257e-01 5.034232e+00 -5.182117e+00 7.075855e+01 4.300347e-01 -8.206167e-01 -1.220832e-01 -7.908669e-01 -7.397500e-01 2.194730e-01 -4.885233e-01 2.730044e-01 5.375403e-01 -3.073656e-01 3.185965e-01 -1.333849e-01 8.282985e-01 -9.615818e-02 3.883844e-02 -3.307890e-03 3.053827e-02 2.967135e-02 -1.724594e-02 6.431581e-02 2.025567e-01 -1.536411e-02 -6.881741e-02 -6.012635e-03 5.651158e-02 -1.198898e-01
<VARIANCE> 39
 1.170396e+01 4.034785e+01 3.195677e+01 7.575749e+01 3.217637e+01 6.293296e+01 2.571371e+01 5.973132e+01 4.492448e+01 2.810562e+01 2.358296e+01 2.334952e+01 3.039574e+01 7.852484e-01 1.722861e+00 3.353233e+00 5.860967e+00 1.882958e+00 6.423898e+00 2.542380e+00 4.690353e+00 4.054395e+00 2.940250e+00 2.382023e+00 2.719672e+00 1.453873e+00 7.564353e-02 2.468276e-01 4.770242e-01 7.968687e-01 3.688471e-01 8.841832e-01 4.915394e-01 5.587642e-01 8.055927e-01 5.677354e-01 4.266909e-01 5.014473e-01 1.642063e-01
<GCONST> 1.189245e+02
<STATE> 3
<MEAN> 39
 -1.395053e+00 -1.161902e+01 8.041141e+00 -6.524265e+00 -1.110395e+01 -6.421788e+00 -5.516794e+00 -5.477518e+00 7.582360e+00 -4.792473e+00 5.770580e+00 -5.442051e+00 7.231979e+01 -3.160245e-01 5.146919e-01 5.157292e-01 8.396537e-01 2.797977e-02 -8.526997e-01 2.848414e-01 2.922256e-01 -7.821741e-01 -3.497014e-01 -7.446312e-02 1.167433e-01 -4.835649e-01 -2.410066e-02 1.362350e-01 -7.093365e-02 5.151861e-02 1.673848e-01 5.214916e-02 8.393427e-02 -1.547196e-01 -1.177304e-01 1.070608e-01 -1.859504e-02 -5.822581e-03 -1.189462e-01
<VARIANCE> 39
 6.828423e+00 2.855366e+01 3.420374e+01 4.007059e+01 3.881610e+01 5.364334e+01 2.041096e+01 5.140588e+01 5.687814e+01 4.557233e+01 1.926660e+01 2.761764e+01 1.853451e+01 2.913125e-01 1.773216e+00 2.451007e+00 1.984229e+00 4.418760e+00 3.044528e+00 1.911906e+00 4.163039e+00 3.808237e+00 4.969375e+00 2.282546e+00 3.414824e+00 1.022342e+00 4.053670e-02 2.034412e-01 3.305629e-01 3.009248e-01 6.841670e-01 4.842159e-01 3.382730e-01 5.087965e-01 6.169835e-01 8.241386e-01 4.781141e-01 6.269751e-01 1.160423e-01
<GCONST> 1.124324e+02
<STATE> 4
<MEAN> 39
 -4.321744e+00 -4.781974e+00 9.109915e+00 -6.030666e-02 -5.991187e+00 -1.031789e+01 -1.717785e+00 -6.734808e+00 -9.078398e-02 -3.723031e+00 4.503419e+00 -5.504210e+00 6.566053e+01 -4.113202e-01 8.598596e-01 -3.284771e-01 4.946864e-01 1.083048e+00 2.322867e-01 5.226492e-01 -1.693746e-01 -4.735143e-01 4.996969e-01 -3.329005e-01 2.500220e-02 -1.004060e+00 -3.279044e-02 -6.855933e-02 -7.868995e-02 -1.209845e-01 1.374580e-02 1.550782e-01 -2.826672e-02 1.154716e-01 2.025138e-01 -3.298941e-03 -2.207597e-02 5.419558e-02 1.794592e-03
<VARIANCE> 39
 6.673741e+00 3.265712e+01 1.700814e+01 2.180968e+01 5.319728e+01 2.316108e+01 2.382232e+01 3.259121e+01 4.966281e+01 3.609443e+01 1.688222e+01 2.386949e+01 3.054090e+01 2.681220e-01 1.636769e+00 1.573954e+00 1.454381e+00 3.436657e+00 2.119614e+00 1.700826e+00 3.093178e+00 4.147379e+00 3.626093e+00 1.583266e+00 2.673024e+00 7.500528e-01 4.506405e-02 2.979991e-01 2.695009e-01 2.242256e-01 6.868827e-01 3.052075e-01 3.256691e-01 4.239797e-01 5.651407e-01 6.595978e-01 3.223141e-01 4.745439e-01 1.528020e-01
<GCONST> 1.057723e+02
<TRANSP> 5
 0.000000e+00 1.000000e+00 0.000000e+00 0.000000e+00 0.000000e+00
 0.000000e+00 9.296487e-01 7.035135e-02 0.000000e+00 0.000000e+00
 0.000000e+00 0.000000e+00 8.584489e-01 1.415512e-01 0.000000e+00
 0.000000e+00 0.000000e+00 0.000000e+00 8.891286e-01 1.108714e-01
 0.000000e+00 0.000000e+00 0.000000e+00 0.000000e+00 0.000000e+00
<ENDHMM>
~h "aI"
<BEGINHMM>
<NUMSTATES> 5
<STATE> 2
<MEAN> 39
 -6.177319e+00 -1.213453e+01 -1.156730e+00 -7.107130e+00 -1.306717e+00 -1.082329e+00 6.803690e-01 -2.795423e-02 5.990540e+00 -2.790776e+00 1.288033e+00 -1.088317e+01 7.082119e+01 5.881609e-01 -1.013806e+00 1.454114e-01 -3.625913e-01 -6.993169e-01 -2.314555e-01 -2.437542e-01 6.453484e-01 3.752083e-01 -5.811008e-01 -9.670703e-02 -8.503617e-01 1.694458e+00 -9.522471e-02 1.576314e-01 2.413053e-01 9.850207e-02 -1.089560e-01 -1.640145e-01 5.676518e-03 5.271356e-03 -2.167168e-02 -5.045754e-02 8.685211e-02 2.549395e-01 -1.053912e-01
<VARIANCE> 39
 2.759260e+01 4.462041e+01 3.686474e+01 1.879154e+01 4.386515e+01 3.042295e+01 2.278579e+01 4.051586e+01 4.450515e+01 3.197836e+01 2.538958e+01 6.071901e+01 8.700146e+01 2.175840e+00 2.737938e+00 3.228919e+00 1.858553e+00 2.380339e+00 2.874504e+00 1.900770e+00 2.470828e+00 2.559792e+00 2.267963e+00 2.430844e+00 5.764242e+00 4.537334e+00 3.822140e-01 3.921791e-01 4.034963e-01 3.345316e-01 3.514207e-01 3.866330e-01 3.666990e-01 4.168939e-01 4.603082e-01 3.928030e-01 4.811614e-01 8.433129e-01 6.427438e-01
<GCONST> 1.205536e+02
<STATE> 3
<MEAN> 39
 -4.876336e+00 -1.401151e+01 3.742385e+00 -7.350077e+00 -6.986192e+00 -5.133409e+00 -4.386456e-01 3.198102e+00 7.178811e+00 -5.984896e+00 2.231518e+00 -9.864584e+00 7.545190e+01 -4.474240e-02 3.470736e-01 1.100941e+00 2.344458e-01 -8.943638e-01 -9.358062e-01 -1.276856e-01 1.564705e-01 -1.548308e-01 -3.903555e-01 4.400671e-01 6.933835e-01 1.524008e-01 -6.150969e-02 2.491289e-01 -4.557320e-05 1.145424e-01 1.221696e-01 2.544375e-03 1.306796e-02 -2.383914e-01 -1.686089e-01 9.174733e-02 7.884150e-02 1.120765e-01 -2.750655e-01
<VARIANCE> 39
 2.091199e+01 3.353941e+01 4.918114e+01 1.651248e+01 5.871468e+01 4.028630e+01 2.380731e+01 4.179467e+01 5.211481e+01 2.938163e+01 3.193864e+01 4.408917e+01 4.739598e+01 1.120505e+00 2.105044e+00 2.663616e+00 1.437793e+00 2.689868e+00 2.301742e+00 1.596348e+00 2.687582e+00 2.470850e+00 1.864884e+00 2.656138e+00 3.148386e+00 2.925007e+00 1.769641e-01 2.169060e-01 3.356442e-01 2.399559e-01 3.682209e-01 3.303545e-01 3.148723e-01 3.621867e-01 4.289294e-01 3.320099e-01 4.536715e-01 4.938370e-01 2.412257e-01
<GCONST> 1.133250e+02
<STATE> 4
<MEAN> 39
 -5.471757e+00 -9.942543e+00 8.832628e+00 -5.174390e+00 -1.016782e+01 -9.681901e+00 -6.059544e-01 1.978564e+00 4.261372e+00 -7.325338e+00 5.293733e+00 -6.089550e+00 7.331232e+01 -7.871483e-02 1.147662e+00 2.148924e-01 8.752274e-01 3.177642e-01 -4.937525e-01 -4.460892e-02 -1.069746e+00 -5.392686e-01 7.200954e-03 2.543105e-01 5.005209e-01 -9.875923e-01 3.010595e-02 3.585000e-02 -2.631571e-01 9.317550e-02 3.200224e-01 1.535205e-01 6.172815e-02 -2.104279e-01 -5.297143e-02 2.049745e-01 -1.895571e-01 -1.352818e-01 -1.650027e-01
<VARIANCE> 39
 2.121140e+01 3.359468e+01 3.461278e+01 2.266946e+01 5.460892e+01 3.395965e+01 2.538735e+01 3.762581e+01 4.199206e+01 2.833772e+01 3.227364e+01 2.439767e+01 3.951348e+01 7.696092e-01 1.390700e+00 3.136527e+00 1.822622e+00 3.700040e+00 1.926339e+00 1.675457e+00 2.596715e+00 2.315048e+00 2.208050e+00 2.854810e+00 1.862041e+00 1.789410e+00 9.975956e-02 2.364363e-01 3.349586e-01 3.039990e-01 4.714725e-01 2.919424e-01 3.619946e-01 3.254337e-01 4.460918e-01 4.883851e-01 4.446658e-01 3.345170e-01 1.980370e-01
<GCONST> 1.106534e+02
<TRANSP> 5
 0.000000e+00 1.000000e+00 0.000000e+00 0.000000e+00 0.000000e+00
 0.000000e+00 7.867582e-01 2.132418e-01 0.000000e+00 0.000000e+00
 0.000000e+00 0.000000e+00 7.203789e-01 2.796212e-01 0.000000e+00
 0.000000e+00 0.000000e+00 0.000000e+00 7.407889e-01 2.592111e-01
 0.000000e+00 0.000000e+00 0.000000e+00 0.000000e+00 0.000000e+00
<ENDHMM>
~h "sh"
<BEGINHMM>
<NUMSTATES> 5
<STATE> 2
<MEAN> 39
 -2.009530e+01 -8.455928e+00 1.139492e+01 -7.725131e+00 7.235293e-01 -1.516475e-01 2.712269e-01 -4.515709e+00 7.348454e+00 -3.997080e+00 3.852071e+00 -5.157806e-01 6.412184e+01 -2.054624e+00 -5.207446e-01 1.788033e+00 -1.035883e+00 -2.555423e-01 5.826457e-01 1.003269e-02 -4.617718e-01 3.905071e-01 -4.644041e-01 2.635123e-01 -2.930140e-01 1.368466e+00 1.512535e-02 2.078382e-01 -1.223308e-01 5.346505e-02 -3.436216e-02 -8.331866e-03 7.704384e-02 -2.241045e-02 -9.042476e-02 5.640275e-02 -4.651093e-02 -3.112466e-02 1.703568e-02
<VARIANCE> 39
 5.887689e+01 1.222286e+01 4.135106e+01 2.411690e+01 1.609436e+01 2.119436e+01 1.984046e+01 2.954483e+01 1.922660e+01 2.233379e+01 1.502988e+01 1.653360e+01 2.536344e+01 1.634529e+00 2.224064e+00 3.417644e+00 2.142912e+00 1.579764e+00 1.729717e+00 2.045057e+00 1.478840e+00 2.035804e+00 2.055608e+00 1.439968e+00 1.339182e+00 1.062244e+00 3.865814e-01 3.107760e-01 6.300175e-01 3.211221e-01 3.053330e-01 2.962359e-01 4.318010e-01 2.603585e-01 3.787615e-01 4.016471e-01 2.509322e-01 2.785280e-01 1.758464e-01
<GCONST> 1.051328e+02
<STATE> 3
<MEAN> 39
 -2.718671e+01 -8.499184e+00 1.574964e+01 -1.055568e+01 -1.416687e-01 1.890846e+00 8.280101e-01 -5.776575e+00 8.004048e+00 -4.002985e+00 4.309978e+00 -2.034657e+00 6.857781e+01 -8.856572e-01 1.486801e-02 3.294919e-01 -3.616161e-01 -1.389166e-01 4.080097e-01 1.462938e-04 -1.794032e-01 3.348041e-02 1.228327e-03 -2.444189e-02 -2.667184e-01 8.314328e-01 5.221275e-01 7.374098e-03 -4.166285e-01 2.320998e-01 2.043253e-03 -1.553616e-01 -3.967420e-02 9.757853e-02 -6.970616e-02 8.595850e-02 -2.768704e-02 1.778172e-02 -1.945840e-01
<VARIANCE> 39
 2.584984e+01 1.085717e+01 1.266692e+01 1.700019e+01 1.482567e+01 2.043562e+01 1.983731e+01 1.793090e+01 2.003912e+01 1.792772e+01 1.557299e+01 1.335998e+01 1.103001e+01 3.410518e+00 1.358402e+00 2.904256e+00 1.558078e+00 1.395329e+00 1.782538e+00 1.758314e+00 1.593970e+00 1.662329e+00 1.485960e+00 1.401629e+00 1.536126e+00 8.936973e-01 3.275809e-01 3.004758e-01 2.826220e-01 2.108672e-01 2.837695e-01 3.707447e-01 3.760714e-01 2.953735e-01 3.485657e-01 2.917809e-01 2.758096e-01 3.189496e-01 1.189613e-01
<GCONST> 9.800677e+01
<STATE> 4
<MEAN> 39
 -1.871776e+01 -1.112338e+01 9.542999e+00 -9.633035e+00 -2.419207e+00 1.309271e+00 -1.147608e+00 -5.354550e+00 9.193408e+00 -2.719138e+00 3.579272e+00 -5.217867e+00 7.183161e+01 2.788597e+00 -8.004329e-01 -1.555690e+00 2.435892e-01 -9.129477e-01 -7.255833e-01 -4.903305e-01 3.638622e-01 4.124495e-01 3.513732e-01 -1.053415e-01 -7.283431e-01 5.010824e-01 6.110121e-02 5.710930e-02 5.538265e-02 2.193625e-02 -1.976537e-02 -1.437818e-01 -1.620582e-02 1.333464e-01 9.538584e-02 -8.806682e-02 -2.181376e-02 2.943208e-02 -6.905995e-02
<VARIANCE> 39
 1.475049e+02 2.903298e+01 5.396225e+01 2.000649e+01 3.358637e+01 2.406037e+01 3.099072e+01 2.082555e+01 2.346628e+01 1.644170e+01 1.714396e+01 3.700371e+01 2.563797e+01 8.526591e+00 2.244479e+00 2.721225e+00 2.042677e+00 4.025345e+00 2.666134e+00 2.441537e+00 2.150323e+00 2.643344e+00 1.749363e+00 1.876167e+00 3.392283e+00 3.974869e+00 1.692227e+00 3.352323e-01 6.064327e-01 3.482403e-01 7.141817e-01 4.678352e-01 4.297352e-01 4.427218e-01 3.512949e-01 3.651120e-01 3.504539e-01 5.205187e-01 6.878221e-01
<GCONST> 1.202941e+02
<TRANSP> 5
 0.000000e+00 1.000000e+00 0.000000e+00 0.000000e+00 0.000000e+00
 0.000000e+00 7.986283e-01 2.013717e-01 0.000000e+00 0.000000e+00
 0.000000e+00 0.000000e+00 8.150305e-01 1.849695e-01 0.000000e+00
 0.000000e+00 0.000000e+00 0.000000e+00 8.537357e-01 1.462643e-01
 0.000000e+00 0.000000e+00 0.000000e+00 0.000000e+00 0.000000e+00
<ENDHMM>
~h "ts"
<BEGINHMM>
<NUMSTATES> 5
<STATE> 2
<MEAN> 39
 -1.842392e+01 -1.851691e+00 -3.818591e-01 -2.621682e+00 3.523019e+00 -2.876489e+00 4.090775e+00 -2.207991e+00 5.215163e+00 -1.144517e+00 3.316626e+00 6.835513e-01 6.319458e+01 -7.067230e-02 1.321241e-01 -3.830575e-02 -1.307115e-01 -2.619390e-02 1.873327e-01 1.387665e-02 -1.983017e-01 -1.290151e-02 -1.315317e-01 -3.597969e-02 2.967935e-02 4.265662e-01 1.786186e-01 2.818506e-03 6.196194e-02 -5.780137e-02 -1.263092e-01 -4.102577e-03 -3.298612e-02 -5.558718e-02 -1.858315e-02 -5.992644e-02 -3.320516e-02 -1.270417e-02 1.674975e-02
<VARIANCE> 39
 5.949014e+01 1.435173e+01 2.391038e+01 1.723867e+01 2.463799e+01 1.612041e+01 1.566908e+01 1.959047e+01 1.745557e+01 1.542714e+01 1.305869e+01 1.180133e+01 4.244814e+01 4.613221e+00 2.026447e+00 2.379914e+00 2.270916e+00 3.048134e+00 1.760045e+00 1.960250e+00 2.559774e+00 2.191079e+00 1.958667e+00 1.509525e+00 1.283021e+00 3.055282e+00 4.383050e-01 4.407869e-01 4.102571e-01 4.966542e-01 5.329615e-01 3.651507e-01 3.959578e-01 4.903506e-01 4.008629e-01 3.640166e-01 2.989479e-01 2.616801e-01 4.932056e-01
<GCONST> 1.093007e+02
<STATE> 3
<MEAN> 39
 -1.595873e+01 -1.311072e+00 1.058763e+00 -3.666255e+00 2.337311e+00 -1.425544e+00 3.622242e+00 -3.760088e+00 4.943760e+00 -2.572558e+00 3.007349e+00 5.696932e-01 6.516992e+01 1.139408e+00 1.619923e-01 3.088713e-01 -5.833932e-01 -9.331744e-01 3.099230e-01 -2.090609e-01 -5.721995e-01 -2.211113e-01 -4.690088e-01 -2.323383e-01 -3.262047e-02 2.097098e-01 1.383899e-01 1.186449e-02 4.155287e-02 -1.478596e-01 -2.225163e-01 -1.900249e-02 -2.357981e-02 -5.418242e-02 9.440397e-03 -4.190050e-02 -5.159493e-02 -2.222613e-02 2.411365e-02
<VARIANCE> 39
 1.043373e+02 1.537974e+01 2.549020e+01 3.571146e+01 6.501880e+01 2.022485e+01 1.986348e+01 3.566645e+01 2.352056e+01 2.580926e+01 1.544743e+01 1.223822e+01 3.175779e+01 5.082756e+00 2.045094e+00 2.307386e+00 4.253805e+00 6.028013e+00 1.888753e+00 2.245302e+00 3.805598e+00 2.691669e+00 2.553224e+00 1.732197e+00 1.349842e+00 3.222278e+00 4.854685e-01 4.317140e-01 4.129332e-01 7.093606e-01 7.011436e-01 3.817995e-01 4.498655e-01 6.952689e-01 5.067967e-01 4.714437e-01 3.099141e-01 2.747062e-01 5.642900e-01
<GCONST> 1.181370e+02
<STATE> 4
<MEAN> 39
 -2.717180e+00 1.961910e+00 4.326975e+00 -1.355541e+01 -1.245313e+01 3.817031e-01 1.638700e+00 -8.747508e+00 4.730291e+00 -6.704741e+00 -1.417538e+00 -2.692836e-01 6.536869e+01 1.394883e-01 8.559264e-02 -4.660526e-03 3.842628e-03 -4.298651e-02 -1.047007e-01 2.782423e-02 9.724977e-02 -3.865671e-02 8.804014e-02 -3.012921e-02 -1.519989e-02 -2.720735e-01 -1.155209e-01 -4.402739e-02 -1.863769e-02 8.551008e-02 1.135327e-01 -4.891063e-02 -3.472874e-03 7.001162e-02 3.284370e-02 6.917804e-02 4.502834e-02 -4.094242e-03 -5.435352e-02
<VARIANCE> 39
 7.290328e+01 1.267108e+01 1.500888e+01 7.229956e+01 1.460994e+02 2.138268e+01 1.553275e+01 2.988972e+01 2.587818e+01 2.299132e+01 2.033893e+01 1.396698e+01 1.684936e+01 2.713403e+00 1.161699e+00 1.146841e+00 4.781651e+00 7.647512e+00 2.011110e+00 1.439898e+00 2.516813e+00 2.342053e+00 2.345270e+00 1.483619e+00 1.317261e+00 1.422799e+00 2.155877e-01 2.090188e-01 1.973758e-01 5.753458e-01 6.555610e-01 3.572537e-01 2.815879e-01 4.120070e-01 3.966702e-01 3.888985e-01 2.244786e-01 2.528985e-01 2.190039e-01
<GCONST> 1.090039e+02
<TRANSP> 5
 0.000000e+00 1.000000e+00 0.000000e+00 0.000000e+00 0.000000e+00
 0.000000e+00 8.213492e-01 1.786508e-01 0.000000e+00 0.000000e+00
 0.000000e+00 0.000000e+00 7.834821e-01 2.165179e-01 0.000000e+00
 0.000000e+00 0.000000e+00 0.000000e+00 9.394780e-01 6.052200e-02
 0.000000e+00 0.000000e+00 0.000000e+00 0.000000e+00 0.000000e+00
<ENDHMM>
~h "sil"
<BEGINHMM>
<NUMSTATES> 5
<STATE> 2
<MEAN> 39
 -1.243189e+01 -3.337730e+00 3.402185e-01 -2.230467e+00 2.780810e+00 -2.452578e+00 2.791582e+00 -1.430666e+00 3.655119e+00 -5.498206e-01 2.713553e+00 -2.844322e-01 5.540736e+01 -2.734389e-02 5.572420e-02 -2.049438e-02 -3.328578e-02 -1.878082e-02 4.850555e-02 1.903989e-02 -6.108613e-02 -8.986314e-02 -1.648365e-02 2.567038e-02 -3.307948e-03 -7.212585e-02 -1.744961e-03 -1.629767e-02 2.373187e-02 -4.247084e-03 2.566640e-03 -5.631579e-03 2.315121e-03 -5.179273e-03 1.180951e-02 7.844435e-03 -2.147106e-03 2.703710e-03 3.573795e-02
<VARIANCE> 39
 1.659660e+00 4.289868e+00 4.253906e+00 6.030978e+00 7.482399e+00 1.101315e+01 1.117905e+01 1.181104e+01 1.341209e+01 1.284323e+01 1.195286e+01 1.077802e+01 1.604227e+00 1.524608e-01 2.914753e-01 4.879775e-01 6.699046e-01 8.450948e-01 1.108760e+00 1.206169e+00 1.315809e+00 1.472277e+00 1.432731e+00 1.397761e+00 1.212657e+00 1.067010e-01 3.242457e-02 5.335667e-02 1.008634e-01 1.367954e-01 1.695201e-01 2.141292e-01 2.401158e-01 2.670780e-01 2.974632e-01 2.930337e-01 2.847284e-01 2.438841e-01 1.868678e-02
<GCONST> 6.606824e+01
<STATE> 3
<MEAN> 39
 -1.268632e+01 -3.492612e+00 4.918330e-01 -2.519124e+00 3.071341e+00 -1.797864e+00 3.027169e+00 -1.925510e+00 3.311621e+00 -3.082352e-01 2.961753e+00 -2.901435e-03 5.572277e+01 -3.156827e-02 -1.143371e-01 1.264494e-01 -1.156207e-01 2.657243e-02 2.075100e-01 8.786086e-02 -2.275711e-01 5.944968e-02 1.104104e-01 -5.102221e-02 3.582752e-02 2.036005e-01 -3.305805e-02 -5.891828e-02 1.031838e-01 -2.320094e-02 -1.351127e-02 7.653003e-02 1.382217e-02 -9.351572e-02 5.057682e-02 1.320985e-02 -5.034180e-02 -1.657228e-02 1.521156e-01
<VARIANCE> 39
 3.153250e+00 4.688296e+00 7.203460e+00 8.239527e+00 8.871608e+00 1.172670e+01 1.240597e+01 1.332356e+01 1.357821e+01 1.332890e+01 1.223097e+01 1.173310e+01 3.085629e+00 5.062203e-01 6.481186e-01 1.022573e+00 1.137871e+00 1.105066e+00 1.441778e+00 1.449870e+00 1.657749e+00 1.616713e+00 1.601204e+00 1.464927e+00 1.339202e+00 3.997017e-01 1.238403e-01 1.581652e-01 2.144919e-01 2.467045e-01 2.299682e-01 3.226296e-01 3.285176e-01 3.534994e-01 3.277886e-01 3.283502e-01 3.147910e-01 2.773590e-01 1.010766e-01
<GCONST> 8.200066e+01
<STATE> 4
<MEAN> 39
 -1.466293e+01 -5.134115e+00 1.946132e+00 -3.064656e+00 2.291201e+00 -1.057284e+00 3.628034e+00 -3.200613e+00 4.283882e+00 2.280322e-02 2.350274e+00 -1.572058e-01 5.802011e+01 -6.200140e-01 -9.050044e-01 4.525098e-01 -1.584585e-01 -2.879576e-01 3.808838e-01 1.354407e-01 -5.269835e-01 3.758348e-01 1.556926e-01 -1.466091e-01 -1.386395e-01 1.276325e+00 6.063191e-02 -1.403399e-01 -3.864843e-02 4.602768e-03 -9.306399e-02 -7.148319e-02 -7.772797e-02 3.208499e-02 6.510598e-02 -2.515470e-02 -2.815445e-02 -2.721616e-02 2.197060e-01
<VARIANCE> 39
 1.707444e+01 1.705109e+01 1.383765e+01 1.131986e+01 1.399966e+01 1.557429e+01 1.603022e+01 1.690849e+01 1.571653e+01 1.477412e+01 1.403615e+01 1.219039e+01 1.795647e+01 2.215547e+00 2.619192e+00 1.687485e+00 1.728442e+00 1.880860e+00 2.069749e+00 1.838075e+00 2.002365e+00 1.957748e+00 1.876460e+00 1.622965e+00 1.568249e+00 2.087900e+00 2.491636e-01 2.739141e-01 2.482980e-01 2.323088e-01 2.416880e-01 3.017990e-01 3.116207e-01 3.766698e-01 3.109213e-01 2.884498e-01 2.933899e-01 2.565831e-01 2.672873e-01
<GCONST> 9.871703e+01
<TRANSP> 5
 0.000000e+00 1.000000e+00 0.000000e+00 0.000000e+00 0.000000e+00
 0.000000e+00 9.531394e-01 4.686062e-02 0.000000e+00 0.000000e+00
 0.000000e+00 0.000000e+00 6.580058e-01 3.419941e-01 0.000000e+00
 0.000000e+00 0.000000e+00 0.000000e+00 5.595401e-01 4.404599e-01
 0.000000e+00 0.000000e+00 0.000000e+00 0.000000e+00 0.000000e+00
<ENDHMM>
